#include <stdio.h>
#include <stdlib.h>
#include <math.h>
#include <iostream>
#include <vector>

using namespace std;

class Network {
  /* --- Members --- */
  private:
    int n_layers;
    vector<int> sizes;
    vector< vector<double> > biases;
    vector< vector< vector<double> > > weights;

  public:

  /* --- Methods --- */

  ~Network() {};

  Network() {
    n_layers = 3;
    int hard_sizes[] = {392, 45, 1393};
    sizes.assign(hard_sizes, hard_sizes+n_layers);

    // Initialize the biases and weights all to 0.0 to start
    int i_layer, j_node, k;
    for (i_layer = 0; i_layer < n_layers-1; i_layer++) {
      vector<double> node_biases;
      vector< vector<double> > node_weights;
      for (j_node = 0; j_node < sizes[i_layer+1]; j_node++) {
        node_biases.push_back(0.0);
        vector<double> k_weights;
        for (k = 0; k < sizes[i_layer]; k++) {
          k_weights.push_back(0.0);
        }
        node_weights.push_back(k_weights);
      }
      biases.push_back(node_biases);
      weights.push_back(node_weights);
    }
  }

  void set_layer_biases(int i_layer, double* b) {
    biases[i_layer].assign(b, b+sizes[i_layer]);
  }

  void set_layer_node_weights(int i_layer, int j_node, int size, double* w) {
    weights[i_layer][j_node].assign(w, w+size);
  }

  /*
   *  Feed forward computation for neural network
   */
  vector<double> feedforward(vector<double> input) {
    vector<double> a = input;
    for (int i_layer = 0; i_layer < sizes.size()-1; i_layer++) {
        vector<double> b;
        vector< vector<double> > layer_weights = weights[i_layer];
        vector<double> layer_biases = biases[i_layer];
        for (int j_node = 0; j_node < sizes[i_layer+1]; j_node++) {
            double node_bias = layer_biases[j_node];
            vector<double> node_weights = layer_weights[j_node];
            double dot = 0.0;
            for (int k = 0; k < node_weights.size(); k++) {
                dot += node_weights[k] * a[k];
            }
            double z = dot + node_bias;
            double sig = 1.0/(1.0 + exp(-z));
            b.push_back(sig);
        }
        a = b;
     }
     return a;
  }


    /*
   *  Feed forward computation for neural network, soft-max output
   */
     /*
  vector<double> feedforward(vector<double> input) {
    vector<double> a = input;
    for (int i_layer = 0; i_layer < sizes.size()-1; i_layer++) {
        vector<double> b;
        vector< vector<double> > layer_weights = weights[i_layer];
        vector<double> layer_biases = biases[i_layer];
        for (int j_node = 0; j_node < sizes[i_layer+1]; j_node++) {
            double node_bias = layer_biases[j_node];
            vector<double> node_weights = layer_weights[j_node];
            double dot = 0.0;
            for (int k = 0; k < node_weights.size(); k++) {
                dot += node_weights[k] * a[k];
            }
            double z = dot + node_bias;
            double sig = 1.0/(1.0 + exp(-z));
            b.push_back(sig);
        }
        a = b;
     }
     // Last layer is soft-max
     for (int i_layer = sizes.size()-1; i_layer < sizes.size()-2; i_layer++) {
        vector<double> b;
        vector< vector<double> > layer_weights = weights[i_layer];
        vector<double> layer_biases = biases[i_layer];
        double soft_denom = 0.0;
        for (int j_node = 0; j_node < sizes[i_layer+1]; j_node++) {
            double node_bias = layer_biases[j_node];
            vector<double> node_weights = layer_weights[j_node];
            double dot = 0.0;
            for (int k = 0; k < node_weights.size(); k++) {
                dot += node_weights[k] * a[k];
            }
            double z = dot + node_bias;
            double soft = exp(z);
            soft_denom += soft;
            b.push_back(soft);
        }
        for (int i = 0; i < b.size(); i++) {
          b[i] /= soft_denom;
        }
        a = b;
     }

     return a;
  }
     */

  /*
   * Static functions to get networks
   */
  static Network getNetwork(int n) {
    switch (n) {
      case 0:
        return getNetwork0();
      default:
        return getNetwork0();
    }
  }

    static Network getNetwork0() {
      Network network;
      double layer0_biases[] = {3.74052,2.50106,-14.4935,3.01639,2.82558,4.11987,-13.2458,4.00647,-2.03779,-17.8667,3.91433,3.97078,-12.1646,3.53383,3.19892,3.47194,-8.00019,3.66773,3.57148,4.05268,2.93865,3.59295,2.94178,-7.21619,-8.61487,2.36744,3.21045,3.65785,-12.945,-14.5699,3.33435,-10.717,4.12285,2.81997,3.86396,2.66149,4.10698,3.5028,3.7153,3.37079,-0.704694,4.00077,-21.1012,3.76084,-11.9377};
      double layer1_biases[] = {0.49904,0.86232,2.22875,0.887314,0.258791,0.0207037,-0.234351,0.65297,-1.07103,-2.02289,1.16488,0.329829,-1.0436,-0.190152,0.895685,1.24435,-0.17452,-1.0933,-1.74706,-0.987729,0.923842,0.374855,-2.0605,-0.300958,-0.0754599,-0.97785,-3.1486,0.338105,-1.76584,1.23992,-0.0588549,-0.138987,0.997005,-0.488524,-0.838074,-0.874893,-0.817471,0.458703,-1.62294,-0.747816,-2.99281,-1.18546,-2.0525,-1.40452,-0.37509,0.446728,-2.24443,-1.3148,-0.062551,-1.31456,0.63622,0.184241,-1.13866,-0.750826,-0.540556,-1.23832,-0.393039,-0.607547,-0.00247326,-2.11789,-0.0579382,1.23398,0.628538,-1.1242,-0.517802,-0.280717,-0.505435,-0.947493,0.611829,-1.4615,-2.07012,0.473266,0.396054,0.200692,-1.17859,-0.34516,0.680782,-0.117011,0.897085,1.34371,-0.640845,-0.631791,0.00706696,0.601092,0.0925821,0.953036,0.0050508,-1.05153,-0.347144,-0.160739,0.596732,0.157097,-1.27367,-0.0269857,-1.11584,-0.961246,-1.32319,-1.71664,-1.25167,-1.3998,0.708538,-0.444903,-0.681998,0.168833,1.19218,-0.971845,-1.72949,-0.465041,-0.749608,0.0735842,0.954395,-1.83681,-1.30275,-0.775578,0.378229,0.597749,0.318842,0.341575,-0.244551,-0.64242,-0.852,0.181984,-0.579952,-0.843224,-1.33616,1.00023,-0.271904,-0.489838,0.567846,-0.634991,-0.122743,-0.664917,-0.0644062,-1.18596,-1.00878,-0.340834,-0.482217,-1.30366,-1.24774,-0.414627,1.13661,0.232324,-0.0683829,-1.25774,-1.53337,-0.00247081,-1.88958,-1.16726,-1.05016,-0.153023,-0.936961,-0.210825,-0.516161,-0.401908,-1.41347,-2.27489,-1.36371,-2.13457,0.358374,-2.22323,-0.922305,-0.95045,-0.160203,1.36026,0.136991,1.04139,0.868688,-0.991671,-4.30096,-0.238857,0.838441,-1.13884,-3.14189,-0.467552,-1.75289,-1.50549,-0.167611,0.0914073,-1.94163,0.115676,-1.13634,-1.57749,0.145834,0.195007,1.83557,-0.00184246,1.14616,-1.02302,-0.165567,-1.30836,0.617563,0.785852,-0.37431,-2.3326,-0.803906,-0.317473,0.223961,-0.635365,-2.73234,0.419702,0.493395,-1.86734,0.745397,-0.47752,1.37667,0.499524,-0.215357,0.147951,-1.30572,0.0446144,0.37118,-0.600748,-0.977848,1.41116,-0.339258,-1.52066,-0.339377,-0.389372,-0.507599,-2.14521,0.697517,0.682921,-1.54594,-1.76368,-0.0171432,-0.0813992,-0.946461,-0.687792,-2.46227,0.114191,-0.413367,0.379481,1.17566,-1.73989,1.31296,0.206703,-0.563677,-1.78212,-1.87231,1.18513,-1.2751,0.471139,-0.666342,-0.66834,-0.332182,-0.461246,-1.04331,-0.239511,-2.37331,-1.71302,0.763364,-1.51847,-1.66916,-1.8877,1.03849,0.37475,-0.33873,-0.398221,1.41372,-1.16655,-1.47486,-1.01855,-1.20394,0.512328,0.602609,0.202996,-0.217768,-1.73274,0.636225,-0.309858,0.171874,-0.132779,0.236671,-0.717172,-1.03152,0.530135,-0.511514,0.563519,-1.26999,-1.08337,-0.264867,-0.962606,-0.470284,-0.103071,-2.3897,-1.04619,-2.03904,-0.996626,0.0822235,-0.942297,-0.532686,-0.559298,-1.87251,-0.845754,0.407437,0.172045,0.324139,-0.668723,-1.12855,1.31292,-0.707434,-0.273805,-1.12185,-0.406535,0.36543,-1.2196,-0.674526,-0.379603,-1.9576,0.708085,-0.34451,-2.33199,-1.31984,-1.00151,-0.961557,-0.489446,-0.345277,-1.08543,-2.32037,0.276428,-1.63184,-1.31828,1.14126,-1.35279,-1.58575,0.588362,-0.850535,-1.10277,1.0013,-0.475075,-1.05543,0.329882,-0.69762,1.40284,0.00250068,-0.384832,-1.02324,0.172277,-0.240018,-0.109039,0.464923,0.200566,-0.766729,1.48006,-2.00216,-0.201028,-0.602856,0.302331,1.10058,1.7643,-0.630601,-2.03937,-1.62513,0.523733,-0.477217,-0.362122,-0.912634,-1.25501,0.0899615,-2.58227,-0.758276,0.147175,-0.978578,-1.12018,-0.337998,-0.875633,-1.1516,-0.721319,-0.13202,-0.873831,-1.18473,1.36542,-0.239832,-0.454435,-0.429546,-0.196644,0.00310558,0.174675,-1.70528,0.237052,0.588279,0.21611,-0.286581,0.778894,-0.891285,-0.0768366,0.138877,-0.748016,0.598534,-0.51561,0.742332,-0.240713,-1.18741,-0.530505,-1.35154,-0.271913,-0.865735,-1.90062,-0.370174,1.0371,-0.041399,-0.26628,-1.18831,-0.0105293,-1.75565,0.533114,-2.17593,0.906583,0.578524,-1.04819,-2.36035,-0.651962,1.0617,-0.996229,0.758109,-0.537944,-0.465979,-1.49473,0.0638762,-1.20935,0.611153,-2.20483,-0.690595,-0.240551,-1.85922,-1.09834,-1.04344,0.0134927,-0.249947,-1.4581,-2.72007,0.247234,-2.1893,-0.861167,-0.594007,-0.791582,0.14968,0.0788131,-0.220619,-0.571241,1.24297,1.14771,0.089969,-0.620027,0.929866,0.20977,-1.73982,-0.860973,-1.47205,-0.258968,-0.180464,-0.712744,-1.85944,0.0945982,1.0493,-2.77577,-2.04282,-0.0386374,-0.0685614,-2.11292,-0.897924,-0.284441,3.07814,1.41894,-1.07822,-0.313348,0.364283,0.296503,-1.10355,-0.0273891,0.301335,0.237664,-0.365883,-1.38376,-0.0330905,-0.433759,-0.933676,-1.77509,-0.341938,-0.507211,1.46127,0.276848,-1.27352,-1.28628,-0.617868,-0.51564,-0.794578,-1.59671,0.451343,-0.532598,-2.14513,0.0951043,1.02149,0.142151,-2.42159,0.253883,-0.587429,-1.33021,0.691866,-0.342129,0.480041,0.752822,0.206925,-0.688305,0.401609,-1.60263,-1.44825,0.585155,0.898312,0.50374,-0.125914,-0.300497,-1.48684,-1.31834,-0.754562,-0.804999,-0.486682,0.318536,-0.527962,-0.323117,-1.7563,-0.459109,-0.652497,-0.203468,-0.787673,0.148971,1.26028,-0.827998,0.961518,-0.178998,-1.02312,0.178843,-0.0119692,-1.45279,-0.890657,-0.68126,-1.2716,-0.202932,-0.797759,-2.05602,-1.21017,-1.14587,-1.91735,-3.02051e-05,0.0674238,-0.672206,-0.443665,-1.88045,0.921725,-0.932184,-0.0956933,-0.0687258,0.158641,-0.779773,-1.59825,-0.803004,-1.38484,0.438263,-2.45852,0.0391008,0.0800188,0.419411,1.20847,0.338758,-1.46663,-1.07645,0.110545,-0.845918,-1.20523,0.96599,-0.620947,-1.84053,-0.175865,-1.55627,-0.586465,-2.25415,-0.963823,-0.255989,-0.146491,0.535905,-1.06581,0.203442,-0.309959,-0.0932413,-1.27457,0.824453,-0.862722,-0.998374,-0.615867,-1.51687,1.0506,-2.33776,0.737901,-1.17512,-1.23199,-0.383839,0.174802,-1.57211,-0.513935,0.200932,1.34359,-0.0719221,-0.589959,-0.725046,0.707716,-1.14146,-1.7464,-1.10469,0.657962,-1.59371,0.262734,-0.00321525,-2.0753,-0.386969,-1.91931,1.104,-0.24884,-0.220562,-1.40816,-0.713584,-1.11726,-1.33042,-0.430588,-1.03408,-0.0350969,0.213868,-0.00265638,0.666285,-2.50047,-0.062655,-0.366775,-2.59571,-0.643936,0.365742,0.977706,0.672732,-0.413563,0.0413318,0.130646,0.858823,-0.558744,-0.968905,-0.650831,0.810156,-1.1981,-0.145719,-0.139712,-0.593408,0.291585,-0.927166,0.409781,1.60779,-1.31383,-0.661254,-0.434858,-2.38487,-0.799169,-0.0509047,-1.39076,-0.958191,-0.91594,-1.15867,-1.68956,-1.02239,0.726124,-0.518842,0.0602045,-1.32033,0.217001,1.42938,-0.302137,-0.616061,-0.0211286,0.148342,-0.794373,-1.24511,-1.89426,-0.991858,-0.177836,-0.491928,-1.20237,0.713778,0.646842,-0.863582,0.868385,0.464703,-0.206682,-1.78332,-0.072541,-0.47371,0.937848,-0.753222,-1.01189,-0.807213,-2.46291,0.326069,0.696051,-1.2666,0.372048,-0.092115,-1.43511,-0.673037,0.413921,-1.40526,0.417723,0.0840208,0.0151799,-2.09043,-0.116627,0.309039,-0.522298,-0.120631,-0.505717,-1.28772,-1.48999,0.0342791,-0.218341,0.699463,0.877948,-0.879892,-0.131342,-2.0575,-0.15259,-2.10699,-0.52718,-0.520154,-0.209023,-0.474445,-0.565386,-0.0771908,-0.0525701,-0.755627,-0.431934,1.24498,-1.9762,-1.59233,0.191173,-0.401575,-1.22955,0.48686,-1.12129,-0.425119,-0.00262712,-0.733221,-1.73166,-1.18093,1.23288,0.598407,-0.589161,0.855334,1.70483,-0.251817,-1.77368,-1.37013,0.916462,-0.282938,-0.930103,-0.559828,-0.809375,-1.24326,0.0981265,-0.627452,-0.299335,-0.778463,0.457091,-1.38234,-2.05078,-1.19683,-1.69327,-1.3863,-0.73194,0.311446,-0.739315,-1.37927,1.21016,-0.573266,0.996706,-0.972973,0.736158,-0.816236,0.0854216,-0.0799537,-0.414208,0.439949,-0.0687096,1.00576,-0.531227,-1.29137,-0.941512,-1.39271,0.318352,-0.445008,-0.598228,-1.06508,-1.79624,-0.418204,-1.71544,-0.931492,-2.63557,0.447922,-1.11855,-0.816042,1.25719,-0.409608,1.23989,-0.625643,-1.00235,-2.547,0.134398,-1.66952,0.13507,-1.09372,0.33039,-1.22092,-0.886898,0.42556,-0.508741,0.650011,-0.495647,-1.72768,0.93681,0.202001,-1.10119,-0.532578,-0.443483,0.972876,-0.121436,-0.677264,-1.15428,-0.726228,0.0774785,0.493981,0.318859,-1.22202,-0.702651,-0.612713,0.2944,-0.221347,-0.565658,-0.70555,1.03289,-1.15889,-1.12362,-0.913952,-0.765667,-0.0666062,-0.307232,-2.58838,-2.27666,0.617946,-2.49351,0.091459,0.740272,-0.824164,-0.209911,1.11748,0.69788,0.536451,-0.125985,-0.675841,-0.78839,0.175443,-1.29792,-1.41798,-0.915364,-1.64648,-1.55732,0.343121,-1.04138,-1.19271,0.938738,0.674749,0.285425,-0.195054,1.24116,-0.434442,-1.50112,0.295862,-0.0274472,-0.0507288,0.228278,-0.391781,-0.616095,-1.66906,1.01165,-1.06144,0.0689868,-0.513632,0.580968,-1.81183,-2.24852,-1.33541,-1.03098,-1.231,-0.864875,-0.673722,0.464764,0.126293,0.950798,-0.693257,0.387595,-0.931715,-0.522492,1.3006,-0.589552,-0.643871,-0.267765,-0.242582,0.0732497,-1.6539,0.436102,0.0752606,-1.20118,1.0375,0.25271,-0.518544,-1.91583,-1.31761,-1.54433,0.444875,-1.20463,-2.37152,-2.10689,-0.917633,-1.35278,-1.3481,0.712102,-1.62131,-1.75503,0.0672018,-1.74237,-0.82552,-1.05885,-0.500152,-1.20015,0.460096,-0.264867,-0.753151,-1.75946,-0.551794,0.575055,2.37992,0.335532,-0.265322,0.403812,-0.0310464,0.869871,0.162521,0.405162,-0.550368,0.396241,-1.08544,-1.00477,-0.434412,0.0267047,0.40693,-0.773478,-1.74601,-1.04656,-0.0415109,-1.01014,0.410764,-1.18022,-0.320891,-1.72564,0.132767,0.099051,0.289618,-1.04374,-1.23927,-1.83244,-0.0894224,-0.878595,-0.48443,-0.662628,-0.717602,0.826892,-0.416854,-1.67986,0.260611,-1.3005,-1.09432,0.500227,0.495338,-1.84974,-0.98604,0.438207,-1.11361,-0.571143,-0.28792,-1.09875,-1.30639,-1.27877,-1.49193,-1.82743,0.24195,0.281309,-1.50659,-0.896368,-0.63994,-0.685543,-1.01626,-1.92187,-1.53744,0.210098,-1.13545,-0.363743,-1.5243,-0.16956,-1.17195,-0.147044,-1.75876,0.17884,0.524862,1.15409,-0.270075,-0.0224651,-1.23218,-0.0564661,0.134899,-0.455945,0.56518,-1.33475,-1.56023,-0.796462,-0.245658,-0.830574,0.505983,0.799765,-1.69214,-0.43119,-1.313,0.390554,-0.304023,-1.19845,-0.595186,-2.3842,0.0151709,0.364325,0.482984,-0.219219,-1.07201,0.529001,-0.775929,0.282423,-0.169997,-0.106532,0.57627,0.599694,0.182181,-2.78877,-2.33803,-0.373866,-1.02412,0.420876,-1.05081,-0.500388,-1.68895,1.80334,-0.54335,0.559667,0.836056,1.80834,0.248402,1.59715,-0.713744,-0.124309,1.21369,1.07248,-0.550123,0.736933,-0.270336,-0.774225,-1.34414,-2.5236,-0.84758,-0.932774,-0.408938,0.0416302,-1.37156,-0.0844499,-0.325971,-1.93343,-2.33811,-1.31556,0.870603,-0.500312,0.508492,-0.422723,-0.586183,-0.922608,-1.15579,1.22362,-0.306611,-3.42214,-1.07315,-0.934967,-0.0116976,0.384025,-0.391605,-3.36767,-1.14968,-1.60506,-1.23161,-0.65949,0.67868,-0.438306,-0.793774,-1.05215,-0.520236,-0.567752,0.105266,-0.587514,-2.54451,-0.959669,-0.827821,0.180078,-1.08978,0.914247,0.744983,-0.858559,-1.52012,-1.03528,1.73725,-1.08145,-1.2225,-0.193988,-0.467676,1.62767,-0.192841,-1.2574,0.962044,-0.257984,-0.601012,-1.51751,0.28365,-1.34429,0.163556,0.78872,-1.20993,0.218012,-1.40106,0.19199,-0.559079,-0.612158,0.426812,-0.15236,0.0539701,2.64038,-0.89712,0.0904372,1.7443,-0.110946,-0.536277,0.654938,-1.6538,-2.64149,0.589118,-2.30776,-1.61932,1.21899,-0.697358,0.431352,0.899476,-0.54746,0.290945,-0.397731,-0.56472,-0.0166665,0.137754,-0.041207,-0.378997,-0.261257,0.887837,-0.189812,-2.46937,-0.0694718,-1.06264,0.393981,0.607101,-0.770189,1.59034,-0.771536,-1.20457,-0.279974,0.95589,0.00628454,1.56834,0.128754,0.56232,-0.74733,-0.846097,-1.18671,-1.41695,0.353156,-0.38626,0.646842,-1.11299,-0.110202,-0.346436,1.46455,-0.258492,-1.44634,-1.32676,-0.613824,-0.314831,-0.177046,-0.152109,0.131349,0.592086,-1.14879,0.443531,0.486877,-1.20275,-1.65136,-0.479606,0.247055,-1.29571,-1.16166,-2.39931,-1.72491,0.147604,-0.540207,0.0275403,0.236988,0.73789,-0.156476,-0.974144,-0.465421,0.683659,-0.880211,-0.385954,-0.172326,0.644086,-1.48111,0.468079,-1.04477,0.578377,-1.74855,1.15444,-0.535939,-2.23094,0.682702,0.63855,0.966526,-1.50709,-1.75746,-1.58623,-0.127999,-2.23072,0.633678,-0.209018,-0.263021,0.364782,0.549504,-1.45712,-0.619642,0.397141,0.169207,-2.20821,-0.656881,-0.957687,-0.241404,-0.741055,-0.815592,-1.14167,0.745028,-0.287347,-1.02918,-0.0194686,-0.386734,-1.53309,-0.457287,-0.250574,-0.437799,-0.0231757,-0.262427,-1.21598,-0.14183,-0.816353,0.627519,0.213342,-1.71136,-1.57452,-1.84449,0.413651,-1.39752,-1.46648,-0.549577,-0.824622,-1.1861,-1.57178,0.708512,-0.623569,-0.000482323,0.00837554,-2.02197,0.506781,-0.758819,-0.850094,-0.437659,-0.306394,0.598559,0.0239485,-1.68751,-1.98247,0.863871,0.119456,-0.132554,-1.57082,0.283711,-0.245878,-1.66592,-0.42373,-1.03533,-0.468033,-0.103745,-1.66949,0.536217,-1.23147,0.214637,0.407669,-0.0820001,-1.46614,-0.610065,-0.408961,-1.02191,0.0374315,-1.15407,-0.919342,-1.38001,-0.0773999,0.898851,-0.109888,-0.276506,-0.0566679,-0.361133,-0.157395,-0.902389,-0.487509,0.393054,-0.826924,-2.95133,-1.14345,0.228618,-1.52656,-2.32598,0.579507,-0.901145,0.242047,-0.210925,-0.109266,0.590056,-1.49994,-1.49828,-1.15319,-0.219214,-2.31244,-0.216016,2.40787,-0.474789,-1.68123,-1.14498,-0.505593,0.174899,-0.244759,-0.709451,-0.796425,0.0313923,-0.830545,-0.777587,0.65243,0.139279,-1.96423,-0.880612,0.0994071,-1.54675,0.231521,-0.824704,0.195325,-0.558895,-0.324759,0.595452,-1.69138,-2.21892,-0.885559,0.0671878,-0.569486,0.39207,0.0827933,-1.34456,0.0981713,-1.88025};
      network.set_layer_biases(0, layer0_biases);
      network.set_layer_biases(1, layer1_biases);
      double layer0_weights[][392] = {
        {0.199478,-0.0101722,0.0503827,0.0272339,0.0137127,0.0215854,0.194742,0.0304307,-0.0908772,0.240301,0.0381342,0.0106634,0.191801,0.0534938,0.121265,0.122262,-0.050975,0.028614,1.4485,0.429128,0.0988124,1.90193,0.440035,0.517859,-1.90678,0.901247,-0.0992091,0.0614679,0.075283,0.0184208,0.0611916,0.187981,0.334479,0.146201,0.0196103,0.0172974,0.0456428,-0.0195802,0.287795,-0.102474,0.0810851,0.145296,0.0322674,0.0746424,0.0643756,-0.0303849,0.00126858,0.0921375,0.00361321,-0.0664058,0.0223817,0.0795454,-0.0324025,1.53228,-1.18376,0.269492,0.198383,0.723725,0.228965,0.584405,2.10384,0.0262522,0.0180076,0.0277142,0.489965,0.0446801,0.0618738,0.101722,-0.0867035,0.0694381,-0.215494,0.0286831,-0.0124482,0.00106723,0.0711007,0.00447643,0.0476165,0.0274373,0.102748,1.71665,-0.159362,0.307497,-0.438752,-1.19097,-0.588158,1.28482,-0.828684,0.139995,-0.00498737,0.0586603,0.00622195,-0.00166239,0.123662,0.244994,0.0127304,0.0604972,0.44592,-0.00192082,-0.107931,0.215103,0.0029473,-0.014105,0.131723,0.0168207,0.045863,0.281841,0.37415,0.414131,-2.99548,1.17986,0.771376,0.718904,-0.384953,-0.761406,-0.00497344,0.0901299,0.0538015,-0.0794713,0.145855,0.0142276,-0.0158907,0.118503,0.626093,0.0665232,0.114361,0.395067,0.0961439,0.0821135,0.0492522,0.0655301,-0.0319426,0.16975,0.0233379,-0.0210101,0.12242,0.0373715,-0.00227608,0.0683383,0.0315026,-0.0703463,0.452732,0.0717311,0.0439991,0.634603,0.701336,-0.0769431,0.0739643,-0.0596424,0.136995,0.0761354,-0.0309923,-0.10545,0.0224318,0.122311,0.103309,-0.0438667,-0.02655,0.553439,0.0354128,0.0317305,0.195207,0.0073387,0.0465943,0.140234,0.0145137,0.034415,0.100342,-0.00878064,-0.0169776,0.0618515,0.07803,0.0928513,0.0493068,0.108902,-0.0525151,-0.0388221,-0.0345496,-0.0321283,-0.0443127,0.120315,0.0625239,-0.00220068,0.0363954,-0.0504841,0.00756068,0.0547151,0.398258,0.0266004,0.0843981,0.238734,0.0492723,0.0473124,0.197028,0.0551086,0.102132,0.184775,0.090002,0.04161,0.00592008,0.0755533,-0.0149125,-0.744338,0.529667,0.218705,-1.6456,-1.22727,-0.127339,-0.953751,1.61104,0.197471,0.547725,0.540934,0.0450957,0.306262,-0.38145,1.54307,-0.0757407,0.433905,-1.71375,0.0409881,-0.00881402,0.0151939,0.0141016,0.218929,0.744007,0.168928,0.217616,0.191204,0.0176011,0.01549,0.187735,-0.00160417,0.0781319,0.00794894,0.099804,-0.0369329,0.126404,0.0180915,-0.0134996,0.0675023,0.0573448,0.0315912,0.0536392,0.0519587,-5.52261,-0.0677954,1.18005,0.532085,-0.0326672,0.311029,1.4166,0.389085,0.489607,6.74277,-0.1068,-1.28204,0.27779,2.7812,0.546378,-0.433989,0.402703,0.321753,0.00829952,0.127126,0.0120852,-0.0282386,0.097336,0.0108143,0.069673,0.142029,-0.0147652,0.245899,-0.0939246,-0.0293497,0.922194,1.16571,6.72245,0.212459,0.748893,0.109792,-0.0168083,0.0772966,0.130036,0.0343394,-0.0803462,0.100825,-0.0569925,-0.00855892,0.182849,-0.0102548,0.0975416,0.140877,0.0875747,0.0371686,0.121959,0.0994953,-0.0283367,0.0392805,0.0502447,-0.0302814,0.0722502,-0.0186358,0.031597,0.0263315,0.06357,0.059076,-0.673593,1.67235,-1.00012,-1.44121,3.72743,-3.04863,0.11591,-0.00166689,0.153562,0.117578,-0.0463037,0.0596526,0.0081077,-0.0162781,-0.0116001,0.0983757,0.046304,0.0341551,0.0357301,0.0299503,0.0138672,0.126615,-0.02757,0.0437286,0.0792623,0.104198,-0.0161608,0.0190146,-0.0241476,-0.0535618,0.0270628,0.241769,0.0166457,-0.0168474,0.157071,0.0463421,0.0232272,0.138917,0.0849675,0.0472953,0.0439416,-0.0335562,0.00108976,-0.90795,-0.370203,-0.0209611,0.324713,0.176029,0.13232,0.627706,0.644338,0.0669261,-0.0034134,0.0253517,-0.0642935,-0.0621438,0.151033,0.0375547,0.0626476,0.0467773,-9.57212,-0.612746,2.34306,-3.90999,0.260372,-3.21106,4.89714,-0.23141,0.237642,0.0542107,0.0165301,0.0263215,0.090304,0.019504,0.0646973,0.0038733,0.0980317,-0.0152796,-0.164107,0.971044,0.220908,0.537255,0.81974,0.0777088,-0.75707,-0.183528},
        {0.0514791,-0.0681104,0.0425695,0.512481,-0.0283893,0.0466188,0.169978,0.157221,0.0404281,0.226789,0.075441,0.0388456,0.117964,0.0983206,-0.0029316,0.0895945,0.046988,-0.0762147,0.88272,-0.34111,0.220861,-0.949453,0.92857,0.547184,0.0346341,1.10419,-0.171411,0.0196121,0.0820545,0.0483137,0.037363,0.0313554,0.303481,-0.116433,0.0778104,0.56876,-0.0579355,0.0993704,0.251008,0.0142261,0.00536033,0.145254,0.0309263,0.0237463,0.145845,-0.0895782,-0.0598934,-0.0528281,0.0215655,-0.0591517,0.0322952,0.0876012,0.0684148,0.534426,0.13316,0.239469,0.219028,0.619052,0.122154,0.640486,1.73161,0.497488,0.0742231,0.0117078,0.309343,0.0634927,0.134728,0.0603994,-0.0542701,0.0785851,-0.084276,0.0348826,-0.0120583,0.289226,-0.0338647,0.059826,0.0046024,0.00207913,0.00888267,-0.239616,-0.590475,-0.330953,-2.78228,2.83625,-0.451074,-0.118276,-2.17541,-0.131379,0.0318112,0.0705072,-0.0283658,-0.0361959,0.0601314,0.246842,0.0243218,-0.029032,0.338195,0.0163267,0.0771187,0.15555,0.103659,0.0225526,0.0616824,0.00711634,-0.0460172,1.73097,0.222517,-0.00109285,0.346408,1.53749,0.516594,-0.189409,0.461806,-0.525,0.00150206,0.00353143,0.0265368,0.000337251,0.087937,0.0797037,-0.0229772,-0.00363756,-0.0973223,0.0486019,-0.0446536,0.332948,-0.0389224,0.0625347,0.130168,-0.00424409,-0.0103346,0.152298,0.0413299,0.0293501,0.1375,-0.0110896,-0.0158003,0.15646,-0.0349198,-0.0262826,0.275649,0.299104,-0.0480309,0.515909,0.755633,-0.113833,0.0749199,0.109737,0.029935,0.00779116,0.0234108,0.0916386,0.00606557,0.0604796,0.19776,0.0357881,0.0168061,0.442423,-0.0190496,0.120919,0.140974,-0.0371524,0.0866305,0.0520864,-0.001013,0.0472913,0.133311,0.041882,-0.0492919,0.108016,0.0578729,0.0473865,0.0875136,0.0507384,0.0320802,-0.0149802,-0.0420966,-0.0451027,0.0714413,0.0900847,-0.0217842,-0.0172053,-0.04344,0.573849,0.0825803,0.105778,0.340234,0.0616211,0.114446,0.151595,0.0742843,0.0225978,0.266103,0.101232,0.0591887,0.184173,0.130546,0.0431626,0.105932,0.0136684,-0.078082,0.926939,1.74613,0.134004,0.0139478,-0.693231,-0.167776,0.259165,-0.270018,0.190963,0.536112,0.404664,0.0549178,-0.0945908,-0.200851,-1.44088,-0.0171232,0.0362706,-0.476648,0.0601433,0.0505586,0.192055,0.0465497,0.113013,0.526208,0.142976,0.180094,0.101236,0.0374914,0.0109392,0.138164,0.101,-0.0416814,0.0090715,0.0702531,0.0240752,0.0454691,0.169558,-0.0319354,0.0137543,0.0702791,0.0503078,0.0330319,0.0217006,0.117005,-0.339918,0.220161,0.339655,0.0916903,0.0100984,2.78623,-0.0207969,0.749746,4.23984,-0.0574575,-1.00631,0.945847,9.15287,-0.537355,-1.1067,0.91232,0.0632515,0.118838,0.0940087,-0.0263583,0.0537684,0.162931,-0.0254647,-0.0358158,0.0515796,-0.0774275,0.586499,0.00213786,-0.0010515,0.744843,-0.335696,3.50178,0.188044,0.774894,0.134944,0.0570544,0.0256143,0.0911374,0.0672248,0.122438,-0.0279642,-0.0312315,-0.0180531,0.151462,0.0430526,0.0599596,0.146773,0.118334,0.046108,0.0276657,0.0717187,0.034585,0.000131725,-0.0191471,0.0731847,0.0578891,0.0718317,0.0332048,0.0334754,0.0013453,-6.09385,-0.875127,-0.652097,0.60662,-0.726217,-1.48585,0.534871,-0.534893,0.453582,0.0240209,0.00113335,-0.00484092,0.0167781,0.0445613,0.050121,-0.0403371,0.0753026,0.0485657,0.0127085,0.140057,0.0535643,0.00922551,0.137642,-0.0155659,0.0220797,0.0565534,0.135587,0.0225656,0.0166862,0.124927,0.0730632,0.145387,0.244997,0.0247401,0.050439,0.223226,-0.0298664,-0.0658337,0.171379,0.0648917,0.170738,-0.00116924,0.0112833,-0.01538,-1.21066,-0.323155,-0.0394236,0.350195,0.432245,0.213454,0.0628827,0.278059,0.0861055,0.0706153,0.00068191,-0.00841559,0.121835,0.0655039,0.284926,-0.0509452,-0.0190252,-0.0412643,-0.564274,-2.62173,3.0835,0.453885,-0.82872,-2.66775,-1.16454,-0.255669,0.143933,-0.0244894,-0.00984739,0.135171,0.025741,0.0523679,0.0734959,0.0588482,0.00657618,-0.0237179,1.82206,0.0689669,0.695382,1.07111,0.0577794,-0.537872,-0.278468},
        {0.720841,0.034425,0.081025,0.464204,0.052947,0.0680789,0.0795219,-0.119718,0.0837241,0.143883,0.0906415,0.0639628,0.124482,0.08323,-0.00918446,0.122637,0.0500449,-0.0169215,0.478217,0.338141,0.793685,-0.545131,0.654208,0.235208,-0.255278,-1.08257,-0.016899,0.0948195,0.0929437,0.0477046,-0.0014728,0.152336,0.276051,0.00802569,0.112852,0.579591,-0.0187816,0.0147539,0.132852,-0.0576217,-0.00195986,0.0844877,-0.00379913,0.0335794,0.100355,-0.0309897,-0.0937692,0.140862,0.0726325,-0.0399392,0.0241866,0.0992284,-0.0147495,0.301765,-0.0254377,0.21988,0.0249988,0.301179,0.117283,0.63019,1.79127,-0.0124853,-0.0217499,0.043747,0.240547,0.0403522,0.0816497,0.111518,0.0575621,-0.048098,0.0110781,0.108826,0.0568848,0.159883,-0.0112329,-0.0147456,0.0888621,0.0361892,0.0542165,1.98814,1.14713,-0.943887,-1.36053,-1.48785,-0.936405,-2.24982,2.01987,0.0225622,-0.0064385,0.019871,0.00350128,0.102819,0.0319419,0.275036,0.0254169,-0.00685232,0.18047,-0.0857381,0.0199428,0.147099,0.0459402,0.0452252,0.000928909,-0.0182134,-0.0330638,0.60835,0.786351,0.125091,0.0192508,0.442126,0.17637,-0.265193,0.11052,-0.446597,0.0373819,0.123991,-0.0952777,0.0964625,0.102299,0.0994454,0.0252578,0.144584,0.628237,-0.00798988,0.0822727,0.352485,0.0645229,0.0549776,0.125435,0.0178936,-0.0217102,0.220788,0.000827851,-0.0788264,0.117269,0.0273675,0.0474224,0.0183892,0.00701344,0.00956768,0.360411,0.181786,0.00269029,-0.44662,0.830413,0.000238146,0.0498374,0.069099,-0.01903,-0.0490758,0.132782,-0.0425498,0.0743402,0.0232789,0.223835,0.0455521,0.0280654,0.448012,0.0319135,-0.0107085,0.186389,-0.0290147,0.00969916,0.0396629,0.00857924,0.00407018,0.0367333,0.0550888,-0.0585666,0.00922753,-0.0784222,-0.0626926,0.0496486,0.121616,0.0335656,0.0135527,-0.0291052,0.0463026,0.00416842,-0.0856185,-0.0362101,-0.0618262,0.086747,-0.0332914,-0.020446,0.17086,0.272955,0.0299398,0.00476327,0.144323,-0.00126922,-0.00671249,0.220049,0.0279948,0.0307511,0.128186,0.00737796,0.0342413,0.0193573,0.14856,0.0118934,0.355423,2.03558,0.168925,-0.688731,-0.772379,-0.0318866,0.817742,-0.151573,0.0197983,0.491054,0.528222,-0.0436612,-0.00704748,-0.0351716,-2.40461,-0.0627775,-0.0361676,-1.64099,0.0910444,-0.00659042,0.0605291,0.20698,0.0231739,0.361761,0.0915422,0.13378,0.141059,0.0942687,-0.0228882,0.0644225,0.0802678,0.118647,-0.0150667,0.110905,-0.0569718,0.0247266,0.0136189,0.018065,0.045343,0.0874911,0.00276283,0.0159419,0.0642172,-5.52183,-0.552771,-0.496089,2.54514,-0.140993,0.340654,2.70864,0.567431,0.395063,4.27821,0.0249906,-0.694342,-2.93342,2.99262,-0.100185,-0.685395,0.064704,-0.134833,0.0256418,0.043369,0.000299263,0.0562457,0.104065,0.0420358,-0.0373206,0.0871334,4.75506,0.808227,-0.178569,-0.115043,0.769791,-0.199249,4.27235,0.214568,0.434089,0.184403,-0.0246334,0.0311263,0.0855249,0.0553001,0.105815,0.0637122,-0.00975517,0.0254466,0.162911,0.0370817,0.00738216,0.0556692,0.0134493,-0.0575229,0.00414197,0.051809,0.045299,0.00722881,0.016953,0.062689,-0.00743866,0.11252,0.296214,-0.0115959,-0.00739596,0.0127346,-0.403425,0.505563,2.60915,-0.919714,-1.84747,1.98453,0.372772,0.809766,0.071154,-0.00567019,0.121773,0.0766662,0.0339478,-0.0130575,0.0607955,0.027317,0.0357812,0.0826692,0.0998658,-0.0178364,0.0997889,0.056316,0.0100502,0.0767496,-0.00128811,-0.0179677,0.0182147,0.162623,0.429238,-0.0203766,0.0544983,0.106788,0.0046011,0.0132173,0.172553,-0.0452233,0.0675027,0.138828,0.0120409,-0.00145549,0.0472602,-0.0618803,-0.0755606,0.351575,0.024896,0.00469756,1.01102,0.682223,0.165712,-0.00907363,0.379181,0.101205,0.0256904,0.135444,-0.0622619,0.0642516,0.0668471,0.333207,0.0300079,0.0423974,0.555551,0.293286,0.758384,5.43515,0.398829,-1.58626,-3.57379,-0.376981,-2.01779,0.154248,0.0352626,0.00829987,0.102877,0.0174541,-0.0524248,0.087769,0.0336472,-0.0772008,0.213594,1.59264,0.0843481,0.521686,1.69993,0.139944,-0.426476,-0.933909},
        {-0.00284517,0.0144308,0.0445037,0.328553,-0.0825714,0.0803035,0.0626251,-0.0855983,0.0718257,0.0712605,-0.0723804,-0.0606549,0.134073,-0.0337164,-0.0375108,0.128834,0.0840742,-0.0465418,1.14684,-0.567469,0.9806,0.114295,-1.17451,0.391331,0.430459,0.938169,-0.224165,0.0764908,0.0584507,0.0321632,0.0800715,0.0611911,0.347254,-0.0371454,-0.00976867,0.377715,0.0465609,0.113196,0.22697,0.0314601,0.0877214,0.158872,0.119966,0.0200081,0.0515912,-0.00268295,0.0650772,-0.0613922,0.0271504,-0.00976741,0.0355258,0.0596966,0.11118,0.50968,0.183913,0.127377,0.114929,0.177288,0.0105937,0.516034,1.40824,0.443835,0.0409944,0.0354739,0.205722,-0.0394812,0.0612429,0.0367474,-0.00460041,-0.0215307,-0.202252,-0.0259186,0.0420836,0.153156,0.0295335,-0.0795989,8.71537e-05,0.0417907,0.0342824,-1.53806,-0.320478,0.310143,-1.45036,1.4964,-0.909622,1.32,-1.04123,-0.0230852,0.058366,0.0757775,0.0464799,-0.00205175,0.0940793,0.258309,0.00448402,0.00224577,0.0448526,0.000651243,0.0444679,0.112995,0.007173,-0.0380879,0.00910778,0.00682556,-0.0118015,0.927282,0.5438,0.064321,-1.12036,0.690444,0.361713,-1.07885,-0.716749,-0.39616,0.0561646,0.0140819,-0.03002,0.020687,0.0463341,0.0133308,0.0366703,0.0424564,0.00817833,0.042774,0.0434669,0.329974,0.0163711,-0.0684817,0.0485226,0.0211618,-0.0867497,0.0665932,0.0612611,0.0276367,0.00276583,-0.0285974,0.0424672,0.0380833,0.0934694,0.0758567,0.275161,0.316199,0.0017767,0.314174,1.24812,-0.0426931,0.00625585,0.0086779,0.0293011,0.0599972,0.129411,0.0442843,-0.0123681,0.0996371,0.139851,-0.0933184,0.0296604,0.290706,0.109916,-0.00833358,0.199714,0.040604,0.0180671,0.0920702,-0.0728431,0.011791,0.0486103,-0.00871528,0.0394857,-0.0328782,0.0222937,-0.0199584,0.03154,0.0491901,-0.0396939,0.0412445,0.0391822,0.093363,0.111016,0.0740529,-0.0782118,-0.0598908,0.0235748,0.610394,0.0853561,0.039846,0.223887,0.00744311,0.17881,0.121503,-0.0495866,-0.0417722,0.207939,0.00468441,0.0271313,0.200524,0.0698246,-0.0456912,0.0650618,0.0428924,0.0136829,0.893703,0.291303,-0.225859,-0.471432,-0.342622,-0.21216,0.862972,-0.242663,1.87821,0.497943,0.764501,-0.046954,0.298379,0.0455007,-2.0155,-0.0438273,0.244335,-0.319793,0.0242034,0.258056,0.232093,0.088645,0.0500182,0.24234,0.00883567,0.15555,0.120147,0.0872401,0.014395,0.014358,0.131344,0.0105763,0.0109111,0.120888,0.0276849,0.0707633,0.0690161,0.0473454,0.0296404,0.0972495,0.264496,-0.084404,-0.0183628,0.01192,-0.690147,-0.791933,4.3297,0.0380066,0.835142,2.26078,0.650711,0.183956,5.25332,-0.159436,-0.168651,-0.384847,-0.671855,0.711958,-1.46224,0.117025,-0.0150861,0.0178511,0.0664514,0.0614079,0.07876,0.168336,0.0649185,0.0166729,0.0876462,-0.249514,0.506,-0.0688296,-9.28185,0.591241,-0.671367,2.82414,0.252046,0.521712,0.161431,0.0420353,-0.0265224,0.0934317,-0.0039598,0.0610174,0.12002,0.0626405,0.0446815,0.156415,-0.032332,-0.0093672,0.0527062,0.102653,0.0226687,0.00187496,0.0877166,0.0456734,0.0678211,-0.0104054,0.0232325,0.102283,0.0865859,0.382737,-0.0302936,-0.0339607,4.93149,0.21709,0.301038,0.439424,-0.370218,-2.21077,-1.40744,0.914673,0.130621,0.143199,-0.0315464,0.0185145,0.0562871,-0.0102322,-0.031764,0.0389281,0.00253888,0.0771057,0.0816626,0.0454277,0.0111855,-0.00865208,0.0655985,0.0261227,0.0345379,0.000159596,0.611951,-0.00954317,-0.00731699,0.396958,0.0407601,0.0343349,0.123099,0.0100031,-0.128133,0.198338,-0.0887723,-0.067206,0.0467268,0.0182281,0.0111234,-0.0406232,0.0244522,0.0826717,-0.0641208,-0.156635,0.00445862,0.400261,0.430197,0.0199767,0.235165,0.203377,0.125501,-0.0034056,0.0472851,-0.0130563,-0.0332793,0.038244,0.204142,0.0649234,0.0623122,4.22641,-0.0372853,-2.32846,-3.50006,-1.37856,0.339624,4.77391,-0.616552,0.145826,0.0921864,-0.130616,0.0808149,0.0735053,0.0825582,0.0374558,0.00610757,0.0337148,0.0918874,0.102357,1.47768,0.0901764,0.55635,0.910359,-0.0122522,-0.631268,-1.23315},
        {0.623658,0.0345004,0.0641124,0.392512,0.0117038,0.0840618,0.00280181,-0.0149715,0.0226793,0.138691,0.00310985,0.0497198,0.103782,0.0581856,0.00814217,-0.036257,-0.00982096,-0.038426,1.37756,-1.11462,0.0537659,0.0110841,0.937157,0.276195,0.547162,1.67796,-0.197981,0.027449,0.0806206,0.0259491,-0.00262553,0.141549,0.244814,0.0168506,0.0041853,0.278346,-0.00580338,0.0650575,0.214493,-0.0184808,0.11181,0.0891318,-0.0067882,0.00908966,-0.0218323,-0.021004,0.00541314,0.0679212,0.0509807,0.029637,0.0621824,0.134507,-0.0900737,0.0730606,-0.110193,0.192173,0.460099,0.509215,0.0181367,0.322168,1.69099,0.0441461,0.0139795,0.00449738,0.257809,0.00434246,0.00314013,-0.0369874,0.0356614,0.0218719,-0.132058,0.104824,-0.0108152,0.0861719,0.078185,0.0606529,0.0513587,0.0390958,0.0486333,0.317511,1.03231,-0.354021,-0.896839,0.266872,-0.692664,-0.0522679,0.602333,-0.0776563,0.0646403,0.0787625,-0.0313228,0.0728798,0.0692813,0.212062,0.0273207,0.0371496,0.195803,0.0248978,-0.00469208,0.0805179,0.0441356,-0.0942011,0.0407422,0.0575836,-0.00746685,-2.37592,1.36757,0.384709,0.269059,-0.121993,0.462501,-0.67503,1.57716,-0.412732,0.0588052,0.00469795,0.00662251,0.0373452,0.0745886,-0.0400843,0.00329323,-0.0163463,0.682879,0.0590704,-0.00806478,0.189636,0.00385101,0.011676,0.0548281,0.0276634,-0.0144323,0.14918,0.107254,0.01317,0.175222,0.0436441,0.00134626,0.174415,0.137057,-0.0446319,0.360082,0.27585,-0.0374258,0.223066,0.963241,-0.0339033,0.0330814,0.147609,0.167372,0.0287662,0.118346,-0.0142822,0.045809,0.114648,0.221749,-0.0370241,-0.0272057,0.209659,-0.00252894,0.0561525,0.092033,0.0269127,0.00106948,0.0629888,-0.0148931,0.00260564,0.0149657,-0.0455475,-0.081451,-0.0261217,0.0172212,-0.0625868,-0.0625915,0.0122374,0.00759746,-0.0594535,0.0817471,0.0206281,-0.00732885,0.114377,0.113581,0.0509489,0.0523288,0.0399192,0.0429338,0.0351445,0.20023,0.0192925,0.0804353,0.151449,-0.0942324,0.134912,0.166642,0.129456,0.0370129,0.0682734,0.0577828,0.0194754,0.0659672,0.0785987,0.010134,-1.486,1.88512,-0.107692,1.39189,0.45612,-0.121044,1.41756,-1.74598,1.44401,0.394361,0.787499,6.5382,0.496624,1.05835,-1.55836,-0.166397,0.223679,1.44361,0.0547426,0.104554,-0.0977599,0.0440537,0.171334,0.337621,0.0636381,0.163377,0.163169,0.0275037,0.0436589,0.127745,0.10435,-0.02685,0.0651993,0.114341,0.00439075,0.0208711,0.0870073,-0.0554609,0.0561337,0.0484276,0.322585,0.0300764,0.100198,8.90096,-0.237118,-0.196473,-0.830952,-0.135985,0.613888,1.38324,1.04153,0.451361,1.21228,0.167807,-0.659427,1.16027,0.497032,-0.12664,-0.183463,2.34353,0.0479054,0.027734,0.122964,-0.0743353,0.12429,0.0872313,-0.0252644,-0.0498226,0.0726386,-4.12248,0.295868,0.914357,-8.32275,0.588408,0.16256,-0.514313,0.324682,0.532478,0.131017,0.00344572,0.0303599,0.103689,0.0410329,0.0347427,0.0170256,0.0128719,-0.0344202,0.0514978,0.151068,0.0826546,0.109261,0.144292,-0.0169571,0.01653,-0.078673,0.0266867,0.00734558,0.0625981,0.00895554,0.00496032,0.0797966,0.218199,-0.0448299,-0.0241278,-0.777726,-0.703248,-0.61919,1.26284,-0.802658,-3.1003,6.45764,1.68699,0.124061,0.0820727,0.0395461,-0.0326682,0.0656584,-0.037254,0.055037,0.0644838,-0.0232313,-0.0499014,0.109198,0.171336,-0.00828864,0.01538,0.0528524,-0.0141853,0.195718,0.0354395,-0.0921064,0.0259935,0.0471405,0.272357,0.0139173,-0.00519447,0.109353,-0.013514,0.0327589,0.0824655,0.01776,0.0354097,0.0674865,0.080012,0.0404256,0.0890924,-0.0768825,-0.00973826,-1.33552,-0.386,-0.154204,0.839587,0.814634,0.0543187,0.676321,0.454228,-0.0302535,0.031934,0.115623,-0.0317264,-0.00361546,0.12477,0.2316,0.0287984,8.77624e-05,5.58015,-0.736146,-2.47816,0.47145,0.0790706,0.442063,-5.05038,-0.765058,0.24807,0.072079,-0.0010496,-0.0255366,0.151934,0.025509,-0.0851439,-0.00111189,0.0934766,-0.00450783,0.196606,0.982949,0.104633,1.33106,0.525412,0.0415893,-0.670475,-0.231905},
        {-0.103075,-0.0218217,0.00466779,0.201843,0.0335384,0.0844288,0.0253154,0.0555382,0.0656177,0.0384994,-0.00049663,0.0314532,0.0453086,0.0365856,-0.0146223,0.00963829,0.0717802,-0.0136724,-1.30722,0.780541,0.283826,0.688424,0.15714,0.0682651,-0.719124,1.55917,-0.280179,0.0828965,0.102392,0.0736787,0.00573035,0.0035576,0.28468,-0.0152596,0.0567472,0.248918,-0.0259095,0.109918,0.220136,0.0561176,-0.0326609,0.0634879,0.0330151,0.0218361,0.0506789,-0.00303629,0.0255939,0.105689,-0.0511634,0.0267636,-0.00768135,0.0796773,0.0274014,0.333733,-0.180389,0.10721,0.362388,0.379291,0.0680117,0.500958,1.40213,0.465284,-0.0386863,0.0975848,0.23496,-0.0276904,0.0229124,0.124203,0.0567927,-0.0761597,-0.115357,0.0879809,-0.0210822,0.0568709,0.0526924,0.0265315,0.100353,0.0299603,-0.0567835,0.326742,2.40318,0.415465,-2.75837,2.39777,-0.777948,2.54517,-0.659162,0.117598,0.0121644,0.141365,-0.0196236,0.017356,0.0880295,0.213614,-0.0486374,0.0384726,0.115595,0.0330106,-0.0167511,0.0495112,-0.0556044,0.00763187,-0.000714247,-0.0497045,0.0552586,-0.271162,1.26573,0.382536,-1.21315,-0.85324,0.356602,-1.26106,1.2476,-0.39826,0.0916265,0.123774,-0.00186576,0.0281949,0.132714,0.209399,0.0471335,-0.0796879,-0.0312681,-0.0138422,-0.025573,0.291795,-0.0384131,0.0512422,0.00121021,0.0152435,-0.00954724,0.0850677,-0.00573689,0.0263405,0.0728726,0.0566237,-0.0574522,0.0132238,-0.022036,0.0175096,0.316368,0.355482,0.0240777,0.131722,1.19315,-0.0576398,0.00976918,0.085773,0.0116272,0.0105746,0.102643,1.15306,-0.0672859,0.123302,0.276134,0.0659003,0.0179393,0.193228,-0.0396694,-0.0115554,0.183722,0.0397273,0.0209757,0.103496,0.0723355,-0.0184084,0.0828623,-0.0113796,-0.0517659,0.0778121,0.0580214,0.0822281,-0.025229,0.0763136,0.0655946,-0.0503279,-0.0144312,0.0186354,0.0325311,0.0671338,0.144602,0.0784279,-0.0367754,0.639433,-0.0139094,0.0454072,0.268596,0.0515097,0.0444578,0.210365,0.0633828,0.0915922,0.0478283,0.069342,0.0292849,0.111903,0.0308058,0.00550515,0.025745,0.0817406,0.0953034,0.755071,1.8721,-0.307357,1.00138,-0.823544,-0.11687,1.63947,-1.23748,0.229751,0.458269,0.745895,5.52792,0.176002,0.764805,-2.54219,-0.0728304,0.0836045,0.919107,0.0425501,0.0328645,-0.230373,0.133131,0.173664,0.19473,-0.0571629,0.068151,0.161024,0.0789873,0.0328555,0.103881,0.0687605,-0.0256783,0.0522586,0.0398426,-0.0379531,0.049005,0.0261757,-0.00397782,0.00862878,0.0858319,0.294925,-0.0533027,-0.00355703,10.4775,-0.194206,-0.281915,1.93896,-0.0645943,0.599439,1.77391,0.331889,0.512035,2.653,0.163108,-0.221206,2.08249,1.04642,0.889296,0.846044,1.19172,0.0603287,0.0957319,-0.00874384,0.0706674,0.0662033,0.180027,0.0138884,0.00323306,0.00661268,0.0503723,0.204605,-0.366932,-0.912271,0.675811,0.22228,3.97725,0.381763,0.400687,0.132442,-0.0152654,0.0365282,0.115364,0.00379705,-0.0355418,0.0258029,-0.00330293,0.00133472,0.0951786,0.0690839,-0.0315465,0.111554,0.153512,0.04039,0.0334911,0.0699524,-0.00149394,0.00119405,0.0818645,0.0434943,0.00955424,0.00618059,0.21223,-0.0195496,0.0241384,5.36275,-1.85365,-0.306506,-2.3193,0.00400119,-0.668941,2.07811,0.415335,-0.539712,0.0688337,0.0508184,-0.0212406,0.100878,0.094701,-0.0349099,0.0167147,0.112587,0.00290098,0.0276484,0.137435,0.0562545,0.139701,0.0748279,-0.0374404,0.0758668,0.0448478,0.488478,0.0372547,0.0211198,0.207207,0.119374,-0.0105644,0.0839907,-0.0373372,-0.0158715,0.0872021,0.0744979,0.0406306,0.114937,-0.0413906,-0.0558437,0.0902215,0.00249964,-0.0213,-0.866571,0.145301,0.0197784,1.05324,1.78088,0.0379951,0.495673,-0.141181,0.131575,0.035815,0.127753,-0.0710899,-0.0237493,0.0778913,0.154696,-0.0282659,0.0645259,-5.86806,-0.762053,1.36201,-6.11761,-0.475262,-1.48008,5.17875,-0.76163,0.273592,0.0381369,0.0240603,-0.0383629,0.0957098,0.0621705,0.0943992,0.00761465,0.0392981,-0.0379069,-0.892453,1.0156,-0.00994357,0.583469,1.30747,-0.0724781,-0.699752,-1.73615},
        {0.615164,0.0563895,0.0459177,0.249896,0.0905709,0.0158275,0.123532,0.00528999,0.0901723,0.0391031,-0.0061243,0.0131817,0.0673966,0.028842,-0.0128562,0.0756393,0.0846827,-0.0796408,-0.211874,-0.00284237,0.0740784,0.506937,-0.373288,0.181783,-0.468859,1.23282,0.187732,0.0183522,0.0631193,0.0369943,-0.00693881,0.142875,0.274546,-0.0277745,-0.00976911,0.223302,0.000506216,0.0365185,0.180808,-0.00101937,0.0860513,0.0759154,-0.0188745,-0.0250691,-0.0267497,-0.0335899,0.0116472,-0.0405934,0.0305192,0.0246231,0.0819677,0.00188442,0.0347394,0.397823,1.31781,0.105127,0.563897,0.610787,-0.214508,0.42492,1.47623,-0.00739501,-0.0459418,0.0636133,0.170316,-0.0370913,0.0184076,0.0281761,0.0536182,0.0443751,-0.0169387,0.0165995,0.0502538,0.16312,-0.0106851,0.020015,-0.0247824,0.023365,0.00337319,4.36325,2.7485,-0.141319,-0.472765,-0.0663956,-0.413409,1.57058,0.670867,0.0648253,0.0173144,0.0576599,0.305908,0.154044,0.0323287,0.245353,0.0679219,0.0710417,0.105511,0.0848291,-0.0192234,0.0960205,0.0126809,0.011308,0.0661883,-0.0161486,-0.0665948,-0.700387,0.134046,0.446308,3.11576,0.517036,0.130433,-1.31967,2.20973,-0.299292,0.0311956,0.0438621,0.0498671,0.0628645,0.0577862,0.272981,-0.00440331,0.0331491,0.719128,-0.0553729,-0.0381343,0.278812,0.00303418,0.0158135,0.0472394,0.0316489,-0.0164589,0.115001,0.00239407,0.00428554,0.0853662,-0.0487386,0.0119883,-0.00489705,0.0184174,0.0329341,0.286785,0.48059,-0.0640052,0.233441,0.935386,-0.0765257,-0.00540623,0.111113,0.499221,-0.0295925,0.0660362,0.555668,0.0174579,0.073947,0.176425,-0.0599154,0.103636,0.279276,0.0387015,0.0328137,0.248981,0.0455993,0.0361106,0.0181102,-0.0407393,0.0165792,0.085374,-0.0752342,0.0182661,0.0769756,0.0658611,0.00261563,-0.0608236,0.110065,-0.0594351,-0.0220403,0.114763,0.0949391,-0.0142795,0.0166029,0.0856435,0.0229857,0.000959226,0.54293,0.0891318,0.108432,0.254197,0.0228906,-0.0950457,0.128421,0.0211458,-0.000551643,0.17472,0.172409,0.074237,0.082166,0.171771,0.02667,-0.00911977,0.0717707,0.0106354,2.45254,-1.3132,-0.065503,-0.256827,0.649755,-0.0124798,1.37317,0.786316,0.00795142,0.426792,0.882795,3.01577,0.165157,0.0393036,1.70987,-0.0133659,-0.0197986,0.930231,0.0162419,0.0394668,-0.0807707,0.307751,0.0216488,0.472328,-0.096062,0.139703,0.106251,0.0259087,0.0165737,0.0729415,0.0275772,0.0524047,-0.00304029,0.077638,0.0256129,0.0173551,0.0583844,-0.0330252,-0.0116667,0.0343542,0.307002,0.0648055,0.0259627,0.753269,-0.225883,-0.436209,3.73701,-0.00852579,0.439756,2.79591,0.639058,0.204256,-0.00095227,-0.0328956,-0.292273,4.16384,0.465016,0.814025,-0.402801,0.645171,0.187,0.0516442,-0.0102204,-0.0784251,0.0140067,0.0501797,0.0577268,0.0627172,0.132742,-4.76322,0.234591,-0.2491,-3.59931,0.279454,0.228445,1.95087,0.259859,0.413061,0.150171,0.0246432,0.0127308,0.0441133,-0.00519237,0.0697928,0.0475221,0.00440913,-0.0458471,0.146656,0.104793,-0.0309573,0.131686,0.132622,0.0199609,0.00662134,0.0177406,0.0170228,0.0484846,0.142898,-0.0273467,-0.0459548,0.00899711,0.146698,0.0403198,-0.0404613,14.1132,0.514486,1.05652,-7.81311,-0.645066,-0.721884,-1.23912,0.495248,-0.139113,0.122759,0.00332793,0.00895517,0.0342771,0.0104043,-0.0153787,-0.00934705,-0.0124302,-0.0302624,0.0425589,0.178128,0.0199008,-0.0440096,0.0862957,-0.0133125,-0.054699,0.0880612,0.0446812,-0.0240403,0.056121,0.298723,0.0220228,-0.0297224,0.183917,-0.0149622,0.0778763,0.00309813,0.0147743,0.0869746,0.0561472,0.0254341,0.0884462,0.0108725,0.10379,0.00453581,-0.784317,0.731459,0.125892,1.00206,0.139969,-0.120254,0.632203,-0.793738,0.0788124,-0.0597792,0.163708,0.0249101,0.042758,0.107778,0.11495,0.0615596,0.0634887,3.49091,-1.19196,0.624876,9.92235,-0.29519,-0.689922,1.25221,-0.415803,-0.548459,0.0741852,-0.0803751,0.00855156,0.0477266,0.0584024,-0.0269491,0.0646145,0.0702053,0.0340779,-0.395977,1.18665,0.0975009,0.288065,0.293019,0.0213053,-0.703924,-0.466408},
        {-0.00413384,0.0223133,0.0273285,0.154103,0.087155,0.0188071,0.0927948,0.0201528,-0.00324803,0.151291,0.0803301,-0.039419,0.033242,0.00327192,0.031641,0.0182477,0.00965909,0.0383899,1.38041,-0.751335,-0.22092,1.08846,-0.782072,0.0711552,-0.531952,1.07301,-0.0209449,0.0554858,0.0806018,0.702897,0.0966793,0.0234659,0.208744,-0.0554184,0.00619654,0.266427,0.0416149,0.00218771,0.0745314,0.043186,-0.0211567,0.0951889,0.0956891,-0.00511961,0.027695,0.0810457,-0.0822998,-0.0244051,0.0676673,-0.0382411,0.0755833,0.0332544,0.0547143,0.59235,1.63803,0.0147967,0.304776,-0.0096686,4.27113,0.435051,1.37603,0.415348,-0.0380876,0.0409789,0.19822,-0.0144301,-0.00361649,0.10764,-0.0261934,-0.0223171,-0.122765,-0.107131,-0.0183215,0.033439,0.0311212,0.101734,0.025673,0.0475225,-0.011386,-0.52955,-1.68062,-0.358804,0.203695,1.60801,-0.496502,0.824772,0.703379,0.330443,0.000137764,0.0165132,0.472114,0.0144535,0.10198,0.12592,0.0808481,0.065026,0.0668319,-0.0357218,-0.0358307,0.107991,-0.00889367,0.0444001,0.0511816,-0.000132918,0.0192285,-0.744189,-0.0615952,0.627238,0.0856684,0.726241,0.0777396,0.29718,-0.451568,-0.0912197,-0.0143801,0.0170039,0.0392189,-0.0222676,0.0437931,0.313927,-0.014917,0.0487172,0.346021,-0.017459,0.0283308,0.202838,0.0471951,0.080238,0.150527,0.021477,0.0105659,0.20185,0.00340304,0.0653543,0.0738646,0.0381963,-0.0531696,0.14112,0.0661757,0.115096,0.197939,0.356064,0.046637,0.260437,1.1281,0.0365096,0.0534038,0.0313435,-0.105971,0.0224662,0.0750602,0.404102,-0.113663,0.0328121,0.173506,-0.099672,-0.00881222,0.244873,0.152936,-0.0405746,0.100596,0.0931694,-0.00841571,0.0512849,-0.0443435,-0.0270005,0.0491465,-0.0281718,0.0372742,0.0629251,0.161748,0.0515858,0.0345086,0.0453327,0.0136844,-0.0785933,-0.0174757,0.0220395,-0.000699166,0.0720054,0.0439106,0.0874037,0.0511738,0.335168,0.115935,0.105452,0.234054,-0.0116061,0.0792171,0.0751595,0.0463604,-0.0500641,0.102428,0.00559255,0.0392154,0.198881,0.00286037,-0.00134325,-0.00354404,0.0869182,-0.0043104,1.41129,-0.32039,-0.101336,-1.39832,-0.169625,-0.0316037,0.283153,-0.114132,-1.73762,0.355829,0.694694,2.31016,0.245233,1.36474,-0.115267,-0.0386063,-0.130054,-0.280748,0.0537095,0.151412,-0.0352278,0.264115,0.152538,0.320277,-0.132449,0.114133,0.0118316,0.0757836,0.0654256,0.0663472,0.147112,0.0452505,-0.0125143,0.120131,0.0360376,-0.0466808,0.144523,0.0579319,-0.00780854,0.0890047,0.265786,0.00844081,0.0746652,-5.33602,-0.40875,-0.470955,0.790162,-0.0292626,-0.239391,1.88349,0.898194,0.327854,0.810654,0.11444,-0.0843768,-1.59969,-0.939954,0.586496,-1.21322,-0.274119,0.109223,0.0102604,0.0648157,0.104671,0.0217214,0.0166536,0.0503995,0.0456131,0.0330852,0.00161534,0.18401,0.590392,3.64784,0.82244,0.768531,0.637968,0.178485,0.546337,0.0730199,0.0171465,0.0430477,0.166345,0.11851,0.0491337,-0.0849141,0.096776,-0.00391191,0.0505128,0.0359075,-0.0374677,0.143558,0.167586,0.0200293,-0.00634126,0.0966932,-0.0514059,0.0745724,0.100313,-0.010937,0.0231773,0.0645093,0.280286,0.0666608,0.104515,0.441148,0.556368,-0.56938,3.79862,0.0384452,0.614928,0.0319064,-0.541996,0.120799,-0.0117977,0.0401873,-0.0529142,0.0683976,0.00565426,0.0703906,-0.033543,0.0446468,0.0103607,0.025577,0.0437222,-0.0410483,0.053148,-0.0161815,0.046537,0.0598788,0.106247,0.551608,0.0870503,0.0583529,0.351782,0.0948922,-0.00762736,0.104113,-0.0430162,0.0966178,0.0157247,0.0771198,0.0948828,0.00119497,0.0468021,0.0297496,0.088733,0.0880628,0.0835802,0.159527,0.807422,0.148354,0.3347,-1.40163,-0.0824209,0.53307,-0.664334,0.113838,-0.023415,0.0648196,-0.0830032,-0.0176696,0.0326904,0.245632,-0.000539285,0.0514184,-1.86909,-0.560037,0.588572,1.57188,0.430288,1.73892,0.798518,-0.201776,-0.419912,0.0530863,0.0264125,-0.119702,0.0800617,0.0441744,0.0188299,-0.00791161,0.0430988,0.0160678,-0.128862,1.17948,0.0849388,0.201745,0.827096,-0.553286,-0.0827611,0.667204},
        {0.664757,-0.0328492,0.0645542,0.256134,0.0530902,0.00867853,0.0810403,0.0483526,0.0730069,0.129674,-0.0833433,0.0315093,0.131941,0.0783004,0.0386693,0.078121,0.00748992,0.0032397,0.701371,2.03743,-0.0091835,0.216701,0.488236,0.143948,-0.157556,1.86376,0.885668,0.102386,0.142773,0.46177,0.0281902,0.124034,0.213427,-0.00832903,0.0650644,0.137751,-0.0237579,0.0777497,0.23942,0.0212316,-0.0477624,0.0829354,0.0849614,0.0253183,0.047518,0.0177842,-0.0193938,0.0867021,0.0267295,-0.0138806,-0.000824387,0.151828,0.00405011,0.538343,0.899125,0.0603121,0.402777,-0.277316,0.546606,0.411966,1.44955,0.293869,-0.100333,0.0171586,0.123604,-0.0387133,0.0119679,-0.00697362,0.0674325,0.167262,0.159718,-0.0513171,0.0380603,0.0747597,-0.0055401,0.0728533,0.0085404,0.0765862,0.0415162,1.26564,0.690551,-0.366203,-1.09235,1.87806,-0.462784,1.38811,1.18385,0.0509322,-0.0188034,0.0388627,0.232565,0.00665122,0.011305,0.163579,0.0950838,0.0403195,0.0292979,-0.0607135,-0.0245553,0.0392643,0.0594391,-0.0421971,0.0817183,0.0671231,-0.105351,0.654619,1.23273,0.358544,0.3811,1.001,0.26318,-0.0621071,0.445257,-0.239148,0.0570416,0.102715,-0.0372089,0.0152025,0.108326,0.28124,-0.00933817,0.0543679,0.306423,0.0100178,0.0242991,0.11141,0.10749,0.108974,0.0293429,0.00905117,-0.0605801,0.121889,0.0327923,0.0857553,0.044242,0.031782,-0.0593077,0.0457463,0.0923484,-0.00406241,0.249647,0.38758,0.0518426,0.0897494,0.99765,0.0352377,0.0297365,-0.0338427,0.414702,0.102508,0.0828391,0.37399,0.0954228,0.0371006,0.105065,0.0104346,-0.0231854,0.168129,0.0623221,0.00439187,0.120236,0.0162213,0.0400432,0.0744556,0.00476192,-0.0104014,0.12218,-0.0116927,-0.0649665,0.0276104,0.107963,-0.127258,0.00966798,0.0425162,0.0113846,-0.0492205,0.000251039,-0.0212485,-0.0414489,0.00330911,0.121922,0.0424439,-0.0301805,0.372429,0.106802,0.0579994,0.326985,-0.0276676,0.0992124,0.0809166,0.0159678,0.0880896,0.116993,0.0765381,0.069736,0.120986,0.0896763,-0.0373338,0.0971668,0.0492221,0.018087,0.740717,0.926958,-0.10932,0.591,-0.853978,0.0181043,1.09036,-0.234797,0.0373083,0.358414,0.832792,-0.39034,0.0224319,0.614683,2.38068,-0.0992652,-0.0813428,-0.70237,0.0810941,-0.0439624,-0.55293,0.296896,0.0952571,0.448178,-0.00111821,0.0676554,0.0701253,0.1139,-0.0759124,0.0722476,0.163432,0.0789476,0.0219885,0.0404602,-0.042519,-0.015482,0.0726643,-0.0131562,-0.00850979,0.116559,0.172289,-0.00730218,-0.0526942,-9.80697,-0.393589,-0.449906,2.98147,-0.158349,-0.0905634,0.945497,0.113265,0.103981,1.20825,0.50706,-0.482947,0.512215,-0.878647,0.286899,0.31297,2.6119,-0.0181715,0.0486183,0.0704028,0.0354147,0.077491,0.14774,-0.0307983,0.00402371,0.101319,-4.37572,0.184053,0.133697,-0.9202,0.868546,0.76096,3.68274,0.260978,-0.0123091,0.085206,-0.0286131,-0.000854782,0.0210575,-0.0283177,-0.0223484,0.0344073,0.0628621,0.0422693,0.0112331,0.010702,0.034503,0.00256318,0.102786,0.007485,0.00612962,0.00536435,0.0572593,0.0161131,0.147295,-0.0394753,0.022273,0.0639718,0.207012,0.0558995,0.026449,-0.378929,1.11116,-0.707319,3.77443,-1.10618,-0.468798,1.98905,0.506071,0.632288,0.0697524,-0.0259605,-0.0520036,0.0764443,0.0998407,0.00367252,-0.0345538,0.0911981,-0.00265892,0.0918047,0.119141,-0.0156343,0.014359,0.0873071,0.275751,-0.0919218,0.0699344,-0.025113,0.0161306,-0.040047,0.247499,-0.0242408,0.0666263,0.214485,-0.0491376,0.0790385,0.0693433,0.0849501,-0.0116361,0.105186,0.0183113,-0.0913887,0.0302948,-0.0553678,-0.0771525,0.243119,0.741614,0.0603857,0.419657,0.425101,-0.14806,0.67176,-0.490354,-0.108674,0.0347869,0.146931,0.452065,0.0985568,0.0776238,0.208476,0.00593667,-0.0505286,-2.27584,-0.826109,-0.220199,5.80051,-0.0938141,-0.0937155,-1.62708,0.155736,-0.00773234,0.0695338,0.100468,-0.012666,0.115954,0.0926117,-0.0564109,0.0407192,0.0850647,0.0223101,0.00519346,0.706099,0.175198,0.343657,0.713441,2.94305,-0.542961,-0.225817},
        {0.563312,-0.00581992,0.0336565,0.322142,-0.0265984,0.0317393,0.0576572,-0.0225378,0.0698918,-0.0324692,-0.0831118,-0.0353274,0.0701973,0.0628102,0.0755322,-0.00561785,0.0729631,0.078965,1.22834,1.26541,-0.123789,-0.704075,1.68481,0.0246588,-0.379359,0.473173,-0.0114423,-0.0100117,0.0516073,0.479663,0.0377341,0.0665991,0.150469,0.0124953,0.0365347,0.147333,0.0430152,0.0629542,0.139966,-0.0035257,0.0218907,0.10495,0.00435259,-0.0314787,0.008421,0.00735205,-0.0154683,0.0115074,-0.0616112,-0.0140186,0.00786924,0.116437,0.0343135,0.603801,0.76607,0.0481355,0.316705,0.851333,2.44163,0.272086,0.831001,0.227654,0.0297575,0.0864709,0.0949486,-0.016189,0.0492549,0.0732243,-0.0475224,0.0304972,-0.0186689,-0.0563232,0.0326713,0.0504753,-0.00533889,0.0635053,0.095237,0.0599086,-0.0433989,2.34176,-0.465869,-0.467865,-1.99269,1.29207,-0.458611,1.01589,1.94257,0.385179,0.0173053,0.047706,0.16919,0.0386096,0.0560703,0.131998,-0.00546764,0.0722087,0.126228,0.0562026,0.0574108,0.0740941,-0.00526709,-0.0273238,0.0168408,0.0371095,0.0331383,1.01302,-0.453998,0.174473,0.130485,1.06996,0.0288148,-0.883203,-1.07409,-0.0821801,-0.00166978,-0.0295632,0.0244525,-0.10572,0.0970503,0.237084,0.00859127,-0.0394953,0.309417,0.0785557,0.00523415,0.114853,0.0292085,-0.0320459,0.082358,0.0244094,0.0229824,0.0955378,0.0633042,0.0293894,0.0665022,0.123539,-0.0101972,0.0157762,0.101586,0.00749114,0.00179359,0.480618,0.0954699,0.109113,0.868495,-0.0628017,-0.0682234,0.124617,-0.0132882,-0.0689122,0.0209896,0.224591,0.00247121,0.0671152,0.0850454,-0.0321978,0.0222447,0.152657,-0.0539056,-0.0475862,0.154346,-0.0346225,0.0540202,-0.00873478,0.0514519,-0.0548948,-0.0425772,0.115175,-0.0605935,0.048847,0.122426,-0.0207145,-0.00884133,0.111543,0.0554386,-0.00468342,0.0672542,-0.00527599,-0.0433994,0.106277,0.0996773,-0.00741151,0.0484867,0.383979,0.0575042,0.116838,0.266265,0.0115071,0.0701994,0.0606349,0.000332986,0.0679519,0.0339155,0.0428149,-0.0194796,0.104861,0.0419496,-0.0731988,0.0528989,0.0967726,-0.0337159,-0.332345,2.94125,-0.0579784,1.37457,-0.774379,0.0715896,1.14013,-1.93321,-1.73335,0.376574,0.776466,-0.992204,0.25878,-0.162794,0.916685,-0.0355513,-0.152545,-0.232797,0.125683,0.0768667,0.13939,0.307429,0.0587496,0.45076,-0.0218873,0.129477,0.0899915,0.119571,0.0693118,0.127164,0.206115,0.0547414,0.0260346,0.0962783,0.159935,0.0513334,-0.0201155,0.0214368,0.0785092,0.0969579,0.265558,0.109052,0.0330361,-2.88835,-0.73368,0.169783,-3.52118,0.170273,-0.459528,0.846741,-0.0654527,0.459062,0.766998,0.362355,-0.190261,0.326897,-0.649974,0.324897,0.981927,0.487783,-0.123335,0.0138882,0.0338722,-0.109463,-0.0134154,0.0598338,0.331574,0.0522917,0.109051,0.00511354,0.0953864,1.65886,0.965523,0.755066,0.114223,3.90117,0.23975,0.11599,-0.0166104,0.0012695,0.0448204,0.1036,-0.0146752,0.08074,-0.0928172,0.0833761,-0.0229212,0.00242526,0.0677476,-0.0271582,0.113084,0.133095,-0.0960749,-0.0323564,0.0948753,-0.0426806,0.00728699,0.0336944,0.418812,-0.000292302,0.11356,0.133459,-0.0303128,0.0131617,-2.94526,0.268168,0.786039,7.82373,-0.280368,-1.74701,4.96509,-0.877198,-0.0143478,0.133034,0.00347492,0.0095779,0.0588975,0.0495796,-0.0812999,0.0180201,0.0325486,-0.00855766,0.0829706,0.143675,0.0971964,0.0902304,0.149801,0.23807,-0.0356878,0.00140365,0.558196,-0.0922921,0.0746806,0.187286,-0.0979074,0.0359516,0.201876,-0.0173299,0.0478734,0.0425035,0.03943,0.00825625,0.0737352,0.0101736,0.00573577,0.054379,0.116237,-0.0968563,-0.531908,0.00469251,0.101634,0.720891,0.103068,-0.0563299,0.366914,-0.686782,0.449501,0.0326373,0.0213778,0.410673,0.0623165,-0.0494434,0.131562,0.129364,0.0470025,4.1541,-0.715802,0.183126,3.56008,-0.927678,-0.972711,-0.198085,-0.565679,-0.146142,0.0724287,0.0110523,0.0279672,-0.00680758,0.0397997,0.0922888,-0.0037834,0.0831677,0.0331213,-0.00760264,-1.63684,0.0730916,0.438581,1.06016,3.04769,-0.650252,-0.124187},
        {0.358547,-0.0518938,0.0928763,0.172436,0.00787593,-0.00771712,0.109989,0.03688,0.0510093,0.032789,-0.00411875,0.0989739,0.0634669,0.0981037,0.0357106,-0.130695,0.136416,-0.0430627,1.12042,0.102421,-0.23939,0.334116,1.21499,0.0462413,-0.513063,-0.43772,0.887429,0.106934,0.0725624,0.461,0.0145053,0.0184633,0.136636,0.000288694,0.0437184,0.159351,-0.107443,-0.0183141,0.0932876,0.06285,0.011347,0.0207633,0.021804,-0.00542079,-0.040062,0.0221938,-0.0579377,0.0557218,0.050648,-0.0274793,-0.0248746,0.0804828,-0.0216632,0.419503,0.655768,-0.0275557,0.262678,-0.0778332,3.01285,0.370237,1.10177,0.235467,0.0172444,0.0277894,0.120413,0.0538387,0.051221,0.0843244,0.0127944,-0.0170938,-0.0420137,0.0145092,0.0496902,0.131486,0.06103,0.0274572,0.0560876,0.0828259,-0.0859123,0.465569,-1.91257,-0.595865,0.754176,2.58485,-0.290478,1.449,0.41372,-0.0764405,0.0860123,0.0973668,0.133392,0.0973463,-0.00458436,0.154435,-0.0473926,0.0585176,0.0741983,-0.000159518,0.00257279,-0.0144121,0.0391814,-0.100223,0.0316763,-0.128212,0.0375763,0.00811117,0.945906,0.386823,-1.86451,-1.52566,0.00728607,-0.0289232,0.0952618,-0.157829,-0.0201755,0.10576,-0.00842173,0.0579048,0.0531584,0.218251,0.000964423,0.0157621,0.378483,0.0432421,0.108888,0.16371,-0.00449011,-0.014674,-0.0135514,0.00120124,-0.0242803,0.191329,-0.0293702,0.0133126,-0.00417711,0.197691,0.0818637,0.113179,0.072912,-0.0309963,0.139422,0.578201,-0.0268351,0.00496823,0.726376,0.00246366,-0.148597,0.0517246,0.427606,-0.0360767,0.147374,0.356781,-0.032208,0.0658344,0.0903234,-0.0023454,0.0125155,0.163234,0.0381464,0.0952666,0.0534123,-0.04831,0.00815712,0.0857621,0.131065,-0.0897202,0.06891,-0.0317924,-0.0452335,0.0913186,0.0211319,-0.0223296,0.00495886,0.00432003,0.198295,-0.0050318,0.0154837,0.0401456,0.00980103,-0.0105404,0.0121752,0.0255502,-0.00691505,0.344784,0.0661726,0.0838924,0.203344,-0.119336,-0.0205365,0.0171567,-0.0218548,-0.0384194,0.115461,-0.0264329,0.0734986,-0.00142612,0.105161,0.0205735,-0.0160411,0.0611257,0.113339,-0.141902,0.399186,-0.0678228,1.52978,-1.60494,-0.56507,1.72605,-1.71306,0.028435,0.304625,0.659469,1.01008,0.156731,0.0254983,1.39411,0.00776409,-0.00987599,0.186044,0.107975,0.140961,-0.09991,0.00910492,0.0968859,0.240887,0.328606,0.106742,0.105176,0.0721233,0.0608645,0.0715569,0.0483367,-0.0519309,0.0582174,0.0518372,-0.0374253,0.0112428,0.0581066,0.589395,0.0731432,0.0531247,0.222703,-0.0211322,0.0318186,-5.47504,-0.289602,-0.797396,3.18939,0.161485,0.0343535,1.08924,-0.00891264,0.305246,2.87366,-0.558244,-0.0434566,0.380145,-0.186681,0.385895,-0.825959,1.39946,0.051895,0.0363012,0.0894634,0.0824785,0.0676419,0.111609,0.324856,0.0670438,0.0785656,6.12198,0.362823,-0.265507,5.60405,0.463575,0.0900229,4.48035,0.391906,0.256427,0.0811465,-0.00637236,0.014917,0.0512265,0.0752595,-0.000278222,-0.0553433,0.0145195,-0.0606858,0.0885485,0.0801947,0.0156446,0.0615113,0.118049,-0.00781522,0.0425374,0.0174238,0.515866,0.0463334,0.0957732,0.376003,-0.0306108,0.090131,0.162734,-0.0634894,-0.0284722,-1.01899,0.768743,0.796424,4.91148,0.830766,-1.28242,3.49771,0.163477,-0.43444,0.00330857,-0.0605979,-0.0203857,0.0153392,-0.0331695,-0.0366975,0.0141511,0.0362574,0.0061099,-0.0255418,0.0953005,-0.00837402,0.026295,0.00890826,0.3555,0.0190703,0.139813,0.472817,0.0761339,0.0472427,0.247817,0.0648483,0.0560173,0.0987667,0.0260564,0.0792963,0.155581,-0.0270713,-0.0110581,0.0636231,0.147783,0.0615618,-0.00300895,0.062827,0.0350101,-0.682732,1.36713,0.0312848,0.231614,0.108404,-0.137665,0.500117,-0.309541,-0.0264187,-0.0925951,-0.0414367,0.327596,0.0317088,0.0528643,0.174106,-0.0535434,0.0373861,-5.62653,-1.59984,1.3608,-5.05085,0.0584181,0.63005,-3.26032,1.6215,-0.115636,-0.0286341,0.12029,0.022552,-0.0282225,0.0652745,0.00885419,0.0730071,0.091601,-0.0960907,0.0758596,0.123293,-0.0072886,0.424391,0.26633,3.25036,-0.305727,-1.0493},
        {0.292124,-0.0836545,-3.45101e-05,0.125338,0.0451765,0.086553,0.175227,-4.16218e-05,0.039506,0.105227,0.0920272,-0.0174651,0.0824293,0.053689,-0.0302831,0.0404372,0.0576103,0.0607886,0.690237,3.20571,-0.174598,0.54722,2.3825,-0.0892833,-0.568817,0.175497,0.0263045,0.141314,0.0860511,0.399218,0.023825,-0.0522959,0.0664608,0.0445715,0.104099,0.101724,0.086765,0.113423,0.0845192,-0.0333507,0.0318914,0.0313614,-0.0264536,0.0321854,-0.0679159,-0.0179161,0.000566224,0.0799766,0.0904234,0.00285182,0.094494,0.0299334,-0.00480312,0.629618,1.44576,0.0412068,0.425821,-0.169965,3.53637,0.485183,0.777796,0.162246,0.0790837,0.135381,0.143965,-0.0324825,-0.0274393,0.0265831,-0.0657834,0.00987273,0.00875762,0.0122669,0.0445346,0.069167,0.0172942,-0.016568,0.0289968,0.00297979,0.118132,1.90622,-2.04498,-0.432499,-2.4532,-1.89687,-0.323745,2.36728,2.95981,0.396031,0.00777199,0.0828294,0.281641,0.0772848,-0.0548641,0.170112,0.000438296,0.0809372,0.0855452,0.109353,-0.0444171,0.0655246,0.0281493,0.0116169,0.041211,-0.00560547,-0.052599,1.22329,-0.189997,0.160872,-2.73506,0.36103,-0.0762932,0.0904855,-0.823928,0.226504,-0.00656149,0.00464588,-0.00989386,0.00929212,0.0433824,0.190907,0.0438932,0.110513,0.206699,0.0176607,0.0751714,0.158609,-0.0190427,0.0924856,0.00264413,-0.0275886,0.042826,0.135823,0.0214995,0.0150639,0.0657193,0.105565,0.0864048,0.0291588,0.0582873,0.0720085,0.135357,0.399052,0.0151693,0.176246,1.01974,-0.675953,0.0137607,0.172873,-0.0345726,0.0346668,0.101026,0.191283,0.0908668,0.00363346,0.0311909,-0.0425232,0.0332386,0.106953,0.0184889,-0.0616685,0.0951951,0.031498,-0.0246247,0.0630267,0.0374821,-0.0267341,-0.0318453,0.0297517,-0.0118316,0.0272618,0.0957621,0.0301853,-0.0217945,0.130125,0.0278782,-0.0244704,0.0119029,0.346038,-0.0358169,0.0318432,0.100314,0.0379881,0.0828006,0.324779,0.0235328,0.0205904,0.253331,0.0490739,0.0855906,0.0256776,0.0405895,0.0064969,0.059466,0.0365406,0.0914191,0.0693621,0.135137,-0.0224075,0.0107073,0.0164267,-0.0779608,1.01037,0.99488,-0.0422888,0.911896,-0.22658,2.17583,1.18274,-1.42316,8.90665,0.355531,0.696462,-2.08183,0.127814,0.378279,0.16539,-0.00351807,-0.0256486,0.383983,0.0308642,0.124874,-0.14601,0.196303,0.100016,0.453757,0.157546,0.121611,0.0878137,0.0824951,0.00876742,-0.00944865,0.228173,0.0176877,-0.0361152,0.0584251,0.640447,0.0803411,0.0593267,0.384829,0.0227261,0.12992,0.192419,-0.0157166,-0.0144444,-4.29498,-0.526354,-0.935828,1.42855,0.189828,0.231938,-0.10819,0.323597,0.632013,-0.00991444,-0.220715,-0.410504,0.264124,0.277614,0.379885,-1.27397,0.844369,-0.0674817,0.0280218,0.105897,0.0413497,-0.00868478,0.119877,0.195662,0.0185049,0.0136123,9.10761,0.159558,0.0513924,3.71915,0.594713,0.498476,0.684325,0.411012,0.29735,0.0855223,0.046532,-0.0634581,0.0484744,0.0540792,-0.0251826,0.0367179,0.120004,-0.0624199,0.136014,0.0881765,0.0530253,0.0260501,0.194795,-0.0499001,-0.00787495,0.0108247,0.0605443,-0.0284282,0.0292143,0.330712,0.0890733,0.0074973,0.0810416,0.047249,0.00499872,0.752867,0.737141,-0.806948,1.79392,1.73428,-1.75349,-0.579718,-0.729391,-0.399937,0.0903452,0.0714233,-0.0566641,0.0241534,0.0703905,0.0218449,0.0138124,0.0535055,0.0151186,0.0576745,0.12932,0.0997254,0.0602807,0.105187,0.326294,-0.0342805,0.0780686,0.355793,0.149885,0.075965,0.187317,0.0397858,0.0513667,0.0859249,0.00991328,0.00182555,0.0803304,-0.150795,0.0317467,0.147389,-0.0476335,0.011046,0.023591,0.0703754,-9.99485e-05,0.0303987,-0.207514,0.140059,0.566443,0.364517,-0.0758554,0.307992,0.522106,0.46233,0.0296871,0.0254832,0.3371,0.0462686,0.0690226,0.0866479,0.00326197,0.0103157,-4.72629,-1.70514,1.44126,-3.10613,-2.45328,0.15402,2.03084,-1.41816,-0.626686,0.1161,0.0579336,0.0929126,-0.0412119,0.0789346,0.0464787,-0.013328,0.051483,-0.0331056,0.160026,0.264298,0.0531867,0.194349,0.921428,2.17916,-0.535906,-1.01521},
        {0.343523,0.00156322,0.0650195,0.104905,-0.0273413,-0.00324407,0.0370198,0.00383516,-0.0150525,0.0819686,-0.00290212,-0.0112439,0.145585,0.121119,-0.0197981,0.0666437,0.0463926,0.0373859,-0.329394,1.14533,-0.231708,0.515426,1.34573,-0.130016,-0.133187,0.121,0.823449,0.145739,0.0610179,0.388776,0.0772934,0.0844121,0.161529,0.0235471,0.0235294,0.160753,-0.0129725,0.00812962,0.12665,0.0763493,0.132442,0.03524,0.0253284,-0.0269588,0.0116812,0.0676298,0.070508,0.0675214,-0.065122,0.00835481,0.0240812,0.0591893,1.6542,1.01176,0.575679,-0.0501525,0.248654,1.21696,2.66614,0.252763,1.02114,0.0897028,-0.0243287,0.0563062,0.0148765,-0.0679887,-0.0314519,0.0990058,0.0514721,-0.111234,-0.0562763,-0.0137437,-0.0288116,0.142335,0.0329065,-0.0266858,0.0801476,0.022631,-0.117602,1.2247,0.652373,-0.367328,0.722892,0.719866,-1.25177,0.663338,1.22697,0.0169776,0.139077,-0.00362465,0.21508,-0.0397595,0.08668,0.100004,0.0387265,0.0502267,0.0307905,0.0886218,-0.00638771,0.0480984,-0.0662304,-0.0498316,0.00306745,-0.0119785,-0.0771304,0.366248,0.960419,0.395471,-2.06611,0.630474,-0.230519,-0.975119,0.204403,-0.0332831,-0.0396252,0.08901,0.52028,-0.0432034,0.0114559,0.248433,0.13825,0.0863324,0.165127,-0.0275536,0.00401016,0.0407387,0.0358127,0.043913,0.0554677,-0.00964787,0.0521174,0.109753,-0.0106698,0.0124778,0.023931,0.0710258,-0.0310312,0.0305615,0.0848891,0.0175485,0.079905,0.499908,0.0581083,0.141579,0.928036,-0.183452,0.0681633,0.255646,0.340224,0.132579,0.00150235,0.239631,0.102826,-0.0312342,0.112434,-0.0148856,0.0701358,0.184148,-0.0621272,0.0329946,0.098129,-0.0130337,0.0541587,0.173863,0.0773866,-0.105108,0.0699387,0.111425,-0.096002,-0.0301399,0.0523532,-0.00278028,-0.0260227,0.0226405,0.35711,-0.0688653,-0.178666,0.326249,-0.0207322,-0.0634441,0.0715007,0.104109,-0.0174767,0.16624,0.0583536,0.0599524,0.250769,-0.0437143,0.0879657,0.0972894,0.127789,0.0497874,0.130135,0.116227,-0.0145358,0.117268,0.108138,-0.00178544,0.0927878,0.0339146,-0.0536935,-0.40867,1.05316,0.00385483,0.901192,-2.19474,2.69168,0.822659,-0.148416,4.72219,0.433354,0.83026,-1.39296,0.167969,0.191691,-1.17539,-0.167753,0.00464466,-0.0805699,0.0531963,0.0150134,-8.54715e-05,0.199673,0.0915137,0.449309,-0.181846,0.0782034,-0.0363695,0.0759614,-0.116607,-0.0146143,0.152757,-0.0368476,0.0510363,0.0994846,0.0284591,0.0133081,0.0287896,0.447807,-0.0118155,0.135035,0.179571,0.0248616,0.0454372,-5.22012,-0.321362,-0.213189,3.13196,0.314704,0.122899,1.9387,-0.324796,0.56118,0.242874,0.557875,-0.00386169,1.2089,0.345495,0.324109,-1.08942,1.31928,-0.0987941,0.118021,0.156207,0.00421123,0.0409477,0.174755,0.343602,0.0303347,0.110457,5.94585,0.36631,0.214192,0.383674,0.833709,0.128779,1.31668,0.470821,0.435578,0.102343,-0.0618054,-0.0187538,0.0187942,-0.0107075,-0.00501443,0.0294018,0.0134298,0.0181569,0.107412,0.111733,-0.0252993,0.0213963,0.135042,0.0396906,0.0597,0.0734209,0.556499,-0.0026743,-0.00556154,0.299272,-0.0661097,0.0697012,0.0499973,-0.0251754,0.0501881,-6.39849,0.694555,-0.0173786,-1.26269,-0.473242,-1.91053,-2.60987,-1.57638,0.369045,0.0630859,-0.0592846,0.0587524,0.0923707,0.155664,0.039438,-0.0729649,0.104273,-0.0313246,-0.0475634,0.116845,-0.0837446,-0.0274152,0.114438,0.247907,0.0163553,-0.0156078,0.36532,-0.00421143,0.0530859,0.132273,-0.0547806,0.0506192,0.0199607,0.0374091,0.0226119,0.120389,0.0870131,-0.0360608,0.00722598,0.0290426,-0.0680443,0.0655046,0.0437297,-0.0484648,0.0941554,0.613204,-0.044407,0.683402,0.704006,-0.102128,0.413905,0.80567,-0.00980829,0.0134662,0.0798208,0.270366,-0.0092454,-0.0136281,0.105525,0.0127144,-0.0395065,0.192179,-1.00942,0.689531,-0.942704,0.767709,1.04089,2.64809,-0.201098,-0.507915,0.140622,-0.0399065,0.000763017,-0.0229743,0.166672,-0.00697762,-0.0721758,0.120204,-0.0212787,-0.0306186,0.866043,0.135121,0.198789,0.0740472,0.575613,-0.5231,-0.172173},
        {0.221394,-0.0380748,0.152301,0.215961,-0.0291752,0.0350792,-0.00965818,0.000219702,-0.000607816,0.0861905,0.0483127,0.142191,0.0202896,0.0381531,0.0117013,-0.0222902,0.160337,-0.0175064,0.220478,-0.00986641,-0.199814,0.141479,1.5701,-1.03096,-0.477568,-0.389362,0.0212126,-0.0302713,0.187379,0.285974,-0.00277939,-0.0109241,0.205524,-0.0432096,0.0223848,0.119067,-0.0510806,0.000248036,0.118311,0.0867136,0.0582118,0.0789273,0.00835529,-0.0711491,0.0480329,0.111056,0.0452366,-0.0152932,0.0726667,-0.111051,0.0713761,0.053709,1.24561,0.74867,0.778236,2.70903,0.121801,0.828635,2.62631,0.247801,0.751405,0.137889,0.0502808,-0.0297632,0.0900454,0.026883,0.0055805,0.0364912,0.0417868,-0.00213248,-0.101294,0.0511651,0.123017,0.00582783,0.0363699,-0.0046274,0.111302,0.0709829,0.0155026,2.39033,0.261514,-0.394742,-0.319725,-1.8228,0.924178,1.72175,3.06814,0.222759,-0.0237292,0.055339,0.164827,0.0278845,0.106613,0.1513,-0.0172382,0.0264889,0.0288557,0.0623042,0.0186939,0.024824,0.0251799,-0.0262367,0.0557492,-0.0166298,-0.00257601,-1.01408,0.143504,-0.0305078,-1.98099,1.44006,-0.0230422,-1.57247,0.504278,0.644009,0.0782026,0.138243,0.482579,0.0321476,0.015241,0.210604,0.0620309,0.034165,0.177725,-0.0296738,-0.0200934,0.15171,0.0435839,-0.0346099,0.041574,-0.0588911,-0.00771655,0.0651256,0.0931585,0.0947738,0.184312,0.00639415,-0.0451418,0.0255031,0.116646,-0.0312384,0.110987,-1.19737,-0.0436395,0.0324156,0.846217,0.63234,-0.00865951,0.10023,0.294453,0.0412465,0.128205,0.249051,0.0146123,0.0664698,0.0931473,0.0808122,0.0138432,0.0718024,0.0217805,0.00699732,0.081757,0.1154,0.0268516,0.0439036,0.0499942,0.0468692,0.0686568,0.0202082,0.0876459,0.022486,0.138743,-0.0182718,0.00336973,0.124714,-0.0366444,0.0208053,0.0103775,0.21783,0.0568256,0.058701,0.0462846,-0.035163,0.0258751,0.17693,0.0887881,0.0820138,0.139846,0.0289455,0.0010214,0.0524163,0.0592306,0.0346096,0.0782076,0.000393806,0.0227771,0.00869599,0.108809,-0.0202481,-0.0343282,0.102943,0.0585151,-0.790857,2.15475,0.135457,1.0648,-2.05874,3.95338,1.30732,0.531523,1.14377,0.423659,0.664088,-0.935863,0.393107,-0.0168141,0.330451,0.0581115,-0.0213671,0.0373701,0.17076,0.024769,0.00154473,-0.00132398,0.0876025,0.415609,0.238054,0.124186,0.0935671,0.0529308,-0.0235788,0.103968,0.0698507,-0.0551621,-0.00492963,0.115847,0.67006,0.128482,0.126285,0.344952,0.100701,0.0498999,0.222633,-0.0126133,0.0302316,2.05775,-0.363744,-0.0670884,3.35261,1.0817,-0.072396,2.96393,-0.84456,0.209548,0.445609,-0.269803,-0.14038,0.711313,1.17192,0.360298,-0.368791,-1.12874,-0.174423,-0.0565157,0.0402751,-0.0495207,0.0322004,0.0898734,0.232337,0.00778983,0.072273,1.80793,0.251829,0.0554372,-0.310433,0.852999,0.612659,1.70462,0.220184,0.295083,0.0486608,-0.0340175,-0.019949,0.0524053,0.0982529,0.0290995,-0.00483476,0.0936494,-0.0164007,0.0279382,0.107317,0.016919,0.120099,0.137296,0.00270197,0.0302586,0.0872054,0.0293969,0.066872,0.128258,0.295739,0.0629268,-0.042913,0.104001,0.00981226,-0.0788507,3.85808,1.18182,1.64509,0.878536,-0.0232669,-1.73565,-0.922894,-1.15248,0.441715,0.0596854,0.0765338,0.0361183,0.0126722,0.0484407,-0.0308688,0.0127736,-0.0149745,0.000903492,-0.0558768,0.0805115,-0.0778859,0.119588,0.0414644,0.154349,-0.0254491,0.000148853,0.24496,-0.00313252,0.01291,0.186299,-0.0452304,-0.0263224,0.129893,-0.0534881,-0.0515256,0.00394646,0.0888814,0.0371918,0.0297384,0.0354784,0.0368867,0.0319803,0.00914132,0.00705232,0.0488353,0.0347731,-0.0267928,0.414477,-0.652864,0.0410892,0.314878,1.37367,0.465101,0.0952451,-0.0211268,0.13956,0.114132,0.0251985,0.0991294,-0.0274803,0.015437,-0.261985,-1.04113,0.654027,-1.06307,-1.01018,-0.552259,1.28557,0.148395,-0.450911,0.0108926,0.0926041,0.0321882,-0.0285382,0.134122,0.0566404,0.0558909,0.058201,-6.35991,-0.0112013,0.138921,-0.0464358,0.262244,0.958999,0.602989,-0.287396,-0.402216},
        {0.253947,-0.0333597,-0.0121848,0.0880503,-0.0846636,0.0158299,0.103973,0.0605379,0.0996266,0.000690128,-0.0303037,-0.0270829,0.102091,0.0722524,0.0400862,-0.0776058,0.0332202,-0.0374488,-0.727972,-0.860943,-0.309091,0.319382,2.34663,1.44233,-0.742899,0.0844879,0.876755,-0.0220142,0.046669,0.272766,0.0243602,0.0718062,0.22379,0.0309814,0.0978891,0.140018,-0.0401637,-0.0280679,0.0906352,0.0058046,-0.0456937,0.0375523,0.153743,0.0272205,-0.0110378,0.0391208,-0.036315,0.0469993,0.0226774,0.051042,0.0137718,0.0255527,-5.62579,0.44586,0.852444,4.06557,0.16924,0.230731,3.53868,0.368504,0.745494,0.165305,0.0580066,0.00827162,0.133652,-0.0115836,0.0191055,0.0205044,0.0355465,-0.0161611,-0.0270245,0.0368953,0.0431062,0.088141,-0.0707238,0.0312479,0.017047,0.0358581,0.00676232,2.10632,-0.21727,-0.222936,0.037089,-0.260834,6.4391,0.833265,2.59647,0.247615,-0.0455312,0.0406687,0.158929,0.010436,0.0767254,0.0974189,-0.00484883,-0.00756983,0.00613671,-0.0249861,-0.076371,0.133691,0.047067,-0.0517165,0.0327864,0.0588794,0.0473672,-0.0790188,1.16742,0.104216,-1.07436,-1.04269,0.0850886,-0.673529,1.0249,0.0578375,0.0309795,0.112943,0.430316,0.0345986,0.0933555,0.108435,-0.0450945,0.0174132,0.10453,-0.00548757,0.00929241,0.138733,0.0425076,0.0440277,0.053626,0.104945,0.0225717,0.105394,0.0848922,-0.0426458,0.0496148,0.0916065,-0.030926,0.03194,0.0688678,0.130754,0.157477,0.299299,0.0288209,-0.0936712,0.627067,0.738166,0.000203643,-0.0478011,0.233057,0.0520899,0.047745,0.224521,-0.0115741,0.0379043,0.0967765,0.00670076,-0.0354816,0.25846,-0.00402947,-0.0581951,0.0754408,0.150804,0.00113781,0.0842212,0.0196199,-0.0149163,0.0176934,0.153986,0.0138711,0.0212106,0.0620739,0.00443925,-0.0129791,0.0316929,0.297712,0.00481803,0.0309087,0.165085,0.0234731,0.0286368,0.0479021,0.00126445,0.0512052,0.1789,0.0263004,0.0105476,0.150393,0.0988307,-0.018414,0.0248621,0.0792578,-0.0421401,0.0835444,0.132421,-0.031418,0.119824,0.0623547,0.00388219,0.120428,0.0288547,0.00471614,-0.441836,2.73721,0.0145673,-0.171555,-1.991,-0.148901,1.46374,0.497715,1.05982,0.32166,0.718424,0.354721,0.398435,0.0775933,0.71075,-0.239702,-0.125526,0.23349,0.0870131,0.00902131,0.0770611,-0.162235,0.0922919,0.46289,0.284568,0.0785683,0.099837,0.0769005,-0.0797187,-0.0252082,0.134268,-0.0128691,0.0652449,0.102056,0.016549,0.0606735,0.0421731,0.241438,0.0171756,0.10859,0.156928,0.0966722,0.0397907,-5.26743,-0.2818,-0.543414,1.4254,2.12873,-0.0918114,1.59779,-0.380198,0.103807,-0.33319,0.68062,0.165481,-0.69599,-0.384261,0.44192,0.0816594,0.735152,-0.126942,0.112657,0.0721483,-0.00511021,0.0876025,0.037794,0.256748,-0.0661224,0.0133607,-0.238038,0.246895,-0.071298,-0.824823,0.74029,0.803269,1.75205,0.511637,0.334688,0.00151075,0.0309355,-0.0647071,0.0325856,0.0610755,0.00835555,0.0320532,0.0803074,0.0595384,-0.00569265,0.0776411,0.00268921,0.0488499,0.185341,-0.0688491,0.0754072,-0.0181146,0.527841,-0.00237267,0.139404,0.260236,0.0715641,0.0580703,0.0257914,0.0147966,-0.044372,2.37412,0.346793,1.14321,-0.000421859,-3.71862,-1.30008,0.417449,-2.51344,0.107345,0.0803598,0.0118493,-0.026924,0.084036,0.132574,-0.00591774,0.0450144,0.122805,0.123123,-0.0167304,-0.00183236,-0.0781833,0.00730421,0.114997,0.120973,-0.0603337,-0.0241075,0.245683,-0.0116942,0.0437023,0.139258,-0.0416879,-0.0280852,0.100874,-0.0515733,-0.00707825,0.122893,-0.0280743,0.0226548,0.0459917,0.0857413,0.0112609,0.0388232,0.113054,-0.0407584,-0.104951,-3.0473,-0.028609,0.375821,-0.346275,3.21844,0.559747,0.368602,0.0568998,0.0748236,0.109132,0.159752,0.0737721,0.0348211,0.0456649,-0.012694,0.0501506,0.649554,-1.48058,0.411923,3.09803,-0.204284,0.106882,-0.544702,0.546342,-0.438393,-0.00292525,0.0555038,0.0149958,0.0603557,0.156863,0.0233859,0.04981,0.0497949,1.53179,-0.0868359,0.129166,4.18576,0.281293,1.69108,0.988342,-0.319399,-0.0505427},
        {0.24925,0.0795343,0.0542282,0.0751412,0.101918,-0.00153739,-0.00938469,-0.0333817,0.00659202,0.118849,-0.0404888,-0.00902246,0.0532905,0.0613466,-0.0292755,-0.0698729,0.046998,0.0605365,0.325672,-1.74766,-0.367141,0.173531,0.37214,-3.16904,-1.07965,1.28016,0.59969,0.011292,0.00257055,0.238534,0.0968319,0.0111213,0.0516675,-0.0399813,0.057151,0.123864,0.00292542,-0.00482794,0.156547,-0.0370908,0.0191035,0.0360571,0.18663,0.00575513,-0.0270909,-0.057976,-0.0344885,0.0325374,0.112126,-0.0311064,-0.020628,0.021356,0.0163585,0.600507,0.725746,8.98263,0.381192,0.457569,2.84889,0.345231,0.77157,0.109694,0.0391758,0.068857,0.0694856,-0.0523486,0.0476211,0.00207225,-0.011611,-0.0227511,0.0173383,-0.0355069,-0.0177066,0.0870419,0.0182467,0.0304892,0.00894245,0.0733245,-0.0693093,1.81222,-2.57805,-0.311056,-0.910582,0.307891,-8.40395,2.00265,-2.56272,0.192741,0.00817726,0.0398464,0.247796,0.0341541,0.0394671,0.102148,0.0590948,0.0591702,0.0686744,0.068547,-0.0244859,0.0709773,0.14573,-0.0616909,-0.043082,0.0900567,-0.0390835,-0.822974,-0.423273,0.125485,-0.397958,-0.97363,-0.0134338,-1.37297,1.3053,0.6821,0.0471348,0.0733836,0.46361,0.152936,0.0992229,0.113746,-0.0131573,0.00884307,0.0627608,-0.00133546,0.00437931,0.103188,-0.00564565,-0.0631702,-0.0146614,0.127774,-0.0945068,0.0436816,0.016277,-0.0208506,0.0478066,0.0657253,0.0291304,0.111889,0.0145603,-0.132401,0.0938076,0.367456,0.0602543,-0.0321128,0.541538,1.0836,0.0282109,0.144235,0.173712,-0.0248655,-0.00972968,0.19595,0.00371773,0.03417,0.0492298,0.0101911,0.0262209,0.0884106,0.0196863,0.0291628,0.0213698,0.00184321,0.0872304,0.109681,0.020129,-0.0426755,0.0547805,0.083866,-0.0451872,0.0036371,0.0390992,-0.00562839,-0.0333571,0.046432,-0.000431711,0.0162828,0.0565613,0.0693821,0.0411802,0.0179961,-0.00689916,0.0820544,-0.00165699,0.26496,0.0302558,0.0543395,0.195646,-0.0134794,0.044689,0.0576354,0.0889788,0.0608503,0.071732,0.0840075,-0.0866915,-0.0415389,0.173498,-0.00755971,-0.0301233,0.0449922,0.0232675,0.227784,1.70849,0.131757,-0.156628,-0.63924,-2.18105,1.80996,-0.896764,0.622939,0.320663,0.681595,0.19482,-0.161576,0.367775,0.3879,-0.263103,-0.0886047,-0.0305667,0.199393,-0.0079454,-0.0681377,0.0687001,0.0468012,0.451109,0.0918101,0.0587246,-0.00802553,0.149037,0.0749385,0.0638623,0.147823,0.0275604,0.02068,0.0515437,0.52512,0.0800789,0.0359959,0.210046,0.0216644,-0.00443998,0.125815,-0.0572925,0.0506733,1.56487,-0.201529,-0.827085,0.953805,1.207,-0.316315,0.672892,0.416556,0.318128,-0.649885,0.896343,-0.0733645,0.178799,-1.18643,0.428574,-0.510634,-1.96723,0.347458,0.0215939,0.0549409,-0.00287279,-0.0226915,-0.00970988,0.166542,-0.0943495,-0.0550242,-0.188075,0.850298,0.315391,-2.53842,0.827098,0.338391,1.28617,0.0177947,0.496846,0.101019,-0.0596625,-0.0213445,0.00182515,0.102546,-0.0164002,0.0156574,0.0985091,-0.00072126,0.109912,0.191883,-0.00852224,0.0795163,0.0634314,0.313194,0.0381239,0.0282499,0.0841434,-0.0636329,0.118276,0.240286,0.125002,0.095125,0.0808778,0.0469782,0.0123662,3.16902,1.46724,0.676534,2.40954,-0.468407,-0.583136,0.875833,-1.93602,0.321686,0.105353,0.0521024,-0.0112726,0.00709428,0.0336989,0.0257373,0.0348773,0.0055871,0.0979941,0.000569519,0.152761,0.494062,0.0933074,0.167892,0.201173,-0.0645434,0.0971055,0.18314,0.049273,-0.0507889,0.197678,0.0475516,-0.0473662,0.0531307,-0.0565663,-0.0307112,0.013381,-0.0488313,0.017508,0.0118525,0.019443,-0.0978541,-0.0201245,0.00824314,0.0328359,-0.613159,-1.45563,-0.0921991,0.40175,-0.45154,0.310007,0.240594,0.106641,0.401239,0.0154569,0.100325,0.0886588,0.0444664,0.074251,0.113897,-0.0504517,-0.0490529,-5.25001,-1.25027,0.233422,-3.28843,0.342997,0.164711,0.384527,1.47491,-0.720519,0.0234532,0.0364121,-0.0275412,-0.00725744,0.0914284,-0.00223826,0.0283214,0.0512204,-3.08756,0.16499,0.221206,1.15075,0.2335,0.96936,0.215093,-0.375899,-0.224736},
        {0.150472,0.00607493,0.0300287,0.128093,0.0353113,-0.0141468,0.0901876,0.0070225,0.0467057,-0.0363104,0.0733806,0.0729902,0.0806634,0.100069,0.00436677,0.0298789,0.00280036,0.0149375,0.859928,-1.54705,-0.402966,0.157944,0.092528,10.0912,-1.03787,1.05978,0.506665,-0.0273333,-0.00903204,0.262685,-0.0111549,-0.0129797,0.0515782,0.0528036,0.00860695,0.132389,0.0786849,0.0795053,0.113996,0.0219792,-0.00237187,-0.0288744,0.112828,0.054984,-0.00431782,-0.0126753,-0.0289118,0.0246779,0.0298509,0.0198416,-0.020018,0.0281042,-5.58851,0.463714,0.83979,-1.26468,0.38233,0.00305886,3.00102,0.388992,0.749818,0.19669,-0.00745299,0.0236813,0.0607726,-0.0710528,-0.0332819,0.0393647,-0.0204563,-0.0194947,0.0414858,-0.0831877,0.0365149,0.15805,0.122964,0.0509814,0.0681436,0.136256,0.0507263,0.172863,-1.60501,-0.19218,-0.860938,0.150531,4.23947,0.257701,0.513882,0.218984,0.04466,0.112403,0.18427,0.0253748,-0.0252524,0.0427182,-0.0279172,-0.0202751,-0.0172819,-0.00170633,0.0207215,0.109257,0.0495491,0.00973677,0.0366891,0.0276376,0.00692872,-0.752955,-2.17051,0.166072,-0.565204,0.627908,-0.100571,-0.799214,1.49492,-0.0514,0.0659208,0.00428171,0.375715,0.0611386,-0.0220913,0.147038,0.0622708,0.0676254,0.0586638,0.0218606,0.0167788,0.0616099,-0.00502099,-0.0752213,0.0170347,0.035232,0.0982169,0.0253923,0.11099,-0.0371851,0.043344,0.199061,-0.0150955,-0.0167344,0.0373376,-0.108797,0.208229,0.369088,0.129254,-0.0585087,0.643286,0.928176,-0.128569,0.082946,0.164881,-0.0361373,0.0215188,0.218791,0.0597363,-0.0138205,0.160679,-0.0985015,0.0506535,0.12236,0.082909,0.0108068,0.109675,0.057804,0.00578153,0.0156506,0.0783231,-0.0155363,-0.030871,0.0258223,0.00060949,-0.0226442,-0.0128895,-0.00873994,0.0745498,0.0710093,0.200073,0.0579999,0.0115682,0.10986,-0.0433673,-0.0497397,0.0559642,-0.0126825,0.0709519,0.177402,0.0146406,0.0577606,0.075831,0.0325726,-0.0348509,0.0873672,0.0929979,0.0632391,-0.0200388,0.168441,0.0457242,0.154389,0.114906,0.0324524,0.0263291,0.0552296,-4.22268,-0.34251,1.76093,0.12619,-0.0539033,0.259428,3.57077,1.49248,-0.995339,0.70626,0.402273,0.537453,-0.89584,0.51581,0.278634,-0.339756,0.0265858,-0.0974956,0.0793069,0.146389,0.08587,0.13528,0.0303841,-0.0170485,0.440644,0.478143,0.0464838,-0.00583842,0.109715,0.0362386,-0.0143988,0.1067,0.292186,0.0906378,0.00796538,-0.00999824,0.0603455,0.106448,0.288855,0.0711476,0.0166055,0.13861,0.0302731,0.0499895,-2.72483,-0.528872,-0.937549,2.72961,0.117219,-0.0668247,1.62611,1.83733,0.107033,-1.17446,1.09841,-0.0896191,0.614595,-0.721438,0.231785,-1.52708,0.819742,-0.0182049,-0.0027055,-0.0211959,0.50072,0.0105966,0.0939836,0.233007,0.0804911,0.0264087,-3.08463,0.34097,0.177632,1.42072,0.79073,0.480329,-0.143922,-0.030987,0.176507,0.0946439,0.00281423,0.0491716,-0.0088663,0.0477903,-0.0344332,0.0368777,-0.00403388,-0.0431428,0.00362969,0.141736,-0.0521662,-0.0156211,0.158115,0.343205,0.00321604,0.0253577,0.622689,-0.0634532,0.0443845,0.20074,-0.0117066,-0.031796,0.0491016,0.0789533,0.0289866,-3.62604,1.1003,2.08337,1.95574,0.178887,-0.87268,1.88043,0.846185,0.212691,0.103923,0.130834,-0.0302668,0.072929,0.0741881,-0.0496801,0.0499252,0.0399754,0.699126,-0.00628009,0.124102,0.307297,-0.00286529,0.0635612,0.14348,0.0307365,0.0186697,0.279228,0.113863,-0.0242389,0.129602,-0.0176906,-0.0636684,0.0501273,0.0359715,-0.0414215,0.0205528,0.0614341,0.0112419,0.0578452,0.0397329,-0.0187338,0.0187843,0.0969694,0.0145355,-0.718215,-0.363339,-0.0414956,0.561816,0.122722,-2.24243,0.248303,0.148256,0.276022,0.099817,-0.0370449,0.0552387,-0.063453,-0.00510262,-0.000221144,-0.027547,0.0559184,1.57711,-1.37413,-0.10362,-0.324707,-0.297135,0.349235,-2.29243,1.17394,-0.414499,0.0159727,0.0765292,-0.0425903,0.00293737,0.147224,-0.0202609,-0.0302495,0.00875277,-0.0133153,-0.00965964,0.269147,0.599857,0.327014,0.536604,0.676135,-0.287947,0.355164},
        {0.148533,0.0321437,0.0904976,0.170924,0.107,0.00520024,0.0137259,0.0552011,-0.0060134,-0.0150896,0.0727188,0.0745986,0.0164822,0.110396,0.0533241,0.0718401,0.0246209,-0.0808563,0.69422,-3.07447,-0.510401,0.526011,0.796085,2.61495,-0.654387,-0.311758,0.53251,-0.00278188,0.0074478,0.206752,0.00635514,0.0564065,0.0287669,0.0399506,0.0393477,0.0916229,-0.0354122,-0.0073089,0.149048,0.0239516,-0.00708983,0.00294747,0.055265,-0.0116755,-0.0353138,-0.0289758,-0.0253993,0.05556,0.0686023,0.0163739,0.10441,0.00043272,-0.0543882,0.114301,0.334406,4.75421,0.138284,0.486455,2.98486,0.306924,0.669059,0.126338,0.0182316,0.0187522,0.0627782,0.0057135,0.0322882,0.0884798,0.00360094,-0.00794381,0.0853714,-0.0774885,-0.00427257,0.207789,0.0521455,-0.0255951,-0.0133007,0.0440912,-0.0238975,0.706324,-1.66718,-0.102256,-0.302711,-2.0556,-1.37232,1.37626,0.374369,0.267027,-0.00415819,-0.0193864,0.0751384,0.0772608,0.104255,0.0881803,0.0109927,0.0508243,0.031518,0.0937712,0.093482,0.14128,0.0384359,0.0500029,-0.0247237,0.0621493,-0.0340605,-0.918562,0.577356,0.153421,0.667125,-0.167287,-0.0456066,-0.979875,0.809544,0.606949,0.0172667,-0.0180879,0.160036,0.049649,0.0716006,0.159761,0.1003,-0.0122637,0.0274536,0.0355423,-0.0271824,0.0150827,0.0590701,0.00472682,0.101285,0.105379,0.0746073,0.0103235,-0.0104562,-0.0462794,0.0309665,0.0663381,0.0604869,0.0400983,0.0918778,0.396504,-0.0242424,0.407884,0.085171,-0.0182545,0.482286,0.521313,-0.0468776,0.0971704,0.189113,-0.0884552,0.0347131,0.199245,0.00165546,0.082105,0.0399826,-0.0409503,0.0672064,0.0859402,0.0842276,0.00306771,0.0572132,0.0524159,0.0145639,0.0907322,0.0162817,0.0302955,0.0090281,0.0500322,-0.060689,-0.0392604,0.0838957,0.203,0.033134,0.0749279,0.0193265,-0.0213945,0.0414415,0.158246,-0.0662712,0.0806663,-0.0547166,0.0708164,0.028944,0.291175,-0.028394,0.146209,0.158136,-0.0106323,-0.0731652,0.00829804,0.105233,-0.00123106,0.177386,0.0870863,0.0700746,0.130374,0.113807,-0.059203,0.0659872,0.126227,1.72466,-0.649939,2.17013,4.90848,0.205554,-1.73039,-2.88227,2.39786,-0.320026,0.67289,0.346989,0.518433,-0.355169,0.261553,0.171019,-0.0521651,-0.063495,-0.0598607,-0.106688,-0.0202125,0.100629,0.112464,0.237066,0.0968873,0.0983931,0.359124,-0.0110218,0.00768798,0.200123,-0.0173663,0.0134083,0.105035,0.272975,-0.0309502,0.194528,0.746021,0.082927,0.0401941,0.170252,0.0439536,0.0546197,0.0569878,0.0680887,0.00254073,-1.29746,-0.524641,-0.446794,2.60106,0.453364,0.0287065,0.489244,0.282515,0.198108,-0.513369,0.726368,-0.0802132,-1.01938,1.36926,0.4932,-0.749701,-1.03575,0.842495,0.000202621,0.0966924,0.386283,0.038133,0.0409582,0.169769,-0.00592217,0.0620046,3.42279,0.218766,0.80946,-0.0938573,1.07188,0.295461,1.29404,0.189236,0.136884,0.0720546,0.0599893,-0.022911,0.0242626,0.0798581,0.0240272,-0.0320691,0.108756,0.0405709,-0.00471026,0.109655,0.0313984,0.0644815,0.067731,0.191236,-0.0636823,0.0150133,0.463342,0.0948962,0.102627,0.155781,0.0330887,0.019936,0.0410644,-0.0307721,0.0447711,-2.10895,0.697512,-0.131356,0.600503,-0.147987,-0.99139,0.93121,0.978339,0.196455,0.0415028,0.0235145,0.01865,0.0472393,3.65772e-05,-0.000779315,-0.0554063,0.0249327,0.0422832,0.110495,0.0284286,0.470818,0.0579513,0.127439,0.177402,0.0701319,0.106283,0.162224,-0.0387724,-0.100705,0.164375,-0.00807635,-0.0112451,-0.00293837,0.0431855,-0.0538016,0.116659,0.0386053,0.0574443,0.139937,0.10594,0.0429621,0.00849507,0.0250847,-0.00935211,-0.250047,-0.906766,-0.0316053,0.0393373,-0.724537,-4.26462,0.0960162,0.308507,0.330307,-0.000262907,0.0503551,0.13442,0.114222,0.026535,0.0269207,0.00345198,0.0725909,2.1287,-1.3907,-0.410123,1.34646,1.34723,-0.0187235,-0.564394,1.9063,-0.573718,0.0946673,0.117869,0.0604478,0.0156167,0.085938,0.00854054,0.0751628,0.0891789,-4.41543,0.115486,-0.281317,3.27513,0.351014,-1.51235,-1.18138,-0.474735,0.0414995},
        {0.104698,0.0692243,0.00261029,0.166595,0.0149109,0.00406849,0.0275733,0.0634758,-0.0209208,0.065189,0.114485,-0.0218582,-0.0574509,0.183673,-0.00483552,0.0247152,0.0483772,-0.0469673,0.426926,1.42076,-0.471206,0.00981057,2.00602,-1.00603,-0.432989,-0.231304,0.426175,0.0134664,-0.0730241,0.252492,0.0230741,0.0624783,0.03411,-0.0264095,-0.0133324,0.00948752,0.114275,0.0877549,0.114791,0.150519,0.00618322,0.0346062,0.0512332,-0.0882084,-0.015373,0.00367334,0.0676658,0.0295721,0.0962388,0.084752,-0.0540761,-1.94764e-05,-5.96243,0.414045,0.481903,3.17839,0.346156,0.373645,3.62327,0.259376,0.670361,0.0849689,-0.0125571,-0.0563428,0.0101999,-0.00597693,-0.103371,0.0409612,0.0591116,-0.00644773,0.0240417,0.0289196,-0.0170121,0.013156,0.126338,-0.00559871,0.0438985,0.0728446,-4.37119,1.0672,1.15467,-0.0230258,0.152658,0.142317,-0.747162,1.44729,0.344581,0.274859,-0.0979772,0.0278374,0.204842,0.0288939,0.104565,0.138039,-0.0236596,-0.0157814,-0.00938083,0.0278053,-0.0464809,0.1043,0.0338421,0.107752,0.0845842,0.128187,0.0192513,-1.32672,0.225891,0.106763,0.558935,-1.01958,-0.682171,-0.869462,3.50212,0.135384,-0.042354,-0.0221218,0.236473,0.0322368,0.0965298,0.0876558,0.0478504,0.0651422,0.0494699,0.127214,0.0292482,0.105043,-0.0431463,0.0425458,-0.0216866,-0.051237,0.0271438,0.111445,0.0883208,0.0449282,0.0810989,0.0757335,-0.00048958,0.010935,0.150144,0.218195,0.107629,0.281245,1.47951,0.00680579,0.611692,0.351525,0.115021,-0.00989946,0.115875,0.0737648,0.058652,0.261354,0.0220078,0.0431094,0.0586523,0.033292,-0.0320332,0.110777,0.0328935,0.0906275,0.0711902,0.0847888,-0.00725321,-0.0302886,0.0464244,-0.0353524,0.00223917,0.0617069,-0.0305169,-0.0645883,0.0750481,0.257842,0.00663284,0.0161039,0.138597,0.0558526,0.00666734,0.113476,-0.03884,0.015018,0.0904566,-0.00527592,-0.0298532,0.229313,0.0413715,0.004623,0.145971,0.0165376,0.028272,0.0444745,0.0422096,-0.0420911,0.0345913,0.130891,0.0388957,-0.039227,0.0440344,0.0179365,-0.0366574,0.0052672,-3.97682,0.00718564,2.53272,-5.98814,-0.0553321,-1.02079,-4.55459,1.86208,-0.693382,0.201499,0.295372,0.409595,-1.8661,0.502549,0.240343,0.258632,-0.176934,-0.0488926,0.0159098,0.00724051,0.102099,0.0930365,0.240283,0.0886129,0.282054,0.499195,0.00729631,0.0426693,0.129568,-0.0545126,0.106987,0.097585,0.336668,0.00869353,0.0580214,0.546951,0.098921,0.0865019,0.25053,0.0867826,-0.00584084,0.0890997,0.0467243,0.0257779,-0.937781,-0.498941,-0.329421,1.19038,0.432913,0.0575566,0.564154,0.516159,0.343991,-0.795237,3.27724,0.0295311,-0.673126,-2.76319,0.501775,-0.4613,-0.0076459,0.0159276,0.0859568,0.0385391,0.37949,0.00950906,0.0423328,0.101962,0.0351253,0.0323752,3.74731,0.373823,0.54939,-0.645268,1.25923,0.471842,1.73867,-0.421061,-0.033939,-0.0591272,-0.00346955,-0.0369457,0.0499022,0.0293158,-0.0966375,-0.0488905,0.09354,-0.0103958,0.0677225,0.0653471,-0.00892651,0.0649382,0.019912,0.179203,0.0267227,0.0143158,0.381557,0.0705412,0.0587926,0.198441,-0.0301735,-0.0478798,-0.0174266,0.0195095,0.0224938,-2.14183,0.432102,-0.213448,1.65994,0.88203,-1.24031,0.532534,-1.95942,0.0547334,0.0512839,0.126259,0.00310311,-0.107872,0.134143,-0.0136237,-0.0730065,-0.0634471,0.615672,0.00452938,0.0522645,0.295475,-0.0678038,0.0893663,0.167262,0.0532885,-0.032933,0.0595459,0.0408318,0.0269455,0.209522,-0.00340262,0.0264347,0.0137688,0.0447891,-0.0161309,0.0307334,0.0487136,0.0134142,0.0299732,0.0322616,0.00319729,-0.0325331,0.01133,0.0414341,-0.363634,0.0464835,-0.17844,0.353198,-0.0685416,1.90718,0.36418,0.615623,0.271102,0.0153665,0.0679924,0.0681283,-0.108913,0.0167037,0.0866688,0.0278128,0.0812943,2.24739,-2.34329,-1.07157,-6.08589,-0.413003,0.435214,-0.045659,-0.797622,-0.229779,0.0258773,0.0672483,0.08162,-0.0286806,0.0399721,0.0144156,-0.0981282,0.115337,-0.0282713,0.0190207,-0.0373666,2.34834,0.361066,-0.251001,-0.359478,-0.399054,-1.15457},
        {0.123407,0.0781582,0.0317116,0.0752404,0.0153185,0.0264891,0.105275,0.107053,0.0149267,0.122744,-0.0091379,0.0172456,0.0215198,0.254612,0.05261,-0.0033271,0.057057,-1.19177,0.231376,1.21535,-0.609402,0.0134429,1.92723,5.12882,-0.85451,-1.63672,0.253356,0.0425208,0.0719061,0.229411,0.11518,0.0397705,0.0977697,0.00991591,-0.109035,0.174784,0.000548905,0.0483343,0.0725317,0.0502552,-0.0782735,-0.0278492,0.0970252,-0.0176507,-0.00471003,0.0657177,-0.0629661,-0.0486517,0.0474037,0.0309189,-0.0554363,0.00588189,-0.051638,0.213217,1.44366,3.28984,0.275782,0.214831,4.84955,0.370702,0.449853,-0.0403358,0.00226238,-0.0663051,0.0685129,-0.0143528,0.0458749,-0.0724611,0.030687,0.0276161,-0.0129807,-0.0593584,-0.0361746,0.082596,0.0573704,-0.0141445,0.0929231,0.149978,0.426528,1.22616,1.64882,-7.80488,-1.60283,-0.195366,-5.58602,1.04716,1.45469,0.176849,0.0397766,-0.0331561,0.153169,0.0403511,-0.0123755,0.051063,-0.0233845,0.0394153,0.0577056,0.0278821,0.025177,-0.0277699,0.13155,-0.00823989,-0.006863,0.0461521,-0.0350215,-0.883203,0.41104,0.101363,-0.402608,-2.75279,1.53383,0.00769568,0.648427,0.512971,-0.0446972,-0.0193068,0.291882,-0.0440738,0.123273,0.0857122,0.0538927,0.040023,0.0799648,-0.101519,0.0238328,0.112763,-0.0217675,0.0412958,-0.0481245,0.0373398,0.0134338,0.0878409,0.0540568,0.0150535,-0.0246517,0.13371,0.0444825,0.0606115,-0.0480771,-0.0113499,0.187334,0.348139,0.312939,0.073763,0.612878,0.520615,0.0491877,0.0713242,0.218893,0.0624362,0.0201416,0.137853,0.116877,0.0697789,0.0171785,0.12267,0.0121678,0.105515,0.0388676,0.0789547,0.114088,0.101865,0.036256,0.0313787,0.0786463,0.0320173,-0.0502104,-0.0329155,-0.00479482,0.0791018,0.0476638,0.108842,-0.00554569,-0.0809511,0.170631,0.0600987,-0.117662,0.0546328,-0.0239745,-0.0166672,0.0113137,0.0272825,0.00220184,0.207033,-0.0912404,0.0799408,0.112913,0.0730173,0.1035,0.0760538,0.0385197,-0.0478337,0.00821179,0.171386,-0.0557837,0.104584,0.0659094,0.0591219,0.011564,0.0637812,0.024424,-0.110109,-0.766021,2.99479,0.430647,-1.64879,-0.310359,1.58069,-0.85193,0.336524,0.390123,0.583421,-1.18676,-0.09144,0.191478,0.3763,0.277873,-0.14714,0.121346,-0.166962,0.0593035,-0.0812801,0.0286271,0.105022,0.302116,0.516258,-0.0249936,0.0521943,0.0552317,-0.0370798,0.120565,0.0317234,0.224548,0.00811743,-0.0190584,0.395709,0.0327899,0.0629395,0.169445,-0.00439577,0.0525968,0.135129,0.00854178,0.0192816,1.71948,-0.299837,-0.154855,0.997246,0.157958,-0.0597088,0.636202,0.714214,0.210072,-0.471093,3.02712,0.0105146,-0.468223,0.328001,0.732933,0.10681,-0.32993,0.715047,-0.0275681,-0.0387874,0.373563,-0.0496326,0.0484434,0.164139,-0.0859784,0.0419101,3.85811,0.565689,0.253757,-0.104636,1.30297,0.686748,1.44895,1.48465,0.216222,0.0790602,-0.0274587,0.0406205,0.045385,0.0907345,0.0592023,-0.0182779,0.0694197,-0.0218474,0.105869,0.120713,0.00142281,0.0218482,0.156512,0.288469,-0.0241343,0.0244876,0.318274,0.0284846,-0.0235567,0.118162,0.0734965,0.00330859,0.0802916,-0.0381334,-0.0557377,-2.46472,0.222689,-0.522753,-1.93168,-0.610793,-0.943735,4.12711,-1.78526,0.27813,0.0420213,0.038539,0.0612029,-0.0376271,0.0692026,0.0347559,-0.00582468,-0.000237893,0.0322122,0.00639172,-0.00932019,0.282572,-0.0214075,0.0880696,0.0986815,-0.0303381,0.00798324,0.0886349,0.0374288,-0.0157229,0.0420265,-0.027879,0.0671888,0.0574538,0.0268488,-0.0581889,-0.00711936,0.0865585,-0.0131047,0.0775922,0.0656509,-0.0818411,0.0397152,0.0529607,0.00649148,-0.311584,-0.770126,-0.153196,0.217209,0.264112,1.35547,0.413823,0.715859,0.192142,-0.0182281,-0.000340585,0.0947943,-0.0112167,0.0230365,0.111373,-0.0486835,0.0110667,2.28001,-1.81121,-0.360166,3.87973,-1.29977,0.255149,-4.5094,2.94592,-0.135288,0.0049705,0.0616566,0.0377522,-0.0346348,0.0705458,0.0648682,-0.013044,0.135397,-4.42803,0.139751,-0.110809,0.532859,0.606001,0.662029,-0.701961,-0.414175,-0.673596},
        {0.0931882,-0.0275268,-0.0173185,0.144996,0.0621541,0.0373703,0.00927059,0.00643562,0.0201963,0.0417535,-0.00548689,0.0390074,0.106559,0.156347,-0.0340049,-0.0214988,0.0898671,-5.34402,-0.25855,0.812062,-0.811599,0.370946,-0.855571,-0.158469,-0.72987,0.258833,0.220906,-0.00765798,0.0498399,0.167148,0.0121081,0.0672062,0.14696,0.0197699,-0.065497,0.0556165,-0.0391856,0.0299977,0.0407554,0.0982051,0.00159365,0.0247687,0.0532691,-0.0114409,0.043047,-0.0507966,-0.0416346,0.0855443,0.0894135,0.129905,0.00403819,0.0104658,-7.71584,0.259477,0.519546,0.477052,0.296528,0.229097,3.73512,0.300956,0.577009,0.0536038,0.0983595,0.101408,0.0686964,-0.0149989,0.000925897,0.0572056,-0.0373368,-0.0191088,-0.0440924,-0.0493381,-0.0853056,0.0268321,0.0906114,-0.0163584,-0.0245404,-0.0311832,-8.64057,1.21389,0.25571,-4.71268,-0.495611,-2.56406,-2.64549,0.787819,-0.198107,0.211435,0.00482645,0.00580823,0.14464,0.0530033,0.0703672,0.115594,0.1155,0.0382465,0.0676655,-0.0976104,-0.075623,0.126068,0.0977629,0.0370237,0.095659,0.122212,-7.39999e-05,-0.685346,1.21866,0.0315164,0.352346,0.0918581,4.69743,-0.700237,-0.239969,0.532816,0.00882256,0.0440717,0.187474,0.120031,0.0435775,0.162929,-0.0381322,0.0386719,-0.0492169,0.0247343,0.087608,0.0976393,0.033612,-0.0375349,0.074744,-0.000123957,0.069801,0.0229668,0.0791564,0.0593554,0.0420735,0.102686,0.115603,-0.0505164,0.057298,-0.0431135,0.0104737,0.376517,1.20784,-0.00901401,0.523046,0.309817,-0.0128553,0.0576077,0.122233,-0.00492687,0.0182939,0.177437,-0.018398,0.0420092,0.047981,0.0635016,0.0432952,0.066264,0.0123233,-0.0240642,0.116687,0.0792205,-0.00520668,0.0627803,0.0281561,-0.0321173,0.0278364,0.0280191,0.0103488,0.088205,-0.0578138,0.26229,-0.00849907,0.0172487,0.0372204,-0.0226854,-0.0145575,0.0989878,0.0183369,0.0578289,0.0763669,-0.0315961,0.0243085,0.239803,0.0386565,-0.0144425,0.0716588,0.0625675,-0.0144931,0.0377029,0.0206069,0.0578869,0.0304223,0.15791,0.00638376,-0.00293935,0.180952,-0.0581438,0.00278542,-0.0532027,-3.75166,0.513738,0.675056,5.87526,-0.1336,-0.0530674,1.03247,1.76454,0.157937,0.674115,0.412387,0.452383,-0.832046,1.05471,-0.0382141,-0.399475,-0.310607,-0.0990305,0.126617,-0.088483,0.0620154,0.0641074,0.126303,0.0298219,0.281437,0.266593,0.0224482,0.0254807,0.0978742,-0.047024,0.102965,0.0713482,0.278875,0.0351247,0.0331197,0.366828,0.0212318,0.0785993,0.196765,-0.0404124,-0.0027837,0.0631887,0.0187437,0.0151003,1.66816,-0.131349,-0.337715,2.12363,0.0481306,-0.0242847,0.935742,1.42034,0.0941963,-0.246298,1.97296,0.0756209,0.932957,0.78556,1.07669,-0.623681,-1.01401,0.00483983,0.0275562,0.0604772,0.32453,0.0378666,0.119357,0.0911848,-0.0396192,0.0146508,0.68532,0.307312,0.494186,-0.0949185,0.00378941,0.702688,1.25727,0.908817,0.0437953,0.00590387,0.117162,0.0728457,-0.0748836,0.0966286,-0.0267246,0.0206129,0.118763,-0.0440814,0.00871448,0.112433,-0.0382134,0.0310411,0.0487241,0.185578,0.0227163,0.0411449,0.296313,0.00139955,0.0294218,0.0786568,0.0255227,-0.0510738,0.113165,0.0379095,-0.022908,-0.984474,-0.798302,-0.675459,-2.79717,-0.24308,-0.439526,-1.3653,0.281233,0.0506537,0.0495636,0.0746112,0.0437598,-0.126326,0.0293116,0.102949,0.00398672,0.0581437,0.626678,-0.0654461,-0.0185161,0.245841,0.110051,0.159808,0.138725,0.0175343,-0.014037,0.239771,0.0391365,-0.0021782,0.0577506,0.114138,0.0978035,0.0786438,0.0677261,0.0252991,0.0492278,-0.0602098,0.00816357,0.0362682,0.0272587,0.0155086,-0.027811,0.00661265,2.43472,-0.442615,-0.942777,-0.073103,0.139535,0.302994,-1.20058,0.709583,-0.0155363,0.152466,-0.0410577,0.0150292,0.102939,0.118743,0.0640468,0.0504131,0.0131162,-0.0352927,0.688294,-2.07765,-0.270394,2.66938,0.98607,0.470969,-2.51719,-1.46538,-0.296204,-0.0190681,0.090992,0.0138635,0.0335682,0.130248,0.1785,0.00568423,0.0821989,-0.0381133,-0.146882,-0.0198754,1.13818,0.484186,0.802817,0.328583,-0.112412,-0.480617},
