#include <stdio.h>
#include <stdlib.h>
#include <math.h>
#include <iostream>
#include <vector>

// Not needed for submission
#include <fstream>
#include <ctime>

using namespace std;

class Network {
  /* --- Members --- */
  private:
    int n_layers;
    vector<int> sizes;
    vector< vector<double> > biases;
    vector< vector< vector<double> > > weights;

  public:

  /* --- Methods --- */

  ~Network() {};

  Network() {
    n_layers = 3;
    int hard_sizes[] = {2, 2, 1};
    sizes.assign(hard_sizes, hard_sizes+n_layers);

    // Initialize the biases and weights all to 0.0 to start
    int i_layer, j_node, k;
    for (i_layer = 0; i_layer < n_layers-1; i_layer++) {
      vector<double> node_biases;
      vector< vector<double> > node_weights;
      for (j_node = 0; j_node < sizes[i_layer+1]; j_node++) {
        node_biases.push_back(0.0);
        vector<double> k_weights;
        for (k = 0; k < sizes[i_layer]; k++) {
          k_weights.push_back(0.0);
        }
        node_weights.push_back(k_weights);
      }
      biases.push_back(node_biases);
      weights.push_back(node_weights);
    }
  }

  void set_layer_biases(int i_layer, double* b) {
    biases[i_layer].assign(b, b+sizes[i_layer]);
  }

  void set_layer_node_weights(int i_layer, int j_node, int size, double* w) {
    weights[i_layer][j_node].assign(w, w+size);
  }

  /*
   *  Feed forward computation for neural network
   */
  double feedforward(vector<double> input) {
    vector<double> a = input;
    for (int i_layer = 0; i_layer < sizes.size()-1; i_layer++) {
        vector<double> b;
        vector< vector<double> > layer_weights = weights[i_layer];
        vector<double> layer_biases = biases[i_layer];
        for (int j_node = 0; j_node < sizes[i_layer+1]; j_node++) {
            double node_bias = layer_biases[j_node];
            vector<double> node_weights = layer_weights[j_node];
            double dot = 0.0;
            for (int k = 0; k < node_weights.size(); k++) {
                dot += node_weights[k] * a[k];
            }
            double z = dot + node_bias;
            double sig = 1.0/(1.0 + exp(-z));
            b.push_back(sig);
        }
        a = b;
     }
     return a[0];  // assuming only one output
  }

  private:
};

class QuakePredictor {

  /* --- Members --- */
  private:
    int qp_sampleRate;
    int qp_S;
    vector<double> qp_sitesData;
    vector<double> qp_retM;

  public:

  /* --- Methods --- */

  QuakePredictor() {};
  ~QuakePredictor() {};

  private:
    /*
     * Discrete Fourier Transform, convert to power spectrum, sum every 18
     */
    vector<double> dft_power(vector<double> data) {
      int n_data = data.size();
      int n_j = n_data / 2;
      vector<double> ft;
      double two_pi_over_n = 2.0 * M_PI / (double)n_data;
      double power_sum = 0.0;
      for (int j = 0; j < n_j; ++j) {
        double j_two_pi_over_n = (double)j * two_pi_over_n;
        double yj_re = 0.0;
        double yj_im = 0.0;
        for (int k = 0; k < n_data; ++k) {
          double z = j_two_pi_over_n * (double)k;
          yj_re += data[k] * cos(z);
          yj_im += data[k] * sin(-z);
        }
        power_sum += sqrt(yj_re*yj_re + yj_im*yj_im);
        if ((j+1) % 18 == 0) {
          ft.push_back(power_sum);
          power_sum = 0.0;
        }
      }
      return ft;
    }

    /*
     This computes an in-place complex-to-complex FFT
     x and y are the real and imaginary arrays of 2^m points.
    */
    short FFT(long m, vector<double> x, vector<double> y) {
      long n,i,i1,j,k,i2,l,l1,l2;
      double c1,c2,tx,ty,t1,t2,u1,u2,z;

      n = 4096;

      /* Do the bit reversal */
      i2 = n >> 1;
      j = 0;
      for (i = 0; i < n-1; i++) {
         if (i < j) {
            tx = x[i];
            x[i] = x[j];
            x[j] = tx;
         }
         k = i2;
         while (k <= j) {
            j -= k;
            k >>= 1;
         }
         j += k;
      }

      /* Compute the FFT */
      c1 = -1.0;
      c2 = 0.0;
      l2 = 1;
      for (l = 0; l < m; l++) {
         l1 = l2;
         l2 <<= 1;
         u1 = 1.0;
         u2 = 0.0;
         for (j = 0; j < l1; j++) {
            for (i = j; i < n; i+= l2) {
               i1 = i + l1;
               t1 = u1 * x[i1] - u2 * y[i1];
               t2 = u1 * y[i1] + u2 * x[i1];
               x[i1] = x[i] - t1;
               y[i1] = y[i] - t2;
               x[i] += t1;
               y[i] += t2;
            }
            z =  u1 * c1 - u2 * c2;
            u2 = u1 * c2 + u2 * c1;
            u1 = z;
         }
         c2 = sqrt((1.0 - c1) / 2.0);
         c2 = -c2;
         c1 = sqrt((1.0 + c1) / 2.0);
      }

      return 1;
    }

    /*
     *  FFT power spectrum. Input is destroyed.
     */
    vector<double> fft_power(vector<double> data) {
      // Zero pad data out to 4096
      int i, j;
      for (i = 0; i < 496; ++i) {
        data.push_back(0.0);
      }

      // Imaginary values
      vector<double> y;
      for (i = 0; i < 4096; ++i) {
        y.push_back(0.0);
      }

      // Run the FFT
      FFT(12, data, y);

      // Integrate every 32 values. But we only need to do half
      vector<double> power;
      j = 0;
      double power_sum = 0.0;
      for (i = 0; i < 2048; ++i) {
        j++;
        power_sum += sqrt(data[i]*data[i] + y[i]*y[i]);
        if (j % 32 == 0) {
          power.push_back(power_sum);
          j = 0;
          power_sum = 0.0;
        }
      }
      return power;
    }

    /*
     * Distance between two sites
     */
    double distance(double lat1, double lon1, double lat2, double lon2) {
      double earthRadius = 6371.01;

      double deltaLon = fabs(lon1 - lon2);
      if (deltaLon > 180.0) {
        deltaLon = 360.0 - deltaLon;
      }

      // Convert to radians
      double deg2rad = M_PI / 180.0;
      deltaLon *= deg2rad;
      lat1 *= deg2rad;
      lat2 *= deg2rad;

      double cl11 = cos(lat1);
      double sl11 = sin(lat1);
      double cl21 = cos(lat2);
      double sl21 = sin(lat2);
      double cdeltaLon = cos(deltaLon);
      double sdeltaLon = sin(deltaLon);

      double tmp1 = cl11 * sdeltaLon;
      double tmp2 = cl21 * sl11 - sl21 * cl11 * cdeltaLon;

      double x = sqrt(tmp1*tmp1 + tmp2*tmp2);
      double y = sl21 * sl11 + cl21 * cl11 * cdeltaLon;
      double dist = earthRadius * atan2(x, y);

      return dist;
    }

  public:
    /*
     * Initialization function
     */
    int init(int sampleRate, int S, vector<double> sitesData) {

      qp_sampleRate = sampleRate;
      qp_S = S;
      qp_sitesData = sitesData;
      for (int i = 0; i < qp_S * 90 * 24; ++i) {
        qp_retM.push_back(0.0);
      }

      // TODO: Initialize the neural network(s)

      return 0;
    }

    /*
     * Forecast function
     */
    vector<double> forecast(int hour, vector<int> data, double K, vector<double> globalQuakes) {

      clock_t start = clock();

      int i, j, k;
      int H = qp_sampleRate;
      int S = qp_S;
      int H3600 = H * 3600;

      // Scale to be in range 0-1
      double max_val = pow(2.0, 24.0);
      vector<double> scaled_data;
      for (i = 0; i < data.size(); ++i) {
        scaled_data.push_back(((double)data[i]) / max_val);
      }
      double scaled_K = (double)K / 10.0;

      // For writing to disk, verification
      ofstream myfile;
      myfile.open ("verify3.txt");

      // For each site...
      for (j = 0; j < S; ++j) {

        // Data transforms
        vector<double> channel_stats;
        vector<double> second_vals;
        for (int c = 0; c < 3; ++c) {

          // Compute average
          int n = 0;
          double avg = 0.0;
          int offset = (j * 3 * H3600) + (c * H3600);
          for (i = 0; i < H3600; ++i) {
            double val = scaled_data[offset + i];
            if (val >= 0.0) {
              n += 1;
              avg += val;
            }
          }
          if (n > 0) {
            avg /= (double)n;
          }

          // Mean fill missing values
          vector<double> mean_filled_values;
          double mean = 0.0;
          for (i = 0; i < H3600; ++i) {
            double tmp = (scaled_data[offset + i] > 0.0) ? scaled_data[offset + i] : avg;
            mean += tmp;
            mean_filled_values.push_back(tmp);
          }
          mean /= (double)H3600;

          // Compute seconds means, mean center
          i = 0;
          double second_mean = 0.0;
          vector<double> second_means;
          for (int v = 0; v < mean_filled_values.size(); ++v) {
            double val = mean_filled_values[v];
            i += 1;
            second_mean += val - mean;
            if (i == H) {
              second_means.push_back(second_mean / (double)H);
              second_mean = 0.0;
              i = 0;
            }
          }

          // Simple smoothing
          double smooth_stdev = 0.0;
          vector<double> smoothed_vals;
          double vall;
          vall = second_means[3600-2] * 0.05
               + second_means[3600-1] * 0.20
               + second_means[0] * 0.50
               + second_means[1] * 0.20
               + second_means[2] * 0.05;
          smooth_stdev += vall*vall;
          smoothed_vals.push_back(vall);
          vall = second_means[3600-1] * 0.05
               + second_means[0] * 0.20
               + second_means[1] * 0.50
               + second_means[2] * 0.20
               + second_means[3] * 0.05;
          smooth_stdev += vall*vall;
          smoothed_vals.push_back(vall);
          for (i = 2; i < 3600; ++i) {
            vall = second_means[i-2] * 0.05
                 + second_means[i-1] * 0.20
                 + second_means[i] * 0.50
                 + second_means[(i+1) % 3600] * 0.20
                 + second_means[(i+2) % 3600] * 0.05;
            smooth_stdev += vall*vall;
            smoothed_vals.push_back(vall);
          }
          smooth_stdev = sqrt(smooth_stdev / 3600.0);

          // First derivative of smoothed vals
          vector<double> second_1_derivs;
          double fp1 = smoothed_vals[1];
          double fm1 = smoothed_vals[3600-1];
          second_1_derivs.push_back(0.5 * (fp1 - fm1));
          for (i = 1; i < 3600-1; ++i) {
            fp1 = smoothed_vals[i+1];
            fm1 = smoothed_vals[i-1];
            second_1_derivs.push_back(0.5 * (fp1 - fm1));
          }
          fp1 = smoothed_vals[0];
          fm1 = smoothed_vals[3600-2];
          second_1_derivs.push_back(0.5 * (fp1 - fm1));

          // Fourier transforms, power spectra
          vector<double> ft_second_vals = fft_power(smoothed_vals);
          vector<double> ft_second_1_derivs = fft_power(second_1_derivs);

          // Collect up the data
          channel_stats.push_back(mean);
          channel_stats.push_back(smooth_stdev);
          for (i = 0; i < ft_second_vals.size(); ++i) {
            second_vals.push_back(ft_second_vals[i]);
          }
          for (i = 0; i < ft_second_1_derivs.size(); ++i) {
            second_vals.push_back(ft_second_1_derivs[i]);
          }

        }

        // Compute global quake score per site
        double global_quakes_score = 0.0;
        if (globalQuakes.size() > 0) {
          double site_location_lat = qp_sitesData[j*2];
          double site_location_lon = qp_sitesData[j*2+1];
          for (i = 0; i < globalQuakes.size() / 5; ++i) {
            double dist = distance(site_location_lat, site_location_lon,
                                   globalQuakes[i*5], globalQuakes[i*5+1]);
            global_quakes_score += globalQuakes[i*5+3] / dist;
          }
        }

        // Write stuff to disk for verification
        myfile << 0 << ",";
        myfile << K << ",";
        myfile << global_quakes_score;
        for (i = 0; i < channel_stats.size(); ++i) {
          myfile << "," << channel_stats[i];
        }
        for (i = 0; i < second_vals.size(); ++i) {
          myfile << "," << second_vals[i];
        }
        myfile << endl;

        // TODO: Run neural network for prediction here

        // Store prediction in the return matrix
        double pred = 0.5;
        qp_retM[qp_S*hour + j] = pred;
      }

      myfile << "Time: " << (clock() - start) / (double)(CLOCKS_PER_SEC / 1000) << " ms" << endl;

      // Close file after writing
      myfile.close();

      return qp_retM;
    }

};


void test_network() {
  Network network;

  double layer0_biases[] = {-0.993263,-0.0924209,-2.14052,0.150227,0.151305,0.720534,-2.78126,2.42786,-0.218459,3.47467,-0.0338186,1.2159,1.05476,-0.609434,0.409418,-1.02903,0.670833,0.151161,-0.421272,-0.25121,-1.70565,-2.21307,-2.62307,-0.248176,-0.545835,0.290186,-0.57388,-0.177116,-0.323135,-0.049466};
  double layer1_biases[] = {0.506683,0.443839,-0.813948,-1.37064,-1.16064,-1.13185,0.25833,-0.964428,-1.33025,0.821801,-1.45792,-0.843919,-0.597026,-1.27716,-0.584364,0.143625,0.604499,0.773019,-2.00895,1.31605,0.149501,0.912284,0.0579625,-0.37386,0.403726,-1.56785,2.75435,2.47065,0.733643,0.194828};
  double layer2_biases[] = {-1.85925};
  network.set_layer_biases(0, layer0_biases);
  network.set_layer_biases(1, layer1_biases);
  network.set_layer_biases(2, layer2_biases);
  double layer0_weights[][392] = {
    {0.0160794,-0.0337578,0.0286393,0.015885,0.0654195,0.041469,0.12275,-0.066658,0.0896909,0.177233,-0.0119936,0.0344971,-0.141379,-0.0624931,-0.0705766,-0.0715046,-0.0314234,-0.0349615,0.0486067,-0.144291,-0.0136292,-0.0331018,0.0529105,0.046009,-0.0618491,-0.00580731,-0.00687412,-0.0442129,0.0812817,0.0381238,-0.0137369,-0.0212862,-0.0111314,0.00813333,-0.113846,0.0115602,-0.0546268,-0.00203394,0.157827,-0.0691037,-0.065215,0.0610832,0.0664414,0.0712766,0.0567176,-0.0748651,-0.00224639,0.0116561,-0.0286501,0.072414,-0.0831182,-0.00793304,0.0188967,-0.0102911,0.0231558,0.0202324,-0.0198516,0.0928875,0.107124,-0.0935019,0.0818765,0.0245447,-0.123285,-0.0902513,-0.00390799,0.036265,0.0721078,-0.0483104,0.0506804,-0.0286815,-0.0572164,-0.0594557,-0.0768695,-0.0265541,-0.0113027,-0.0176967,0.025527,0.0575931,0.00816796,0.0141617,0.0205197,-0.0881154,-0.00377951,-0.100047,0.032746,-0.0629488,-0.0182865,-0.0212334,0.01598,-0.118391,0.0276936,-0.0100467,-0.0778512,-0.0211388,0.0889221,-0.037624,-0.0166931,-0.05814,0.0516094,-0.0244722,0.0787876,-0.0305335,-0.0614083,-0.00625099,0.0280493,-0.0870424,0.0699976,-0.0250823,0.136475,0.0517073,0.014533,0.00471482,0.0146982,0.0122931,-0.0231996,-0.0591632,0.0162134,-0.0348148,-0.103587,-0.0764162,0.00103635,-0.0293173,-0.0211472,-0.0232515,0.0323097,0.0149777,0.0341214,0.0391397,0.0865489,0.0386077,0.00847401,0.0618907,-0.0055668,0.0503517,0.0117414,-0.021337,0.0576697,-0.0315359,0.0319866,0.0681172,-0.0234408,0.0248039,-0.149928,0.0259338,0.0132571,-0.0842768,-0.176037,-0.0523756,-0.00840107,-0.0779497,0.00976239,-0.109716,0.106264,-0.0114588,0.0057629,-0.029507,0.0052181,-0.0819291,0.0109991,-0.0504025,-0.110136,-0.0103124,-0.0316103,-0.0807999,0.0307701,-0.00188909,-0.030702,-0.0792772,-0.0559957,0.0142984,0.0399833,-0.0806167,0.112336,-0.0259062,0.0954983,0.0129122,0.0232265,-0.0200763,0.0942235,0.0822737,-0.00829738,0.0229612,0.0370039,-0.0326622,-0.0660627,-0.026282,0.00646945,0.00413132,-0.041492,-0.00993435,-0.00149464,0.00312837,0.0194259,-0.0200968,-0.00758625,0.0144803,-0.0219046,-0.0277244,-0.0712908,-0.0765057,-0.0374748,-0.0251822,0.0203814,0.0621663,-0.0258443,0.0043907,-0.0263159,-0.0494739,0.0147693,-0.0360189,-0.0448908,0.0378154,0.0590595,0.0501735,0.0340029,0.00937012,0.0407004,-0.034309,0.0190001,0.0675119,-0.0303896,0.0153212,-0.112762,-0.00388677,-0.0399443,-0.0502641,-0.0517321,0.0563051,-0.015902,0.10431,0.0159807,0.00227996,-0.0218223,-0.0362665,0.0675519,0.00582245,0.119398,-0.103672,-0.0311584,-0.00827733,-0.114368,0.0142271,-0.038691,-0.0520657,-0.00931923,0.11793,-0.0120098,0.0723882,0.0102399,-0.00163531,-0.0651222,-0.0472258,-0.0295063,0.066965,0.0623314,-0.056753,-0.0159194,-0.0204711,-0.128566,0.0204329,-0.0240301,-0.0521858,-0.0371039,-0.0120056,0.0152705,-0.0863651,0.0173548,-0.0292175,-0.0995208,-0.0317339,-0.126357,-0.074782,0.040106,0.0208148,0.0400606,-0.168554,-0.110517,-0.0487095,-0.02879,-0.00222241,-0.0111762,0.0190571,-0.0481706,-0.00577856,0.0148664,-0.0322975,-0.0233004,0.00416134,-0.140945,0.0425022,-0.0806487,-0.0375056,0.0382468,-0.0186808,0.0307956,-0.043394,-0.0513696,-0.00513981,0.0977214,-0.0576447,0.0268692,0.0507782,0.0285054,-0.0521975,-0.00966741,-0.0187196,-0.0165153,-0.00214575,-0.038381,-0.0122998,0.013578,-0.0926957,-0.00940715,0.0222984,-0.0129337,0.0135194,0.0136058,0.0104632,-0.0257442,0.0155059,0.0535584,-0.0328748,-0.02041,-0.026525,0.0100186,0.0963639,0.0193426,0.0488591,0.052728,0.0459976,0.00568358,-0.0178537,0.0256424,0.0665991,-0.0557438,0.000893617,-0.0532307,0.0254512,0.0694646,-0.0281355,-0.0780148,-0.0518769,-0.0392472,-0.0204559,0.00857872,-0.101622,-0.0351404,0.0411822,0.12404,-0.0448189,-0.0048273,0.03124,-5.52586e-06,-0.0436532,0.0413836,0.0960663,0.0380429,-0.0227624,-0.0374658,-0.0471456,-0.0559394,0.00630533,0.0861742,-0.0316819,0.00961724,0.00260541,-0.0118118,-0.0922648,0.0272855,-0.127184,0.0233964,0.0345995,-0.0129716,0.0286389,0.0126677,0.00232845,0.0131926,-0.00697144,-0.0295338,0.0565065,-0.0201536,0.0799788,0.0206271,0.0739992,0.0444935,-0.0347016,-0.0484303,0.035166,-0.0409235,0.00218297,-0.00107862,0.015183},
    {-0.0590288,-0.0104343,-0.034354,-0.0482645,0.0304476,-0.0740738,0.268457,0.0544946,0.12415,0.0609387,0.0564334,-0.0234725,-0.30591,0.0546242,-0.0287031,-0.0576494,0.054465,-0.0412108,-0.111801,-0.27147,0.184772,0.119804,0.242521,-0.15564,0.34126,0.12193,0.298273,0.149448,-0.0333659,0.297198,-0.0281479,-0.0227655,0.0253067,-0.123291,-0.226208,0.00242722,0.0510129,0.035534,-0.014905,-0.137694,-0.045403,-0.0248081,0.0635793,0.0950249,0.151334,-0.0361539,-0.0982947,-0.0721338,-0.00126206,-0.0330783,-0.0700152,-0.105248,-0.054403,-0.0360161,0.020198,-0.0800438,-0.111174,-0.124444,0.112501,-0.021078,0.0135903,0.0603203,-0.0472157,-0.0884714,0.109779,-0.0287921,0.0220379,-0.0657753,0.0077121,-0.118307,-0.0920004,0.000263118,-0.0128949,0.0661317,0.0186144,0.0252999,-0.101623,0.0294969,0.0508971,-0.0317234,0.0235823,-0.0997506,0.0236669,-0.122288,0.180777,0.0756833,0.129406,-0.0811412,0.146049,0.0425587,0.227356,-0.00619392,0.0406587,0.232674,-0.0213705,-0.126849,0.0159602,-0.0476635,-0.0587127,-0.0250452,0.0613705,0.107479,0.0596304,-0.233144,-0.00305267,-0.0801599,0.0415622,0.0208229,0.0580792,-0.039639,0.0215504,0.00425143,-0.0539476,-0.0965074,-0.066181,-0.011577,0.0337259,0.0021823,0.0534979,-0.0414043,0.0146653,-0.101752,0.050749,-0.0724303,-0.0730522,-0.0807739,-0.0465686,0.113467,0.0253151,-0.0199735,0.147551,0.0017027,0.0373998,0.0676061,0.0605374,-0.0114088,-0.181554,-0.200905,0.0312143,0.00705112,-0.211311,-0.0484421,-0.500223,0.0312351,0.315632,0.0447706,-0.441093,0.448625,-0.0617306,0.040178,0.152325,-0.30669,0.3002,0.0290669,0.16579,-0.198417,0.0272749,-0.0272283,0.0105069,0.0981258,-0.138208,-0.0270895,-0.0617035,-0.0258039,0.0671699,0.0113182,-0.068285,-0.0823309,-0.0380254,-0.0821531,0.0268085,0.0657923,0.122169,0.0401475,-0.103417,-0.168291,0.0437364,-0.00215231,0.00442556,0.0325679,-0.0779094,0.0952585,0.0280635,-0.016346,0.0142629,-0.0660019,-0.0200952,0.122121,0.0607948,0.0210168,0.0844331,-0.0245335,0.0425681,0.0576112,0.0150153,-0.0184684,-0.0731412,-0.0854282,-0.0138997,-0.0380258,-0.0688599,-0.0680741,-0.0383794,0.052092,-0.0913181,0.0152779,-0.187142,-0.0549536,0.0983533,0.0641653,-0.216118,0.240374,-0.066503,-0.018349,0.0681508,-0.246861,0.281643,-0.10231,0.0924292,-0.172151,-0.12939,-0.0275491,-0.103737,0.0616947,-0.060438,-0.0443618,-0.196274,-0.158624,0.0932077,-0.000489449,0.0128074,-0.106829,0.0490231,-0.0584314,-0.0489961,-0.0171343,0.108068,-0.00439656,-0.109898,-0.103947,-0.0872997,0.0259014,0.0576855,0.0160541,0.00457865,0.0568175,-0.0372943,-0.0710454,0.0329491,0.00529523,0.0625139,0.0394683,0.0790317,-0.02539,0.131235,-0.0254839,0.0268447,-0.0589741,0.0617832,-0.0168294,0.0129845,0.160802,0.0343945,0.0171071,-0.0556654,0.0269085,0.394731,0.196245,-0.0739534,-0.195357,-0.0307627,-0.295912,-0.0343669,0.373166,0.0421138,-0.042281,-0.399808,-0.193153,-0.00776491,0.228911,0.298299,0.0151648,-0.0186731,-0.141492,-0.0266534,-0.0777656,0.152022,-0.023839,-0.0633512,-0.0562156,-0.0643506,0.0508588,-0.132198,-0.232439,0.0770127,-0.14895,-0.164104,-0.0794939,-0.172245,-0.015556,-0.114443,-0.203801,-0.0927672,-0.0837133,-0.0751098,-0.129759,-0.0374284,0.00949086,-0.0482363,0.0295522,-0.060848,-0.133412,-0.0145354,0.066763,0.0754472,0.0659738,0.0862328,0.0355653,0.047131,-0.0288486,0.0656733,0.0533123,0.141565,0.0606333,0.0525956,-0.00731385,0.188949,0.00371791,-0.12256,0.0319536,-0.0281092,-0.00286932,-0.0289512,0.0248544,0.017809,-0.113687,-0.0621899,0.130406,0.0308682,-0.0373587,-0.287228,-0.132036,-0.0506988,0.0957459,0.260712,0.0290502,-0.137334,0.0825825,-0.0389251,0.0189487,0.0586688,0.0356643,0.0136273,-0.110802,-0.0380279,0.00157215,0.0641968,-0.111299,0.0138722,-0.097657,-0.0702688,-0.0580097,-0.0842598,-0.0095305,-0.103775,-0.105055,-0.187394,-0.0930302,0.0381197,-0.132128,-0.0419705,-0.0171557,-0.0537421,-0.112483,0.0231678,-0.0738523,0.0100818,-0.011737,0.0350604,0.000510701,0.149448,0.0647893,0.0750832,-0.160496,-0.00669311,-0.0111817,0.00231243,0.0807675,-0.0930125,0.00980805,0.069122,0.0772954},
    {0.0492994,0.0747169,-0.123546,-0.0143498,-0.176696,0.0350067,-0.313246,-0.0591164,0.633129,0.149908,0.111124,0.288768,0.44042,0.178626,-0.189697,0.235769,-0.160529,0.207215,0.0351935,0.534626,-0.502608,-0.00274992,-0.280058,-0.00575264,0.327092,-0.027534,-0.118464,0.036686,0.136471,-0.112901,0.00388458,0.261777,0.161045,0.312719,0.00484541,0.0295914,-0.0824338,0.00123754,0.0249353,0.0592974,-0.0333684,0.0325821,-0.0774896,0.00902958,-0.049895,0.0442746,-0.00475346,0.035024,-0.0578948,-0.0202581,0.0127122,0.033998,-0.00157513,0.0734395,0.110938,0.0024271,0.0574003,-0.00866483,0.0178126,0.0539525,-0.0507887,-0.0532899,-0.0761362,0.00127622,0.0536217,0.113189,-0.0559107,0.00312304,0.0752609,0.0195309,-0.00680533,-0.0616451,0.00754881,0.0487906,0.0299097,0.032551,0.0947581,-0.0485702,-0.0936102,0.0900484,-0.0806199,0.131554,0.00946308,0.32464,-0.208105,0.0017999,-0.281938,0.152243,0.0772862,-0.0420189,-0.0148328,0.0090662,0.1485,-0.0477652,-0.0166157,0.251813,0.117882,0.297591,0.0553644,0.0293917,-0.0579877,0.0490552,-0.141539,0.146718,-0.022718,-0.119987,-0.0220934,-0.00886149,-0.119885,-0.0847602,0.0740357,-0.0145815,0.000996652,0.0561591,-0.0523444,0.0192995,-0.0311274,0.139316,0.0146005,0.0328729,0.0483586,0.0351448,-0.0655416,0.0932134,0.0973379,-0.00664999,-0.0496003,0.0522849,-0.0383149,0.0779928,-0.0529413,-0.0176222,-0.0185792,0.0375872,0.123786,0.0845176,-0.628415,-0.325254,-0.37058,-0.331937,-0.243755,-0.307083,0.532525,-0.266065,-0.436045,0.274823,0.29776,-0.0696918,0.291806,0.00377101,0.0822485,0.340296,0.117551,0.0250152,0.151835,0.363421,0.363719,0.240015,0.226609,0.00916631,0.11266,0.315441,0.152871,0.106191,-0.0944736,0.0658245,0.0286194,0.0902367,-0.0315544,0.0338827,-0.0333901,0.0183872,-0.0921978,0.0534754,0.103965,0.00210498,-0.064583,0.0138743,-0.100201,-0.0365781,0.0385603,-0.143229,0.0149972,-0.0175657,0.038387,-0.0360695,0.0116902,0.0542302,0.0242163,-0.0249386,0.0206159,0.0491864,0.0193427,0.0481412,0.0120922,-0.00125485,0.0611556,0.0565036,0.0484244,0.0659339,-0.105315,-0.0609134,-0.123061,-0.0799241,-0.00362037,-0.125907,0.216967,-0.120536,-0.144717,0.184855,0.249385,-0.116616,0.160451,-0.0351306,0.00392478,0.135329,0.141726,0.102395,0.0839466,0.290771,0.346687,0.222513,0.138906,0.0738543,0.167512,0.259015,0.222874,0.193933,0.00660323,-0.00214541,-0.0338864,0.0252887,0.0302893,-0.0234343,0.0199515,-0.0508721,-0.0332697,-0.0410857,0.126331,0.0488033,-0.0786883,-0.0718078,-0.0748412,-0.0275715,-0.0368817,-0.0498998,0.0889498,0.077258,0.0528829,-0.0493684,0.0892214,-0.0498427,-0.0179578,-0.0457817,-0.126691,-0.0385275,-0.0440548,-0.0438548,-0.021701,0.128479,0.085236,0.0655266,-0.0476622,0.0817231,0.298014,-0.0664953,-0.468603,0.101153,-0.122534,0.00379527,0.070362,0.314485,0.101115,-0.021397,0.278148,0.0600304,0.515995,0.192357,-0.125361,-0.263403,-0.204179,0.0546795,0.034055,-0.0538079,-0.113214,-0.0308286,-0.136829,-0.155232,-0.0871154,0.0364095,-0.00430226,-0.251569,0.0246088,0.1295,-0.205998,0.130924,0.0930225,-0.117728,-0.012686,0.0408646,-0.118116,0.139505,0.0953707,-0.00931392,-0.0292015,0.147737,0.0329148,0.0390601,-0.0703641,-0.0831457,-0.0695692,0.072968,0.0281224,-0.00996518,-0.078083,-0.0592174,-0.0942412,-0.0631023,-0.0751415,-0.10229,-0.107255,-0.0216648,-0.132707,-0.0509567,-0.0783159,0.00650062,-0.139848,-0.0642292,0.0746365,-0.133971,-0.017944,0.0378615,-0.0596339,0.0262008,0.0573188,0.174677,0.0781568,-0.0240339,0.0329018,0.134356,0.0557536,0.142822,0.0166065,-0.23011,-0.240042,-0.00866479,-0.00413646,-0.0870748,0.0956227,0.0399461,-0.165307,-0.0669313,-0.0807676,0.00626696,-0.140466,-0.181437,0.0854487,0.00415272,-0.149787,0.125502,-0.0128394,-0.0844737,-0.124524,0.019768,0.104262,0.0777419,0.092075,0.0982104,-0.0565164,0.0671778,0.110236,0.0128129,-0.00613363,-0.0843014,0.0432658,0.029141,-0.0318848,-0.0109814,-0.0220393,0.02582,-0.0220638,0.0289546,-0.0702964,0.0246691,-0.0430282,-0.00925645,-0.0051922,0.0326668,-0.0193364,0.0439981,-0.077099,-0.0205518},
    {0.081154,-0.0131645,-0.0320856,-0.0142495,-0.0710381,0.0951864,-0.328497,-0.0271983,-0.204115,0.0121926,0.263552,0.0637974,0.199128,-0.00793264,0.328799,0.0613265,-0.133692,0.216596,-0.0907561,0.509618,-0.331212,-0.220841,-0.254187,-0.390786,-0.35877,-0.220768,-0.256012,-0.122784,-0.108503,-0.336136,-0.0314424,0.00789451,-0.0504707,0.183903,0.0375599,0.00370068,-0.160026,-0.134362,-0.0546664,0.0884713,0.034723,0.0532188,-0.168254,-0.0621841,-0.178979,0.000584572,-0.020443,0.0685992,-0.00639762,0.116834,0.0957217,0.0186295,0.0767736,0.104108,-0.12837,0.110638,0.03533,0.0766405,-0.02131,0.0773788,-0.0797115,0.0542125,-0.0992209,-0.000732173,-0.0357052,0.0201136,-0.0176322,0.0836519,0.0865689,0.00760211,-0.0287541,-0.034469,0.00256576,-0.00200325,0.0488686,0.0771456,0.0493341,0.0153322,0.105469,0.160487,0.017879,0.0670237,-0.019654,0.257694,-0.183243,-0.230383,-0.157458,-0.175103,-0.339422,-0.24721,-0.321415,-0.0744455,-0.171376,-0.219924,-0.0475789,0.0389332,-0.116278,-0.00258409,0.0303611,-0.0235186,-0.0709456,-0.0866138,-0.0968452,0.00522253,-0.0378826,0.0442691,-0.119741,-0.0849022,-0.0244621,-0.0649229,-0.0558787,0.0554506,0.0125527,0.00773199,0.0257158,0.0056853,-0.00153035,0.000381821,0.0192306,0.0838671,-0.00927425,0.102845,-0.0136139,0.03448,-0.0489591,-0.072639,0.0700966,-0.013076,0.00954665,0.0144495,-0.069381,-0.055935,0.0307378,-0.0252456,0.0236414,-0.0177783,-0.313135,0.10879,-0.0842863,0.0708257,0.124684,0.0799569,0.578511,0.222705,-0.289084,0.0471528,0.418683,-0.345687,-0.0849036,0.042429,0.0493377,0.179853,-0.373099,-0.0681934,-0.0198855,0.110223,0.110298,0.191655,-0.00728295,-0.0808335,0.162405,0.139013,0.0955287,0.13019,-0.0395039,0.0830422,-0.0415644,0.0994863,-0.035653,-0.115298,-0.00401175,0.0414105,-0.10012,-0.020838,0.157776,-0.00230083,-0.0699858,-0.0643899,-0.0998691,0.0181092,-0.0676897,-0.0424412,0.164664,0.0206251,0.0344238,-0.0222733,-0.117082,-0.174102,0.0806909,-0.0915247,-0.0627063,-0.0157991,0.0238487,-0.0397606,0.0669993,0.000391949,0.0078786,0.0795026,0.0181978,0.171384,0.073327,-0.0192744,-0.0110546,-0.0530673,0.0342599,-0.018498,0.195195,0.123449,-0.1755,0.00809322,0.258922,-0.183526,0.00907349,-0.0361699,0.0941196,0.227358,-0.374975,-0.070387,-0.116331,0.232453,0.00102108,0.152364,0.074268,0.0716559,0.146798,0.10201,0.138878,0.00222975,-0.0495502,0.0900038,-0.00910456,-0.0824286,-0.000333767,-0.019906,-0.0172882,-0.0733732,-0.170844,-0.102048,0.0977575,0.0726705,-0.113646,0.0136796,-0.0314987,-0.0899021,0.121628,-0.0176408,-0.0156715,-0.0106932,0.0279822,0.0473131,-0.0809034,-0.00958249,-0.0852583,0.0266179,-0.0551224,-0.0104125,-0.0627189,0.0386276,0.0859281,-0.00505708,0.0697883,0.0250077,-0.00783668,0.0796677,-0.546944,-0.0846657,-0.23823,-0.259862,0.215246,0.0699637,0.140958,0.220876,0.0720138,-0.428406,-0.0421642,0.0581013,0.314414,0.0958804,-0.0364839,-0.39944,-0.427153,-0.157531,-0.0612781,-0.23281,-0.0148982,-0.0930824,-0.2065,-0.146246,-0.00215011,0.161858,-0.0822672,-0.116171,0.082022,0.0975811,-0.109323,0.166445,0.0393076,0.0191273,0.0119172,-0.0257249,0.0326057,0.172173,0.0415525,0.172804,0.0267629,0.121231,0.0347167,-0.0638057,-0.0958229,-0.0275593,0.0126702,0.100149,0.0850902,0.014341,-0.104007,0.000723955,-0.0115726,0.024818,-0.153311,0.029813,-0.0429435,-0.032513,-0.197914,-0.0696035,-0.0828598,0.0452638,-0.131038,-0.0450506,-0.0481637,0.0270714,-0.104656,0.00835827,0.0227728,0.0302948,0.0487421,0.170443,-0.0428783,-0.145404,0.0212833,-0.0201329,0.2626,0.0484938,0.0153111,-0.226082,-0.324331,-0.0918303,-0.0928676,-0.0397482,-0.0702718,-0.132058,-0.190945,-0.043889,-0.0567971,0.0200413,-0.0405873,-0.0270832,0.0518479,0.0224606,-0.0618404,0.152732,0.0660477,0.0409352,0.178732,-0.0323958,0.0303207,0.130155,0.182512,0.137391,0.0414336,0.101052,-0.0104318,0.0141391,0.0797964,-0.0250357,0.0408816,0.075749,0.0672861,-0.0301134,-0.0436685,-0.048313,-0.00493413,0.00888905,0.0349908,-0.00358563,-0.0629357,-0.183315,-0.0824685,0.015213,-0.00477916,-0.0271507,0.104682,-0.00132347},
    {0.220519,-0.0990937,0.512962,-0.0427607,0.224502,-0.00913007,-0.0326459,-0.0524615,0.452886,-1.42454,-1.00348,-1.12747,-0.636603,-0.671682,1.06013,0.389274,-0.380406,0.411571,-0.294567,1.01258,0.205476,0.073833,0.221317,-0.377896,-0.014747,0.159522,0.0243917,-0.183542,-0.0780726,-0.187249,0.0122783,0.178298,-0.176514,0.215634,0.261252,0.055996,-0.123038,0.000614899,-0.089213,0.239511,-0.0479251,0.130155,-0.167331,-0.0750718,-0.171813,-0.0568151,0.180701,0.082124,0.0219534,0.0299527,0.00998784,0.121831,0.030723,0.0406377,0.0671951,0.115464,0.0590815,0.130055,-0.00423763,0.144395,0.083516,0.0170919,0.107331,0.133163,0.0726268,0.253447,-0.0533222,0.066737,0.10179,0.119375,0.04444,0.0521216,0.0957505,-0.0748921,-0.100164,-0.145648,-0.0689647,-0.15345,0.34369,0.110619,-0.0961373,0.128481,-0.103457,0.68555,0.136015,0.124424,0.194708,-0.393,0.0387765,0.0500805,0.0319777,-0.0438894,-0.099384,-0.164301,0.0439264,0.010817,-0.214899,0.178914,0.218055,0.0764868,-0.151732,-0.159181,-0.0194836,0.169158,0.0728734,0.0457814,-0.203208,-0.0535131,-0.184151,0.0541197,0.183658,0.156756,0.00584056,0.00524351,0.0872839,-0.103751,0.161067,-0.0298906,0.11229,-0.0320664,-0.0423949,0.0406451,0.048303,0.0888667,0.0106731,-0.054205,0.00152182,0.0365115,0.017933,0.0456555,0.121217,-0.0193291,-0.0358992,0.012519,0.0271329,0.0138435,-0.0245019,-0.783239,-0.0540583,0.0957065,1.1336,-0.289739,0.351224,0.00265788,-0.456361,0.369575,0.264317,-0.205227,-0.360498,0.225089,0.408464,0.537646,-0.307652,0.265917,-0.15734,0.223441,-0.0919815,0.145735,-0.0863618,-0.145256,0.0686807,-0.260826,-0.139065,-0.0918401,-0.283809,-0.289623,-0.0916293,-0.0991844,-0.247797,-0.0126622,-0.0513035,-0.164609,-0.291708,-0.257959,-0.0551341,0.055785,-0.237616,-0.19328,-0.0730505,-0.155962,-0.0975577,-0.0667622,0.0555411,-0.0542709,-0.119665,0.0507612,-0.231715,-0.144482,0.0432609,-0.00697564,-0.151181,-0.017941,-0.0122987,-0.0800858,-0.00243891,-0.0463056,-0.0155418,0.0882159,0.053177,0.0610238,0.0246717,-0.0353803,0.0438702,0.00647201,0.356552,-0.0762244,0.174862,0.0537098,-0.235021,0.07513,0.0985526,-0.122731,-0.268287,0.112895,0.251742,0.340309,-0.145439,0.273526,-0.163624,0.254894,-0.0614519,0.0416964,0.000271163,-0.0767789,0.00199223,-0.232102,-0.178959,-0.0380942,-0.147594,-0.131606,-0.0783166,-0.124534,-0.156974,-0.104952,-0.0927412,-0.172625,-0.31537,-0.278057,-0.098803,-0.0535822,-0.196398,-0.102625,-0.0705054,-0.0899901,-0.0505777,-0.0717424,0.0352058,-0.00646114,-0.0572716,-0.06157,-0.150595,0.0136719,0.0910411,-0.0250976,-0.120858,0.0908451,-0.0738743,-0.0299348,0.0517149,0.0333777,0.0739105,0.00566234,0.00560382,0.0716738,-0.478867,0.0564618,0.436827,-0.510314,0.339047,-0.485512,0.212867,0.534141,0.0946774,-0.223861,-0.212648,0.155386,0.743888,-0.16421,0.112111,0.0972285,0.0767175,-0.128914,0.198457,-0.201636,-0.00558198,0.0762073,-0.303769,-0.103131,-0.0979995,0.116577,-0.218991,-0.106108,0.0777737,0.112476,0.0157876,0.137009,0.115271,0.0843255,0.276538,0.121473,0.103832,0.29312,0.172764,0.148019,0.0244173,0.206924,0.104971,-0.0426306,0.113896,-0.0833292,-0.0174995,0.126491,-0.0333253,-0.0785197,0.0128546,0.0140795,0.00895567,-0.0063468,-0.0915368,-0.0899259,-0.132101,-0.164492,-0.065606,-0.0518812,-0.0965707,0.00987246,-0.186098,-0.0566534,0.0361305,-0.0124615,0.0544406,-0.111625,0.0907145,-0.219214,0.136073,0.128903,-0.00427082,-0.154721,-0.0896732,0.116069,0.416669,-0.0901099,0.0708139,-0.00181609,0.115912,-0.0272635,0.166571,-0.137649,-0.0626029,-0.0469447,-0.224792,-0.0167126,-0.0812884,0.137245,-0.0970705,0.0229299,-0.0166119,0.168873,-0.0335849,0.0510166,0.128175,-0.0248599,0.250382,0.0971882,0.00124749,0.182483,0.340263,0.195346,0.160157,0.164608,0.066363,0.0352193,0.0475989,-0.123142,0.00593556,-0.00302244,0.0921309,-0.0642989,-0.0742058,-0.0601187,-0.0493438,-0.024469,-0.0551605,0.00836539,-0.0637148,-0.0887096,-0.0290824,-0.0467491,-0.0323579,-0.0283269,-0.00621239,-0.106086},
    {0.0960501,-0.0331165,0.183834,0.0549633,-0.0456813,-0.070828,-0.168902,-0.0192463,0.0507826,0.0180016,0.0970676,-0.329119,-0.219438,-0.783046,0.462396,-0.0304229,-0.145943,0.458225,0.115091,0.661746,0.0878536,-0.0769913,0.19261,-0.194838,-0.189177,0.194141,-0.0503048,-0.0057255,-0.0769424,-0.223601,0.0890366,0.0880478,-0.0635874,0.00762261,0.0935789,0.0366329,-0.0719533,-0.0468281,-0.154509,0.178086,-0.116134,0.0210141,-0.186201,-0.022116,-0.084313,-0.0211575,0.0313506,0.0518456,-0.113439,0.00249347,0.0119382,0.0570477,0.0350028,0.0884114,0.0409822,0.0518292,0.0367862,0.116173,-0.112852,-0.0500786,0.0450984,0.00137655,-0.0111385,0.0493035,0.0356708,0.0897067,-0.0478124,-0.0591498,0.0410349,0.00713315,0.00184396,0.0173856,0.0842537,-0.0284002,0.0435843,-0.0373075,-0.0571452,-0.158982,0.0933664,0.0310795,-0.123663,0.204305,-0.01609,0.441817,0.102513,-0.0364571,0.113218,-0.198962,-0.26322,0.0917243,-0.049497,0.0266291,-0.0814131,-0.249731,0.130308,-0.0313358,-0.0701333,0.070015,-0.0161189,0.0293082,-0.172964,-0.137662,-0.122584,0.133752,-0.0415949,-0.0663473,-0.11453,0.0183315,-0.0535594,-0.127553,-0.0148872,0.0432687,0.015975,-0.0628219,-0.0203226,0.00962187,0.0950095,0.0917562,-0.0300555,0.110565,0.084601,0.0136309,-0.139435,-0.0447656,0.0366259,-0.0705203,0.00146298,0.0226197,0.0732388,-0.018476,-0.0328224,0.0749413,0.0417591,-0.00174911,-0.0282005,0.00243312,-0.153785,-0.0287756,-0.092749,-0.165452,0.445502,-0.160568,-0.0666139,0.0887824,-0.338008,0.0955728,0.221692,-0.400591,-0.669205,0.0359703,0.0769789,0.279637,-0.52543,0.100611,-0.179508,0.0180427,-0.258655,0.0801452,-0.0789436,-0.114828,-0.113379,-0.328548,-0.183833,-0.203581,-0.087454,-0.185777,-0.161153,-0.0853075,-0.144492,-0.159188,-0.000978346,-0.123904,-0.225299,-0.268114,-0.0991779,0.0650339,-0.0783712,-0.0735696,0.0253458,-0.0668974,0.0108129,-0.0339093,-0.0151897,0.156381,0.0029665,0.00811631,-0.115688,-0.106696,-0.0505517,-0.015271,-0.0183558,0.0460596,-0.0913675,-0.119569,0.0187698,-0.0556339,-0.019329,0.0109475,-0.0641567,-0.00420302,0.0066388,0.0160245,-0.0466652,-0.1379,0.133936,-0.0585283,0.0990251,0.108548,-0.250366,0.137743,0.0626862,-0.148172,-0.314636,0.0551083,0.0359342,0.251029,-0.380926,0.00443355,-0.154205,-0.0159468,-0.234823,0.0324585,-0.0307238,-0.217418,-0.0398906,-0.332886,-0.0428494,-0.15608,-0.114622,-0.146279,0.0202794,-0.0365587,-0.150591,-0.141495,0.00669844,-0.0708891,-0.231405,-0.231094,0.0232415,0.0592509,-0.0799905,-0.0953071,-0.019858,-0.0459043,0.0225243,-0.0575425,0.0781238,-0.0191345,-0.10573,-0.0356978,-0.174615,0.00396253,-0.0269605,-0.0792081,-0.0449897,0.0100729,0.0253733,0.0880436,0.00752516,-0.012788,-0.0376579,0.0216004,0.0458154,0.0769382,-1.04771,-0.150637,0.214127,-0.180131,0.499429,-0.0221446,0.180347,0.171123,0.0536462,-0.265868,-0.345232,0.0352904,0.445586,-0.120384,0.0154513,-0.122626,-0.325448,-0.0567444,0.0553169,-0.263944,-0.0387478,-0.012286,-0.211727,-0.0616831,0.00802717,0.1555,-0.0364367,-0.0877722,0.0444727,0.0215252,0.130581,0.118043,0.103783,0.0124557,0.182473,0.185778,0.106991,0.110611,0.215907,0.0784224,0.111983,0.0747623,0.0670048,0.109446,0.0232024,-0.0193937,-0.00448628,0.0134146,0.0122283,-0.0810266,-0.0666872,0.00141276,-0.0804454,-0.0966005,-0.0164398,-0.110787,-0.043337,0.0289687,0.00947941,-0.0114017,0.0361145,0.0311291,-0.180863,-0.0636548,0.0232882,0.000961276,0.0524471,-0.0774178,0.0280927,-0.025994,0.125877,0.0465196,0.0334511,-0.156064,-0.141897,-0.0195866,0.244531,-0.0724135,0.0279844,-0.0676163,-0.156438,0.035491,-0.0253842,-0.144311,0.00872873,-0.0512952,-0.13641,-0.156481,-0.0379469,0.18363,-0.133663,-0.0497806,-0.00603168,-0.0013243,0.0271032,0.0420097,0.0814573,0.0285259,0.248168,0.127996,0.147104,0.155526,0.140652,0.174,0.0864979,0.000341251,0.0627285,0.0211008,-0.00439013,0.0400361,-0.00294981,0.0823332,-0.00305809,0.0231173,-0.0305827,0.047027,0.00447235,0.025521,-0.0642715,-0.076247,-0.11754,-0.0267407,-0.0123366,0.000921257,-0.108036,-0.0126726,0.00199417,0.00676942},
    {-0.0706146,0.0601048,0.000333681,-0.0220866,-0.105998,0.0213765,-0.116162,0.0184376,0.0618228,-0.490435,-0.371403,0.0786817,0.309851,0.336113,-0.150675,0.0784379,-0.179756,-0.0978299,-0.0894923,-0.0785657,-0.382488,-0.207472,-0.319002,0.122962,-0.0736128,-0.141833,-0.264235,-0.15453,-0.0166532,-0.170214,-0.0909547,0.0564066,0.0266959,0.0465864,0.0870577,0.0643137,0.0194777,0.0733831,-0.0266912,-0.0135667,0.0285212,-0.00668238,0.0363747,0.00838809,0.0746454,0.0154038,0.00197457,0.0681476,0.025428,0.00497937,-0.0346049,0.00371184,-0.0287815,0.0238782,0.0279648,-0.00712274,0.0992082,0.0542588,0.0362397,0.0203899,-0.0300352,-0.0166826,0.006919,-0.000134262,0.0861764,0.109999,-0.0281145,-0.0260919,0.0257253,0.0403367,0.0272127,-0.00416757,0.0168029,0.0213274,-0.0365242,-0.00594602,-0.00184695,0.0778751,-0.0211234,-0.0574179,-0.10404,0.046621,-0.0439134,0.051724,-0.228455,-0.126717,-0.323579,0.0852226,0.0196541,-0.209016,-0.138105,-0.0988116,-0.102481,-0.0933999,-0.109643,-0.00287161,-0.011716,0.0460795,-0.00830042,-0.0620432,-0.0385904,0.0689498,-0.066861,0.0317644,0.17544,0.0405133,-0.100977,-0.00424801,-0.127269,0.0478599,0.0545603,0.0365441,0.0082923,-0.0412889,0.0380854,0.0514061,0.0100706,0.0725847,0.0723003,0.0695255,-0.00607324,0.063824,-0.0525783,0.0485869,0.0285459,0.0874078,0.0627966,0.128567,-0.0716833,-0.0297361,0.0735729,-0.121368,0.0450574,-0.0524227,0.0251601,-0.0594442,-0.240433,-0.024507,0.0529717,0.158794,-0.121593,0.09969,0.301009,0.183761,0.071275,0.0660469,0.227038,-0.0990014,0.207697,-0.0465595,-0.183218,0.163579,-0.111635,-0.0589115,-0.106588,0.176916,0.224237,0.0515324,0.0980117,0.0436566,0.163725,0.247958,0.1937,0.231349,-0.0268072,0.0250545,0.0701128,0.0115945,0.0921427,0.0568056,-0.0468623,0.0492537,0.104383,0.094699,0.0417083,0.160879,-0.0620495,-0.0572418,-0.0148789,-0.00728375,0.0107571,-0.0165859,0.0740839,0.0424541,0.0630411,0.0581734,0.101072,0.0495354,0.0100262,0.0853712,0.027195,0.0559136,-0.0634817,0.0222529,-0.0402889,0.0111652,0.049108,0.0623633,-0.0789514,0.0563002,-0.0152603,0.00585328,0.0274387,0.0593834,0.0170296,0.0187186,0.190404,0.0350143,-0.0353615,0.0253222,0.19047,-0.0720791,0.0449917,-0.0339678,-0.172712,0.115531,-0.109434,-0.109611,-0.001095,0.0833988,0.145263,0.046547,0.0497591,-0.0548417,0.134766,0.231202,0.120022,0.182831,0.0453331,0.0199681,-0.0746556,-0.0645991,0.0439569,0.0401084,0.00671217,0.074004,-0.103349,0.0315105,0.194132,0.158524,0.00712084,-0.0535562,-0.0224864,-0.0205714,-0.00144336,-0.0901213,0.0367903,-0.0163225,0.0327527,-0.0180906,-0.0317849,0.0310876,-0.0148164,0.00485567,0.031691,0.00740286,-0.0411364,0.0191363,-0.0714773,0.0687456,-0.0186272,-0.0956479,-0.0112866,0.0368807,1.17442,0.302315,-0.0983939,0.0258167,0.0932591,0.524247,-0.0536782,0.176022,0.0701142,-0.0214647,0.288,-0.116692,0.0318667,0.131903,-0.10431,-0.187188,-0.17753,-0.00708637,-0.0232924,-0.0852623,0.0588562,0.0224643,-0.0813792,-0.0231659,0.0432625,-0.0415905,-0.0690884,-0.0664077,0.0309593,0.104481,-0.06084,0.0982101,0.0329292,-0.00456061,0.0208452,-0.0593965,0.033377,0.0225522,0.0708919,-0.00333567,-0.0401139,0.112276,0.0127429,-0.0524702,-0.0197829,-0.0673475,0.0237544,0.043754,0.0990833,0.00973984,-0.0402067,-0.0936483,-0.0291328,-0.0263133,0.00281002,0.00824836,-0.0343969,-0.0626748,-0.0430365,-0.0338084,-0.100887,0.021648,-0.0684086,-0.0155485,-0.0113476,0.0698625,-0.0407209,0.0759332,0.0498385,0.10441,-0.0393076,0.173112,0.0995679,-0.00346712,0.116201,-0.0601685,0.047234,0.0519002,-0.0236314,-0.144879,-0.077139,0.0373236,-0.0287844,-0.0331322,0.0746214,-0.0577473,-0.0442177,-0.0562574,-0.0747755,0.0276785,-0.0634051,-0.0963402,-0.0160358,0.0340377,-0.126429,0.173619,0.110124,-0.0756703,-0.0344162,-0.0407981,-0.0352816,0.0554348,0.110183,0.0868295,-0.0466143,0.0618202,0.0040727,0.0197298,-0.040057,0.00582915,-0.0172314,-0.0241482,0.0288272,-0.00622669,0.0566824,-0.0540592,0.0154173,0.0203159,-0.0469635,-0.01814,-0.0376762,-0.00746143,0.0886691,0.0094286,0.111286,-0.0319895,0.106324,0.0128003},
    {0.0713068,-0.0705897,0.198151,0.0627213,0.171466,-0.0492146,0.128387,0.0237052,-0.0101893,-0.512859,0.0917886,0.00664677,0.346353,-0.000462341,0.223869,0.0393628,0.362198,-0.184979,0.178708,0.250242,-0.239265,0.0778359,-0.347658,0.0608141,0.0226449,-0.0560559,-0.166759,0.0333967,0.0907234,-0.13164,-0.139768,0.0916357,0.124064,0.121527,-0.0337374,-0.0689028,-0.0802309,-0.038487,-0.0453359,0.0214882,-0.151569,-0.0251684,0.0364924,-0.0752715,-0.00938972,-0.00354075,0.104784,-0.0112145,0.0875471,0.0878453,-0.0456387,-0.0656702,0.0154686,0.00984216,0.0803994,0.0244559,-0.0183418,0.0194713,-0.00822825,0.0362655,-0.0305348,-0.0441632,-0.167256,-1.68509e-06,0.0532411,0.0688905,0.0272275,0.0242761,0.00884453,0.0373002,-0.0202127,-0.0162635,0.0972041,-0.049622,0.0586341,-0.00432164,0.141283,-0.0651344,0.0873967,-0.0392149,0.0951951,0.0231771,0.147346,0.0768669,-0.00653168,0.0713397,-0.198375,-0.00759947,-0.0101257,-0.08096,-0.231604,-0.0022978,0.00263557,-0.119385,-0.101494,0.0596691,0.0540791,0.138917,0.0597062,-0.0972969,-0.0707706,-0.057982,-0.00154489,0.0617541,-0.0904085,-0.0293635,-0.0304858,0.0209017,-0.0917064,-0.12186,0.105974,0.00292398,-0.00969978,0.0277429,-0.00292364,-0.0359957,0.0941069,0.0836088,0.0935006,0.000148871,-0.0402648,-0.0242555,-0.0331679,-0.050727,-0.103546,-0.00413352,-0.000723544,0.0141851,0.038352,0.0735182,-0.00593691,-0.0138737,-0.0252615,-0.00282078,-0.0752452,0.0113625,-0.176296,-0.113485,-0.348512,-0.332479,-0.310593,-0.136403,0.378228,-0.204987,-0.0809677,-0.374249,-0.107426,-0.434109,-0.031797,-0.0969405,-0.325949,0.00458802,-0.0793141,0.112599,-0.0534946,0.16457,0.180263,0.0972068,0.0603248,0.0465158,0.216999,0.157101,0.169215,0.0707449,0.112662,0.0874827,0.0876414,0.102609,-0.0422808,0.0147161,-0.0172579,0.0502987,0.0781441,0.0541471,0.135501,-0.0207428,0.0452155,-0.01825,0.101864,-0.0031685,0.110687,0.0217678,0.0137402,0.0551137,0.115654,0.0768563,0.0991642,-0.033907,-0.0650825,-0.0389512,-0.0185225,0.0309611,0.0132857,-0.00549203,-0.0449811,0.0326061,-0.0676814,0.106751,0.0168502,0.0663737,-0.0140127,0.0448791,-0.0899162,-0.199941,-0.102769,-0.0272937,0.0834598,-0.0130834,-0.0331711,-0.0840592,0.0451518,-0.150654,-0.0809403,-0.0956993,-0.0864065,0.0255141,-0.157338,0.0197162,-0.147486,0.0625498,0.0936355,0.0599986,0.0977108,0.0908689,0.134917,0.140196,0.137518,0.135648,-0.0283266,0.0536481,0.116155,0.12785,0.0428869,0.0919472,0.0191793,0.0507436,-0.00710021,0.065768,0.114658,0.0393064,0.0350441,-0.0508794,0.0689303,0.0253711,0.0018417,0.0134043,0.0913968,-0.0261338,0.0017689,-0.0713731,-0.0115202,-0.0149832,0.101259,-0.0226807,0.0341647,-0.00972218,-0.0484894,-0.000263938,0.0329073,-0.120309,-0.0258146,0.156779,-0.0374996,0.0220663,0.55189,0.183686,-0.213427,-0.308661,-0.205165,0.0291677,-0.0856721,0.0200431,0.141162,0.0314366,0.199658,0.278554,0.391262,0.140367,0.0309663,0.0682113,0.021881,0.268275,0.119313,0.130063,0.11175,0.150221,0.0615533,0.0823773,0.20587,0.189143,0.16541,0.196736,0.0149616,0.175071,0.0191335,0.09561,0.00720839,0.0556984,0.0849495,-0.00328973,0.0681429,0.0666671,0.0459021,-0.0482661,0.13233,0.0093188,0.119464,0.115589,-0.0123565,0.117654,0.0445838,0.117937,0.105097,-0.0395135,-0.0937483,0.0542304,0.0668806,0.101591,0.0370791,0.129079,-0.0244523,-0.0931749,0.0399671,0.0688668,0.111831,0.0662183,-0.0261705,0.0519399,-0.00255435,-0.0188451,0.0526508,-0.0517832,-0.0588163,0.0509682,-0.0183462,-0.0612986,0.0410553,0.048563,0.137924,0.0867673,0.213016,0.103478,0.0931892,0.110243,0.0109471,0.118709,0.112025,0.0831648,0.117646,0.10737,0.160534,0.0978193,0.0928517,0.187557,0.100087,0.175699,0.102067,0.153494,0.160638,0.155559,0.0916115,0.100843,0.20107,0.0604285,0.0865739,0.039124,0.142066,0.156352,0.0662861,0.0851352,0.129375,-0.0208621,0.0486931,0.0728338,0.0502004,0.0923469,0.00842054,0.0137984,0.122508,-0.00839806,-0.0329846,-0.0121696,0.0278878,0.0670563,0.00424964,0.0327955,-0.0541701,0.0143974,0.0202047,0.0595897,0.00236306,-9.31385e-06},
    {-0.460444,-0.0247419,-0.233037,0.0052546,0.0390391,0.031203,0.466148,-0.00350108,0.630358,0.411916,-0.49205,0.209453,0.0483613,0.840166,0.254052,0.526259,0.871584,-0.191943,0.0980531,-1.39062,0.626151,0.157235,0.150412,0.37344,0.393919,0.0814201,0.148677,0.0147075,0.130449,0.515087,-0.00795829,-0.252665,0.194764,-0.248176,-0.0988879,0.0106396,0.19397,0.0905121,0.181712,-0.330996,-0.006451,-0.0623858,0.109477,0.126958,0.243358,0.114399,-0.159565,0.00558482,0.0394354,-0.175581,-0.0029334,-0.048049,-0.025581,-0.0259817,0.00140716,-0.124891,-0.112489,-0.192291,0.107775,-0.0813432,-0.0822651,-0.00606189,-0.00442508,-0.0970483,-0.0506283,-0.126247,0.0702966,0.0051778,-0.00999077,-0.118998,-0.029459,-0.0799741,-0.0937912,0.0188028,-0.112287,0.0716454,0.0508031,0.24951,0.0737558,0.208098,0.29347,-0.154482,0.0184167,-0.631455,0.510019,0.126781,0.106972,0.274618,0.234078,0.119791,0.0944071,-0.00555899,0.218073,0.428542,0.106352,-0.18052,0.106864,-0.219962,-0.0538883,-0.0770409,0.152383,0.0912724,0.131977,-0.304909,0.0974108,-0.129074,0.214638,0.127171,0.3232,0.0380332,-0.107909,0.061771,0.0853662,-0.0775279,-0.0526269,0.00326468,-0.0938006,-0.00158314,-0.103095,-0.0724636,-0.00452599,0.00361892,0.0777961,-0.0774012,-0.0189362,-0.107809,-0.01436,0.0148669,0.0177971,-0.0665395,0.0176127,-0.0263133,-0.00914325,-0.0418486,0.0455705,-0.0154815,-1.70302,0.143395,-0.076839,-0.0634218,-0.334699,0.114117,-0.858189,-0.206396,0.39357,-0.205778,-0.598108,0.250624,-0.0207278,-0.206381,-0.116205,-0.748383,0.750894,0.104394,0.133533,-0.347714,0.0542907,-0.298729,-0.0560076,0.118027,-0.291812,-0.139908,-0.112964,-0.079342,0.0960273,0.00546626,0.026426,-0.0920576,0.0863284,0.0279985,0.0993161,0.199117,0.2273,0.226099,-0.149544,-0.186572,0.0295,0.0229641,0.14899,0.14859,0.0301113,0.103277,-0.064905,-0.0553561,-0.0346692,-0.118712,0.113754,0.194196,-0.0699706,0.0972224,0.100881,-0.0326873,0.0474279,0.0772466,0.032581,-0.0201539,0.00192207,-0.158861,-0.106808,-0.115874,-0.108137,-0.0308756,0.00927974,0.0674348,-0.0366785,0.131199,-0.341552,-0.0266248,0.247427,-0.227706,-0.179335,0.15473,-0.0457716,-0.155792,-0.0659256,-0.381988,0.622973,-0.0146681,0.03499,-0.332141,-0.0393507,-0.234722,0.135498,0.220045,-0.216488,-0.156363,-0.132075,-0.122098,0.24264,-0.0201984,0.0337133,-0.0720413,0.0360739,0.00264985,0.0613875,0.177139,0.168707,0.151033,-0.184979,-0.234153,0.0949979,0.124703,0.200492,0.0736207,0.0929679,-0.00544939,-0.0861348,-0.127299,-0.0847897,0.0632254,0.104723,0.143096,-0.0210618,0.0286046,0.0809686,-0.00468825,-0.0126757,0.0658881,0.011323,-0.0336897,-0.0258118,0.0143892,-0.0408133,0.00153566,0.349267,0.483152,0.488009,0.371713,-0.497717,-0.473086,-0.119269,-0.544459,-0.435077,0.657495,0.409477,-0.16024,-0.836553,-0.405372,-0.161164,0.274245,0.728304,0.194697,-0.047735,0.222207,0.14606,0.0887868,0.46263,0.297659,0.0754559,0.0043008,0.0354838,0.0499058,-0.0555208,-0.217007,0.163272,-0.27032,-0.210923,-0.176736,-0.167899,-0.0562085,-0.204578,-0.28376,-0.316281,-0.224644,-0.0670916,-0.157926,-0.0971466,0.0626877,-0.0748525,0.0299826,-0.00439741,-0.115158,-0.0444578,0.0897321,0.0394661,0.0889855,0.0368467,0.0560307,0.211993,0.177636,0.155681,0.0960517,0.216546,0.0831678,0.205834,0.170135,0.353672,0.13376,-0.0400732,0.0694134,0.0178947,-0.00169393,-0.0947623,-0.0509733,0.0168814,-0.264393,-0.171939,0.371872,0.151182,-0.108627,-0.496365,-0.11565,-0.0800802,0.244852,0.458102,0.158155,-0.0378791,0.205278,0.00368548,0.120146,0.251961,0.249594,-0.00526299,-0.117934,-0.0858304,0.0561078,0.0304813,-0.140151,0.0990105,-0.207681,-0.157436,-0.0356963,-0.212809,-0.0530015,-0.231699,-0.22551,-0.284951,-0.237351,-0.0958025,-0.128678,-0.0380376,-0.0293577,0.025842,-0.0524656,-0.09791,-0.150316,-0.0651638,-0.0373743,-0.0228197,0.0374566,-0.0318617,0.0654417,0.0684126,-0.0550156,0.0318046,0.0637112,0.0678692,-0.0390292,0.0201794,-0.00750908,-0.00614647,0.0705334},
    {0.15293,-0.0316664,0.0745516,0.0537003,0.0723455,-0.0958115,0.184082,-0.0081513,0.139196,0.258069,-0.0153329,-0.410669,-0.389289,-0.481087,0.202305,-0.0830236,0.185708,0.180811,0.0592179,0.0770434,0.395263,0.160247,0.305029,-0.159472,0.0663409,-0.160444,0.154476,0.0596325,-0.0511098,0.142991,0.0762343,-0.0814285,-0.0364366,-0.0994169,-0.0477819,0.0517852,0.0261434,-0.082726,-0.0704431,-0.0761452,-0.0093864,-0.00114206,0.0324645,0.0113053,0.011236,-0.0513648,-0.0553296,0.056192,-0.00191142,0.00742013,-0.0953444,0.0111304,0.00951754,-0.0453631,0.0184491,0.0395011,0.0720754,-0.0856584,0.0824011,-0.0857787,-0.0245696,-0.00581237,0.0157673,-0.0401499,-0.0779723,-0.0250254,0.0299545,-0.0395031,-0.0293538,-0.00415688,-0.0351477,0.0596438,0.143139,0.0703584,-0.0159851,-0.100101,-0.0375799,-0.107899,0.0453383,-0.063667,0.00913597,0.0602611,0.0121764,0.0399111,0.292404,0.107262,0.224399,-0.228451,0.0940097,-0.0385517,0.102344,0.0402187,0.0242255,0.127124,0.0280361,-0.0814633,-0.0365366,-0.0458874,-0.0430578,0.0155972,0.0748377,-0.0305376,0.0706421,-0.0417113,-0.0742184,-0.0864018,0.0820625,-0.00914993,0.0346712,-0.0900871,-0.0040253,-0.0265185,-0.0732569,-0.0571533,0.00464082,0.0344778,-0.0730282,-0.0353741,-0.0713391,0.00912421,0.0820125,0.032953,0.028541,-0.0379605,0.0085541,-0.0213692,-0.0197648,-0.117151,0.00995111,-0.0755054,-0.0174705,0.0568952,0.0131041,-0.0155433,-0.0551773,-0.0397076,0.326495,-0.103746,0.0433774,0.117671,0.517295,-0.0640517,-0.215176,-0.108513,-0.0721809,0.0352057,-0.204356,0.251618,-0.180796,0.205583,0.271183,-0.0133089,0.119684,-0.044812,-0.0483906,-0.185811,-0.128285,-0.0907783,-0.172966,-0.0872254,-0.132898,-0.253266,-0.105375,-0.159428,-0.138009,-0.109257,-0.00779546,-0.0504738,-0.0276679,0.00242647,0.0492584,-0.0128645,0.109351,-0.0984929,-0.145736,-0.080798,0.0664691,-0.036423,-0.0773455,0.0132847,-0.0663562,-0.0284577,-0.0748424,-0.00618626,-0.0617849,-0.097364,-0.0585856,-0.0607771,0.0207611,-0.0628201,-0.0224727,-0.0564973,0.0150732,-0.0353847,-0.00188569,0.00510984,-0.0074542,-0.00431079,-0.083459,-0.0678681,-0.0644978,0.046811,0.0530961,-0.0445011,0.0314975,0.0117633,-0.0996196,-0.0982303,-0.0410105,-0.0196222,-0.180589,0.122402,-0.075515,0.0699104,0.191781,-0.0270451,0.175987,-0.073608,0.00944174,-0.121589,-0.123511,0.0109593,-0.2175,-0.0672617,-0.11034,-0.118771,-0.0204441,-0.11399,-0.0735568,-0.108296,-0.0638945,-0.0871166,-0.127137,-0.0632334,0.0487802,0.0918453,-0.00513672,-0.0169466,-0.107292,-0.11468,0.0143752,0.116926,0.0643132,-0.058342,0.0528025,0.0145227,-0.0593399,-0.131151,-0.0146374,-0.00510441,0.00242468,0.00499663,-0.0207604,0.00497091,-0.0413305,-0.0376545,-0.0159191,0.0207544,0.00396716,-0.00648399,-0.00996876,-0.00760429,0.050181,0.0372606,-1.55057,-0.619348,0.144805,0.0332895,0.0420948,-0.456328,0.0920491,-0.00565144,0.00929105,0.14559,-0.228269,0.0872631,0.0472178,-0.0410162,0.100231,0.197383,0.290707,-0.160467,0.110491,-0.0740776,0.053128,-0.0313923,0.0126104,-0.00878275,0.0088231,0.0464565,0.0573942,0.0507804,-0.0919395,-0.0883579,0.0434448,-0.173755,-0.0935537,0.0569087,-0.0280935,0.028331,-0.0319121,-0.074592,-0.0789396,0.0525891,-0.0185518,0.0211376,-0.00836166,-0.0570298,0.00552309,-0.0517376,-0.0498874,-0.110782,-0.0795934,-0.114967,0.00506381,0.0820775,0.0641278,-0.000535743,0.0401794,-0.00579383,0.0231345,0.0281706,-0.0350666,0.00531621,-0.0663334,-0.0649044,0.0612201,-0.0187745,-0.0392334,-0.039841,-0.00221064,-0.174282,-0.162097,-0.175073,0.0130165,0.00870501,0.0372876,0.0540586,-0.199203,0.127673,0.0231918,0.0288109,0.109259,0.179259,0.279783,-0.0641166,0.00903027,0.00642132,-0.0494976,0.0550925,0.15569,0.0821057,-0.00190716,0.0299307,-0.100911,0.101765,-0.141836,-0.0778388,0.051572,-0.0439331,0.00910536,-0.0360086,0.0174956,-0.00027117,0.0798623,-0.0790054,-0.0801864,-0.126281,0.0710617,-0.0857094,0.0709659,-0.00885395,0.0111947,0.123247,0.0204475,0.0353637,-0.128579,0.0389432,-0.036827,0.0797989,-0.0516519,0.00149596,0.0986164,0.0128435,0.0788201,-0.0115469,-0.0605428,0.0539422,0.0115675,-0.101038,-0.0210546,-0.0326584},
    {0.410256,-7.08903e-05,0.303187,-0.0442852,0.0820937,0.0187269,-0.328661,0.0379102,0.541465,-0.708527,0.119179,-0.348401,0.369462,-1.18077,0.373398,0.372199,-0.330166,0.882358,0.00482821,1.50779,-0.034989,0.179018,0.111108,-0.19586,0.228796,0.120702,0.00266852,0.0416383,-0.0274224,-0.219746,0.0659275,0.323722,-0.0491127,0.368776,0.215432,0.0200837,-0.154573,-0.0506188,-0.167202,0.247356,0.032588,0.0969085,-0.118812,-0.0695427,-0.194795,0.0245766,0.111624,0.0162359,0.0120262,0.127439,0.0504218,0.0434092,0.076602,-0.0621056,0.0662586,0.0584518,0.0670955,0.187117,-0.0561839,0.187819,0.0138979,-0.0740343,-0.102974,0.140434,0.127834,0.106238,0.0325848,0.0285201,0.134648,-0.015726,0.111543,-0.0291297,0.156692,-0.0145544,-0.00790813,-0.0411186,0.137099,-0.350534,0.13423,0.102345,-0.0803888,0.268102,0.0910288,0.79372,-0.0533246,0.0150367,0.0901745,-0.115577,0.0768945,0.131163,-0.0255609,0.020942,0.0297821,-0.11014,0.0504285,0.159806,-0.0842412,0.349865,0.107795,0.0692519,-0.200495,-0.102398,-0.106619,0.255232,-0.0243591,0.0284175,-0.263236,-0.0751109,-0.294499,-0.132538,0.140805,-0.0156749,0.00816525,0.0667847,0.0308514,0.0332354,0.0059672,-0.00718133,0.0015409,0.0896116,0.117593,0.107377,-0.0111083,-0.0194461,0.0373765,0.00350904,0.0234436,-0.0359874,0.0615077,0.0152376,-0.0312572,-0.0449368,0.0286346,0.0918752,0.00363089,-0.0711264,0.854305,-0.772333,-0.531564,-0.615248,0.516892,-0.797393,0.497664,-0.548877,-0.879973,0.232609,0.455166,-0.38938,-0.462104,0.145334,0.266652,0.578731,-0.281561,0.156555,-0.129076,0.348009,-0.0418348,0.274526,0.090695,-0.118934,0.030255,-0.0409416,0.0174077,-0.118377,-0.199936,-0.0225849,-0.083143,-0.100318,-0.189853,-0.0641363,-0.0941216,-0.207579,-0.315832,-0.171799,-0.0670133,0.0133201,-0.0727665,-0.129833,-0.0821129,-0.191656,0.0138204,-0.0415169,-0.0267221,-0.0840005,-0.0212436,-0.0765053,-0.137826,-0.224923,-0.052694,-0.183112,-0.0698113,0.15242,-0.170687,-0.0640886,-0.129983,-0.0443261,0.00694334,0.129433,-0.015505,0.0456598,-0.0128815,-0.0197338,-0.113665,-0.032548,0.189966,-0.18808,0.180985,-0.154921,-0.334413,0.118514,0.14139,-0.288991,-0.187747,0.0742066,0.183892,0.452352,-0.189501,0.312241,-0.139452,0.383004,-0.0206871,0.196162,-0.0463916,-0.0818343,0.152839,-0.0346803,0.0828449,-0.0495104,-0.334963,-0.164851,-0.0160546,-0.155386,-0.220012,-0.00673414,-0.0816445,-0.256865,-0.352883,-0.340545,-0.0391914,-0.000336263,-0.214617,-0.0445006,-0.170805,-0.157041,-0.0535704,-0.115498,-0.0247015,0.0321494,-0.0301225,-0.0745745,-0.215464,-0.127373,-0.0708322,0.00845047,-0.0734974,-0.114075,-0.116989,-0.0391241,-0.0395194,0.0489189,0.153848,0.0168291,0.0621019,0.0984764,0.0491258,-0.190093,-0.236741,-0.525706,0.276839,-0.518291,0.127059,0.585547,0.255336,-0.358619,-0.192866,0.151178,1.0095,-0.0294114,0.182064,-0.135814,-0.122112,-0.0965162,0.117807,-0.269251,-0.0553726,0.00306264,-0.355936,-0.259763,-0.177953,0.207937,-0.0533028,-0.145638,0.0132405,0.0748745,-0.13253,0.188078,0.195799,0.00641423,0.175065,0.134859,0.213053,0.296727,0.38756,0.214109,0.102683,0.131757,0.174046,0.0817504,-0.00341711,0.0698295,0.00612993,0.0697964,0.10011,-0.0894275,-0.0476324,0.00422043,-0.0389846,0.038792,-0.169607,-0.117314,-0.183467,-0.163801,-0.261629,-0.0991679,-0.135543,-0.134833,-0.290665,-0.0202582,0.196788,-0.0231684,-0.0994827,-0.0853515,0.129008,-0.159085,0.0358767,0.193357,0.0333462,-0.0677887,-0.128561,0.148448,0.497533,-0.0786374,-0.0515528,-0.176723,-0.0958198,-0.153308,0.17965,-0.199596,-0.10891,-0.0183809,-0.353252,-0.060951,-0.145956,0.267445,-0.131319,-0.0582042,0.0160955,0.225589,-0.0454451,0.140282,0.16246,0.109039,0.176051,0.0911405,0.109225,0.261349,0.203595,0.188679,0.0543799,0.154679,0.0029504,0.119207,0.0471398,0.0441728,0.00440791,0.12549,0.0700854,0.00922623,0.00334053,-0.0489346,-0.104857,-0.0464298,-0.0841255,0.00218831,-0.126486,-0.00537447,-0.123378,0.0731686,-0.080807,0.00333321,0.0393093,-0.0465444},
    {-0.1294,0.04714,-0.00390854,0.0562804,0.0382862,-0.150644,0.198308,-0.0514165,0.179737,0.0822643,-0.328804,-0.423023,-0.375843,0.00282119,0.110867,-0.0520788,0.128065,-0.0905482,0.111165,-0.293849,0.571992,0.304058,0.257107,-0.00339458,0.192842,-0.0626299,0.0911839,0.0433824,0.0227022,0.0902232,-0.0729458,-0.185809,-0.0486762,-0.320731,-0.145654,0.0338159,0.0700374,-0.0828854,0.0349111,-0.188371,-0.0474864,-0.0371237,0.000210133,0.0525533,0.0257414,-0.0255811,-0.195201,0.0214934,-0.0194924,-0.168729,-0.0742913,0.0163823,-0.0255746,0.0238871,-0.0270438,-0.127539,-0.0567272,-0.132823,-0.0171822,-0.033278,0.00717885,-0.0400569,-0.0131827,-0.0438242,-0.0727471,-0.0510062,0.0488782,-0.0324479,-0.014096,-0.00761941,-0.0806679,0.0390356,0.00633658,0.0247674,0.00691269,0.0147711,-0.0527816,-0.0153776,0.0205802,0.0162051,0.0705885,-0.182485,0.0151503,-0.195008,0.379236,0.148747,0.179738,-0.0327193,0.0801975,0.0726727,0.0867602,-0.0451918,0.0117214,0.0658068,0.0765108,-0.0597237,0.0168777,-0.170282,-0.134849,-0.000590633,-0.00114927,-0.1353,0.0530065,-0.173305,-0.0210029,-0.0543891,-0.024294,0.00852584,0.0298059,0.0275656,-0.0130917,0.0818722,0.0489366,-0.0644596,-0.0110821,-0.0980342,0.00944647,-0.0171142,0.0218904,-0.135112,0.0139967,-0.068612,0.0357067,-0.0191028,-0.0378881,0.0154172,0.0320191,0.0423079,-0.0528515,-0.0445526,0.00557254,-0.0368947,6.72379e-05,-0.0708156,-0.0842567,-0.0826976,-0.13936,-0.190078,-0.146351,-0.0693193,-0.0698683,-0.0314947,-0.545101,-0.0833763,0.27618,-0.0240654,-0.206797,0.381097,0.0223743,0.105636,0.161798,-0.199589,0.340437,0.0113566,-0.0541456,-0.175606,-0.229048,-0.189463,-0.00877627,0.0783861,-0.110804,-0.218311,-0.173427,-0.169269,0.0118391,0.0400632,-0.0926132,-0.0324394,-0.0427743,-0.086039,-0.0319295,0.0124356,-0.00542829,0.06123,-0.215697,-0.110983,-0.047617,-0.00122762,-0.0101154,0.0823212,-0.109463,0.0109645,-0.0594521,-0.0996686,-0.00317109,0.0126518,0.00872773,0.0112518,-0.0813078,0.0596224,0.113608,-0.0914164,-0.0608822,-0.0120776,0.0064174,0.00467287,-0.0594799,-0.113769,-0.00209254,0.0108137,-0.0614477,0.0448253,-0.0443912,-0.0506416,0.000175533,0.00555056,-0.204032,0.0247415,0.129887,-0.0188515,-0.0691106,0.218936,0.0339234,0.0704511,0.0870506,-0.0983624,0.17833,0.0212277,0.0125259,-0.12297,-0.0913679,-0.0794387,-0.178131,0.0476396,-0.125695,-0.241561,-0.2161,-0.11659,0.0961607,-0.0987777,0.0121724,-0.115198,-0.0302593,-0.0269527,-0.0189923,-0.085493,0.0439824,0.0313422,-0.0619658,-0.188907,0.0329448,-0.0166413,-0.0503888,0.0280761,-0.0203824,-0.0358654,0.0281361,-0.0296514,-0.0519794,0.0686105,-0.0792742,-0.0932438,-0.0787335,-0.0294787,0.0554566,0.0119226,0.0829378,-0.03242,-0.0210389,-0.056709,0.10709,0.0612139,-0.047639,-0.0278209,-0.10666,0.0711542,0.47454,0.170203,-0.0700842,-0.0467474,0.0590004,-0.303968,-0.127367,0.275571,-0.061281,-0.00801094,-0.356821,-0.173159,-0.0163724,0.169903,0.248424,-0.0296433,-0.0687982,0.0724684,0.0462903,0.0237588,0.182862,0.0964012,0.0983493,-0.0840427,0.0663245,0.0522053,-0.0687342,-0.102609,0.190292,-0.156035,-0.057314,-0.0537109,-0.0538118,-0.0115184,-0.0379754,-0.112124,-0.146949,-0.121765,0.0249878,-0.103367,0.00206131,0.00100376,0.0930352,0.00397131,-0.119089,0.0636532,0.00127002,0.00888541,0.0440988,0.051886,0.0806909,0.000856079,0.102509,-0.0411485,0.0209332,0.118199,0.159967,0.0813133,0.0117114,-0.0212463,0.0525238,0.108921,-0.109185,0.0941833,0.0375135,0.0117621,-0.0510247,0.00522525,-0.0019208,-0.159572,-0.084955,0.111088,-0.0844638,0.0547356,-0.222373,-0.180526,0.0455184,0.161817,0.196923,-0.115497,-0.0157597,-0.0106588,0.00614338,0.0909269,0.137653,0.133264,0.0403417,-0.100472,0.0617751,0.1801,0.0448048,-0.0521525,0.112363,-0.108049,-0.0267299,0.015515,-0.0363414,-0.032502,-0.142057,-0.145987,-0.0154766,-0.166551,-0.00151015,-0.0275204,-0.00306823,0.101973,0.122533,-0.00392737,-0.00330085,0.0114523,0.0238028,0.0674462,0.0181155,0.149336,0.0543847,-0.0411106,0.0518504,0.041506,0.00480216,0.00508892,0.0333298,-0.0520494,0.0516699,-0.0154558,-0.11803,-0.030628},
    {0.0396546,0.0433704,0.0431699,0.00496292,-0.0147642,-0.0254005,-0.0159824,0.0229014,0.0347588,-0.0792724,-0.0411583,-0.00169961,-0.0569811,0.0032139,0.0542522,0.00549408,0.0709143,-0.0248562,0.0107202,-0.0116792,0.0917107,0.0404173,0.0111529,-0.170155,-0.0739372,0.0500429,0.0498717,-0.0499904,0.0535814,-0.0265071,-0.0672453,0.0205501,0.0388306,0.0530129,0.0259221,0.0284274,-0.0975035,-0.0618751,0.0603136,-0.113378,0.105061,-0.0769633,-0.0609533,0.0506969,-0.0785966,0.0282134,0.0414292,0.0423956,-0.0358759,0.00481565,0.0470345,0.043081,-0.0371866,0.0149108,-0.0262454,-0.043805,0.0180063,0.0380903,0.00175821,-0.0176636,0.0191879,0.0417734,0.0177496,-0.0613142,0.166494,0.0686307,0.0169382,-0.00676036,-0.0399137,-0.0728637,0.0403077,-0.016532,0.00184376,-0.0433043,0.0725736,0.0146523,-0.0856946,0.0772363,-0.112544,0.0478665,-0.00233719,0.0327153,-0.0505162,-0.0107143,0.0641331,0.0670343,0.0517493,-0.0244272,-0.0530707,0.034596,0.0139668,0.0109143,0.107164,0.0564851,-0.0648923,-0.0428427,-0.0241469,-0.103357,-0.0396166,0.0857908,0.0819028,0.0340711,-0.0190506,0.0359492,-0.0459306,0.0191124,-0.060361,0.0377408,-0.0207758,0.0131111,-0.00815795,-0.0240603,-0.0140179,-0.0608745,0.00198392,0.131988,-0.0229922,0.0414818,0.0375996,0.0261536,-0.0926676,0.048268,0.0789093,-0.0345335,-0.0353238,0.082405,0.0967744,-0.00693897,-0.0183452,-0.0588504,-0.0169699,-0.0492176,-0.0707501,0.0255213,0.0337072,0.0328583,-0.0604248,-0.0950782,-0.016208,0.0424483,0.0513428,0.0641246,-0.0583772,-0.0979885,0.0438668,0.0222775,-0.00203907,0.107888,-0.0421712,0.082949,0.000464261,-0.0883561,0.0500818,0.051827,0.035066,-0.0881715,-0.0335899,0.0397908,0.00313529,0.0451676,-0.0494616,-0.0232895,-0.0229306,0.00933159,-0.0577043,-0.0409414,0.0143753,-0.00544998,-0.0925502,0.0402036,0.0148054,0.0364217,-0.0515543,0.093801,-0.0354382,0.0179123,0.0163177,-0.0560666,-0.0719684,0.0287426,-0.0899897,0.011557,-0.0754927,0.00731158,-0.0220126,-0.00546608,0.0866801,0.0593323,-0.0388382,-0.113365,0.0613985,0.0100332,0.0431831,0.0109471,-0.0214104,-0.0320128,-0.0545539,0.00699243,-0.0782226,-0.000724087,-0.0277942,-0.0107537,-0.0298978,0.142339,-0.00433417,-0.0373733,0.0134262,0.0372216,-0.0563144,0.034491,-0.0476446,0.042859,0.0113941,-0.0358214,-0.033623,-0.1059,0.0839877,-0.0923548,0.00613583,0.0120413,0.0158234,-0.0157655,0.0570132,0.000977742,-0.10587,0.0757201,-0.0861385,0.0176338,0.0376781,0.0406778,0.0552976,0.00247099,0.0315763,-0.00931319,-0.0086869,-0.0035274,0.0231329,-0.049689,-9.34865e-05,-0.0388484,-0.0182064,0.0121124,0.051578,0.0291403,-0.0484384,-0.0126638,0.0348452,-0.039339,-0.0612187,0.0174582,0.059098,0.0308832,0.0411536,0.0257708,0.137472,0.0105947,0.0410204,0.0242826,0.0876834,-0.0245313,-0.0276903,-0.0450412,0.0546297,0.0427955,-0.0864014,-0.0804715,0.06332,0.0463711,-0.0328368,-0.0446985,0.0706089,0.0205952,-0.0432614,0.119844,0.087196,-0.0554358,-0.0335028,-0.0392286,-0.108027,0.0302152,-0.022728,-0.000781876,0.0278891,0.0333025,0.0134034,-0.00290296,0.0637164,0.0319921,-0.0188212,-0.0533127,-0.0430247,0.107486,0.060303,-0.0164576,0.0747149,-0.0903745,-0.00998132,0.05197,0.0403563,0.0221363,-0.0162177,-0.047622,0.026982,-0.0296188,-0.0343268,-0.00311313,-0.0275278,0.161836,0.012379,-0.081175,0.0759265,-0.0709294,-0.00272585,0.020908,0.0531012,-0.0294882,-0.0131335,0.0143807,-0.0380713,0.125998,-0.0680185,-0.0392667,-0.0112036,0.0263461,0.0747093,0.060592,-0.0255607,0.0409385,-0.050229,0.0664727,0.000948285,-0.0353927,-0.0828771,-0.0527192,-0.0112484,0.0168566,0.03427,-0.0151114,-0.0254727,-0.0632173,-0.0215255,-0.0217313,0.0978801,0.101809,0.075406,0.0423826,0.0347009,-0.0550695,-0.0416124,0.0131438,0.0556659,-0.00133293,-0.0157682,0.0102414,0.0716007,-0.0145353,-0.0122284,0.0157816,-0.0741971,0.00439667,0.0397274,0.0368071,-0.0522036,0.0390816,-0.0428154,0.0742228,-0.0413537,0.0205279,-0.00524113,-0.00151157,-0.0217653,-0.00629714,0.00420843,-0.0425293,0.00112475,-0.0118581,0.0303728,0.0520152,0.00918977,0.0334818,-0.00307563,0.119897,-0.0619839,-0.0555501,0.0214229,0.0367859,-0.0589957,0.00627345,0.0286951,-0.0259317,0.0410514,-0.0368516},
    {0.095578,0.0414062,-0.06019,0.0666531,-0.262681,-0.0733286,-0.406441,-0.0923487,0.485196,0.354769,0.254878,-0.314137,-0.134427,-0.241666,0.277008,0.165171,0.048162,0.512997,0.00266645,0.847668,-0.215912,0.00660944,-0.241331,-0.238141,0.0306456,0.0331091,-0.0871101,0.15677,0.105815,-0.188037,0.0908339,0.196929,-0.0285592,0.239121,0.173819,-0.0132204,0.0706375,0.0328733,-0.0182952,0.151566,0.0497103,0.105377,0.0113284,-0.0309349,0.00949818,0.0575172,-0.0447053,0.0383055,-0.0118967,0.129244,0.100183,0.0352176,0.062299,0.0151039,0.0803024,0.131929,0.0645869,0.0733585,-0.0166011,-0.0105374,0.0145971,0.0504848,0.0228627,0.0839956,0.0118476,0.0919429,0.0450081,0.067626,0.0110526,0.0341649,0.0620884,0.0294875,0.05682,-0.0100445,0.0485365,0.0145689,-0.019008,-0.0141081,0.100861,0.0393844,0.0550991,0.184893,-0.0838282,0.452527,-0.115009,0.0164609,-0.0542678,-0.155297,-0.0221214,-0.0425162,-0.0123418,0.158978,-0.0215556,-0.182816,0.139053,0.251519,-0.0492737,0.1641,0.180487,-0.00838434,0.0183771,0.00155166,0.0224924,0.173012,0.0827558,0.212649,0.0202263,-0.0279169,-0.13644,-0.0306574,0.0939786,0.039766,-0.0193692,0.102479,0.0127007,0.00622033,0.0257338,-0.0129806,-0.0250197,0.0941758,0.121171,-0.0112286,-0.0398444,0.03249,0.0859108,-0.0743567,0.0121395,0.0519903,0.00513989,-0.00188312,0.00515954,0.0137436,0.00464142,0.050659,-0.00202234,0.0112944,-0.740813,-0.685581,-0.422531,-0.298241,-0.241552,-0.215707,0.445857,0.120883,-0.15175,0.0749444,0.173029,-0.256965,-0.140512,-0.0425587,-0.030606,0.0935616,-0.481937,-0.181733,-0.180079,0.0940447,-0.112508,0.0973344,-0.115234,-0.0941678,0.0592812,0.0467671,0.0202142,0.129892,-0.13558,-0.106684,-0.103087,-0.0787706,-0.0642262,-0.050218,-0.00989269,-0.0281713,-0.116915,-0.244904,0.0588021,0.133316,-0.0415544,-0.0730592,-0.00154208,-0.134274,0.029906,0.00572112,0.0305021,0.12811,-0.0626206,0.10161,-0.0572915,-0.0678073,0.0447249,-0.0361463,-0.0583175,0.0012673,0.0402751,-0.0172463,-0.0314182,0.0357596,-0.0223846,0.127554,0.0962281,0.153997,0.0134168,-0.0585907,-0.0724136,-0.0428659,0.00293695,-0.00344364,0.204986,0.0551041,-0.114501,-0.0187126,0.198273,-0.231361,-0.140192,-0.0166678,0.0224272,0.0958243,-0.266013,-0.0245094,-0.110373,0.05412,-0.0448865,0.108805,-0.0748803,-0.168077,0.0806531,-0.0405847,0.0851377,0.0239193,-0.16837,-0.110396,-0.0894275,0.0192064,-0.0258362,-0.0118612,0.0372266,0.0484504,-0.180404,-0.177252,0.0861799,0.136616,-0.00283631,-0.0331928,-0.19441,-0.0355552,0.187122,-0.0113209,0.0527211,0.0266523,0.0383056,0.00702921,-0.0563726,-0.0901102,0.0339979,0.00824451,-0.0406108,-0.055811,-0.0788494,0.0308238,0.0793456,0.0241456,0.0651731,0.000381081,-0.0461476,0.0425386,0.301502,0.827827,0.455546,0.33563,0.45206,0.0785264,0.0503731,0.20576,0.263421,-0.21992,-0.137586,0.0590254,0.416922,0.189234,0.0220674,-0.231005,-0.338015,-0.240021,-0.0836731,-0.137994,-0.085423,-0.0593337,-0.263367,-0.161101,-0.021019,0.00933231,-0.0190522,-0.0145711,-0.0237541,0.137746,0.0185512,0.15637,0.0362067,-0.0680468,0.029891,0.0269647,0.118627,0.125408,0.169843,0.121169,-0.0494718,0.151047,-0.00320638,-0.0446027,0.000379548,-2.94871e-05,0.0641379,0.0329683,0.01864,-0.112018,-0.0124994,-0.038719,-0.0198284,0.026596,-0.0710925,-0.061259,-0.166456,-0.0790247,-0.0606846,-0.00428109,-0.107877,-0.100942,-0.0288886,-0.126658,0.0249126,0.0547566,0.0349551,0.129223,0.0865345,0.016308,0.0936543,0.144301,0.0178778,0.0348405,0.0961251,0.11396,0.307005,0.102646,-0.0166083,-0.189416,-0.302838,-0.0591265,0.00432621,-0.0927566,-0.109867,-0.0759347,-0.31015,-0.167854,-0.0861549,0.0463703,-0.0215621,-0.12468,0.0597423,0.0799728,-0.13727,0.233364,0.0574665,0.0478074,0.134827,0.0543754,0.125847,0.168986,0.143519,0.0235249,0.0215619,0.0236709,0.0451173,-0.00333508,0.064108,0.0411746,0.0530406,0.00201844,-0.0143319,-0.0452322,-0.0260709,0.0558627,-0.009768,-0.0702179,0.0104049,0.00751216,-0.0151789,-0.0801873,-0.0714411,-0.0480317,-0.0389809,0.0691879,0.0229675,0.0363734},
    {-0.0907848,0.0534845,-0.185347,-0.0455514,-0.348399,0.0424318,-0.355935,0.00543203,0.384241,0.255465,0.0693522,-0.132855,-0.0944587,-0.128267,0.263303,-0.0416617,-0.221355,0.183463,0.0622836,0.120305,-0.0248295,-0.118852,-0.0164772,0.022563,-0.342314,0.108107,-0.0854019,-0.0347046,-0.100287,-0.15392,0.103667,0.0515255,-0.0940537,-0.0252926,-0.0329212,-0.00880561,-0.0105842,0.0205678,-0.0651906,0.16553,0.0253968,-0.0242703,-0.0468262,0.0285505,-0.0513576,0.0213488,0.114948,0.0671625,-0.0324612,-0.0630158,-0.0572841,-0.0456531,0.0785117,0.0678102,-0.0625209,0.103158,0.098019,0.118897,-0.0791697,0.0148141,0.0225101,0.0403058,-0.0175665,0.0328079,-0.0138978,0.068248,0.0642792,-0.0236751,0.0716989,-0.00236855,0.00393761,0.0636313,0.0190769,-0.0135194,-0.0682544,-0.0350021,0.0375029,0.0130493,0.0391313,-0.00714443,-0.134199,0.0288936,-0.0229164,0.0438803,-0.0331067,-0.0377982,0.0289518,-0.0889637,-0.204477,0.0245918,0.0960365,0.0162003,-0.0226688,-0.237877,0.135256,0.0258599,0.0404004,0.0344481,0.118519,-0.0791115,0.0369605,-0.062482,-0.00482179,0.0650209,-0.072593,0.0908434,-0.0296816,-0.117438,0.0450898,0.065312,0.144112,0.032857,-0.0202363,0.0451932,0.00862449,0.0431257,0.0439681,0.0166545,-0.0274611,-0.0320754,0.0667919,0.00207137,-0.00964598,0.0115135,-0.0481283,-0.00921162,-0.0793976,0.0678362,-0.014928,0.0547297,-0.00913916,0.0742472,-0.0286282,-0.0012281,-0.0531604,-0.0432664,0.300972,0.481342,0.225351,0.291911,0.434685,0.13051,0.146497,0.111164,-0.202929,0.0474485,0.311863,-0.354419,-0.0715924,0.0644586,0.0954713,0.297466,-0.309725,0.025581,-0.0681289,0.147023,-0.0626369,0.0233374,-0.0924223,-0.0758902,0.050591,0.0746387,-0.105586,-0.0113946,-0.0684826,-0.00623396,-0.0520909,-0.0558343,-0.169721,0.0186032,0.00734269,-0.0706883,-0.139112,-0.144601,0.0584359,0.114219,-0.0631139,-0.0537535,-0.0867942,-0.0446994,-0.0582833,-0.0916605,0.0120944,0.0117096,0.0508845,0.042915,-0.0623764,-0.0828117,0.0609768,-0.0864191,-0.14633,0.0659482,-0.0219161,-0.0647135,-0.0456217,0.00892385,-0.00911087,-0.0510709,0.0342518,-0.0354643,0.0466098,0.0236458,0.0402522,0.0186482,0.116891,-0.0120631,0.0686593,0.0369751,-0.163752,0.00608131,0.255874,-0.190154,-0.0688734,0.0412389,0.0661305,0.289396,-0.265536,0.121874,0.0762231,0.119441,-0.0806301,-0.0132473,-0.0856417,-0.0839081,0.0281155,0.0101183,-0.0413097,-0.00844218,-0.0424973,0.0170672,-0.115998,0.00884965,-0.0175108,-0.0635312,0.047583,-0.041599,-0.119808,-0.12212,-0.0126039,-0.011781,-0.158698,0.00407462,-0.0107665,-0.111768,-0.00261052,0.0698481,-0.0571566,-0.0418938,0.0482757,-0.014045,-0.0374052,-0.00589139,0.0125859,-0.0750889,-0.079051,0.0247532,0.0394129,0.0174752,0.0173301,0.0287087,-0.0431632,0.0244032,-0.000529088,0.0361389,-0.169477,0.0780341,0.0677458,-0.161993,0.270024,0.0204852,-0.0142392,0.261655,0.0075641,-0.390755,-0.140916,-0.132089,0.199123,-0.0156977,0.037285,-0.173625,-0.0484212,-0.0155634,0.0633999,-0.0610601,0.0139362,-0.0389826,-0.288724,-0.105136,-0.0378265,0.0910662,-0.00471181,0.0274637,-0.0291129,0.0897075,-0.0301959,0.0110405,0.0387669,0.00860712,0.0664256,0.0301229,0.0176869,0.0557135,0.0993742,0.126561,-0.0307451,0.0666702,-0.0567306,0.0187842,-0.00919162,-0.125239,0.0206797,0.0517776,-0.0828944,-0.0217575,-0.00553075,-0.0217843,-0.0283449,-0.114402,-0.00542618,-0.0800308,-0.102881,-0.0694759,-0.0735101,-0.102082,-0.101995,0.0377014,-0.16041,-0.00502541,-0.00262468,0.00695287,-0.0116188,-0.094386,0.0867979,0.0326961,0.0720674,0.0163594,0.00281044,-0.0446349,-0.0482991,-0.141306,0.0807615,0.0584684,-0.0222717,-0.107843,-0.0765646,-0.0391396,-0.0221081,-0.0832105,-0.0470981,-0.0789585,-0.152397,-0.111633,0.0280572,0.0801618,0.00214224,-0.0163791,-0.0211812,0.047922,0.00417078,0.143732,0.107101,-0.0766599,0.137419,-0.0217568,0.0627275,0.202916,0.141017,0.0644416,0.0971812,0.0605967,-0.062485,-0.0434964,0.0436678,0.0214697,0.091691,0.0171758,-0.0276617,-0.0169698,-0.0484175,-0.0358021,-0.0450851,-0.024819,-0.0633944,-0.0136142,-0.00388961,0.0458775,-0.0214514,0.00836973,0.00773144,0.0101653,-0.0286064,-0.0453782},
    {0.0629438,0.213625,-0.351932,0.0620684,-0.605374,-0.000730473,-0.781648,-0.0409366,1.07459,2.00331,0.776853,-0.15622,0.125936,-0.814668,0.208004,0.265206,0.147071,0.8131,0.397376,0.916291,-0.383407,0.251764,0.0808689,0.132506,0.435351,0.042051,-0.0313543,-0.0264635,0.152357,-0.0958992,0.26708,0.279835,0.116288,0.414945,0.137615,0.10784,0.115823,0.0996223,-0.0484313,0.280981,0.108519,0.118866,0.030464,-0.00480664,-0.102511,0.014191,0.116345,-0.0052308,0.0455074,0.0853569,0.114336,0.0212907,0.0729034,0.0675309,0.1005,0.102455,0.159277,0.0991089,-0.0401964,-0.0171512,0.0160332,-0.06936,-0.0314111,0.0543871,0.0198946,-0.0129006,0.0704258,-0.032045,-0.0149563,0.152513,0.0423163,0.0672487,0.0804327,0.256268,0.187927,-0.00802609,-0.0290385,-0.196112,0.0312815,0.0937827,0.123218,0.421109,0.101474,0.509236,-0.145548,0.0668532,0.0875616,0.0168285,0.24084,0.0548085,-0.0361793,0.063673,0.015265,-0.0941614,0.326599,0.220233,0.0691562,0.308176,0.266621,0.0766233,0.0469546,0.0714125,-0.0572597,0.265011,-0.00308112,0.179779,-0.143332,0.0246892,-0.0965851,-0.0782796,0.0286419,-0.0287062,-0.00625098,0.163162,0.0254191,-0.0155303,0.0740925,0.00153996,0.00399868,0.0270598,0.0648592,0.114614,-0.0973445,-0.0180612,-0.0536215,-0.00375203,-0.0177475,0.0430005,-0.0275294,-0.0144453,-0.0464106,-0.0639211,-0.0449703,-0.00773752,0.00357846,0.0456388,0.400977,-0.226984,-0.692235,-1.34245,-0.876185,-0.997813,0.00856032,-0.221887,-0.415802,0.234441,0.555515,-0.396579,-0.559625,-0.164142,-0.220564,0.261674,-0.268486,-0.16513,-0.103472,-0.0202052,-0.110328,0.0454141,-0.0731404,-0.0973485,0.00327998,-0.147897,0.0604584,0.142836,-0.218972,-0.0436241,-0.0326552,-0.00504895,-0.0337737,-0.0326477,0.0390554,-0.175169,-0.183836,-0.108805,-0.0201074,0.14578,-0.055026,-0.106646,-0.0705837,-0.014999,0.0290277,0.0362717,-0.00919092,0.0858071,0.0949917,0.0370266,-0.166973,-0.200852,0.00587003,-0.0741335,-0.145947,0.108138,-0.0421155,-0.0264478,-0.0237595,-0.0101289,0.0377456,0.0386668,0.104753,0.0344982,-0.0468311,0.0611167,-0.0610137,-0.227985,-0.139958,-0.310648,-0.00455229,-0.0817331,-0.162988,0.188609,0.335422,-0.194784,-0.252935,-0.0999807,-0.145395,0.18134,-0.234144,-0.183577,-0.0876747,0.183911,-0.0350172,0.0579093,-0.114642,-0.116578,0.128783,-0.125498,0.211511,-0.00888684,-0.194756,-0.0384241,-0.016916,0.0199495,-0.0524739,-0.0766598,-0.00518203,-0.0569364,-0.0513483,-0.257195,0.0363198,0.0259374,-0.0299891,-0.0355807,-0.011817,0.0491645,-0.00724087,0.0683265,-0.0422737,0.00837187,0.0727684,-0.0660299,-0.12315,-0.0256078,-0.0932066,-0.00647586,-0.131512,0.0081919,0.0166168,0.0529359,0.0608743,0.0227114,0.0698291,0.0209672,0.0905095,0.00562098,0.171301,-0.061568,-0.582175,-0.369437,-0.343465,-0.438255,-0.0265129,0.152132,0.172698,-0.349882,-0.046472,0.0748135,0.571497,0.217284,-0.0176109,-0.289909,-0.123441,0.0114519,-0.000697644,-0.11113,0.00420983,-0.0542788,-0.311614,-0.138811,-0.0991971,0.104324,-0.102434,-0.187423,0.0840991,0.159158,-0.0482848,0.257366,0.158798,0.0140191,0.0970692,0.133466,0.10749,0.207908,0.208874,0.190694,0.145091,0.227117,0.0739234,0.067937,0.148654,0.06086,0.0941305,0.0531953,0.0795638,-0.0199299,0.0358673,0.000301836,0.0485915,0.00581177,-0.0036797,-0.0830283,-0.104642,-0.0792428,-0.169896,0.0347193,-0.102944,-0.10448,-0.116259,-0.00822649,-0.0132271,0.107057,-0.0868138,-0.0788238,-0.0548505,-0.118295,-0.0820602,0.0483191,0.113577,-0.145833,-0.00424658,-0.0388114,0.273999,0.0931176,-0.000403358,-0.101335,-0.013536,-0.00498958,-0.014863,-0.175436,-0.0659565,-0.0282126,-0.169231,-0.0460766,-0.0395219,0.176456,0.00262475,-0.0533401,0.102308,0.160277,-0.0999273,0.2332,0.152385,0.0753718,0.174617,0.0943727,0.163458,0.297456,0.214793,0.254703,0.157011,0.193198,0.0753958,-0.0639217,0.0622204,0.0490865,0.13459,0.137806,0.0927352,0.0224377,0.0105389,-0.0163112,-0.00693353,0.0323755,-0.00353004,-0.000365617,-0.027032,-0.036485,0.0598326,0.0190337,0.0238226,0.0520138,0.0553872,-0.0148162},
    {0.156697,-0.0482027,0.476783,0.00919879,0.167701,0.0330582,-0.131866,0.022905,-0.972576,-0.669251,0.339769,-0.474685,-0.109543,-1.03562,0.790815,-0.249952,-0.842614,0.514336,-0.28143,0.832268,-0.341058,-0.355093,-0.196873,-0.837259,-0.869608,-0.235604,-0.424757,-0.18134,-0.404403,-0.72077,0.0283722,0.0447201,-0.258155,-0.0707032,0.111239,-0.183328,-0.302904,-0.097495,-0.161657,0.291619,-0.0449953,0.063528,-0.262565,-0.0565799,-0.295162,-0.157094,0.111215,0.0111334,-0.0393942,0.110408,0.0219774,0.118454,0.0475476,0.010135,0.0764885,0.130736,0.0903627,0.282439,-0.229524,0.0408355,0.0630123,-0.0471533,-0.0564705,0.0829199,0.0275554,0.125225,0.0908234,0.0815774,0.128281,0.0101295,0.066504,0.128761,-0.0152612,-0.102427,0.00142924,-0.0795,-0.0194954,-0.277518,0.26771,-0.0286576,-0.369746,0.278144,-0.200598,0.427089,-0.242542,-0.158658,-0.0493253,-0.505955,-0.540098,-0.27912,-0.32018,-0.152698,-0.288495,-0.527947,-0.100866,-0.0420522,-0.333894,0.0320285,0.107618,-0.160038,-0.223596,-0.198072,-0.226353,0.217644,-0.0723884,0.0736332,-0.243113,-0.113528,-0.287812,-0.0662311,-0.0196628,-0.0560121,-0.0295707,0.0389402,0.0181893,0.122733,0.0618105,-0.00702847,0.0384629,0.104809,0.0461989,0.0606645,-0.120644,0.0775637,0.0538759,-0.0944112,-0.0132473,-0.0482555,0.0311858,0.00444337,0.00587343,-0.0362561,-0.0212919,-0.0895184,-0.0573972,0.035168,-1.11201,0.134508,0.667477,0.917828,1.18866,0.126722,0.919191,0.933548,-0.275923,0.299002,0.745392,-0.560127,-0.610307,0.15001,0.00596415,0.564076,-1.0576,0.0221963,-0.0962408,0.237113,-0.277418,0.0488742,-0.089016,-0.284665,0.057537,-0.119091,-0.0445341,-0.0235962,-0.195041,-0.212636,-0.0855012,-0.0253048,-0.150261,-0.0515833,-0.0253326,-0.00593064,-0.345784,-0.47324,-0.052742,0.0466496,-0.184177,-0.111077,-0.0722099,-0.118548,0.0501925,-0.0946246,0.0460394,0.0375998,-0.0457356,0.0698818,-0.107998,-0.177352,-0.0212622,-0.0783266,-0.0856402,-0.0142813,-0.0779723,-0.0836104,-0.0600295,-0.0557272,-0.0986493,0.0703131,0.0332979,0.0906552,0.112781,0.0198155,0.115381,0.201352,0.249533,-0.000986262,0.276636,0.403483,-0.122068,0.210227,0.364079,-0.257895,-0.287403,0.063223,0.021668,0.312675,-0.744651,-0.00491529,-0.197393,0.01535,-0.259451,0.0433851,-0.136555,-0.255043,-0.018497,-0.285434,-0.0731088,-0.0788623,-0.154279,-0.191561,-0.0530468,0.0135763,-0.167927,-0.120909,0.0964461,-0.0460733,-0.314118,-0.317463,0.0661271,0.253849,-0.128134,-0.121487,-0.0944998,-0.119994,0.0104546,-0.0299392,0.0434634,0.0300573,-0.0269585,-0.0121997,-0.156186,-0.118071,0.0134632,-0.0298864,-0.0400551,0.0405392,-0.111791,-0.0980483,-0.011232,0.0530559,0.0331178,-0.119596,0.0207007,0.0785045,-1.17657,-0.236287,0.101838,-0.214212,0.849274,0.216918,0.580588,0.464714,-0.0188146,-0.630611,-0.441669,-0.103897,0.829232,-0.0638272,0.0786855,-0.415451,-0.740451,-0.185548,0.0628615,-0.291889,-0.0963854,-0.0362725,-0.321281,-0.177065,0.0218377,0.218841,-0.123721,-0.11701,0.0649059,0.200921,-0.0058925,0.28226,0.202773,0.172914,0.298521,0.0900226,0.171958,0.378037,0.31204,0.154237,0.168689,0.253234,0.178184,0.0690122,0.11301,0.0729485,0.0987228,0.104571,-0.0730178,0.0186589,-0.0404551,-0.0938132,-0.0736228,-0.0174469,-0.0200635,-0.118272,-0.101426,-0.0863533,-0.150922,-0.0682315,-0.107657,-0.123533,-0.176998,-0.0544908,0.0177182,0.0128875,0.0407092,0.05731,0.308404,0.0188182,0.154235,0.099252,0.0583184,-0.321742,-0.198637,0.0824903,0.456355,-0.012749,0.0739483,-0.327147,-0.525592,-0.0630193,-0.024579,-0.280799,-0.0562852,-0.0897619,-0.316237,-0.220559,0.0491323,0.2739,-0.0945244,-0.01571,0.11588,0.21324,-0.0113737,0.195264,0.197985,0.133043,0.241192,0.36476,0.117492,0.248209,0.303217,0.303678,0.11311,0.176264,0.114192,0.136082,0.0728348,0.0180044,0.0980599,0.0863956,0.10298,-0.0935168,-0.0197807,0.0272465,0.0381242,-0.0726948,-0.0867675,-0.0235814,-0.0111815,-0.0335853,-0.00885101,-0.0079174,-0.0476779,-0.0390621,0.0863059,0.0566827},
    {0.469594,0.102256,0.0989919,-0.0540287,-0.125773,-0.0472536,-0.363847,-0.00698097,-0.814663,0.23819,0.630347,0.430511,0.200458,-0.865429,-0.309979,-0.051232,-0.479984,0.55512,0.431735,1.24547,-0.316593,0.153842,0.410145,0.132162,-0.0162228,0.336715,0.0960309,0.189031,0.0251095,-0.164744,0.262403,0.480892,0.135649,0.257071,0.288152,0.0325369,-0.0873092,-0.000492221,-0.109133,0.278699,-0.0199273,-0.00126774,-0.0236031,-0.0685612,-0.16961,0.00799897,0.0709906,-0.0473312,-0.121561,0.109718,0.140639,0.113166,0.0515545,0.136161,0.0361383,0.100835,0.0320776,0.10015,-0.20335,-0.0222023,-0.00862762,0.0185848,-0.016625,-0.0232932,-0.0253161,0.00548386,-0.0816511,-0.0385362,0.0518801,0.125863,0.0396932,0.0133528,0.0358366,0.09071,0.0885059,0.0307908,0.0756851,-0.206185,-0.132829,-0.0706111,-0.107,0.399039,0.212934,0.637825,-0.0465904,-0.0105798,0.263268,0.059133,0.0274004,0.267721,0.112512,0.191728,0.0730559,-0.301283,0.219226,0.286832,0.178856,0.399393,0.230682,0.162321,0.0169332,-0.0947577,-0.093141,0.295588,0.0536613,0.0860573,-0.0660247,-0.0752833,-0.24661,-0.0846043,-0.0382462,-0.0184017,-0.1364,0.145023,-0.0418824,0.0408095,0.0967254,0.0155576,0.0117284,0.047998,0.0547209,0.186041,-0.165019,0.0643095,-0.00704423,-0.0719094,0.00399526,0.0164046,0.050103,0.023015,0.0113579,-0.00102014,0.0490361,0.0335408,0.0104904,0.0131198,1.28047,0.0658785,-0.239864,-0.61886,-0.175453,-0.804366,0.0129031,-0.319241,-0.920529,-0.323101,0.18175,-0.771765,-0.78851,-0.260841,-0.299818,0.386359,-0.844749,-0.224313,-0.209118,0.0517839,-0.218397,0.0895853,-0.128776,-0.236226,0.0259646,-0.458545,-0.0775242,-0.00201545,-0.17679,-0.0973849,-0.0487105,-0.0593683,-0.193592,0.0252718,-0.0849659,-0.0250881,-0.30577,-0.412039,-0.0265582,0.025449,-0.189281,0.0235152,-0.147936,-0.0706106,-0.0185271,-0.143123,-0.0338945,-0.0782836,-0.0959278,-0.133947,-0.241388,-0.175935,-0.0858559,-0.0742093,-0.131021,0.0808881,-0.0840981,-0.202241,-0.189081,-0.0328044,-0.0634513,-0.070205,0.0789023,0.0418571,-0.0137088,-0.0229804,-0.0679515,-0.109775,0.0780615,-0.213076,-0.0399841,-0.164054,-0.383861,-0.158221,-0.0126498,-0.424884,-0.508577,-0.147119,-0.142973,0.333141,-0.616653,-0.0830182,-0.239143,0.0511312,-0.19383,0.114184,-0.0981108,-0.137045,0.0581758,-0.459471,-0.100711,0.0195738,-0.165165,-0.0542582,0.0387521,-0.119093,-0.184301,0.0847293,0.00651335,-0.0236024,-0.292927,-0.400679,-0.0152269,0.0557477,-0.187548,-0.150258,-0.133712,-0.131448,0.0788129,-0.0453581,-0.0413773,-0.00549595,-0.0428279,-0.042238,-0.182481,-0.211819,-0.0568908,-0.00743823,-0.0508349,0.00494014,-0.0194923,0.0230184,-0.110136,-0.0567845,0.0391838,0.0296874,-0.0718852,-0.000424036,-0.09099,0.341369,-0.130349,-0.00966679,0.415047,0.356768,0.122235,0.399026,0.294954,-0.799612,-0.424921,-0.0867112,0.493979,0.1235,0.060254,-0.303556,-0.620673,-0.0548564,-0.0563136,-0.20847,-0.125173,-0.0806638,-0.347525,-0.220336,-0.158185,0.294594,-0.0419855,-0.130694,-0.00839224,0.113597,-0.0582941,0.236822,0.15208,0.0615988,0.255863,0.00669372,0.195943,0.150324,0.252258,0.247315,0.100118,0.175936,0.0231759,0.0391416,0.0377609,-0.010341,-0.0162088,0.0631174,-0.0102399,-0.121007,-0.041608,-0.0242042,-0.0267813,-0.140601,-0.122113,-0.183784,-0.201776,-0.21082,-0.205267,-0.189246,-0.0885301,-0.0258897,-0.21628,-0.21319,0.11004,0.0816209,0.0619946,0.061125,0.12628,0.0675477,0.0488646,0.201949,0.131341,-0.296137,-0.191969,-0.0803515,0.346569,0.128712,0.0619022,-0.292892,-0.349294,-0.019082,-0.0140727,-0.225461,-0.176359,0.00433552,-0.385638,-0.126574,-0.094386,0.0712394,-0.099737,-0.196954,0.0627486,0.148895,-0.00589793,0.155661,0.114501,-0.0300158,0.258881,0.0324826,0.210474,0.184477,0.193654,0.278353,0.0562765,0.208153,0.0570177,0.0315142,-0.0257861,0.0367454,0.0503387,0.0317926,-0.0262385,-0.0375222,-0.0214616,0.0155114,-0.0072693,-0.051973,-0.0516853,-0.0178706,-0.0865228,-0.0153978,-0.0311392,-0.0376187,-0.0690993,0.000384931,-0.0390042,0.000539038},
    {0.0786728,0.104437,0.349855,0.00655087,0.0142716,-0.00582842,-0.277529,0.00814687,-0.359982,0.670866,0.928978,0.274501,0.467261,-0.333743,0.358238,-0.0676405,0.0391275,0.527738,0.220597,0.654991,-0.0564297,-0.152994,0.176316,0.114897,-0.142526,0.179507,0.0792692,0.239268,0.0774666,-0.0264252,0.246258,0.228591,0.184319,0.223013,0.14828,-0.016569,0.0366605,0.123598,0.00108367,0.159423,-0.0738237,0.105527,-0.0928926,-0.0485356,-0.183764,0.0411596,0.0851412,-0.0445591,-0.0380042,0.0404727,0.0082922,0.0470817,0.0769783,-0.0413999,-0.107486,0.101639,0.00300092,0.161971,-0.0925062,0.0435887,-0.059817,0.0858503,-0.0306987,-0.0419408,0.117321,0.0562606,0.0441239,0.02238,0.0110548,0.0724955,0.0848794,0.0408845,0.128943,-0.00239603,0.129159,0.0866518,0.0863017,-0.176694,0.145285,-0.045157,-0.0263766,0.168097,0.0723579,0.395105,0.00665378,-0.0724189,0.129247,0.0210998,-0.0655388,0.133133,0.0711699,0.19204,0.0120287,0.0461191,0.187512,0.118488,0.0626103,0.198059,0.172004,0.113921,-0.069715,-0.060681,-0.064526,0.216985,0.0112612,0.124366,-0.100674,-0.06549,-0.125424,-0.0764124,0.0387878,-0.0571996,-0.0103866,-0.0366656,0.0303688,-0.110193,0.0504808,-0.0435983,-0.037357,0.115195,0.0510081,0.0832869,0.0423293,0.107145,0.0454146,-0.0570226,0.0303432,-0.0414958,0.0375021,0.018653,0.0118628,0.0170074,-0.0386274,0.0548926,0.0475967,-0.0250805,-0.418837,0.130303,-0.404331,-0.710159,-0.333021,-0.411437,0.0531055,-0.247217,-0.769491,-0.232906,0.202958,-0.716315,-0.372873,-0.139418,-0.0884404,0.302351,-0.36991,-0.0253567,-0.0599732,0.163889,-0.141434,0.0645632,0.0204116,-0.134157,0.0617116,-0.145652,0.0347457,-0.0569508,-0.0153433,-0.0360927,-0.121414,-0.0458154,-0.14118,-0.12371,-0.0519269,0.0096909,-0.11227,-0.249642,-0.109591,-0.0627095,-0.0580137,-0.073379,-0.105159,-0.115337,0.0387669,-0.104836,-0.0565108,-0.0117944,-0.035007,-0.0831673,-0.0536018,-0.0820734,-0.0971726,-0.0660568,-0.191244,0.0990436,-0.0692985,-0.0528841,-0.0288666,-0.0672257,0.00104026,-0.00904374,0.0537395,-0.0546037,-0.0007616,-0.0374257,-0.119207,-0.106551,-0.109412,-0.224412,-0.0249398,-0.0647574,-0.340989,-0.12075,0.00704611,-0.507603,-0.253068,-0.103269,-0.0681322,0.225219,-0.28842,0.00224768,-0.122092,0.0224004,-0.0352415,0.0503503,-0.0181598,-0.0504431,0.154893,-0.16582,0.0650327,-0.0660397,-0.101217,-0.0448196,-0.0325526,-0.10786,-0.0585734,0.0474438,-0.025543,-0.0220063,-0.149338,-0.157685,-0.0529381,0.0218491,0.0448956,-0.0481948,-0.0691407,-0.0652839,0.0355827,-0.0413073,-0.0273986,0.00253207,0.0188544,0.0816264,-0.0372147,-0.0852855,0.0192229,-0.0305619,-0.0161135,0.0102311,-0.0453339,0.0428818,-0.012523,-0.0438449,-0.00319768,0.0558704,0.0260076,0.0600958,-0.0610331,0.46754,-0.0958082,-0.22872,-0.00755027,-0.29695,-0.221997,0.151571,-0.0686083,-0.613309,-0.240539,-0.176991,0.201211,-0.101323,0.0154683,-0.0420273,-0.269424,-0.0685157,-0.0561672,-0.0979102,0.0698323,-0.0140112,-0.26201,-0.0709953,-0.0423749,0.0963325,-0.0330049,-0.0155369,-0.0543314,0.12411,-0.0289881,0.0706882,0.160849,0.0855156,0.0621892,0.204507,0.159974,0.282357,0.280795,0.181081,0.0946296,0.166235,0.00700734,0.0234615,0.0856493,-0.071521,0.0459446,0.087447,0.0166939,-0.0683365,-0.000948794,0.0390923,-0.00634763,0.00689165,-0.0271175,0.0522727,-0.110975,0.0220372,-0.082812,-0.0613432,-0.0252702,0.0328265,-0.126857,-0.0453156,0.0219571,0.0303672,-0.0181998,-0.0661369,0.0351589,-0.140383,-0.0639013,0.0268394,0.00255342,-0.212584,-0.180169,0.0261172,0.107817,-0.0689271,-0.00331486,-0.00688825,-0.100894,-0.180066,0.0438441,-0.0795888,-0.00785098,-0.0443032,-0.222622,-0.131547,-0.052789,0.0894348,0.0116614,-0.0635267,-0.0312437,0.0700212,-0.0727094,0.162647,0.107262,0.0685001,0.0322945,0.141929,0.0253515,0.179111,0.138461,0.161514,0.174738,0.144181,0.0708615,0.0534085,0.142202,-0.0153086,0.0242222,0.130883,-0.0214676,-0.040974,0.00212687,0.0390892,0.0452551,-0.0506087,-0.020603,0.0237643,-0.0897024,-0.0691612,-0.00885318,0.0518378,0.0156524,0.0700146,-0.0484807,0.0220923},
    {0.0291099,-0.0809494,-0.00657546,-0.0656086,0.079809,0.033074,0.0768736,0.00285334,0.013009,0.126691,0.0688101,0.365331,0.10226,0.388727,-0.180642,0.0362619,0.153331,-0.101545,0.0904203,-0.28349,0.0288178,-0.056751,-0.0788059,0.136568,0.0138276,-0.0928223,0.0578953,0.0463598,0.125529,0.122853,-0.0290746,-0.00322463,0.0823918,-0.0635749,0.0192214,-0.0318797,0.00320268,0.0119947,0.0692773,-0.0396306,0.0711207,-0.0155622,0.119217,0.0577488,-0.0204745,0.0152583,0.0225873,0.0275872,0.0234073,0.0636226,0.0115341,0.00739676,-0.0152671,0.0842861,0.0163153,-0.00864908,-0.0200802,0.0523365,0.0353309,-0.00720246,0.0304653,-0.0379506,0.0216029,0.00678666,-0.0461804,0.0167853,0.00184311,0.0466767,0.0970384,0.0449753,-0.0843505,-0.00499654,0.0380663,0.0372033,0.0511425,0.0173494,0.0545598,0.115983,0.0470439,0.051749,0.0614088,0.0382965,0.0317304,-0.131484,0.0546117,-0.0299833,-0.0307984,-0.00727606,-0.0984593,0.00475659,-0.0233018,0.0739494,0.11763,0.120151,-0.00690433,-0.015555,0.0754854,-0.048501,-0.036428,0.130882,0.00869002,0.0432287,0.0266251,-0.0457539,0.00690639,0.000176244,0.0398871,0.00246075,0.119435,-0.0622627,-0.022416,0.0278879,-0.0504908,-0.0367001,0.0480557,-0.0284919,-0.0045743,0.00307815,0.0466373,0.0198598,0.0628828,-0.105645,-0.00681539,0.0289242,-0.0602408,-0.0147976,-0.0420427,0.0296693,-0.0336441,-0.0866289,-0.0231745,-0.0396938,0.0359014,0.0136326,-0.0109114,-0.0933808,-0.217406,0.0105201,0.0701578,0.0723669,-0.175362,-0.0688017,-0.136633,-0.152747,0.0326582,-0.0230833,-0.180716,0.134724,0.0924929,-0.122308,-0.0705936,-0.15961,0.00452968,-0.0393044,0.0723493,0.0425467,0.0676838,-0.029521,-0.0504021,0.0527935,-0.0579434,-0.0201968,-0.033351,-0.00405502,0.0853659,0.0209604,0.039213,-0.0317961,0.0437787,0.0637503,-0.00736543,0.0338177,0.142117,0.0876559,0.0163508,-0.0135557,-0.0172852,0.0601,0.0770186,-0.0146485,-0.0709977,0.060776,0.0187781,-0.0991659,0.00378443,0.0511817,0.104556,-0.00301716,0.0302548,0.0810486,0.0159803,-0.00800401,-0.00260796,0.0327905,0.0287195,0.064878,0.00507282,0.0157445,-0.0181447,-0.122567,0.0433272,-0.00529555,0.0351687,0.0184141,-0.0791332,-0.0103768,0.0144818,-0.0602364,0.0705767,0.00295852,-0.155463,0.0491616,0.0681255,0.0707997,-0.00346023,-0.0867481,0.0444173,0.0118777,0.0600684,-0.0671814,-0.0523536,0.0527959,0.0623679,0.0687157,0.0848949,0.0481734,0.00733012,0.0750023,0.0500974,-0.023324,0.0987858,-0.00544556,0.125091,0.0340176,0.0453708,0.143442,0.0711854,0.016478,0.0306695,-0.0194171,0.0403738,0.0109171,0.124464,0.0521531,-0.0481632,0.00856904,0.000941099,-0.0241524,-0.0175241,-0.0714694,-0.0268194,-0.050331,0.00120971,0.0386145,-0.0900096,-0.0200521,-0.0608666,0.0466971,-0.035571,0.0236479,-0.0201037,0.0881072,0.0785367,-0.0272424,0.453732,0.16701,0.0262452,0.060482,-0.116399,0.0517747,-0.0704086,-0.0128013,-0.111391,0.0908523,0.132885,-0.0854594,-0.124878,-0.00278872,-0.0238795,-0.0115685,0.000558743,-0.0514495,0.0584347,0.127824,0.068799,0.0693275,0.0762414,0.0293384,0.02684,-0.0374799,0.0248373,0.0960409,0.00101411,0.00312955,0.0316994,-0.0904973,-0.0688095,0.0407572,-0.0746224,-0.0291979,0.035969,-0.0507684,-0.0305437,0.0211176,-0.0348447,-0.0993464,-0.0837532,-0.0663338,-0.0341642,0.00167079,-0.120152,-0.0351472,-0.0661604,0.0731216,-0.00222289,-0.0933787,0.0458131,0.0107732,0.120359,-0.0204345,0.0383664,0.0379474,-0.00422927,0.0625885,0.0472215,0.00749896,-0.0299775,0.0164041,-0.00122504,0.00582283,0.00663323,-0.0341473,-0.0507667,0.0384534,0.0093633,-0.0274156,0.00872194,0.0330519,0.0388386,-0.139579,-0.163115,0.000415056,0.0161681,-0.085839,-0.072277,-0.00462249,-0.0791896,0.0278892,-0.0160001,0.0355369,0.0765524,0.0149691,0.0620707,0.004875,0.0381591,0.0535,0.00917778,0.00565007,0.0385686,-0.038001,-0.0505758,-0.0492859,-0.0255169,-0.0724493,0.061591,-0.0783398,-0.136533,-0.00791808,-0.0233595,-0.0393004,-0.0928291,-0.00612456,0.08287,0.0207436,-0.030842,-0.0692171,0.0366341,0.0500098,-0.00609477,0.0249934,-0.066332,0.0475015,-0.0248943,0.0503431,0.0642873,-0.039277,0.0358783,0.0768725,0.0805648,-0.00150408,-0.0457533,0.0505628},
    {-0.0125286,0.11568,-0.0509212,-0.0700145,0.00498128,-0.0642841,0.0704205,-0.0790936,-0.0892437,-0.07376,0.0193115,-0.0457181,-0.0203214,-0.0112121,-0.00184994,-0.114593,-0.0229189,-0.0166209,0.0252475,0.0229438,-0.0510113,0.0150937,-0.000922838,0.0149389,-0.0504918,0.0384074,-0.00212866,-0.00204523,0.0238993,-0.0529194,-0.0853236,-0.0575369,0.0532211,0.0172377,-0.0912508,-0.09522,-0.00493476,-0.0353412,-0.0876537,0.00970527,0.0549515,-0.0704966,0.0843785,0.054509,0.0664122,0.0442513,-0.0262284,-0.0492874,0.0595871,0.00835239,-0.033494,-0.06464,-0.0918014,0.0194392,0.034266,-0.0491316,0.0814297,-0.0735143,-0.00399061,0.0496842,0.0560269,-0.0268532,-0.0419585,-0.00516997,0.158637,-0.0234976,-0.0455207,-0.0908444,0.161199,-0.0682731,-0.00315996,-0.0411442,-0.00412665,-0.0616685,-0.0682704,0.00502939,0.0221537,-0.00162122,0.045944,-0.172654,0.0871177,-0.0747672,0.0661804,0.0400154,-0.0373007,0.00794383,-0.0980368,0.0360334,0.00920375,-0.0475565,-0.0300323,-0.0338767,-0.0540487,-0.0265743,0.0512144,0.0477445,0.0111756,-0.00415266,0.0147073,0.0940906,-0.101244,-0.0177422,0.0432628,0.0586975,-0.0729129,-0.000556321,0.0461689,0.0289936,0.0665588,0.0261648,0.0189085,0.0911047,-0.0525289,0.0648104,-0.0735556,0.113056,0.0413549,-0.00413212,0.0240741,0.00399218,-0.0417576,-0.0234849,-0.0255583,-0.0594999,-0.0797033,-0.0100241,-0.0262884,0.113627,0.0311822,-0.0427327,-0.0146712,0.00731084,0.0104247,0.0592923,-0.0662303,-0.00386375,-0.0464903,-0.0298906,-0.00981451,0.0188308,-0.0415414,-0.0642434,-0.0897171,-0.0998418,-0.0702542,-0.00673397,-0.0289795,-0.0358644,-0.0103499,-0.0415032,-0.0192659,-0.14232,-0.0441866,-0.0517853,0.0781688,0.00100313,0.123826,0.0588659,-0.0313426,-0.0684942,-0.0167849,-0.0306765,0.084114,0.0909422,-0.0363255,-0.00265221,0.0401066,0.0380702,-0.049709,-0.0148922,0.00198035,0.0542174,-0.0252306,-0.0841137,0.0169126,-0.0360782,0.0252047,-0.0430995,0.0438036,0.00772432,-0.0223961,0.00281136,-0.00728956,0.127391,0.0681855,-0.0220829,0.00937592,-0.0200766,-0.0055509,-0.00929147,-0.12085,0.0249583,-0.000776711,-0.0400362,-0.0687276,0.0588837,0.0578935,0.00401706,-0.0254718,0.0223492,-0.0165277,0.0813809,-0.0487958,0.0652638,0.0546729,-0.0237194,-0.0618485,0.0384728,0.0731189,-0.032588,-0.0384754,-0.0620932,0.0762205,-0.0197953,-0.0756872,0.0192421,0.0142181,-0.108444,0.00249454,0.0186906,-0.00455561,-0.0212842,0.0676365,0.0766434,0.0464282,0.0383693,-0.0931252,0.0216759,-0.123112,0.0230617,-0.0204075,0.0348222,-0.0689765,0.0206522,0.0840508,-0.0718721,0.0125713,0.0246533,-0.0161109,-0.0024126,0.022994,-0.00891077,-0.0867843,0.0718601,0.0925497,-0.0702795,0.0259175,0.000503365,0.0297474,0.0419151,0.0678622,-0.0348696,0.0851907,-0.0340787,-0.0559307,-0.07127,-0.0209353,-0.0914761,-0.0706329,0.0568474,0.0492613,-0.0798089,-0.0379295,0.000620155,0.0304718,-0.0409031,0.0369611,-0.031043,0.0109794,0.0066352,-0.134335,-0.0581548,-0.0994045,0.0638843,0.0463286,0.0719134,-0.0573298,0.0356253,-0.0731442,0.0558826,-0.0366624,0.116278,-0.0419713,-0.0465525,0.0234179,-0.0748713,0.0207244,0.0737795,0.0159959,-0.0707709,0.0754723,0.00382712,-0.01762,-0.0486355,0.0396975,-0.00340327,0.0571393,-0.0552273,-0.0539909,-0.0492184,0.0582478,0.0679125,0.00678994,-0.0501785,-0.0833895,-0.0406368,-0.0578901,-0.0656519,0.073444,-0.0230724,0.0246656,-0.0128404,0.0151116,0.0255825,0.0104524,0.11247,-0.0685205,0.0544795,-0.0270189,0.0348139,0.0333579,0.0683367,-0.0594665,-0.0152352,0.119687,-0.0228136,-0.0261592,-0.0401123,0.0437265,0.0124865,-0.00120469,0.0102726,0.0758194,-0.00559082,-0.02835,0.0321084,0.0207664,0.0393764,0.0589503,0.0889424,-0.0329274,-0.00448449,-0.0794946,-0.00673735,0.0191833,-0.0239121,0.0285688,-0.0134236,-0.0146879,-0.0853909,0.0901248,-0.0133121,-0.00284653,0.00662394,-0.0484683,-0.00840768,-0.0684077,-0.0259287,0.0671417,-0.0840257,0.0612696,0.0153988,0.00333186,-0.00248296,-0.0260976,-0.0763067,0.0462942,-0.0658059,0.0541859,-0.00599321,0.0302336,-0.0484375,0.0152938,0.0259057,-0.0676168,0.0679102,-0.0225756,0.0095188,-0.0601914,0.0745103,0.0252684,-0.0141108,0.0469129,0.0774223,-0.0417551,0.071787,0.0511695,0.0224005,-0.0124733,-0.0301059,0.0523356,-0.0604117},
