#include <stdio.h>
#include <stdlib.h>
#include <math.h>
#include <iostream>
#include <vector>

using namespace std;

class Network {
  /* --- Members --- */
  private:
    int n_layers;
    vector<int> sizes;
    vector< vector<double> > biases;
    vector< vector< vector<double> > > weights;

  public:

  /* --- Methods --- */

  ~Network() {};

  Network() {
    n_layers = 4;
    int hard_sizes[] = {392, 30, 30, 1};
    sizes.assign(hard_sizes, hard_sizes+n_layers);

    // Initialize the biases and weights all to 0.0 to start
    int i_layer, j_node, k;
    for (i_layer = 0; i_layer < n_layers-1; i_layer++) {
      vector<double> node_biases;
      vector< vector<double> > node_weights;
      for (j_node = 0; j_node < sizes[i_layer+1]; j_node++) {
        node_biases.push_back(0.0);
        vector<double> k_weights;
        for (k = 0; k < sizes[i_layer]; k++) {
          k_weights.push_back(0.0);
        }
        node_weights.push_back(k_weights);
      }
      biases.push_back(node_biases);
      weights.push_back(node_weights);
    }
  }

  void set_layer_biases(int i_layer, double* b) {
    biases[i_layer].assign(b, b+sizes[i_layer]);
  }

  void set_layer_node_weights(int i_layer, int j_node, int size, double* w) {
    weights[i_layer][j_node].assign(w, w+size);
  }

  /*
   *  Feed forward computation for neural network
   */
  double feedforward(vector<double> input) {
    vector<double> a = input;
    for (int i_layer = 0; i_layer < sizes.size()-1; i_layer++) {
        vector<double> b;
        vector< vector<double> > layer_weights = weights[i_layer];
        vector<double> layer_biases = biases[i_layer];
        for (int j_node = 0; j_node < sizes[i_layer+1]; j_node++) {
            double node_bias = layer_biases[j_node];
            vector<double> node_weights = layer_weights[j_node];
            double dot = 0.0;
            for (int k = 0; k < node_weights.size(); k++) {
                dot += node_weights[k] * a[k];
            }
            double z = dot + node_bias;
            double sig = 1.0/(1.0 + exp(-z));
            b.push_back(sig);
        }
        a = b;
     }
     return a[0];  // assuming only one output
  }

  /*
   * Static functions to get networks
   */
  static Network getNetwork(int n) {
    switch (n) {
      case 0:
        return getNetwork0();
      case 1:
        return getNetwork1();
      case 2:
        return getNetwork2();
      case 3:
        return getNetwork3();
      case 4:
        return getNetwork4();
      default:
        return getNetwork0();
    }
  }

    static Network getNetwork0() {
      Network network;
      double layer0_biases[] = {1.29396,-1.01807,-0.200231,0.944289,-0.918401,-0.370171,1.31135,2.05457,-0.155069,-2.63274,-1.42887,-0.912335,0.115168,1.30802,-0.652588,-0.709279,-0.881544,-0.180789,-1.28053,1.00451,0.132385,0.182247,-0.294057,0.193514,0.0424588,-0.139504,0.312971,0.126392,1.84692,-0.919729};
      double layer1_biases[] = {0.207885,-0.0498937,0.477722,-0.324712,-0.0284746,-0.209679,-0.480975,0.123127,-0.740134,-0.180339,-1.67519,-0.793543,-1.66304,2.97969,1.1673,-1.15663,0.234666,1.14899,-0.387866,0.305959,0.258217,-0.528831,0.1126,-0.428583,-0.78621,-0.23977,-1.39088,-0.0734113,0.0228029,0.571068};
      double layer2_biases[] = {0.558786};
      network.set_layer_biases(0, layer0_biases);
      network.set_layer_biases(1, layer1_biases);
      network.set_layer_biases(2, layer2_biases);
      double layer0_weights[][392] = {
        {-0.124136,-0.0493793,-0.0483053,0.0297551,0.0523388,-0.0811087,0.0634689,-0.040166,-0.14696,0.398086,0.157598,0.158515,-0.0627315,0.130422,0.0228798,0.0208692,0.0573156,-0.117164,-0.0362481,0.0148612,0.0498185,0.0916258,-0.0444783,-0.0810878,0.0056343,-0.0964972,0.0844819,0.0415485,-0.0438785,-0.0199538,0.0180504,-0.0941252,0.0532464,-0.0191876,-0.0300397,-0.0306469,-0.0109303,-0.0211047,-0.0747017,-0.0932137,-0.00358641,-0.0664266,0.00661877,-0.0223974,0.011784,0.0831901,0.00248978,0.0123143,0.0341371,0.0145491,0.00485109,0.0809658,0.014034,-0.0344889,-0.0175948,-0.0466057,0.0138372,-0.00026165,0.0811052,-0.00469923,-0.0181275,0.0125576,-0.0423171,0.0740474,-0.0025586,0.0215152,-0.00748581,-0.0418293,-0.0555611,-0.0305018,-0.0623883,-0.0720663,0.0318609,0.0719712,0.0610302,0.0398047,-0.0701985,-0.00199167,-0.0104388,0.0184984,0.0759537,-0.0655804,-0.0608791,0.0261301,-0.00950517,0.0410005,-0.0360187,0.0245477,0.0288173,-0.0224201,0.0102244,-0.10781,-0.0260763,0.0267228,-0.0399281,-0.0345662,-0.0334562,-0.0812498,-0.190119,0.109761,0.0278499,-0.0161139,-0.0227022,-0.0532568,-0.0482464,0.0119792,-0.00937193,0.0896453,-0.0400798,-0.0746611,-0.00840082,0.0173577,0.0112107,0.00765889,-0.00669918,0.097868,0.0365355,-0.0239797,-0.0210497,-0.0252214,0.0829636,0.0398134,-0.0252703,0.0441675,-0.0570805,-0.054559,-0.0153997,-0.0224381,0.0467403,-0.00426023,-0.00157256,0.0328564,-0.0961599,-0.0924081,0.00357841,-0.0162906,0.0387351,-0.00279195,-0.0938834,0.0544989,-0.096343,-0.0837081,-0.152237,-0.0551268,-0.109718,-0.17569,-0.14066,0.0190532,-0.195679,-0.166469,-0.190057,-0.0668468,-0.0222787,-0.0302344,-0.0301031,-0.147848,-0.0918278,-0.0671478,-0.129565,-0.000404335,0.0276007,-0.0505656,-0.0302986,0.0603144,-0.0333737,-0.0389279,0.0435994,-0.0418059,-0.0419078,-0.0549374,0.0276981,-0.0880825,-0.0120491,-0.0633585,-0.105104,-0.0204279,0.070808,0.0755462,-0.0838301,0.00623502,-0.0812203,0.0107884,-0.0399876,-0.0342549,-0.0453692,0.0333457,0.0141571,0.0150232,0.0106331,0.127483,-0.00220296,-0.0470385,0.00138212,0.0652934,-0.0466886,-0.0727908,0.0829784,0.0345501,-0.0432185,-0.0388446,-0.102624,0.109484,0.00389755,-0.0366145,-0.0594077,-0.0362782,-0.103081,-0.101365,-0.0929221,-0.114664,-0.0944169,0.061546,-0.110742,-0.0873082,0.0315513,-0.133207,-0.0202818,-0.0400923,-0.0516489,-0.0955587,-0.093248,-0.0945068,-0.139701,-0.0315066,-0.014547,-0.065745,0.0100961,-0.0474512,0.00968659,-0.0722411,-0.101683,-0.0116153,-0.0802938,0.0352268,0.0670378,0.0363896,0.0473915,0.0378638,-0.0526874,0.00952598,0.0243506,-0.0176109,0.0442423,0.00341003,-0.00125415,0.00912853,0.0187052,-0.0310405,-0.0316732,0.000804875,0.0139521,0.0442426,0.00964897,0.0248592,-0.0451723,-0.0793789,0.00324869,0.021632,-0.0351473,-0.00108756,0.0259183,0.0317263,0.0695535,0.0921615,0.038334,-0.0679096,0.107393,0.000720154,0.025843,-0.0644326,-0.0155021,-0.121183,0.039501,0.146966,-0.0922325,-0.022488,-0.12441,-0.0275506,0.0985881,0.0187936,0.0191994,0.00947196,-0.0339148,-0.00785632,0.0780619,0.0321336,-0.0704621,0.0132392,0.0578174,0.0461078,0.0262861,0.0515279,0.0809381,0.0749571,-0.00636103,-0.0456033,-0.100333,0.0374491,0.0340939,-0.0559097,0.00357478,-0.102571,-0.049845,0.0290744,-0.0364712,0.0371407,0.107201,0.0322552,0.0740666,0.0402176,-0.0305433,-0.0797711,0.0327557,0.0568225,-0.0569768,-0.0861558,0.0703505,0.0342198,0.0841613,0.00994617,0.0581667,-0.0353435,-0.0503841,-0.0169864,0.0517837,0.0160708,-0.00288354,0.0533604,-0.0930961,0.0217916,0.0106163,0.0173105,-0.00799236,-0.0184362,-0.0787229,-0.0785765,-0.00496077,0.137488,-0.0442246,0.0855684,-0.0544188,-0.0114996,-0.0403439,0.0305026,-0.131277,-0.0233525,0.0268914,-0.0734254,0.0362602,-0.0445917,0.126331,0.128804,0.0396354,0.0291426,0.0185737,0.0347035,0.0839459,0.00192169,-0.0102647,0.0150599,0.00315118,0.054318,0.101628,0.102987,-0.0499378,-0.0113474,-0.0123776,-0.0161816,0.0122804,-0.0145431,0.0808362,0.0511696,-0.0312366,0.0373001,-0.0364774,-0.0272451,-0.0349624,0.0465797,0.00450198,-0.0332766,0.0193941,0.0321831,0.0272466,0.00150983,0.00395649,0.0233011,0.0027275,-0.082666,0.0468337,0.00311145,-0.03253,0.0144933},
        {0.159484,0.34189,0.294849,0.066131,0.180761,0.0203168,0.691892,-0.0741164,0.511707,0.182184,-0.406644,0.821365,-0.331111,0.912882,-0.256677,0.177014,-0.234185,-0.446512,-0.300447,-0.187117,-0.0209975,0.175576,-0.271713,-0.0735362,0.491989,-0.117836,0.113591,-0.162831,-0.109723,-0.0500982,-0.289573,-0.222819,-0.0429584,-0.191245,-0.163372,0.0742347,0.0803041,-0.0730907,-0.0272091,-0.26284,-0.138835,-0.17361,0.0318896,0.0810977,0.223723,-0.00706355,-0.0195013,-0.0285201,0.0173509,-0.0369015,-0.0813133,-0.121444,0.072382,-0.0417094,-0.0550895,-0.231009,-0.0967775,-0.144045,0.140388,-0.00571745,0.194214,0.0858707,0.0683549,-0.0264695,-0.0582077,0.0362174,0.148786,0.0233428,0.0677821,-0.110779,-0.0841435,-0.0289469,-0.0211773,0.0495006,0.0675492,0.139322,0.00961344,0.177779,-0.142903,0.0797641,-0.047399,-0.206399,-0.0951073,-0.0844271,-0.0506328,0.0670842,-0.131412,-0.0915409,0.439895,-0.0519802,0.0710356,-0.208657,-0.0870695,0.0248745,-0.182128,-0.183674,-0.0796984,-0.217382,-0.153667,0.0494381,0.0958504,0.00892491,0.0609168,-0.330558,-0.067308,-0.165395,-0.012007,0.0711341,0.0423173,0.189536,-0.081758,0.0402401,0.043391,-0.0715434,-0.0458156,-0.0789266,0.0484995,0.0627698,-0.0853532,0.0260924,-0.053236,-0.0189622,0.118942,-0.0734338,0.111873,0.09141,-0.010257,0.00672647,-0.0635955,-0.0394212,0.130483,0.0160034,-0.034649,0.0332771,-0.116603,-0.012655,-1.92181,-0.365631,0.401507,0.156065,0.118674,0.816744,0.388326,0.386254,0.904095,0.368841,0.206956,1.02291,0.393608,0.136904,0.0388013,-0.307919,0.493121,-0.197457,0.288503,-0.0828948,0.0861932,-0.0381802,-0.113434,0.0726279,-0.288221,0.297041,-0.0532592,0.122855,0.0885739,-0.00666994,-0.0476093,0.0524454,0.165671,0.0590357,0.0166913,0.0804651,0.13313,-0.0170161,0.0730426,-0.0431307,0.147154,0.116469,0.139137,0.0584465,-0.0968417,0.0758576,0.0100684,0.0872096,0.00563325,0.0152264,0.198475,0.176339,0.137545,0.300125,0.128478,0.208748,0.143262,0.202115,0.0964921,0.125764,0.144071,0.00900812,-0.0170946,-0.116176,-0.165284,-0.0826199,0.0359416,0.0310462,-0.0439042,0.232971,0.161898,0.125685,0.397794,0.188699,0.177889,0.521858,0.303844,0.111388,0.102433,-0.133057,0.304933,-0.215469,0.164464,-0.11206,0.041611,-0.0494339,-0.0512319,0.0785103,-0.174092,0.206546,0.0487615,0.0701994,0.106349,0.0913458,-0.036298,0.14923,0.0826343,-0.0592745,-0.0238786,0.0899652,0.176447,0.0610929,-0.0899129,-0.0146796,0.0296822,0.136686,0.0594005,-0.0173917,0.0984441,0.0588146,0.0813876,0.0532953,0.0813607,0.063489,0.132921,0.0824683,0.0585174,0.0567444,0.105333,0.0364603,0.130936,0.0998096,0.0607644,0.0458084,0.0402847,-0.00689984,-0.0103004,0.0764641,1.44116,-0.485034,0.086473,0.28199,-0.322665,-0.112385,-0.897962,-0.788369,-0.19879,0.122999,-0.627761,-0.476799,-0.817475,-0.373717,-0.404664,-0.478021,-0.480891,-0.389079,-0.367447,-0.441036,-0.567962,-0.395112,-0.396864,-0.347588,-0.301212,-0.361586,-0.0263491,-0.254789,-0.181666,-0.144991,-0.319953,-0.20451,-0.199412,-0.0838077,-0.21833,-0.122614,-0.297711,-0.150285,-0.213604,-0.142574,-0.190687,-0.141085,-0.103252,-0.0912663,-0.130847,-0.0610041,-0.0415195,-0.129066,-0.129404,-0.0589362,-0.0917644,-0.0580504,-0.0967585,-0.072601,-0.0318735,-0.0516244,-0.0350647,-0.035474,-0.0855493,-0.0394562,-0.0588997,-0.0929482,-0.0978725,0.00162488,-0.0319365,-0.0476128,0.0435399,0.0842159,0.000785992,0.0539599,-0.249624,-0.323763,-0.0958225,0.0671266,-0.271638,-0.255646,-0.460234,-0.302594,-0.316543,-0.306712,-0.355584,-0.370177,-0.332186,-0.406669,-0.466355,-0.321458,-0.381547,-0.375689,-0.332367,-0.382503,-0.034944,-0.357273,-0.247261,-0.136979,-0.361604,-0.265055,-0.157309,-0.169178,-0.301412,-0.128391,-0.247887,-0.141655,-0.203635,-0.0971097,-0.0555907,-0.118392,-0.0739015,-0.177103,-0.0343513,-0.110442,-0.167093,-0.18505,-0.0136821,-0.0529343,-0.0413116,-0.0409028,-0.0250136,0.0465641,-0.0491863,-0.0234697,0.0139403,-0.0646543,0.0336934,0.10613,-0.0696182,0.030188,0.0150921,0.0680037},
        {0.0215273,-0.0669336,0.0344318,-0.0385836,-0.182796,-0.0228501,-0.174439,-0.0610024,-0.0579821,0.0165962,0.0636829,0.0339534,0.187732,-0.123641,-0.0322228,0.0488593,-0.0646002,0.257615,-0.0553649,0.134486,-0.124032,-0.150646,0.0578702,0.019166,-0.0319804,0.118939,-0.0491012,0.0835669,0.0188994,-0.0474218,0.0400353,0.112872,-0.020213,0.128375,0.159458,0.0173839,-0.135325,-0.0583713,-0.00197057,0.0531728,0.104095,0.00351373,0.0550058,-0.050532,-0.0187401,0.0632954,0.0848224,0.0616019,0.0502543,0.13682,0.0429733,-0.00861149,-0.0612584,0.0657575,0.00298783,0.0462287,0.0358297,0.0779494,-0.0272721,0.0012567,-0.0224612,-0.0197539,-0.0455187,0.0478202,0.0882484,0.0402072,-0.0510234,0.0412462,-0.00359071,0.092824,0.0389741,0.0400531,0.036006,0.0356489,-0.00616587,0.0323742,0.0723075,-0.0627753,0.109451,0.0217368,-0.0606145,0.0607888,-0.0207089,0.105701,0.00760084,-0.0792271,0.0993921,0.11159,-0.109925,0.0928344,-0.0562288,0.0600458,-0.0412695,-0.0914462,0.0188659,0.0914073,-0.014717,0.102004,0.000580738,-0.00934741,-0.0103606,0.0111851,-0.00870444,0.135941,0.0917841,0.0103953,-0.0451686,0.0261567,-0.0846118,-0.0161686,0.0224809,-0.0164593,0.0466269,0.0294584,0.0136309,0.030994,0.00811537,-0.00502409,0.0443983,0.10282,0.0348156,0.0031297,0.0476435,-0.124039,0.0204284,0.0542306,0.0388856,-0.0448242,0.0353749,0.000560605,0.0102587,0.0189768,0.0531504,0.0200238,0.0326962,0.0749524,0.00360596,-0.0107529,0.0470439,0.0664603,0.136281,-0.243228,0.0612629,-0.0302472,-0.121254,0.0435773,-0.112777,-0.315613,-0.0990219,-0.00122728,-0.000705383,0.045067,0.000899716,-0.0221903,-0.0162228,0.00657262,0.0135678,-0.00118523,0.00634526,-0.0329291,0.0788116,-0.073861,-0.0427448,-0.0189495,0.0787869,0.0380434,-0.0704604,-0.0350236,0.017147,0.00324394,0.0192852,-0.0602042,-0.0516107,-0.0617011,0.0752104,0.0561947,-0.0396648,-0.0485865,-0.0625872,0.0350615,-0.0597341,0.0301963,-0.0971768,0.0274062,-0.0142002,0.0145007,0.0403883,-0.0800355,-0.0506641,-0.0412168,-0.0431467,-0.0232027,-0.000181561,-0.0384334,0.062851,0.0269148,0.0428953,0.140144,0.054027,0.0724138,-0.00635555,0.0138658,-0.0391093,0.0581655,0.0403019,0.0218361,0.142203,-0.0353454,-0.0714032,0.0522006,0.0276102,-0.0362681,-0.0427651,0.0560692,-0.145289,0.0636621,-0.0219138,-0.0404544,-0.0403702,0.0584627,0.0222136,0.0977784,0.148739,-0.0536114,-0.00339426,-0.118152,0.00808554,-0.0678734,-0.0837304,-0.0613597,-0.0647361,-0.0444804,-0.0634997,0.130905,-0.0266518,-0.0813382,-0.0942347,-0.0958308,0.0990275,0.0255886,-0.0343553,-0.0465294,-0.163999,-0.0297995,-0.0455708,0.0228165,-0.0212987,-0.0577528,-0.103883,0.090556,7.09948e-05,-0.0263087,-0.0700662,-0.0953844,0.0877485,-0.0670446,0.05078,0.033279,0.142678,0.0319104,-0.0631504,-0.0401119,0.0438596,0.00262175,0.354231,0.381843,0.0949682,0.0506179,0.170962,-0.0247394,0.170593,0.162877,-0.0329223,-0.183795,0.143305,0.0166054,0.138651,0.250362,-0.207773,-0.0700639,0.0394189,0.0128082,0.0737593,-0.00968551,0.0692856,0.0337471,-0.10542,-0.0287385,-0.123676,-0.0875837,-0.164436,-0.0856735,-0.0456024,-0.0966711,0.00808468,0.00779714,0.0638612,-0.0489629,0.0942862,-0.0132938,0.0361159,-0.0380529,0.0420085,0.0105599,0.0410033,0.0338702,0.124285,0.0131886,-0.0721717,-0.0479834,0.022215,0.0847861,0.0514441,-0.086784,0.0146932,-0.0790263,-0.0111342,-0.0596366,-0.0616637,0.0206756,-0.096407,-0.00746018,0.00178699,-0.0250868,-0.027951,-0.0301267,0.0126352,0.0304977,0.0515887,-0.089707,-0.0384141,0.00545372,0.0535754,0.0191978,0.0965169,0.0893381,-0.0288235,0.0460653,0.0382001,0.0301602,0.0998554,0.0353783,-0.044637,0.0377273,0.130262,0.0129378,0.0281219,-0.044387,0.0358077,-0.0905275,-0.0208712,-0.0800389,-0.117286,-0.0479214,-0.127089,0.0136572,-0.0269205,-0.0950455,-0.0882493,0.0400429,0.122758,-0.00893887,0.0750169,-0.0324419,-0.0131903,0.0945326,-0.0358138,0.0112538,-0.0496971,0.107748,-0.00619513,0.0523999,-0.0261426,0.0825194,-0.0267684,-0.003496,0.0960159,0.00351444,-0.0458586,-0.0787992,0.0503297,-0.0363502,-0.00516867,-0.0617698,0.00184178,-0.0167883,-0.0551892,0.059447,0.0464231,0.0457866,-0.0154886,-0.0102615},
        {-0.0440344,-0.244439,0.300284,-0.00485093,-0.244188,0.0351152,-0.227423,-0.0121785,0.216026,-0.0933278,-0.750459,-1.83207,-0.274107,-0.829524,0.108528,0.188871,0.0639174,0.863146,0.237148,0.564798,0.282194,-0.0592236,0.392113,0.313706,-0.361263,0.193703,0.0234525,0.0508458,0.0476058,-0.0444023,0.240316,0.0131502,0.157351,0.275811,0.0957302,-0.0694,-0.155048,0.042363,0.00337159,0.264668,0.109736,0.0723304,-0.0423607,-0.13246,-0.0873527,-0.0443133,0.109181,0.113044,0.0738118,0.128693,0.0576963,0.144106,-0.102944,0.0283756,0.068345,0.0900667,0.153115,0.176584,-0.126547,0.0514247,-0.0187448,-2.65275e-05,0.0536912,0.103282,0.168579,0.0802328,0.0880118,0.0144458,0.0835902,-0.0154061,0.13498,0.200774,-0.0139179,0.107557,-0.0869961,-0.237498,-0.0810887,-0.27366,0.0995046,0.0666023,0.0214294,0.372518,0.0624076,0.169762,0.11667,-0.0330172,0.204227,0.142041,-0.27004,0.181148,0.0495716,0.0745441,0.07862,-0.0250699,0.20584,0.0764988,0.036911,0.271398,0.0710207,-0.113605,-0.259977,-0.026002,0.006885,0.178328,0.11357,0.109113,-0.135006,-0.160056,-0.0414349,0.055437,0.0799625,-0.0139634,-0.0570676,0.0511578,0.0791392,0.030932,-0.0687398,0.00398867,0.00951466,0.110569,0.0344496,0.0451926,-0.0363031,0.0405515,0.0352146,-0.0110762,-0.0318125,0.0733517,-0.0532096,-0.0136517,-0.0171943,0.137116,-0.0102196,-0.0231746,-0.0125279,0.101003,-0.634185,0.238837,-0.160828,-0.216687,0.278146,-0.640378,-0.202286,0.100205,-0.179062,0.251916,0.234205,-0.675508,-0.359632,0.12256,-0.00259932,0.297223,-0.50831,-0.141149,-0.294468,0.0227346,-0.23461,-0.0280737,-0.0560599,-0.208337,-0.168243,-0.257338,-0.117243,-0.176876,-0.0968096,-0.0837019,-0.0985342,-0.160655,-0.130617,-0.0672624,-0.285949,-0.244494,-0.168986,-0.10725,0.0973155,-0.000593751,-0.167946,-0.0355361,-0.141889,-0.0857469,0.0413143,-0.122949,-0.0572871,-0.109191,-0.0684122,-0.123382,-0.108361,-0.11311,-0.131214,-0.128794,-0.104302,0.0557224,-0.0975388,-0.0883033,-0.0922529,-0.0329306,-0.0405806,0.0229319,0.0879486,0.0603076,0.0423624,0.0341608,0.00103656,0.0262472,0.113494,-0.239287,0.0799102,-0.0314221,-0.118567,0.13076,0.0942287,-0.329712,-0.21381,0.0815368,0.00820525,0.147475,-0.3452,-0.0160206,-0.220246,0.0845023,-0.181814,-0.00509341,-0.0659152,-0.312091,-0.0447367,-0.269636,-0.1369,-0.151616,-0.0976874,-0.143144,-0.149743,-0.162501,-0.0570563,-0.0462863,-0.165164,-0.247009,-0.151257,-0.160385,-0.0130869,0.017028,-0.137378,-0.128169,-0.18884,-0.0951753,-0.0275673,-0.128959,0.0410724,-0.0316146,-0.0377458,-0.0722209,-0.162994,-0.123376,-0.104837,-0.081577,-0.0350295,-0.0340871,-0.104479,-0.0504529,-0.162917,-0.016567,-0.0441807,0.0096434,-0.0645954,-0.0273422,0.435052,-0.0679983,-0.172404,-0.122683,0.331253,0.345788,0.641013,0.512672,0.188515,-0.478071,0.173264,0.000990435,0.511596,0.213857,-0.336262,-0.287679,-0.101627,-0.278033,-0.0146272,-0.10704,0.0303068,0.0278179,0.00325426,-0.159715,-0.0982758,0.0369043,-0.194729,-0.0518981,0.0696302,-0.0320721,-0.0253261,0.187223,0.281197,0.127221,0.0875447,-0.0145092,0.117382,0.0733616,0.198625,0.0365977,0.0279262,0.178517,0.142257,0.0365566,0.0468582,0.0620812,0.0403253,0.190204,0.0127899,-0.0785046,0.0579469,0.00403493,-0.019215,-0.0270944,-0.0664888,-0.142756,-0.164901,0.0376078,-0.0972136,-0.00211399,-0.0269368,-0.00976634,-0.0668781,-0.00513878,0.121258,0.00383023,-0.0916859,0.0588895,0.0589713,0.00378183,0.169016,0.233069,0.0494309,-0.208284,0.0736929,0.0265432,0.250299,0.165243,-0.402601,-0.205461,-0.0108903,-0.230264,0.0610369,-0.0881518,0.0969993,-0.0316916,-0.131963,-0.119441,-0.089471,0.0491941,-0.0984023,-0.101193,0.0358689,0.0312763,-0.0153962,0.178246,0.226864,0.162208,0.175626,0.00352344,0.108525,0.215845,0.162225,-0.056256,0.0803215,0.114247,0.0628527,0.0207828,-0.114603,-0.00747612,-0.0704546,0.0518175,0.130028,-0.0827199,-0.0447583,0.0613434,0.0763454,0.0111424,-0.0882377,-0.0553406,0.00210413,-0.0669679,-0.0013208,0.00481614,0.00429071,0.0367435,0.0972321,0.0277087},
        {0.05273,-0.109214,0.18715,0.100365,-0.217792,-0.034986,-0.128318,0.0235642,-0.258921,-0.311914,0.0904002,0.147541,0.664342,-0.181871,0.195618,0.0887189,-0.0653825,0.408061,-0.00805452,0.190717,-0.0957456,-0.206919,0.217659,-0.00727555,-0.235419,0.0280728,-0.0677171,0.0422776,-0.0209409,0.0370922,0.0771906,0.0456921,0.125884,0.145449,0.0864282,-0.0824026,-0.139387,-0.00358273,-0.00353074,0.102666,0.132827,0.040643,0.00114553,0.00573464,0.0564803,0.0755384,0.0144579,-0.0113103,0.00857675,0.109224,0.000141501,0.164835,0.00537744,0.000752448,-0.011137,-0.0254236,0.104622,0.0679904,-0.0169421,0.0373104,-0.0401707,-0.0224497,0.0116854,-0.0611949,0.0163671,0.0105791,0.023425,0.181198,0.148739,0.0288066,-0.000370511,0.0716024,-0.112034,0.0385703,0.00412389,-0.00133659,0.136758,-0.0591328,0.0256289,0.00648623,-0.0139424,0.200806,0.0125167,0.134171,-0.117423,-0.191816,0.101247,-0.0145843,-0.127253,0.0562507,-0.162756,0.0169313,0.135364,0.0296248,0.0962562,0.0825187,0.034086,0.128942,0.126917,-0.0578044,-0.106035,-0.0245007,-0.0258257,0.0897947,0.150415,0.0181415,-0.0220875,-0.0311372,-0.0526217,0.0473154,0.0812985,0.0583525,0.0396952,0.0481473,0.0375283,0.0893479,-0.0182506,-0.012237,0.0497243,0.0968652,0.0441206,0.0168076,0.00754967,-0.0129526,-0.0192889,0.000336717,0.0657538,0.0821217,0.0584838,0.0265867,0.0023716,-0.0174836,0.014147,0.042125,0.0532942,0.0438044,-0.0667265,0.137634,0.18153,0.0131167,0.217903,-0.200602,0.171168,-0.114211,-0.320964,0.16522,-0.0453523,-0.401021,-0.0707299,0.0055498,-0.103257,-0.0776306,-0.157823,-0.0579202,-0.158399,0.141667,-0.0205037,0.0621572,0.0127308,-0.0650075,0.0662062,0.000487067,-0.0748155,-0.028364,-0.089807,-0.0261982,0.0700031,-0.120767,-0.084413,-0.0435909,-0.103991,-0.1755,-0.108562,-0.0243493,0.131576,-0.0295905,-0.115685,0.0716668,-0.0594632,-0.0661871,-0.00915044,-0.00496614,-0.038076,0.037093,-0.00519665,0.0957095,-0.0255168,-0.105296,0.0109492,-0.0354616,-0.0476508,0.0589737,-0.073869,-0.00422439,0.0178378,-0.0649839,-0.0125967,0.000961305,0.0402334,0.111346,0.143072,-0.127148,0.0290324,0.065503,0.104078,0.0310241,0.0388062,-0.112443,-0.182053,0.0994785,0.109963,-0.17935,-0.0170954,0.0327901,-0.045577,-0.158348,-0.0630395,-0.139264,-0.100562,0.0277431,-0.0291436,0.0640918,0.108405,-0.0418874,0.0564343,0.0611238,0.054101,-0.025917,-0.00644945,-0.043347,0.0622362,-0.0970535,0.00541967,0.0646316,-0.00733617,-0.0957208,-0.17392,0.0933253,0.0164847,-0.0514122,-0.0508798,-0.045357,-0.0773519,-0.0871694,-0.0749215,0.0255398,-0.0678251,0.0605746,0.0115653,0.0836293,-0.00949032,-0.0796067,0.0267755,-0.0870288,0.000369577,-0.0201333,0.0126194,-0.018316,-0.0349001,-0.0543378,0.0475038,-0.0326535,0.0231919,-0.0815306,0.549465,0.117571,-0.0170159,0.146447,0.233726,0.214037,0.295033,0.300654,-0.0879907,-0.248239,0.281591,0.188134,0.386692,0.247156,-0.0996958,-0.0978933,0.0593304,-0.0503985,0.211023,0.187093,0.126952,0.192406,0.135821,0.0385024,0.0769966,0.0704329,0.0303186,-0.0207811,0.141352,0.0525739,0.143332,0.141448,0.155754,0.121518,0.0917937,0.0590923,0.198006,0.240011,0.152303,-0.0341669,-0.00273975,0.160056,0.0211433,0.0847874,0.0912416,0.0648886,0.0333906,0.173078,-0.0143784,0.0716446,-0.0392855,0.0732594,-0.0555706,0.0258747,-0.0115873,-0.0560508,0.0294525,0.0118717,-0.0991992,0.048139,-0.0620074,-0.03519,-0.0431026,-0.00765033,0.0279685,0.102675,0.0666624,-0.0926226,0.0601207,0.0291788,0.0467057,0.0587191,-0.0946471,-0.0737858,0.0929688,-0.000687388,0.253143,0.135659,0.0021152,-0.0770222,0.110604,-0.0556914,0.121928,0.0711216,0.0855436,0.0701298,0.12081,0.0659108,0.022248,0.128801,-0.0236915,0.0268661,0.0910663,0.044531,0.0490397,0.232523,0.179199,0.0400066,0.124348,0.107794,0.0576956,0.109201,0.187615,0.109751,0.0177567,0.192008,0.0210145,0.0416764,0.0738635,0.141366,-0.039907,0.132862,0.0607117,0.0478734,0.0398966,-0.0594189,0.0109717,-0.00802662,-0.0192268,0.00678935,0.0109507,-0.013237,-0.0658695,-0.0621208,0.0202773,0.00961835,-0.038405,-0.0179527},
        {0.108639,-0.218377,0.292419,-0.0281015,-0.275292,0.0425915,-0.341791,0.101169,0.067688,-0.506395,-0.0626432,-0.0680785,0.552791,-0.318076,-0.278493,0.0600051,-0.267235,0.497565,-0.0216233,0.298128,-0.175279,-0.410336,0.0315886,0.158254,-0.267675,0.199033,-0.0471162,0.0602598,-0.156052,-0.124759,0.0408509,0.0927523,0.105764,0.328522,0.0867005,-0.152244,-0.158662,0.00607524,-0.184032,0.199788,0.111604,0.162243,-0.0319339,-0.087133,-0.0809035,0.134454,0.0667895,-0.0147019,0.0575561,0.0446509,0.00445113,0.0317702,0.00299359,0.0435978,0.0674573,0.122611,0.147404,0.146731,-0.0852082,-0.0252801,-0.0490941,-0.0295586,0.00249914,0.0632569,0.085044,0.05359,-0.0080716,0.0409472,0.00402016,0.0439785,0.178963,0.0994762,0.0382034,0.0161912,-0.0105206,-0.0214965,0.0220609,-0.125325,-0.0649012,-0.103302,-0.223227,0.114715,-0.0368377,0.202236,-0.133299,-0.28868,0.142121,0.165283,-0.238856,0.117765,-0.131187,-0.0113957,-0.0764655,-0.020341,0.139353,0.0981007,0.126448,0.251218,0.0986074,-0.180384,-0.196667,-0.0971018,-0.0880114,0.220798,0.110453,0.062524,-0.101634,-0.0675116,-0.0156748,-0.0365041,0.0167935,-0.0120775,-0.0859207,0.108687,0.0729889,0.0620469,-0.0358223,-0.140624,0.0523908,-0.011449,0.0905204,0.04347,0.0757407,0.0158858,-0.00879149,0.0140797,0.0962947,0.0148902,0.0582011,0.0179901,0.0355164,0.087909,0.0556739,0.0165558,0.0585171,0.00612841,0.264529,-0.031241,0.158503,-0.0117612,0.301645,-0.260367,0.235647,-0.134077,-0.225433,0.447148,0.202474,-0.385809,0.044828,0.244774,0.259248,0.0548561,0.0448556,0.0748781,-0.134036,0.38866,-0.0268358,0.34656,0.326057,-0.0183506,0.219152,0.0802045,0.0513646,-0.0408162,0.0852813,0.150821,0.0374614,-0.00379404,0.0407658,0.071626,-0.0115177,-0.0670294,-0.0514093,0.069298,0.146481,0.0252021,-0.0552204,-0.0501019,-0.182746,-0.169305,-0.027603,-0.0460465,-0.0468215,0.100501,-0.0375178,0.0788276,-0.124613,-0.0581224,-0.012427,-0.0948085,-0.157969,0.0672509,-0.0127636,-0.129206,0.00882919,0.0194514,-0.0407529,0.159186,-0.0685367,0.158766,0.0686508,0.0170199,0.0565366,-0.00306061,0.0392801,-0.101536,0.156504,0.042431,-0.0979859,0.174175,0.062321,-0.223602,0.0918306,0.201741,0.102669,0.0970704,0.0345571,0.13012,-0.0108627,0.325226,0.0277645,0.199558,0.220916,-0.0758564,0.160603,0.0694545,-0.0358094,-0.041139,-0.000590844,0.0164111,-0.0344192,0.0113032,-0.0369983,0.0357687,-0.115526,-0.180714,-0.114773,0.0616921,0.0665254,0.0408502,-0.0950951,-0.162371,-0.159454,-0.0389161,0.0464459,-0.0831671,-0.00375187,0.0775153,-0.0479243,0.015543,-0.0209412,-0.0566361,0.0204681,-0.0743206,-0.0381042,-0.0973459,-0.131953,-0.0110901,0.00788551,-0.119353,-0.0205798,-0.0236729,-0.0532649,-0.0397389,0.221775,-0.321074,-0.417204,-0.0319081,0.223786,0.0116613,0.202825,0.336933,-0.0475655,-0.586535,0.168368,0.138408,0.352875,0.420317,-0.27372,-0.210207,0.180302,-0.123545,0.080127,-0.087358,-0.122898,-0.0226411,-0.0345765,-0.137055,-0.189271,-0.18623,-0.146429,-0.173408,-0.077331,0.0245604,-0.0366167,0.18272,0.221837,-0.07111,0.0330059,-0.0843455,0.0357598,0.195994,0.121415,0.00214463,-0.0225661,0.0943697,0.0286113,-0.0135205,0.0378626,0.111977,0.0349406,0.122754,0.119647,0.00484389,-0.0259217,-0.043604,-0.0283327,0.0184034,-0.0886332,-0.0844502,-0.0930252,-0.0331956,-0.0493178,0.02072,-0.0565947,0.0474202,-0.0628825,0.035811,0.0898189,-0.0209632,-0.134201,0.000577529,0.0979045,0.0825023,0.0536689,0.162056,-0.0103266,-0.16943,0.0901103,0.0767368,0.228348,0.0760609,-0.275383,-0.0983135,0.12234,-0.101721,0.0121589,0.056659,-0.134066,-0.0184413,-0.0055988,-0.131304,-0.237044,-0.0935006,-0.132416,-0.076839,-0.0954699,-0.0379032,-0.0754809,0.175055,0.153872,0.0231771,-0.0294426,-0.1508,0.0821362,0.128356,0.212505,-0.0801408,0.0280336,0.14786,0.10524,0.0808643,0.0138111,0.137549,0.0450625,0.116571,0.0924487,0.00807906,-0.0841151,-0.0525937,7.41644e-05,-0.0127609,0.0176915,-0.00761306,0.00331441,-0.0171461,-0.00700785,0.0637409,-0.0938764,0.0725817,0.00545099,0.0790347},
        {-0.0586644,-0.157991,0.204779,0.044933,-0.112959,0.0630764,-0.111628,0.0720987,-0.0160238,0.500669,-0.0513042,-1.08642,-0.123631,-0.554605,0.286736,0.131631,0.315348,0.556686,0.122143,0.316363,0.109639,0.0324826,0.37248,-0.122372,-0.22591,0.0611178,-0.230888,0.0569672,-0.0636182,-0.0533745,0.063545,-0.134645,-0.103943,0.134935,0.00194034,-0.17186,-0.138633,-0.125333,0.039093,0.074744,0.0982683,0.151378,0.048973,-0.0691778,-0.0839898,0.0123409,-0.0132848,-0.0100806,0.0383689,-0.0288453,-0.0183533,0.0782475,0.0603457,0.0176423,0.0577748,0.0551853,-0.0316675,0.199611,-0.0718932,0.0333207,-0.0911959,-0.12855,-0.0168303,-0.0742966,-0.0145226,-0.0600595,0.0236336,0.0210636,-0.0138495,0.00897409,0.0501259,0.064314,0.0632091,-0.000553023,0.036321,-0.129639,-0.0767032,-0.0866676,0.1631,0.0295891,0.0776868,0.219657,0.158842,0.119866,0.0545201,-0.0485988,0.245459,-0.0720983,-0.107557,0.000119243,-0.213899,0.0385519,-0.101562,-0.055062,0.186235,0.00305605,-0.00191734,0.0263574,0.125755,-0.119315,-0.115184,-0.0875897,-0.0967764,0.0968842,0.137756,0.0113523,-0.0235136,-0.0903175,-0.0282186,-0.0735944,0.0418206,0.0479026,-0.0400965,0.0523298,0.0340889,-0.0280507,-0.0682291,-0.0256961,0.020738,0.0922822,0.0573959,0.120197,-0.0344357,0.0292711,-0.102029,-0.0334099,0.101338,0.116468,-0.0162604,-0.0750249,-0.106293,0.150807,0.118768,0.07197,0.0399796,0.0114519,-0.810995,0.0441553,-0.474356,-0.334735,-0.0900328,-0.733918,-0.559104,-0.0428242,-0.338657,-0.120382,-0.166416,-0.523664,-0.501882,-0.108406,-0.168357,-0.142923,-0.447425,-0.185939,-0.375049,-0.261602,-0.356316,-0.0661783,-0.231168,-0.260854,-0.104323,-0.291205,-0.245284,-0.2691,-0.115659,-0.183241,-0.17909,-0.151667,-0.270868,-0.0531911,-0.152211,-0.17767,-0.145065,-0.26157,-0.127545,-0.177894,-0.172837,-0.130595,-0.0862505,-0.0811302,-0.0346302,-0.0583725,-0.108535,-0.0696137,-0.069605,0.00737992,-0.154671,-0.13179,-0.117308,-0.119425,-0.0785034,0.0123299,-0.147819,-0.0482496,-0.0599884,-0.0499199,-0.142502,0.0474943,-0.145888,0.00471195,-0.0139094,0.0263417,-0.0568958,-0.102557,-0.0293224,-0.262052,-0.221168,-0.0354261,-0.173371,-0.103061,-0.0373561,-0.231362,-0.362348,-0.0335754,-0.114215,-0.0268752,-0.359139,-0.255001,-0.241953,-0.158581,-0.301357,-0.0311434,-0.142473,-0.224168,-0.0684696,-0.326154,-0.23528,-0.284161,-0.12964,-0.0832997,-0.136911,-0.170491,-0.164639,-0.187613,-0.0475457,-0.283957,-0.169495,-0.193891,-0.082717,-0.0308352,-0.162286,-0.153579,-0.0640266,-0.088017,-0.0596742,-0.104478,-0.136821,-0.00885008,-0.074368,-0.153359,-0.158676,-0.0468876,-0.0710166,-0.0274923,-0.07852,0.0418955,-0.0981293,-0.162279,-0.0934925,-0.0327432,-0.0569618,-0.0249596,-0.0209636,-0.0641903,0.0145888,0.433783,0.0756689,-0.113879,0.18379,0.214879,0.293058,0.155661,-0.148401,-0.299395,-0.125344,-0.0697404,0.181215,-0.111263,-0.100227,-0.131569,-0.0283571,-0.0533538,-0.0353015,-0.0465375,0.0323203,-0.114245,-0.0891279,-0.111489,0.01403,0.0282154,-0.0415779,0.0576179,-0.00438586,0.0694187,0.18949,0.0940215,0.162112,0.0157918,0.194282,-0.000152899,0.0885244,0.0936047,0.0881153,0.151326,0.0725765,0.0541552,0.0142676,0.0896399,0.0311248,0.0127586,0.00324243,0.0609959,-0.0342908,-0.03015,0.0157151,0.0239776,-0.0555514,0.0405208,-0.0665014,-0.076538,-0.0430782,0.0522463,-0.0764654,-0.100106,-0.061836,-0.0125794,-0.037812,-0.0573409,-0.0841199,0.037619,-0.0299986,0.027723,0.0786692,-0.0111223,0.117654,0.0456693,-0.0223464,-0.136828,-0.0184925,0.00743651,0.0056474,-0.0485087,0.0191937,-0.090975,0.104858,-0.0106313,0.0161544,-0.0849385,0.0273146,-0.0976083,0.0790265,-0.0960644,0.0947229,0.0715259,0.0105068,0.150793,0.13428,0.0401992,0.117902,0.15678,0.126884,0.100676,0.0826655,0.0978639,0.132677,0.0912806,0.091963,0.146781,0.142725,0.0362859,0.00394114,0.127693,0.0639556,0.0279063,0.133371,0.101788,0.0472419,-0.00148445,-0.0535692,-0.00750677,-0.0296502,-0.008808,-0.0429376,-0.0895496,0.0319161,0.115028,0.053814,-0.0809275,-0.0755767,-0.062401,-0.0612547,0.0333349},
        {0.0217913,-0.0598533,-0.0200938,-0.0497481,0.00110296,0.0374468,-0.0289223,0.0197281,0.026497,-0.0119713,0.054348,-0.0201163,0.0219206,-0.0526178,0.090269,-0.0221699,0.0562373,-0.0183853,-0.0601394,-0.0346101,-0.0131137,-0.017252,0.0615346,0.0688341,-0.00683371,0.129619,-0.0983734,-0.0519719,-0.0155651,0.0733474,0.0030824,0.052114,0.00606793,0.00887289,-0.00451172,0.0352327,0.0301271,0.0264136,-0.0846228,0.0152902,-0.0858634,0.0873542,-0.0286981,-0.000762814,0.0733074,-0.0645371,-0.0040914,0.0583889,-0.0551893,0.00891794,-0.0221233,0.0437383,-0.0713622,0.0028346,-0.0590872,-0.0371152,-0.0447742,-0.0063902,-0.00137827,-0.0146136,0.0633078,-0.00910549,-0.0480904,0.0246594,0.0224089,-0.0818687,-0.0564966,0.0283585,-0.0556487,0.02468,0.0801605,-0.0692273,0.112875,0.0159176,0.00587074,-0.0349562,-0.0621033,-0.00266059,-0.0145633,0.00322844,-0.0260467,0.00510304,0.0299957,0.0143284,0.0965924,-0.0342685,-0.037496,0.0978172,-0.0472467,-0.0478241,0.0363583,-0.0324029,-0.0234759,0.0602278,0.0455853,0.0369686,-0.00355352,0.00563872,0.0140902,0.000194093,0.0650514,-0.0136926,-0.0800323,0.11592,0.0402129,-0.0187554,-0.0161178,-0.0348445,-0.0232904,0.00865053,0.00485916,-0.0670379,-0.0952899,0.0856022,0.0294121,-0.0326987,-0.0332075,-0.0616243,-0.00970049,-0.0268874,-0.0755315,-0.0440505,-0.0428947,-0.0162328,0.0334448,-0.0102093,0.0264474,-0.0225914,-0.0439415,-0.0158558,-0.0469764,-0.0432432,0.0236754,0.0851855,-0.0445824,0.0451383,0.0860584,-0.00151539,-0.0797051,-0.102131,-0.0355195,0.0238088,0.0350077,-0.0134678,0.0772195,0.0331835,0.0652508,0.0223578,0.115753,0.0513307,-0.0283281,-0.0127865,-0.0282935,-0.0332847,-0.0288216,-0.0242891,-0.0337429,-0.045837,-0.00140953,-0.092779,0.0572562,0.071131,-0.0130433,0.00919044,0.0731975,-0.0343002,0.0709395,-0.0417407,-0.0548409,-0.0132774,0.00983423,-0.02826,0.00345258,-0.0511047,-0.0393894,-0.0896071,0.0792867,0.0492932,-0.0482719,0.0136806,0.00907901,0.00612039,0.0155256,0.00180509,-0.0470532,-0.0474616,-0.0348759,0.00166467,-0.0347548,0.0197904,-0.0179952,-0.0277742,-0.13736,0.0853447,-0.00822484,-0.0849713,-0.0205279,0.0129207,-0.0758872,0.0262833,0.022537,0.0112432,0.0146855,0.0252729,0.0809364,0.0318709,-0.0615186,0.0307437,-0.00405475,0.00767026,-0.045946,0.0198307,-0.101718,0.00792073,-0.0437011,0.0665409,-0.0384035,-0.0455277,-0.0151351,-0.0185013,-0.0620227,0.018986,-0.100534,-0.0657247,-0.0905765,-0.0152489,0.0101586,-0.0162961,-0.0617512,-0.0196351,0.00659915,-0.0919464,0.113109,-0.0263158,-0.0547115,-0.0602981,0.0727143,-1.96169e-05,-0.0169392,0.053789,-0.0333059,-0.0774785,0.0312118,0.019025,-0.00121815,-0.104143,0.00683031,-0.0201308,-0.0394323,0.0513147,-0.0396906,0.0405189,0.115388,-0.014091,-0.00684738,0.0333106,-0.00134323,0.116832,0.0549134,-0.00181581,-0.00255725,-0.017655,0.0101718,-0.105682,-0.0453282,-0.177843,0.00380412,0.0456018,0.0440063,-0.000727056,-0.0440566,0.0110785,-0.00744453,0.0681645,-0.0408419,0.0118803,-0.0613468,-0.0557527,-0.0678266,-0.0394737,-0.0379629,-0.00723511,0.0547133,-0.0336327,-0.0598653,-0.0502565,0.0795672,0.0317976,-0.0703492,0.0237133,-0.0456226,0.07337,0.0481323,-0.0430671,-0.0147949,-0.0449477,0.0106877,0.0546376,0.0456195,-0.103213,0.00634503,0.0861466,0.0657357,-0.0344882,-0.0322364,0.0154391,-0.00661739,-0.0372352,-0.023429,-0.054223,0.00222647,-0.0023359,0.0497942,0.0582491,0.0423566,-0.0647241,-0.0320813,0.0594078,-0.00956802,-0.00849986,0.0799106,0.0150143,0.0251061,0.0311869,-0.0265309,-0.00790458,-0.0310909,-0.033025,-0.010276,-0.0440051,-0.0461354,0.063943,0.00747338,0.00312799,0.046276,-0.0331271,0.12261,-0.0235868,0.041768,0.031163,0.0599727,0.0269892,0.00529478,-0.0527225,0.0542593,-0.0602182,-0.0283327,0.0222724,-0.0513156,-0.0587378,-0.0273038,0.0529287,0.0555868,-0.0582318,0.0814551,-0.0891915,0.0127299,0.0346172,-0.0591277,-0.00375362,-0.102365,-0.0950585,-0.0399083,0.103412,0.0635805,-0.0507891,-0.0180711,-0.0545987,-0.00380099,0.0473141,0.0218855,0.0180019,0.00971065,-0.0096746,-0.0362561,-0.0195789,-0.0101271,-0.106275,0.0952303,0.00140643,0.000431183,0.0434033,-0.0086379,-0.039074,0.0258965,-0.00558903,-0.03958,0.0516654,-0.0791162,-0.0569619,-0.0381752,-0.0553939},
        {-0.155058,0.151579,0.00118886,-0.0369636,0.469319,0.0232319,0.456255,0.070208,-0.285617,-0.346141,-0.11099,0.42336,-0.136376,0.284533,-0.148879,-0.178911,-0.077392,-0.550452,-0.0912764,-0.288247,0.0718361,0.141908,-0.159582,-0.173876,0.195478,-0.0735545,-0.00249709,-0.0321269,0.118842,-0.0625814,-0.0407783,0.0349315,-0.0271196,-0.203873,-0.064337,0.0994903,0.104641,-0.0181941,0.0968623,-0.0573663,-0.0680544,0.023967,0.147199,0.0944387,0.0460417,-0.0164949,-0.0792201,-0.0333608,-0.0055211,-0.0995483,0.0348106,-0.0497802,0.126579,0.0215908,-0.0208137,-0.126437,-0.0388066,-0.103493,0.0699846,0.0336766,-0.0417556,-0.0281166,0.0252682,0.0354302,-0.105115,-0.0962483,0.0733762,-0.00911312,-0.0244036,-0.0571291,-0.0840241,-0.0919416,0.0163305,-0.0356253,0.0490888,0.0827526,0.0117689,0.108889,-0.0930086,-0.0454658,-0.0104788,-0.220766,-0.122539,-0.115825,-0.00836637,0.123391,-0.0278726,-0.0586008,0.183519,-0.0270482,0.00517347,0.0607819,-0.0446411,0.0182671,-0.0359629,-0.127256,-0.0447589,-0.210386,-0.0266908,0.0649425,0.0103905,0.0457585,-0.0503119,-0.16249,-0.138233,0.0157007,0.106299,0.0700236,0.17393,-0.0163268,-0.0343243,-0.0806455,-0.0357924,-0.0635532,-0.0616876,-0.0102405,-0.0148149,0.0318284,0.00285268,-0.0775309,-0.010775,-0.0593268,0.118281,0.0363997,0.0699085,0.0321623,0.0398443,-0.0846631,-0.0376252,-0.0412515,-0.0991988,-0.00203014,-0.0207068,-0.00852743,-0.066119,0.070652,-0.259762,-0.646209,-0.247688,-0.235671,-0.427314,0.0914759,-0.12474,-0.0152013,0.0873112,-0.364292,-0.0994772,0.310267,0.0375359,-0.139329,-0.0234625,-0.262332,0.369385,0.120287,0.142403,-0.0736446,-0.0146379,0.0041463,0.0269339,0.140147,0.0275814,0.145401,0.0647539,0.192729,0.0802512,0.00702963,0.0503262,0.0806417,0.102479,0.0159871,0.0631707,0.150227,0.0724072,0.0498231,-0.0422391,0.0053226,-0.0110094,0.054086,0.0861416,0.124076,0.0810267,0.0912134,0.00365466,-0.0325937,0.0657917,0.00625748,0.0874068,0.221746,0.0316734,0.0645627,0.165825,0.146789,0.0650781,0.039021,0.0487441,0.0291707,0.0630287,0.023135,-0.025662,-0.111182,-0.104654,-0.0571677,-0.0182402,-0.032705,0.0109968,0.0317947,-0.0463363,-0.11293,0.0910993,-0.144246,-0.0919448,0.156678,0.0289885,-0.0166344,-0.107467,-0.0254651,0.168704,0.00341178,-0.0550721,-0.05422,-0.00417213,-0.0694802,0.0915462,0.130377,0.044085,0.0583964,0.0984249,0.197997,0.150131,0.014306,0.162463,0.0968854,0.0692041,0.103707,0.13745,0.170087,0.217575,0.0403354,-0.00984768,0.0308554,0.127918,0.00455846,0.132233,0.131221,0.0969917,0.0139124,0.0296969,0.0142102,0.140762,0.144236,0.0148308,0.121598,0.0850219,0.0178758,0.0696548,0.0280254,0.0782069,0.0619485,0.0342115,0.0231192,0.0653883,0.0270624,0.0469115,0.0459424,-0.0188682,0.271279,0.397301,0.145121,-0.132584,-0.0640337,-0.320935,-0.215723,-0.00710439,0.495172,-0.00765414,-0.123152,-0.297456,-0.226845,0.376491,0.150723,0.0924678,0.164275,-0.144229,-0.0255218,-0.000269716,0.013676,0.00880209,0.126018,0.180752,0.0406848,0.112577,0.0753507,-0.00178698,0.00386225,0.0239898,0.00219922,-0.0993419,-0.0764194,-0.0406793,0.0116883,-0.0890517,-0.186658,-0.140912,0.10646,-0.0451207,-0.01956,-0.0918604,0.0273501,-0.067819,-0.0859039,-0.0227078,-0.0283742,-0.0779755,0.0220898,-0.0561523,0.0963345,-0.0343177,-0.0355267,0.00520439,0.0337097,0.129626,0.0297501,0.146067,0.130106,0.150861,0.00576416,0.0236011,0.0505238,-0.165082,-0.0180723,-0.122705,0.00392197,-0.0868002,-0.05041,-0.105855,-0.0728518,0.0660069,0.245711,-0.0629665,-0.014896,-0.236337,-0.127733,0.254664,0.161535,0.110657,0.108235,-0.122687,0.099686,-0.03536,0.029931,0.0744064,0.0796987,0.0756915,-0.0378251,0.0704403,-0.0139344,-0.0659821,-0.0298608,0.000134857,-0.201805,-0.105433,-0.0897601,-0.0427281,0.0894107,-0.00714576,-0.133399,-0.2051,0.0210306,-0.0833599,0.0100981,-0.0657144,-0.120352,-0.159686,-0.011909,-0.0113149,-0.0602677,-0.0167213,-0.0102405,0.00137683,-0.0156159,-0.119999,0.0499117,0.0373399,0.0320874,-0.0527441,0.00600038,-0.01493,0.0874095,-0.0887901,-0.00383573,0.0446213,-0.0466896},
        {-0.07111,-0.0702825,0.189117,-0.067132,-0.080619,0.0379268,-0.0704463,0.0340339,-0.0388019,-0.459337,0.132958,0.590722,0.372473,0.026693,-0.359177,-0.305829,-0.36847,-0.222413,-0.323288,-0.244068,-0.397451,-0.430577,-0.20491,0.0296477,-0.353795,-0.0146617,-0.166142,-0.0842043,0.00785031,-0.165034,-0.0338114,-0.155698,0.0273109,0.084363,-0.0508236,-0.0708856,-0.0861704,-0.0375972,-0.0597345,-0.0200156,0.0237918,-0.0575172,-0.00744306,-0.0910644,-0.0894555,-0.051821,0.0563656,0.0465131,-0.0108588,0.0782189,0.106542,-0.0367932,0.0431078,-0.100953,0.0805984,0.0934731,-0.0954467,-0.0248485,-0.0519998,-0.0465523,-0.0346056,-0.0039402,0.0346938,0.0316289,0.00951806,0.0275132,0.0211081,0.0629269,0.0412829,0.048978,0.00253512,-0.0455526,0.0288903,-0.0027369,0.0276546,0.0901676,0.0479951,-0.00971342,-0.0833234,-0.0874737,-0.213486,-0.0982763,-0.108366,-0.14464,-0.161165,-0.181103,-0.131672,0.0265107,-0.237507,0.102974,-0.152354,-0.0815449,-0.0386907,-0.207316,-0.044229,0.00992086,-0.0579754,0.0524579,-0.0606047,-0.0940994,-0.0430008,-0.112336,-0.124704,0.0374294,0.0749911,-0.0417917,-0.100123,-0.0317013,-0.0641561,-0.0891434,-0.0509616,-0.0125367,0.0404266,0.00392919,0.0414976,0.0119084,0.0400943,-0.00423846,0.0446142,0.0499342,0.0443479,0.185513,-0.0400524,0.0103594,-0.0734406,-0.0489832,-0.0354587,0.0654454,-0.0187781,-0.00828456,-0.00309725,-0.0259361,-0.0210464,0.0383928,0.0481055,0.0226401,0.849452,-0.279941,0.126193,0.176805,0.0422279,0.018665,0.0278165,-0.154227,-0.0629288,0.103581,0.0655117,-0.172091,0.114485,0.0200949,0.0922189,0.121437,-0.0354459,0.0466878,0.0974094,0.106393,0.215618,0.15748,0.17725,0.0473989,0.202474,0.107693,0.0955326,-0.0307512,0.0500205,0.103267,0.0645256,0.052258,0.0982233,0.106287,-0.0552899,-0.0182458,0.100343,0.0231096,0.121281,0.00559283,-0.0805055,-0.0140558,-0.00535962,0.0644035,-0.00722327,-0.001157,0.0296041,0.0198039,0.0547022,0.047509,0.118882,-0.0637251,0.0463022,-0.0115122,-0.113366,0.038433,0.0298075,-0.0429582,-0.0206,0.0216801,0.0308601,0.0231898,-0.00602467,0.139382,0.000705894,0.0692131,-0.0516075,0.0227347,0.00902141,0.0287411,0.0575322,-0.053796,0.0358828,0.150597,0.162172,0.00149209,0.0117922,0.0515393,-0.0284835,0.105813,-0.0124941,0.0402246,0.00388232,0.242342,0.118877,0.102058,0.147624,0.0872775,0.206136,0.178708,0.0666809,0.0900367,0.00621537,0.092646,0.0874529,0.0614833,-0.017659,-0.0178215,-0.111247,0.0291364,-0.0584,0.0135271,0.00764259,0.107798,-0.0870674,-0.0340789,-0.0329968,-0.0738596,-0.0515068,-0.0308431,-0.00898578,0.0843275,-0.0476777,0.0790972,-0.0727859,0.0127711,0.0560361,-0.132805,-0.0102709,0.0538818,-0.00256918,-0.046546,-0.00495374,-0.00406683,-0.0124382,-0.0567694,-0.0206967,-0.0481483,1.02406,0.318079,-0.201712,0.0277328,-0.135322,0.0772867,-0.332455,0.00361588,-0.11987,-0.0713096,0.134712,0.0114256,-0.0116465,0.304433,0.0377172,-0.00359829,0.0543954,-0.0524593,0.1744,0.0663392,-0.00437285,0.0465039,0.157643,0.0143778,0.0562298,0.00698555,0.0403444,0.0312673,0.0731735,0.116645,-0.0350206,0.0616098,0.221816,-0.0159685,0.001585,0.0392288,0.0480052,0.0524303,0.0783728,0.0441111,0.0680394,0.104098,-0.0192236,0.0969156,0.0504898,0.00808083,0.108738,0.0898376,0.145342,0.0602222,0.0166053,-0.0545353,0.0575792,-0.0301937,0.0244153,-0.00504037,-0.00316528,0.107547,0.0109399,0.0648029,0.0220209,-0.0125665,-0.0232622,-0.00615026,0.0445665,0.0479515,-0.00850801,0.00624356,-0.0509788,-0.100972,-0.086779,-0.0794937,0.0225054,0.0320667,0.0694941,0.0479081,0.0673307,0.0690591,0.0672844,-0.00523837,0.0383044,0.0430691,0.124055,-0.0129491,0.0715625,0.0724649,0.0342255,0.0157642,0.0740294,-0.0267749,0.0199909,0.0565735,0.0984593,-0.0176451,0.0328769,0.0708138,0.129975,-0.0472315,-0.0741901,0.0671725,0.0645229,0.0866206,0.0177302,0.0471256,0.0466329,-0.0895379,0.0743563,0.0805345,0.000438815,0.0114791,0.0596945,0.0180616,-0.0132342,-0.0180683,-0.046589,0.0770199,0.0432365,0.0611923,0.0476518,0.00402869,-0.0303212,0.0205692,0.0259876,-0.0012924,-0.0246015,-0.0743998,0.0574519,0.0345775},
        {0.0261252,0.202043,-0.349919,0.0779333,0.0110918,0.0368211,-0.0482416,-0.0735302,-0.485737,0.217918,0.675968,1.80439,0.65395,0.988336,-0.138909,-0.0391053,-0.127057,-0.620459,-0.168512,-0.394144,-0.279954,-0.02304,-0.644265,-0.148667,0.135002,-0.266155,0.0647256,-0.110982,-0.0551451,0.0233486,-0.149861,-0.107209,0.0319383,-0.172337,-0.0493389,0.0653102,0.19123,0.0271794,0.0140394,-0.18863,-0.0327533,-0.0331588,0.00682414,0.0671477,0.169942,-0.119358,-0.00488409,0.00319691,0.0728851,-0.0110995,-0.0571352,-0.0175648,0.0743802,-0.0103374,0.0706671,-0.10069,-0.0744592,-0.00547556,0.0301625,-0.0908767,-0.013533,0.00193274,-0.0566008,0.0441903,-0.0555755,-0.189509,0.0142044,-0.0473339,-0.0920605,-0.207532,0.0321979,-0.14683,0.0633222,-0.0466472,0.130241,0.325602,0.147964,0.278539,-0.094375,-0.0595469,0.023483,-0.294342,-0.134055,-0.283962,-0.191269,-0.099287,-0.367698,-0.265365,0.173258,-0.183453,-0.00305007,-0.121828,0.0331033,-0.0482102,-0.150928,-0.0510123,-0.0918833,-0.173412,-0.128511,0.0513887,0.211583,0.0564401,0.0152864,-0.132986,-0.118878,-0.172985,0.00250776,0.0817155,0.152291,0.117446,-0.098599,0.0930915,0.0850032,0.00193597,-0.002754,-0.108334,0.0718453,0.0304359,-0.087547,-0.0446099,0.0668821,0.0610245,0.0740722,0.0390217,-0.00587334,0.0421568,0.0644566,-0.0713242,-0.117755,0.0433229,-0.0612819,-0.0386159,-0.00677675,0.0859476,0.0412232,-0.00558456,0.91711,-0.0267624,0.471324,0.258564,-0.197815,0.494679,0.267132,-0.15263,0.109089,-0.198028,-0.27457,0.351806,0.079778,-0.245533,-0.165039,-0.400599,0.260316,-0.182011,0.140946,-0.0795486,0.0886952,-0.101436,-0.0905434,0.0512763,-0.00593975,0.190979,0.196705,0.135162,0.0683765,-0.0405456,0.0743662,0.124712,0.0739979,0.0728314,0.185524,0.195398,0.0756909,0.131451,0.0321038,0.0436827,0.0320924,0.0996858,0.204232,0.0927118,0.0217613,0.101822,-0.0846357,-0.043819,-0.00449191,0.0271839,0.104827,0.0940765,0.0536962,0.115588,0.114395,-0.0541688,0.0963283,0.180935,0.0407579,-0.0324438,0.0727464,-0.0483401,-0.0487034,0.04348,-0.124844,-0.0105091,0.0773721,0.107282,-0.0420986,0.187454,0.140581,-0.0567033,0.00804871,-0.0433843,-0.281811,0.113503,0.12191,-0.211456,-0.178478,-0.32524,0.0801702,-0.0768323,0.015253,-0.141504,0.0145949,-0.0993139,-0.0615514,0.135172,-0.0288638,0.187155,0.136465,0.178018,0.127686,0.0406652,0.0164811,0.0550253,0.0913882,0.0279893,0.1279,0.186006,0.259619,0.122856,-0.0231693,-0.0083048,0.125235,0.0643982,0.132071,0.0499435,0.105013,0.0856859,0.0918978,-0.00873247,0.06926,0.0937321,0.0971557,0.126567,-0.0568476,0.10233,0.0665812,-0.0572175,0.11268,0.105494,0.0517415,0.0443419,0.0445675,0.0312349,0.0656827,0.132068,0.694962,0.283988,0.503263,0.651638,0.0617091,-0.0233964,-0.288128,-0.132454,0.225152,0.513857,-0.0129297,-0.025451,-0.487961,-0.0465408,-0.0421127,0.120059,-0.211394,0.136164,-0.0267533,0.0458263,-0.0793289,-0.00840958,-0.018537,0.0678289,-0.023229,-0.0982688,0.131405,-0.0762097,-0.0808912,-0.178645,-0.111292,-0.179741,-0.231074,-0.157779,-0.140706,-0.0162358,-0.201665,-0.185792,-0.175671,-0.0722498,-0.0722517,-0.159826,-0.107773,-0.0542189,-0.122297,0.0148202,-0.0320241,-0.121816,-0.0180012,0.0453363,-0.00866705,-0.000797711,0.0636919,-0.0346309,0.090737,-0.0707074,0.0675046,0.0257064,-0.00022349,0.0424276,-0.0439751,-0.0772174,0.138704,-0.04158,-0.0837131,0.0252527,0.0733116,0.127203,-0.0519572,0.0234012,-0.185232,-0.0815949,0.0244132,0.294901,-0.0074576,-0.00457763,-0.200128,-0.123436,-0.0444515,0.0937624,-0.0675849,0.170919,-0.108091,-0.00768904,-0.12133,-0.000982879,-0.044579,0.124949,-0.0504401,-0.177791,0.0281141,-0.102559,-0.111753,-0.105462,-0.0593481,-0.266257,-0.24071,-0.130472,-0.121054,-0.102041,-0.0992125,-0.174389,-0.151802,-0.0465597,-0.103802,-0.07983,-0.0736172,0.022223,0.000563857,-0.0967717,0.0148912,-0.0980316,-0.119468,-0.0426431,0.0879175,0.00476296,0.0356743,0.0540313,0.0287976,0.00917149,-0.0135059,0.0457515,0.0286479,-0.0113335,0.00124505,0.048024,0.0186102,-0.0597124},
        {-0.00927139,0.214852,-0.222191,0.173574,0.494815,-0.0683147,0.33535,0.0220246,0.560224,-0.550755,-0.733857,-0.159553,-0.76993,-0.129653,-0.334746,-0.452295,-0.0791802,-0.845689,-0.132533,-0.665818,0.0543606,0.348084,0.00187299,0.0217701,0.429237,-0.147839,0.22681,0.125867,0.014101,0.249833,0.0855875,0.0633435,0.181436,-0.227318,-0.0436938,0.216403,0.313209,0.0380325,0.11044,-0.133243,-0.06766,0.0444983,0.221256,0.0919404,0.200021,-0.0336131,0.0071727,0.0491006,-0.00379417,-0.0535806,0.0578986,0.0168923,0.0174905,0.0920085,0.0945226,-0.0471033,-0.0415141,-0.112975,0.0349963,-0.0458754,0.0103,-0.00441742,0.0606889,-0.00741521,-0.0364738,-0.0525938,-0.034114,0.0229663,0.0610878,-0.111169,-0.0247051,-0.0285384,-0.0101716,-0.0384683,-0.0103784,0.032791,-0.187719,-0.0413982,-0.102372,-0.187871,0.0649886,-0.348421,-0.0809601,-0.360708,-0.0369479,0.268063,0.0102253,0.0249207,0.30701,-0.141349,0.225134,0.0904625,-0.0580923,0.162357,-0.0604868,-0.0415314,0.179085,-0.240416,0.0308017,0.191617,0.309965,0.168218,0.139886,-0.11462,-0.030731,0.0507951,0.125656,0.129873,0.189169,0.0155411,-0.0130266,0.126143,0.0759756,0.0950569,0.0878375,-0.00413336,0.137825,-0.0417169,0.0174864,-0.0904863,-0.0179773,-0.0370818,0.00438913,-0.126466,0.0860775,0.00511837,-0.000827395,-0.0434471,-0.00295717,-0.0287746,0.0184297,-0.0508365,-0.0236731,-0.0408731,-0.0227193,0.0308455,-0.24432,-0.221027,-0.223657,-0.00765013,-0.356181,0.572103,0.103341,0.119107,0.167688,-0.5679,-0.322629,0.524885,0.0959817,-0.0872175,-0.153015,-0.0277498,0.0914075,-0.0196396,0.312258,-0.185377,-0.118535,-0.246699,-0.154615,0.0660044,-0.0388762,-0.0191456,0.0401414,0.0576528,-0.0238994,0.135547,0.0737643,0.0918342,-0.0246103,0.143021,0.149134,0.269241,0.233468,-0.00752588,-0.0528928,0.00206544,0.111274,0.0100827,0.163789,0.134066,-0.0131228,0.168565,0.0821563,0.0353814,0.0196539,-0.0809728,0.0955471,0.0604151,0.00262985,0.213965,0.0712181,0.0248284,0.0109963,0.100554,0.0802834,-0.00717253,0.0257317,-0.0723678,0.00195804,-0.0625354,-0.104321,0.0349861,0.045515,-0.0160098,-0.155371,0.135753,0.0541295,-0.0513354,0.0781513,-0.288209,-0.236183,0.213561,0.051767,-0.126203,0.0538772,0.0182569,0.143341,-0.0107608,0.21503,-0.242646,-0.0731289,-0.196372,-0.0768714,0.0605128,-0.152826,0.0149163,0.0397599,0.0644549,0.0867276,0.0552523,0.0689517,0.113775,0.177537,0.0805772,0.206224,0.281782,0.224413,0.0344652,0.0220377,0.00881286,0.248229,0.0373567,0.175082,0.087621,0.0816151,0.0829264,0.0428956,-0.0284431,0.0468208,-0.049328,0.0822391,0.108367,0.0904391,0.0616446,0.0547558,0.0552791,0.191069,0.0600336,0.0269929,0.096246,0.0134212,0.0298434,0.0447062,0.0758819,-0.481971,-0.235661,1.18917,0.494257,0.274191,0.633406,0.447351,-0.0379704,0.715017,0.843235,0.224109,0.210402,-0.0440588,0.0394206,0.531114,0.396729,0.202705,0.151576,0.161193,0.09808,-0.224987,0.17355,0.0347825,0.069072,-0.0607345,-0.0191065,0.0569372,-0.00688925,-0.172639,0.0283208,-0.0697971,-0.212019,-0.241219,-0.0563911,-0.0683671,-0.0372561,-0.216806,-0.192277,-0.0839432,-0.0531511,-0.0627865,-0.0804659,-0.00333824,-0.0374546,-0.0974111,-0.0472372,-0.0995118,-0.100167,-0.0360022,-0.0299137,0.0131973,-0.0129532,0.0161513,0.0424737,0.121521,-0.0139779,0.0834941,-0.0401924,-0.0616853,0.127062,0.0798653,-0.139754,-0.0429099,0.00217843,0.000182934,0.00161565,0.199267,0.0862911,0.112174,0.138883,0.161437,-0.00198069,0.269959,0.269142,0.0851676,0.00558536,0.0270716,0.0109093,0.471661,0.280401,0.060895,0.181671,0.109969,0.0683083,-0.145018,0.274449,0.126968,-0.00643667,-0.0750103,0.0444469,0.126466,-0.0404532,-0.196089,-0.103981,-0.0573577,-0.281328,-0.0798091,0.0346836,-0.0460391,-0.0706621,-0.165637,-0.166676,-0.173304,-0.111214,0.0346288,-0.0781971,-0.0401982,-0.065671,0.00749661,-0.0406787,-0.00263789,-0.0108247,0.0173712,-0.0546789,-0.0381425,-0.177716,-0.0626728,0.0566813,-0.0130958,-0.0244545,0.0852174,-0.011109,0.00890022,0.0324543,-0.0556557,-0.0416116,0.0387992,-0.0645817},
        {-0.1405,0.0202089,-0.0362715,0.0301228,0.0577084,0.0729713,0.135221,-0.0306831,-0.0434879,0.268733,-0.0868238,0.0475325,-0.200043,0.0915708,0.00229224,-0.0613876,0.0371771,-0.192803,0.0322549,-0.0454938,0.0775852,0.210103,0.0540055,-0.0418149,0.166134,-0.0982578,-0.0350005,-0.0827321,0.0687919,0.0450141,-0.0784414,-0.079278,0.00227545,-0.142104,-0.0037604,0.0598191,0.145547,0.0824693,0.0159448,-0.0480921,-0.0211922,-0.0350228,0.0800184,0.026926,0.138223,-0.0305479,-0.0191856,-0.0537114,0.0212757,0.0523366,0.0599922,-0.0194608,0.044474,0.0119974,0.0455019,0.0484273,0.0474413,-0.0957354,-0.02787,0.0182145,-0.0223123,0.0169682,-0.0126,0.0349861,-0.115385,0.000139557,-0.0463818,-0.01384,-0.0538145,-0.063201,-0.0418598,0.00571241,-0.0148233,0.0246283,-0.0210482,-0.0767504,-0.10282,0.00810891,-0.0306961,-0.0891242,-0.032766,-0.0324524,0.0886883,-0.0382499,0.055629,0.086171,0.00190401,-0.0526833,0.121215,-0.0314519,0.0129363,0.0478874,0.150981,-0.0212603,-0.08396,-0.0830409,-0.0847038,-0.118482,-0.00992719,0.0406752,0.153231,0.0425849,0.109767,-0.0969525,-0.065262,0.00234457,0.0910995,0.0890073,0.0172247,-0.0146295,-0.0722398,-0.110666,0.0136345,0.0542704,-0.00197955,0.06052,0.042497,0.0265587,-0.0728285,-0.0350271,-0.0430352,0.0177739,0.0340101,-0.00582329,0.00116185,-0.0705565,-0.117817,-0.035514,-0.0535843,-0.145408,-0.0711011,-0.0295117,0.0484296,-0.00058885,-0.0626384,0.0697276,0.0841813,0.149268,-0.135052,-0.0242125,-0.106325,0.0386446,-0.147197,0.0270246,0.061781,-0.312366,-0.168222,0.155191,0.0373561,-0.139407,-0.0628175,-0.100073,-0.107502,-0.101213,-0.0556139,-0.18455,0.055959,-0.0202935,-0.0652,-0.00493159,-0.0445508,-0.0561985,-0.0336401,0.000882619,-0.120555,-0.00884267,0.0108155,-0.114851,-0.039332,-0.0183591,0.0141733,-0.0371416,0.0125653,-0.0128429,-0.0552562,-0.0881546,0.036436,-0.0227573,0.0219359,0.0175167,0.0980826,0.118392,-0.0179661,0.0195965,-0.0312724,-0.134337,0.0494671,0.0868585,0.00986353,0.0669993,-0.0104902,0.0628277,-0.0545774,0.0785747,-0.000961834,-0.0391945,0.0718468,-0.0524823,0.0705618,-0.0300152,-0.0164277,0.0251762,0.041196,-0.0628396,-0.0131093,0.0809005,-0.0190338,0.0461961,0.043098,-0.138911,-0.12075,0.0943752,-0.038418,-0.0603389,-0.0356003,-0.109237,-0.108459,-0.0428169,0.0286633,-0.166485,-0.0100658,-0.0344852,-0.112432,0.0106344,-0.108841,-0.130609,0.0574641,-0.0424491,0.0223036,-0.0373007,0.0911659,-0.066877,-0.113556,-0.0142791,0.105893,0.0139316,0.0684446,-0.0448635,-0.0454347,0.0220256,-0.0474165,0.0438678,0.0615866,0.0561316,0.0360321,0.119708,0.0780155,-0.0784495,-0.00304213,-0.0362437,-0.0217501,0.0938706,-0.0993201,0.0312479,0.0228187,0.0520156,0.0293433,-0.0486981,0.086415,-0.00116752,-0.0104093,0.00891159,-0.0468806,-0.053001,0.315923,-0.127874,0.143471,0.0899632,-0.114038,-0.0442955,-0.0636174,-0.0735669,0.0661619,0.212722,-0.0957636,-0.063208,-0.214395,-0.201826,0.142541,0.181996,-0.0853631,0.0494232,-0.0458249,-0.00682419,0.0927695,0.0815978,0.0347751,0.0128099,0.0622215,0.137544,0.143098,0.0917029,-0.0298714,0.0215288,0.0380295,-0.0103815,-0.0620677,-0.0750036,-0.0286419,0.0214264,0.0327166,-0.127842,-0.106798,0.0268758,-0.000517933,-0.0245393,-0.0179955,0.0557864,0.000326342,-0.0552387,0.0626118,-0.0909172,-0.0488961,0.0676264,0.056116,-0.0170564,0.00633747,0.0469451,-0.0352561,0.0441752,0.0200062,0.0076953,0.129349,0.051137,0.0333522,-0.017217,0.00764979,-0.0976165,-0.0840348,-0.012756,0.0230142,0.00643063,-0.141804,-0.0142643,-0.026853,-0.0229865,-0.040493,0.0835367,-0.0235826,0.0288934,0.00750372,-0.094555,0.085326,0.0352773,-9.75811e-05,0.0525944,0.0247364,0.0653538,0.0349128,0.121325,0.0597184,-0.00652622,0.0154087,0.0249841,0.125132,0.0479127,0.0483628,0.0566469,0.0507015,-0.0720354,-0.117038,-0.0192194,7.92257e-05,-0.020299,-0.0425327,-0.0583043,-0.0914064,-0.00783527,-0.0787674,-0.0367498,-0.0732398,-0.00364928,0.040118,-0.0515589,0.0588891,0.0188133,0.0399582,-0.0838272,0.041244,-0.0999307,0.00623169,0.0055407,-0.000339471,-0.0121629,-0.078276,-0.0323563,0.0326215,-0.0393854,0.0760815,0.0172796,-0.074762,0.00987756},
        {-0.161462,-0.0109735,-0.159265,0.00218551,0.147812,0.0247901,0.286119,-0.0207409,0.123973,0.224799,-0.263048,-0.569285,-0.72469,0.186961,0.236316,0.0005032,0.273385,-0.308531,0.0684808,-0.0716032,0.209932,0.453121,-0.00359732,-0.0346985,0.454063,-0.0483395,0.0371485,-0.0346263,-0.000129185,0.153311,0.0246945,-0.0700173,-0.0583939,-0.213864,-0.0932095,0.0571432,0.103718,-0.116796,0.0282225,-0.0479551,-0.0579231,-0.020087,0.142921,0.00790239,0.103434,-0.0434385,-0.0865419,-0.026446,-0.0569857,-0.134709,-0.0359193,0.0783424,0.017568,0.0588961,0.0757678,-0.0396163,0.0017557,-0.0725287,0.0126233,0.0481799,-0.0446865,0.0124999,-0.0407349,-0.0198172,-0.0626167,0.025693,-0.0172992,-0.0744214,-0.0999064,0.0410398,-0.100947,-0.0726895,-0.0559255,0.00119912,-0.00486839,-0.0567249,-0.0489309,0.0794452,0.0813747,0.0466496,0.156402,-0.0509465,0.0114721,-0.0131836,0.193975,0.186143,0.0369058,0.00419157,0.335287,-0.000548355,0.0499539,0.0105987,0.0696048,0.0324663,0.0635476,-0.114763,-0.0691196,-0.159101,0.00133789,0.104959,0.100529,-0.0500059,0.0189681,-0.067715,-0.0186958,-0.0723532,0.0362293,-0.00745962,-0.0211932,-0.0143261,-0.0940285,-0.00773286,0.00823956,0.0353444,-0.0480462,-0.0299748,-0.0273135,0.0448018,-0.015559,0.000770696,0.0546966,-0.0749882,0.0584452,-0.0675771,0.0422342,0.0410758,-0.0468199,0.0843261,-0.0561756,-0.0483952,-0.0330807,0.00741128,0.00471854,-0.0759405,-0.0488707,0.0339899,-0.371754,0.232087,-0.180511,-0.00900283,-0.032932,0.182369,-0.235548,0.368544,0.318077,-0.296945,-0.108903,0.289427,-0.103614,-0.0963165,-0.0333643,0.209013,-0.00103963,0.0949939,0.0465153,-0.179156,0.00533221,-0.232971,-0.152595,0.00890384,-0.0981907,-0.0619307,0.0671535,0.0589598,0.0443379,-0.153725,0.0372491,-0.00373993,-0.0995813,0.00341518,0.0124187,0.0706339,0.0174533,-0.0455579,-0.171966,-0.0412089,0.0278993,0.00376483,0.097807,0.0851683,0.0356564,0.0029484,-0.0262655,-0.0795414,0.00239071,-0.0989519,0.025984,0.152233,-0.0110771,0.0237301,0.112271,0.0306251,-0.0443513,0.0247011,0.00225619,-0.0120752,-0.0362877,-0.051085,-0.0732934,-0.102549,-0.0926148,0.0768552,0.0140625,-0.0415858,-0.039451,0.115582,-0.103882,0.0902168,0.134737,-0.179292,0.000988141,0.170681,-0.0980666,-0.0565749,-0.119066,0.031509,0.00602727,0.0678149,0.0475333,-0.257856,-0.108409,-0.167941,-0.135474,0.0530188,-0.119692,-0.134919,-0.11751,0.0223858,-0.0895023,-0.0602282,-0.0310188,-0.0419982,-0.0889476,0.00496069,0.00913203,0.0561689,0.0825695,0.0168527,-0.0578771,0.0404532,0.0525194,0.0594918,0.0463561,0.0652078,-0.0175903,-0.00168479,-0.0833519,-0.0149509,0.0320758,-0.0804126,-0.0310311,0.0723048,0.0720556,0.0198477,0.049469,0.0155604,0.0588326,0.0482966,0.100557,-0.101295,0.0338006,0.103326,-0.0304646,0.041462,-0.508788,0.118635,0.28786,-0.173994,-0.079623,0.0599832,-0.0959155,-0.126659,0.0666351,0.404723,-0.194503,-0.117079,-0.300176,-0.396206,0.215109,0.208111,0.0488327,0.053899,-0.0397786,-0.0910479,-0.00617096,-0.0209147,0.0297731,0.150255,0.085769,-0.0513002,0.0822875,0.117771,-0.116513,-0.0592592,0.137729,-0.176779,-0.214284,-0.0303075,-0.00468586,0.0907994,-0.109359,-0.0499051,-0.0453233,-0.00124168,-0.0303939,-0.152895,-0.0842095,0.00116151,0.0309014,-0.0212897,0.0340097,-0.120021,-0.106731,-0.0376442,-0.0176116,0.061869,-0.0257316,-0.0934525,0.0309362,0.0789206,0.0972184,0.0381354,-0.0256148,-0.0158258,0.0194166,-0.0495823,0.0697774,-0.038559,-0.0597076,-0.00306522,0.0844434,-0.0379825,-0.0374968,0.0111498,-0.029326,-0.0798581,0.101467,0.156293,-0.0645954,-0.0414567,-0.169533,-0.228136,0.167795,0.189107,-0.0415531,0.0948492,-0.137725,-0.0957996,-0.0853845,-0.0153483,-0.0364321,0.00381223,0.144373,-0.0436515,0.109413,0.0944148,0.0900464,-0.00383075,0.141076,-0.155714,-0.169877,-0.0553029,-0.0323153,0.0105175,-0.0877261,-0.117049,-0.147063,0.0351178,-0.069657,-0.175061,-0.139277,-0.00667478,-0.0910172,-0.0910317,-0.0853771,-0.0737743,-0.0953029,-0.027468,0.0591377,-0.0218082,-0.00821231,0.00526682,0.00530555,0.0455865,0.0237116,0.0107943,-0.0771826,0.00512294,-0.000157154,0.109589,0.0541241,-0.0215256},
        {0.0472484,0.087403,0.0646602,0.0825948,-0.101062,-0.0621389,-0.0346896,0.016852,-0.0241709,-0.183573,0.0610439,0.0616895,0.121641,-0.0716826,-0.0772309,0.00158492,-0.0316122,0.004228,-0.110565,0.0672991,-0.0487656,-0.040567,0.0395828,0.0451441,-0.0422674,0.0168322,0.03074,0.0156103,0.0352029,0.0417412,0.00841771,0.0108015,0.0496467,0.115265,0.0107991,0.0490466,0.0227574,0.011893,0.016484,0.0165834,0.0438658,-0.0159804,-0.00938133,0.003527,-0.0590777,0.00470639,-0.0110252,-0.110781,-0.0479888,-0.0196848,0.0696934,0.0219043,-0.0113247,0.0793235,-0.0107857,0.0206646,-0.0594232,-0.0356749,-0.0449628,-0.099778,0.0853012,0.0499435,0.0402469,-0.0302644,0.00678895,-0.00613034,0.00504577,0.136549,-0.0778434,0.00364754,0.0384937,-0.0672564,-0.00416802,-0.0122692,0.054238,-0.0363111,-0.0137714,-0.0286396,-0.0160219,-0.0117794,0.0147862,0.0334873,-0.0476513,0.0427016,-0.0227542,-0.0423166,-0.00157924,-0.000570061,0.0206513,0.0411194,-0.0445393,0.00719092,-0.0183828,-0.00208332,-0.00534244,0.0165024,0.049473,-0.0481002,-0.0126902,-0.0108017,0.0169865,0.0892725,-0.00430986,0.117065,-0.0632498,0.050707,-0.0614583,-0.0165211,0.0683274,0.0289947,-0.0197807,0.0910143,0.00405658,0.0642331,-0.0115832,0.0131376,0.0218757,0.0516816,0.0924006,0.035725,-0.0940234,0.0207883,0.0730011,-0.0139419,0.111167,-0.0751227,0.0161037,0.00092486,-0.00016094,-0.0187696,0.0919492,0.00516963,0.111619,0.0356169,-0.00382999,0.0526155,0.065294,-0.0268685,0.111947,-0.0256295,0.0147728,-0.0604657,0.0339759,-0.00700093,0.0310176,0.162259,0.0324748,-0.0132778,0.175447,0.0220844,0.0628045,0.0698748,0.0197807,-0.00270199,0.02319,0.229971,0.157404,0.0397681,-0.0131531,-0.0384904,0.0457792,0.0441204,-0.00199115,0.0483401,0.0893113,0.0865348,0.0539623,0.0156361,-0.0561047,0.050489,-0.0309651,0.0796765,-0.0584966,0.000322996,0.0622569,0.0256906,-0.0218712,-0.0818986,0.083224,-0.0937515,0.13898,-0.0237899,-0.061138,-0.0243207,0.0838773,-0.0768202,-0.00483085,-0.0265329,0.0478246,-0.00398839,-0.0202983,-0.068871,-0.0451737,-0.0411566,0.0647684,-0.0725181,-0.0346101,0.0269306,-0.0225285,-0.0286552,-0.0425682,-0.0170843,-0.00995274,0.0384953,-0.0530231,0.0408534,0.0117588,0.0247506,0.0841131,0.0118835,0.0636597,-0.0636609,0.146844,0.0444348,0.05073,0.118726,0.0526358,-0.0041884,-0.0235643,0.0753351,0.0460637,0.156051,0.0395711,-0.0104789,0.0686331,-0.000640022,0.0967994,-0.00437458,0.0441564,-0.0207323,0.0859609,-0.0296761,0.0544136,-0.0358434,0.00408982,0.0135799,-0.0185451,-0.0173355,0.0628273,0.027927,-0.0429047,-0.0800534,0.0560279,-0.0314464,-0.0309944,-0.00800407,-0.0247583,-0.0632104,0.0186428,0.0264421,-0.0429079,-0.0358698,0.0226585,-0.0143688,-0.00105556,0.0403146,0.0186758,-0.0363262,0.0628159,-0.0838029,-0.0844196,0.0604045,0.0176023,0.0996155,0.0198162,-0.0784984,-0.191275,0.086716,-0.0055155,-0.0480198,0.0555389,0.0280307,0.00802395,-0.146662,0.0137776,-0.0199392,0.08245,0.114086,-0.00694978,-0.0236482,-0.0283823,0.0715744,-0.0315911,-0.00500166,-0.0270246,0.0108945,0.0383413,0.0228567,-0.131073,-0.0115291,-0.101963,-0.0420999,-0.0177029,0.0295376,0.0628075,-0.00482184,0.153153,-0.0180714,-0.0513312,-0.0711475,-0.0367884,0.038297,0.0117741,-0.0263191,0.0242783,0.0204193,0.0181949,-0.0536557,0.0328743,-0.0726425,0.0126203,0.0200771,-0.0246502,-0.0243821,0.0803688,0.0075456,0.0136187,-0.0155515,-0.0244983,0.0246892,0.0170454,0.0150153,0.0643835,0.0306769,0.0546022,0.040243,-0.00958133,0.0478096,0.0290139,0.0350124,-0.00705835,0.0327351,0.0335086,-0.0205996,-0.0235293,0.0700712,0.0689778,-0.0801347,-0.0752425,-0.024271,0.00746319,0.0262912,0.0625412,-0.0444866,-0.0144946,-0.0612881,-0.043446,-0.0322934,-0.0598116,-0.0516939,-0.0204114,-0.0538978,0.0461218,-0.057535,-0.0719796,0.00830456,-0.0953552,-0.0879429,0.0423491,0.0187132,-0.0482233,0.0120252,-0.0824802,0.0464757,-0.0388249,-0.0195473,0.0360902,-0.0800678,0.0251959,-0.0384674,-0.0534571,0.0690063,0.0445518,0.0136549,0.0231088,0.000856079,0.0319722,-0.103711,-0.0921612,-0.00997702,0.00874709,0.0137659,0.0299597,0.045022,-0.0248878,0.0158227,0.0465677,-0.0302741,0.0214896,0.00797302,0.0238559,0.0646502},
        {0.0871148,-0.0626009,0.153902,-0.0567386,-0.101444,-0.0909342,-0.0295021,0.0576267,0.155326,0.0764801,0.0489947,0.152428,0.113277,0.00496031,0.019676,-0.0312466,-0.0785538,0.128155,0.0620405,0.110211,-0.0348331,-0.132575,0.0431188,-0.11695,-0.194004,-0.0421108,-0.010776,0.00727171,0.0198796,-0.0283611,0.0769655,-0.0298951,0.0331208,0.0484634,0.0574836,0.0384567,-0.0128793,0.025166,0.0226262,0.0114925,-0.00760735,0.0486099,0.0528414,0.0576869,0.0216429,-0.063668,0.0102902,-0.0219223,0.057724,0.0528927,0.113694,-0.0103069,-0.00846083,-0.130422,0.10876,0.0824015,0.0268228,-0.00679679,0.031018,0.00997347,0.0583463,0.0160999,-0.044725,0.0208074,0.028049,-0.0167867,-0.0151212,0.0337337,0.0539484,0.048746,0.0655422,0.0550094,0.000639083,-0.0503043,-0.0588132,-0.0547846,0.0323166,-0.0380418,0.0166085,-0.0536909,-0.051637,0.0354195,-0.0192211,0.0567645,0.0494035,-0.0229673,0.0108833,-0.0089942,-0.0892374,-0.0359874,0.00117211,0.0317325,0.0370839,-0.0947873,0.0847632,0.0209258,0.0297216,0.0667407,-0.0299693,0.000695289,-0.0669484,0.0390698,0.0983821,0.143264,0.00495192,-0.0861586,-0.0490084,0.0135393,0.00464613,0.052799,-0.000394792,-0.0368495,-0.0644863,-0.0477671,-0.0485348,0.0263223,-0.0584672,-0.000755943,0.0776689,0.0582162,0.121257,0.102867,-0.0442372,0.0163751,-0.0402796,0.000663483,-0.0461909,-0.0573757,0.0313873,0.0156758,-0.0161679,-0.027872,0.0235395,0.00993966,0.00569773,0.0022413,0.164213,-0.0119447,0.0417473,-0.0641647,0.0152058,0.0262781,0.0173245,-0.0975495,-0.0717952,0.10014,-0.0119385,-0.0640623,-0.0166989,0.0107106,0.00910061,-0.0663975,-0.0197115,-0.0515209,-0.0136106,0.0732208,-0.0162159,0.0388437,0.0365114,0.0355234,0.00023713,-0.0490627,-0.0414316,0.0450601,0.0516591,0.0263936,0.0932345,-0.00518221,-0.0146329,0.0238157,-0.0694589,-0.0484509,-0.0477471,0.135626,0.0681627,-0.0109013,0.0202137,-0.0857421,-0.0673472,-0.0636957,0.0536959,-0.0385328,-0.0252367,0.00377092,-0.0500538,-0.0133403,0.123156,-0.0860705,0.00264384,0.0232167,0.05018,0.0015399,-0.0641569,-0.0460653,0.00541324,-0.0849523,-0.0457531,0.106397,0.10548,0.116833,0.042095,0.0160637,-0.00568408,0.049964,0.055804,0.0230669,0.113934,0.0245911,-0.0611498,0.07412,0.0801003,0.0944061,0.00774284,0.0890857,-0.0661161,-0.000321754,-0.0661408,-0.126024,-0.0239001,0.0482395,-0.0341179,0.105212,0.0203529,-0.0630771,0.0407744,-0.0687721,-0.105288,0.0526077,-0.000369987,-0.0210114,0.0568352,0.00581241,0.111097,0.00684501,-0.125645,-0.0874329,-0.0695536,-0.00624848,0.0643369,0.040699,-0.0294599,0.0406189,-0.017271,0.0430531,-0.0132068,0.00562105,-0.00601066,-0.0304395,0.0229926,-0.010426,0.0112748,0.014642,-0.0204688,0.0104492,-0.0148256,0.0474737,0.000609062,-0.0547202,-0.0296201,-0.0429175,0.0272638,-0.0402523,-0.0155714,-0.0732575,0.0615011,0.00157585,-0.165921,-0.101322,0.0262679,0.0430827,0.00701782,0.0708277,-0.0452883,-0.127071,0.0684173,0.0470412,0.119389,0.03927,-0.120156,-0.050678,-0.0150116,-0.102771,0.0311346,-0.0251895,0.0635799,0.0194431,-0.0172996,0.00990283,-0.0677509,0.130905,0.0082433,-0.0117656,0.07488,0.0136103,0.01734,0.0415452,0.0731961,0.0127657,-0.0250631,-0.0497681,0.126284,0.086296,0.0222379,0.0751534,0.0187551,0.050242,0.0518616,-0.0220822,0.0492822,0.0203619,-0.0925871,-0.0253677,-0.00118533,-0.0438473,0.0113964,-0.00620791,-0.0254832,0.0114928,0.0588813,-0.00247416,0.0642049,-0.00850644,-0.0661271,0.0726976,0.0115892,0.082162,0.00424281,0.0535691,0.0982188,0.0550264,-0.0258889,0.0128102,0.012175,-0.168407,0.010567,0.0728432,-0.0572626,-0.0656856,0.0619315,0.0146334,0.0433635,0.018861,-0.110206,-0.0380219,0.0600183,0.0413591,0.0272984,0.133665,0.0584262,-0.0646376,-0.00779516,0.0631687,-0.0237594,-0.0173465,-0.0461242,-0.0240483,-0.0713761,0.0216622,-0.065017,0.103815,0.0797142,0.0191555,-0.00370086,-0.0330726,0.0352426,0.0697857,-0.0752067,-0.0177837,-0.0076264,0.0527736,-0.0728833,0.0761177,-0.0113014,0.140431,0.0813015,0.0017687,0.0295372,-0.0515199,0.0553021,-0.0479967,0.00931304,-0.050937,0.0427926,-0.0141588,0.0517902,-0.0667074,-0.0276965,0.0421671,0.0150415,0.0132587,-0.0281004,-0.0623039},
        {0.0821334,-0.11203,0.189134,0.00806912,-0.72917,-0.0942957,-0.732784,0.045803,0.933691,1.35539,0.566047,-0.101356,0.664183,-0.35992,0.149092,0.236568,-0.0368695,0.690329,0.20085,0.440222,-0.353341,-0.467632,0.161182,-0.111239,-0.497276,0.109858,-0.24495,-0.173076,-0.0132916,-0.177619,0.0550714,0.0281574,0.0315025,0.186861,-0.0133287,-0.401546,-0.302655,0.0314674,-0.103322,0.181551,0.199076,0.013036,-0.151756,-0.0827992,-0.168511,-0.00801177,0.0330859,0.114583,0.0172598,0.0137129,-0.0385485,0.0210279,-0.0656294,-0.0801798,-0.00712709,0.0507836,0.11825,0.0583534,-0.105537,0.0118435,-0.0477965,-0.0616854,0.0871472,-0.117988,0.101464,0.0810374,0.0264092,-0.0592535,0.036936,0.0182837,0.108439,0.0123062,0.0659311,0.13673,0.114858,-0.199146,0.181981,-0.106577,0.120786,0.0739159,0.0119677,0.363769,0.167431,0.246607,-0.22742,-0.189902,0.141084,-0.0782979,-0.267331,0.0989611,-0.251424,-0.0949729,0.00307162,-0.169757,0.0842782,0.130003,-0.000143207,0.185919,0.003513,-0.28668,-0.280829,-0.0130568,-0.142719,0.157376,0.113994,0.151361,-0.00154661,-0.163075,-0.0688887,0.0089362,-0.0174999,-0.0197989,-0.0299398,0.0318488,0.0596228,-0.0264242,-0.0664655,-0.0107334,0.0113537,0.111977,-0.01648,0.0786591,-0.107526,0.0522219,-0.0221454,-0.051344,0.0980541,-0.00507843,0.000114329,-0.00153534,-0.00181746,0.0469351,0.0856893,-0.0152452,0.097187,0.133048,-0.0134727,-0.297812,0.319576,-0.540823,-0.151091,-0.766854,-0.100976,-0.360558,-0.106837,0.693321,0.390877,-0.46904,-0.0508172,0.128136,0.19416,-0.0887814,-0.0116675,-0.0898961,-0.194103,0.270627,0.225233,0.293002,0.284139,0.00452977,0.130497,-0.0134875,-0.0702394,-0.0926946,-0.11317,0.0453009,0.0460728,-0.140868,-0.101579,-0.00225025,-0.15355,-0.135675,-0.0602405,-0.0485208,0.160289,0.0478713,-0.143608,-0.0523255,-0.146926,0.0364709,-0.0195737,-0.0931818,-0.059621,-0.104884,-0.0478727,-0.0341534,-0.122031,-0.116114,-0.0857944,-0.197119,-0.0874848,-0.0405399,-0.0354221,-0.110922,-0.0782633,-0.0819834,-0.0645273,0.00237747,0.0717843,0.129381,0.0793924,0.12867,0.0380688,-0.167926,0.0474122,-0.15253,-0.00887994,-0.174564,-0.0874139,0.346909,0.282838,-0.215866,0.0320336,0.0388564,0.0743093,-0.0116949,-0.0155366,0.0151327,-0.131652,0.301009,0.150925,0.213632,0.116432,-0.0522532,0.161054,-0.0433963,-0.138382,-0.119266,-0.121942,0.0575152,-0.0638569,-0.221408,-0.112013,-0.0519215,-0.106767,-0.135945,-0.158265,-0.0250381,0.0417768,-0.0436456,-0.150522,-0.129759,-0.0759401,0.00541189,-0.031462,-0.0472688,-0.0713153,0.0415179,-0.09686,-0.000867608,-0.176435,-0.132312,-0.0288447,-0.138142,-0.126764,-0.0836737,-0.105212,-0.112942,0.0146863,-0.0426084,-0.0348091,0.0192355,-0.0130798,0.0412463,0.0412218,-0.614861,-0.891201,-0.150789,-0.0327605,-0.16253,0.130906,0.293021,-0.43779,-0.488863,0.25228,-0.020499,0.448668,0.545013,-0.202971,-0.269497,0.0751852,-0.0400404,0.0373086,0.01853,0.0617426,-0.138448,0.0251111,-0.0566197,-0.219141,0.0203636,-0.237803,-0.101663,-0.0396021,-0.0811632,-0.123662,0.0960108,0.182064,0.0244803,-0.00740074,-0.0892466,0.0309303,0.0498146,0.176894,0.0700242,-0.0269905,0.116202,0.100222,0.1582,-0.042591,-0.00403251,0.0426888,0.0405828,0.107094,0.00413001,-0.129827,-0.0139956,0.0453482,-0.0326016,-0.218112,-0.075064,-0.141567,-0.115067,-0.00813735,-0.121928,0.0264801,0.0322377,0.059399,0.00534147,0.047109,0.0280213,-0.159543,0.0239147,0.0427239,-0.137087,-0.00725366,0.0483714,-0.147711,-0.113099,0.163023,0.00957659,0.280963,0.255,-0.0629095,-0.125819,0.108886,0.0813949,0.0611548,0.0192368,0.180311,-0.0521303,-0.0362103,0.0128839,-0.107755,0.00488266,-0.322092,-0.182947,-0.0153399,-0.0778701,-0.160598,0.17886,0.149306,-0.0229631,0.0975191,-0.00978529,0.195748,0.146726,0.129608,-0.0359135,-0.0134461,0.104753,0.155022,0.0919034,-0.090059,0.0598802,0.0873231,0.189463,0.0527782,0.046805,0.00921797,-0.0620663,0.0563263,-0.0666026,0.0143067,-0.00407104,0.0760007,-0.0639613,-0.0777178,0.0171554,0.0796693,-0.0336578,0.0474167,0.0241757},
        {-0.0277019,0.00590307,-0.0866897,-0.0632379,-0.00369641,-0.0507498,0.026872,0.0205938,-0.0706576,0.0328675,0.0402426,0.115052,-0.0256692,0.00691802,-0.00593489,0.037735,0.061712,0.0378262,0.00481027,0.0581718,0.0253055,0.0160244,0.0506276,0.0733749,0.0206216,-0.00878711,0.0936873,-0.0137007,0.0286917,0.0205267,0.0672932,-0.0455992,-0.0936347,-0.0584092,-0.0977413,-0.0188274,0.05959,0.0728735,0.0359896,0.0212881,-0.100996,-0.0521164,0.0342844,0.00285992,0.0170495,0.0559361,0.0399282,-0.0213213,0.0369384,0.0537989,0.0508919,0.0358781,0.0204154,-0.0772511,-0.011097,0.0032238,0.0372483,-0.0211164,0.061318,0.0750768,0.0601306,0.0707186,0.107202,0.0674119,0.0265955,-0.0328204,-0.0144119,-0.0148554,-0.0585325,-0.0314975,-0.0198438,-0.105848,-0.0161746,-0.08309,0.0685178,0.0684026,0.00419055,0.0418042,0.0266022,-0.00182436,-0.0315606,-0.0218441,-0.00580917,0.0330113,0.0122739,0.0415883,0.0595292,0.00976561,0.0329198,0.0317421,0.00516448,-0.0644534,-0.0481277,0.107521,-0.00926575,0.0497116,0.0219921,0.117819,0.0324496,-0.0125785,0.0133385,-0.0732554,-0.0547091,-0.0190718,0.065064,-0.0730497,0.0583771,0.0764903,0.0152948,-0.0793783,0.0149717,-0.0258307,0.0707985,-0.050702,-0.063807,0.0396008,-0.0462496,0.0418643,0.0010134,0.0496611,-0.0649294,0.010692,0.0472186,0.0291465,0.0179226,0.00677103,-0.0623811,-0.00848005,-0.00352341,0.0759466,0.0619324,0.0459576,0.000733364,0.00226941,0.015575,0.0350095,0.0606254,-0.0316479,-0.0302768,0.0405612,0.0147264,0.0318757,0.0487791,-0.02719,0.0980533,0.0159247,0.0515625,-0.103429,-0.0961798,-0.0376246,0.0107192,-0.0793722,-0.124702,-0.0158818,0.00421628,-0.031019,-0.0149154,-0.0389594,-0.0559386,0.000813958,-0.00163707,-0.00617621,0.032698,-0.0746551,-0.0766003,-0.0086033,-0.0134563,-0.0545925,0.0203257,-0.0467555,0.066722,-0.015469,0.0758268,-0.0322482,0.027643,0.00123734,-0.0178131,-0.0210728,-0.0489994,0.0162047,0.0109548,-0.00650398,-0.0420008,-0.000647062,-0.00160181,0.018342,0.0256391,0.00894299,-0.0282467,-0.0247824,-0.054698,0.00547899,-0.0318685,0.00910557,0.0236191,0.103552,0.0308822,0.0308516,0.0169222,-0.0350607,-0.0188522,-0.0129432,-0.00923574,-0.0299325,-0.054692,0.0208247,0.0359757,-0.102114,0.00503202,-0.040657,-0.0511927,0.0425522,-0.0235677,-0.0205872,0.0118699,-0.0198365,-0.00579876,0.0462842,-0.0217195,0.0740672,0.035195,-0.0912928,0.0162431,0.0288213,0.030288,-0.0323216,0.0625006,-0.104627,-0.00958949,0.0199851,-0.0208832,-0.0192428,0.0597403,-0.0266551,-0.0816521,-0.0512784,-0.0328413,-0.00188563,-0.137888,0.110189,0.0805465,0.00574307,0.0135509,-0.0128494,0.0895261,0.0737088,0.0138776,0.0639424,-0.0692196,0.0897857,0.0315943,-0.0367878,0.0411422,-0.0555665,0.0392219,0.00757991,-0.110651,0.120372,0.108434,0.00246192,-0.014072,0.0408021,-0.016014,-0.0474389,0.0673731,-0.0689112,-0.0267144,0.026817,0.0431377,0.00190415,0.0495938,0.00468113,0.117015,0.0219077,-0.0356689,-0.0590985,0.0329123,-0.0589342,0.0132096,0.0314532,0.0248463,0.105652,-0.0113001,0.0178957,-0.0321027,0.083898,-0.000544087,-0.011987,0.0340667,0.0302204,-0.0509546,0.0131392,0.0616508,-0.00736771,-0.0221419,0.0460832,0.0768914,-0.0752792,-0.0333456,0.00873702,0.0346219,0.00770447,0.00638104,-0.000416964,-0.0145021,-0.0150515,-0.0517753,-0.0814721,-0.00160636,-0.0351309,-0.048358,-0.0324117,-0.0581625,-0.0154408,0.0202739,0.0203703,0.101821,-0.077064,-0.0566055,0.0446368,-0.00760059,0.0807566,0.0791776,0.00237862,0.039701,-0.00819444,0.0825573,-0.025212,-0.0245929,0.00604837,0.0203093,0.0010702,-0.00906893,-0.0271794,0.0299061,-0.00130731,0.0563648,-0.0243297,0.0813809,0.0433908,-0.0916866,-0.0240896,0.011931,0.0206492,-0.0959554,0.02242,-0.034755,-0.00990147,-0.0654201,-0.00217542,0.0236434,-0.0465657,-0.0653232,0.0370328,0.000484636,-0.00486649,0.00152859,-0.0321014,0.0394341,0.0128204,-0.0716797,-0.0960625,-0.0196887,0.069904,0.0685008,0.0182713,0.0129907,-0.0162119,0.00235072,-0.0137167,0.0405067,0.0802068,-0.0952986,0.00958079,-0.0357427,0.0116357,-0.0228722,-0.0480091,0.00555858,0.0532075,0.0500808,-0.0702358,-0.0242048,0.0923247,0.0298256,-0.0455094,0.0507206,-0.0147074,-0.0186091,0.0981196,0.0612194,-0.0427193},
        {-0.0922488,-0.0197005,0.182857,-0.00222406,0.0840758,0.060489,-0.000555077,0.0711069,0.0285033,-0.186281,-0.0307993,0.152358,0.0826291,-0.268003,-0.144184,-0.121122,-0.217064,0.0398785,-0.173536,-0.0230187,-0.158668,-0.249251,0.0219426,0.00956926,-0.224184,0.00265558,-0.129462,-0.0962609,-0.0795767,-0.025537,-0.0381393,0.00839911,-0.050522,0.133593,-0.106542,-0.147143,-0.0905517,-0.176455,-0.148081,0.0355708,0.0211403,-0.0323351,0.0616012,0.00870984,-0.0670613,-0.00491816,0.118854,0.00822048,-0.0120207,-0.000927129,0.0238675,0.0212805,-0.0566086,-0.044214,-0.0274578,-0.0652992,0.0837212,-0.00607283,-0.0617573,0.0611319,0.0489408,-0.0846195,-0.0733078,0.0442432,0.0408777,0.0849326,0.103311,-0.0327997,0.0716938,0.0132144,0.0680934,0.0341394,0.0064982,-0.00539514,-0.105326,0.00221024,-0.0176958,-0.098173,0.0238483,0.0162064,-0.105379,-0.131833,-0.112935,-0.0517051,-0.133836,-0.182164,-0.0929886,-0.00515791,-0.0754811,0.0708351,-0.039098,-0.0353227,0.0872635,-0.034921,0.0257338,-0.00671541,0.0139131,0.0494151,0.0379363,-0.0629814,-0.0324927,-0.0625531,-0.0625234,0.0263613,-0.0331039,0.00522212,-0.0193283,-0.0415272,-0.042132,-0.00594329,0.0433765,0.0964131,-0.0292443,0.0513878,-0.0438611,0.028325,-0.0465293,0.0284161,0.0668717,-0.0146241,0.0487578,-0.0214678,-0.0793916,0.0217333,0.00793168,0.00205001,0.0504876,0.0465549,0.0401879,0.0239079,0.0314531,0.0228668,0.0330006,-0.0345387,0.0357976,-0.00883173,0.270266,0.0555577,0.0116897,0.0560066,0.0950526,-0.0701723,0.00824225,-0.0910198,-0.0729262,0.238219,0.111876,-0.187513,-0.0171517,0.0688527,0.086141,0.0975296,-0.0432358,0.0384304,-0.102347,0.0613057,0.0142891,0.0842319,0.0650718,0.0775002,0.116403,0.0198169,0.0261229,0.0150233,0.0233377,0.0673176,-0.0479258,0.0274727,0.0859577,0.0977847,-0.070728,-0.0455348,-0.0300059,0.0596351,0.0629666,0.036903,-0.00922366,0.0725527,-0.0109777,0.0159117,0.00733268,-0.0494434,0.0309437,0.0640974,-0.000494304,-0.0178877,-0.0435374,0.0272318,0.0980058,-0.110447,0.0392374,-0.0372506,-0.0789658,-0.13515,-0.0831707,0.0122847,0.0204732,-0.0294287,0.0644553,0.0379127,0.0191935,0.0374772,0.105734,0.0894973,-0.0136107,0.0782528,0.0387039,0.011022,-0.0666841,0.0380729,-0.0531436,-0.0835288,-0.0563966,-0.00811771,0.0241565,0.0422771,0.0680564,-0.122867,-0.0613552,0.00662858,0.135523,0.0967348,0.0901666,0.0560536,0.1856,0.108902,0.0325572,0.0280384,0.0632477,0.100791,0.0309225,-0.029481,0.118101,-0.0109104,0.00294149,-0.00640302,-0.038933,-0.0941207,0.136511,0.0187619,-0.0602376,-0.0414311,-0.0937473,-0.0400591,-0.0878449,0.0152461,0.0454788,-0.0722465,0.00951914,0.0749106,-0.034923,-0.0356717,-0.0767916,0.0139404,-0.0358777,0.00754444,0.0689375,-0.0373127,-0.0342415,0.0139525,-0.0352308,-0.007928,0.0469085,-0.026084,0.398255,0.127224,-0.0961973,0.00607689,0.0339921,0.0623366,0.0512658,0.196625,-0.07746,-0.0721603,0.0357985,0.0782533,0.171893,0.162078,0.0325468,-0.0303187,0.15559,0.0210343,-0.0279172,-0.0300495,0.0764674,-0.0292436,0.062932,-0.0293049,-0.046766,-0.0156079,-0.0777014,0.102143,0.0353313,0.0193177,0.0105655,0.0611933,0.0712841,0.100061,0.085058,0.0471743,0.098836,0.0893503,0.108932,0.108102,0.102378,0.123385,0.0410319,-0.0257169,-0.0343035,0.00991718,0.0762672,0.0505151,0.0313102,0.0909269,-0.0195602,-0.0518098,0.0252675,-0.0212227,-0.0482022,-0.0224277,-0.0516781,-0.0314383,-0.0115088,-0.0670508,0.0113891,0.1245,-0.0118257,-0.00524046,-0.0560966,0.0625891,0.00458796,0.0454129,-0.0351892,0.0827525,-0.0254343,0.0887906,-0.00925772,0.0478223,0.0239122,-0.0594081,0.0481745,0.0584793,0.0197233,0.100112,0.152686,-0.00843215,0.00541578,0.0273256,0.118569,-0.0712861,0.0656479,0.0400288,0.0895844,-0.0141632,-0.00832896,0.140988,0.0572218,0.103406,-0.0808301,0.0414121,0.0796652,0.103522,-0.0142561,0.0770761,0.065951,0.0100962,0.0588697,0.0468055,0.107684,0.0357606,-0.0330725,0.0869288,0.0214128,0.0163926,0.0578423,-0.0214596,0.0200045,0.020621,-0.107624,-0.0382842,-0.0729596,0.0530666,-0.024211,0.0530394,0.0186818,-0.0155042,0.0093321,-0.033926,0.0436665,0.146331,0.0207321,0.0526589},
        {-0.192529,0.0238484,-0.102384,0.0481419,0.262861,0.0264442,0.269746,0.0405602,-0.0261856,0.171293,-0.264154,-0.614667,-0.914997,-0.079696,0.147455,-0.0669012,0.140029,-0.335901,-0.057949,-0.113046,0.177139,0.388863,-0.0838395,-0.367662,0.329833,-0.268093,0.0901083,-0.0235364,-0.0198015,0.125028,-0.0397369,-0.171301,-0.180396,-0.23955,-0.0187437,0.0950716,0.154652,-0.00567246,0.0198952,-0.245187,-0.0503577,0.0230535,0.0629497,0.172262,0.043136,-0.0789202,-0.0686134,-0.0189204,0.0572417,-0.0547662,-0.0379871,0.0429097,0.0338473,0.0290537,-0.0476999,-0.105694,-0.0234249,0.0418264,-0.00635653,-0.0489203,0.0563022,-0.0326693,0.00264254,-0.0342512,-0.125514,0.0185863,-0.00828207,-0.0433036,-0.0178229,-0.168191,-0.0563429,-0.184531,-0.0603197,0.0484919,-0.0149409,-0.0994417,-0.21043,-0.0524075,0.0423355,0.0138651,0.0370808,-0.12951,-0.0239575,-0.00709409,-0.00780717,0.123092,-0.057052,-0.205581,0.224706,-0.108622,0.128918,-0.0701456,0.0586939,0.069993,-0.0310603,-0.0474405,-0.0693304,-0.302872,-0.118545,0.083745,0.0797246,-0.0682036,0.13862,-0.21325,-0.155845,-0.0308186,-0.0244043,0.0876676,0.068677,-0.0457261,-0.0519182,-0.00681933,0.000303532,-0.0731404,0.0229809,0.0357909,0.00844356,0.0138289,0.0646722,-0.0791098,-0.07483,-0.00100384,0.0685895,-0.0728739,-0.0347677,-0.0503002,-0.039952,-0.0453949,-0.129611,0.0708058,-0.00648996,0.0610667,0.0242673,-0.0952617,0.00474601,-0.0547899,-0.0226683,0.247677,-0.190855,0.333004,0.175619,0.204795,-0.00528117,0.403254,0.438141,-0.205865,-0.118832,0.655696,0.0999014,-0.0736527,-0.0369518,0.0522485,-0.0347166,-0.0995237,0.145376,-0.186743,0.0529992,-0.19981,-0.228514,0.0285081,-0.154425,-0.0780931,-0.0456848,-0.0398376,0.0158222,-0.086817,-0.0189153,0.0158448,0.0237413,-0.0137747,0.233125,0.182555,0.0634314,0.0531339,-0.121997,-0.00250272,0.00141711,0.0460484,0.0967622,-0.0556504,0.0509286,0.000554049,-0.0103517,0.0295526,0.0290769,0.018722,0.119636,0.0765858,0.0814673,0.0843246,0.0444457,0.0361358,0.0561402,-0.0115403,-0.0739779,0.0370488,0.0502403,0.0618314,-0.103205,-0.00599081,-0.0126871,0.0775808,-0.0642184,0.0612378,-0.0228022,0.097647,0.0140091,0.143389,0.219883,-0.0242817,0.0192741,0.354922,0.0857025,-0.024404,0.020345,-0.100921,0.0241431,0.0161644,0.114753,-0.175735,0.0905039,-0.0901461,-0.108476,0.00576928,-0.0809805,0.0269789,-0.124632,0.0126289,0.00939065,-0.0854362,0.0558048,0.0255663,-0.0376117,0.00311865,0.06232,0.138329,0.173308,0.00997352,-0.0684485,0.0479895,0.0627494,0.153843,0.0476906,0.0941785,0.0555891,0.0842895,0.0365232,0.0219915,0.0239577,-0.0469528,-0.0172077,0.0488478,0.0906432,0.107226,0.179523,0.024859,0.00415786,-0.0441112,0.054277,0.0678318,-0.0106523,-0.0603794,0.0284406,0.0130284,-0.47873,-0.334321,0.335119,-0.0401967,0.0682711,0.204724,0.101695,-0.23404,0.282995,0.513331,-0.109496,0.0331625,-0.314716,-0.252758,0.0480114,0.0694641,-0.198111,0.054475,-0.129413,-0.0881793,0.00571027,0.0770174,-0.0388775,-0.0520883,-0.0917593,0.00620934,0.0638966,0.0315106,-0.105021,0.013479,-0.0138787,-0.235647,-0.229826,0.0135299,-0.0627531,0.037359,-0.124164,-0.17682,-0.0721678,-0.0687977,-0.098821,-0.129327,-0.077162,-0.158969,-0.00767033,-0.0281413,-0.0285094,-0.202596,-0.0399024,-0.0171432,-0.0323872,0.071624,0.00450151,0.013609,0.0767554,0.0221535,0.108855,0.0450968,0.0413638,0.0114359,-0.0388101,-0.0515055,0.0576503,0.040948,-0.0183151,-0.0264072,0.0122317,-0.0743212,-0.0127344,0.0291931,0.0545104,-0.109887,0.0589259,0.220872,-0.0863674,0.0570657,-0.216135,-0.303911,0.0875495,0.0975243,-0.149071,0.0417673,-0.158083,0.00538679,0.015256,0.0714488,0.0117658,-0.11114,-0.00771796,-0.0114779,0.118986,0.14356,-0.116824,-0.0612656,0.0313997,-0.225476,-0.0675387,0.037067,0.0427842,-0.0198785,-0.0931221,-0.199146,-0.227427,-0.133071,-0.0539115,-0.0748117,-0.0343189,-0.047685,-0.0647529,0.0133964,-0.0433452,-0.00707463,-0.0592545,-0.0419934,-0.0137747,-0.00963101,0.0171367,-0.0375537,0.0774347,0.00431342,-0.00163988,-0.051077,-0.0251893,0.0190692,-0.00700057,0.0338724,-0.0601048,0.0710621},
        {-0.220554,0.0700949,-0.353208,-0.0220906,0.344763,-0.083319,0.340332,-0.0349676,-0.18242,0.0365822,-0.0405164,-0.0231894,-0.538166,0.37702,0.382621,0.203156,0.445482,-0.435317,0.0006158,-0.174306,0.156615,0.449639,-0.164263,-0.282885,0.277154,-0.301552,0.20871,0.0328561,0.127442,0.0760078,0.00884404,-0.174232,0.0111773,-0.350636,-0.0949525,0.177422,0.0817116,-0.138591,0.0737183,-0.238223,-0.125159,-0.125217,0.0694665,0.0994316,0.124286,-0.0229994,-0.129241,-0.0966855,-0.0666867,-0.106351,-0.00735994,-0.162866,0.0484487,0.013476,-0.0420413,-0.144419,-0.17142,-0.0386611,0.0421031,-0.0657719,-0.0191427,-0.0493764,-0.0339865,-0.10803,-0.208929,-0.066697,-0.00357379,-0.0826824,-0.146566,-0.11938,-0.114398,-0.198518,-0.0374617,-0.0279126,0.0565428,-0.00977435,-0.129703,0.156407,0.0591952,0.071639,0.132202,-0.144444,0.0469453,-0.0346167,0.0997658,0.263167,0.000798829,-0.199555,0.213988,-0.265031,0.132622,0.0973451,0.03807,0.0632977,0.000266821,-0.228438,-0.094916,-0.34783,-0.084376,0.119847,0.173259,-0.0972726,0.032379,-0.196182,-0.178503,-0.099588,-0.0108211,0.187915,0.0772141,-0.051499,-0.0967945,-0.000164061,0.165399,-0.120087,-0.0738063,-0.015559,-0.0700876,-0.0665496,-0.159205,-0.0746925,-0.127517,-0.0775993,-0.0238358,-0.0742905,0.0813619,-0.0359095,-0.0977705,-0.0353673,-0.173473,-0.0110249,-0.0859093,-0.134252,-0.0279538,-0.123619,-0.0250581,-0.0461182,-0.214796,0.154036,-0.18658,0.105451,-0.187668,0.281948,-0.268426,0.350976,0.332909,-0.381612,-0.18569,0.739226,0.141111,-0.108753,-0.197212,-0.176781,0.0690513,-0.047432,0.211556,-0.254007,0.00078504,-0.14469,-0.314334,0.110438,-0.126128,-0.0399722,0.00546687,0.0753564,0.0311162,-0.0659626,-0.0379404,-0.0354525,0.0517183,0.000633934,0.00759932,0.153815,0.0663252,0.0278417,-0.205596,-0.0680253,0.0569497,0.0208362,0.118475,0.0746984,-0.044594,0.0403054,-0.115524,-0.13339,-0.0302552,-0.0554689,0.0468917,0.028621,0.0581522,0.153379,0.137839,0.043693,0.0158567,0.0655184,0.0467248,0.0235469,-0.00676927,-0.0931577,0.00240504,-0.0368979,-0.0765161,0.0194559,-0.0218347,0.0727251,-0.0357544,0.105534,-0.130575,0.140418,0.099731,-0.240782,-0.102562,0.31097,-0.0694059,-0.0795606,-0.0241563,-0.0409407,-0.0355179,0.120245,0.33861,-0.252107,0.0308543,-0.214339,-0.310482,0.112799,-0.1642,-0.0635787,0.0054409,0.0730808,0.00655799,-0.043795,0.0253828,0.0955151,-0.0928227,-0.0802058,0.141043,0.025756,0.175274,0.0383764,-0.214855,-0.0238226,0.114248,-0.014002,0.11668,0.0200716,-0.0134621,0.00884775,0.0957938,0.0243101,0.0558716,-0.0259544,0.0825644,0.0614925,-0.0318496,0.11922,0.0280469,0.000842157,0.0049802,0.0544431,0.0465566,-0.042104,-0.023972,-0.0132673,0.0867541,-0.0398283,-0.0657094,0.0283698,0.655986,0.0123949,-0.28124,-0.121568,-0.154806,-0.49472,0.0428781,0.626277,-0.297185,-0.0563449,-0.40064,-0.411113,0.388412,0.28681,-0.185923,0.128108,-0.0394642,-0.0286769,0.102771,-0.000452218,0.0435425,0.150077,0.0937092,-0.0589489,0.150521,0.11186,-0.0279044,-0.0952335,0.0867981,-0.259728,-0.193659,0.0177634,-0.0116967,0.111336,-0.211567,-0.145015,-0.223256,0.0499666,-0.00976122,-0.170554,-0.133576,-0.0398042,-0.00707216,-0.112065,0.0288128,-0.14978,-0.0329435,0.0734538,-0.0539773,0.0966059,-0.0185571,0.00443707,0.100539,0.26812,0.0947503,0.0354323,0.06397,0.0864746,0.123337,-0.0804386,0.0453711,-0.075209,-0.101684,0.0519439,0.103096,-0.101673,-0.0939676,-0.0685005,-0.0783923,-0.182863,0.031901,0.155275,-0.148259,-0.0172651,-0.193817,-0.175714,0.227389,0.11038,-0.206878,-0.0209954,-0.145859,-0.118763,0.16907,-0.0567432,0.0849773,0.0926454,0.192034,0.0426597,0.21182,0.117999,-0.0738435,-0.0534565,-0.0134995,-0.224786,-0.276915,-0.107083,-0.0537572,-0.00309507,-0.127113,-0.254603,-0.15595,-0.00399255,0.0142301,-0.12615,-0.0668766,-0.00255868,0.0768622,-0.135429,-0.0732273,-0.0535915,-0.0544451,-0.075795,0.00953308,-0.0866334,0.0594496,0.0503341,-0.0868667,0.0633388,0.134134,-0.04163,0.0966101,0.0680691,0.0243421,0.0307264,0.0495993,0.027084},
        {0.0170073,0.00711489,-0.0783775,-0.00995624,-0.0120976,-0.00145815,0.0329346,-0.00367606,-0.0352444,-0.19874,-0.0174408,0.26231,0.0474267,0.124449,-0.169328,-0.140925,-0.103642,-0.253059,0.0296541,-0.0875564,0.00168315,0.0164552,-0.0790188,0.0721303,0.187737,-0.0679619,0.0694675,0.0752506,0.0702091,0.105036,-0.0345098,-0.0374494,0.08756,-0.0101748,-0.0173114,0.0322789,0.0721646,0.0249436,0.00127338,0.0112056,-0.101276,-0.0481595,0.0588232,0.0786995,0.0809491,0.029233,-0.0413737,-0.0366092,0.036321,0.0122226,-0.00825649,-0.0337385,-0.0191771,0.00743457,0.0324583,0.0465219,-0.00454637,0.00809878,0.0421844,0.000203063,0.0107514,0.041556,0.0447847,0.0206156,0.0465924,0.119969,0.0328659,-0.0491151,-0.0141588,0.0195494,0.0119854,-0.00508145,-0.0157995,-0.0585007,0.0314144,0.0569508,-0.0486,0.0153119,-0.0347132,0.0231291,0.0509165,-0.138246,-0.0435766,-0.0487683,0.0558144,-0.0592831,0.0712524,0.131141,0.158107,-0.035585,-0.00299567,-0.0561848,0.0198862,0.0943828,0.041028,0.106211,-0.024703,-0.0384292,-0.0832073,0.0684554,-0.00196697,0.0170544,-0.0158555,-0.0591472,0.0276545,0.026401,-0.0546449,0.0382952,0.128101,0.0269869,0.0503388,-0.00720174,0.0556676,-0.0498233,-0.0136275,-0.00143675,0.110918,0.00430571,-0.042894,-0.0696656,0.0907425,-0.0122648,0.00704832,0.120638,0.025631,-0.0306345,0.0105739,-0.0960979,-0.0750606,-0.0502557,0.00367577,-0.0690529,0.0642239,-0.0283999,-0.0195048,-0.0786923,0.466182,0.0193796,0.117807,0.155114,0.0179125,0.272437,0.243848,0.0962083,0.00476686,0.0704723,0.0738083,0.16822,0.229141,-0.00871043,0.0691217,0.0549962,0.0738936,0.0459157,0.101902,0.160523,0.163374,0.0184203,0.0701282,0.00217069,0.0765194,0.156691,0.140254,0.0620889,0.0282307,-0.0338129,0.0423221,0.0192545,-0.0583435,0.0509109,0.0962685,0.0911563,0.0554335,0.0551129,0.080231,-0.00484023,0.131161,0.0676508,0.104993,-0.00819768,0.0715152,0.0532472,0.110377,0.0304564,0.0154442,-0.00895301,-0.0132052,-0.0229713,-0.0434105,0.0569595,-0.0259837,0.0668396,0.0957694,0.0157639,-0.0217548,0.0808801,0.0446754,-0.0391149,0.0813962,0.0273224,0.00735265,0.0317289,0.0774819,0.0495741,0.0235271,0.0370282,-0.00480777,0.0516812,0.0558092,-0.0281909,0.0424844,0.143028,0.0204031,0.0829249,0.0307276,0.104479,0.137861,0.134074,0.147044,0.070493,0.0629356,0.0536214,0.0689653,0.152036,0.15118,0.0700407,0.153511,0.0795944,0.0813678,0.166832,0.0984366,0.078299,0.0204141,0.0897008,0.0759351,0.107707,0.125463,0.0648735,-0.0136763,0.0733144,0.0963726,0.100628,0.0749639,0.0536085,0.0150866,0.0354874,0.0786577,0.0118403,0.0674948,-0.055214,0.0470476,-0.0324946,0.105896,-0.073814,0.0447517,0.0126009,0.034128,-0.0243857,0.130787,0.0172326,0.0099661,0.0750333,-0.0303524,0.00626285,0.122703,0.00915975,-0.0749331,0.051031,-0.0572213,-0.179003,-0.275902,-0.0700645,0.00744063,0.121371,0.0411844,0.00979573,-0.107474,-0.0663021,0.0956589,0.0558617,-0.00266285,0.0775968,-0.0144607,-0.0405657,0.0625182,-0.0187824,-1.86441e-06,0.0115159,-0.0823201,0.0102302,0.0854352,-0.105963,0.0532821,0.0163525,-0.018308,-0.156071,-0.0487185,-0.0943634,0.0282237,-0.0724177,0.0091619,-0.0125298,-0.0485238,0.011813,-0.0937142,-0.0928873,-0.147916,-0.0414288,-0.0806135,-0.0246754,0.0124387,-0.0489457,0.0338436,-0.0353213,-0.10022,0.0223253,-0.0165501,-0.0964761,0.0325679,0.139686,-0.0165004,0.0276921,-0.049761,-0.0309592,-0.0156581,-0.0726624,-0.0443648,0.00504522,-0.0201963,0.0249174,-0.0713071,0.00780279,0.00824536,0.0776267,0.00366353,-0.112346,0.0460859,-0.0792746,0.0497729,0.0125959,-0.13647,-0.088429,0.0816059,0.10835,0.00922888,0.120464,0.0241684,0.0117967,-0.0229559,0.050137,0.0197047,-0.0354843,0.026132,0.0716852,-0.0126621,-0.0314394,-0.0837874,0.0435282,-0.0733607,-0.0100133,-0.109597,0.068608,0.021673,0.0355539,0.00609396,0.0729797,-0.152043,-0.0334062,-0.00981142,-0.0974982,-0.0390647,0.0522388,-0.020004,0.0189038,0.0278197,0.0242338,-0.0621725,0.000298367,-0.00965055,-0.0213224,-0.0156973,0.093866,0.0384813,-0.0305448,0.0217795,0.0201178,-0.0287131,0.0262367,-0.0033964,-0.0418751,-0.0122297,-0.0625109},
        {0.109187,-0.145784,0.0659345,-0.0081208,-0.447601,0.0591639,-0.522716,-0.0125087,0.57985,0.193433,0.30676,-0.0979614,0.510237,-0.256137,-0.343162,-0.0890547,-0.34115,0.594771,0.13326,0.368494,-0.112397,-0.381726,0.162835,0.130902,-0.25433,0.202267,-0.107713,0.0826432,-0.117858,-0.147538,0.0503396,0.0536271,0.145156,0.389154,0.0526484,-0.142754,-0.168601,-0.0402285,-0.0657201,0.162404,0.239514,-0.000369053,-0.0567951,-0.150682,-0.160462,0.013751,0.156619,0.0382078,0.0624797,0.0581817,0.109492,-0.0340602,-0.00526067,-0.0889383,0.0501127,0.00495455,0.0901559,0.0106615,-0.118516,0.0875017,-0.102546,0.0301245,0.033377,0.00500504,-0.0104721,0.112141,0.000392164,-0.0203831,0.0750409,0.152148,0.0437363,0.131512,0.052287,0.0445402,-0.05005,-0.0567348,0.0400904,-0.105792,-0.0645484,-0.117927,-0.225417,0.305195,0.113395,0.212459,-0.0462554,-0.292175,0.104984,0.0551079,-0.233716,0.251922,-0.0702321,0.058529,-0.051483,-0.0519372,0.0120653,0.0589085,0.186357,0.216884,-0.0224465,-0.205213,-0.252966,0.0328006,-0.0281811,0.21828,0.167245,0.102671,-0.0335625,-0.157859,-0.170313,-0.053693,0.0668225,-0.00582594,-0.00384616,0.114672,0.00363551,0.0950009,0.0042883,0.0617485,-0.0167114,0.253216,0.0639515,0.131469,-0.0267324,0.046098,-0.0543433,0.120329,-0.0673785,0.05226,0.130327,0.0596414,-0.0259586,0.0588248,0.0183407,0.0371689,0.0902009,0.122031,-0.656439,-0.651424,-0.148038,-0.518671,-0.0520868,-0.228667,0.162428,-0.146252,-0.152904,0.570495,0.424864,-0.385451,0.0664036,0.32426,0.284478,0.0459393,0.10677,0.166991,-0.0728948,0.357419,0.0926493,0.235638,0.228152,-0.0638096,0.149559,0.0312069,0.0433666,0.0349259,-0.0725635,0.0595649,-0.0529014,-0.0143263,-0.0223027,-0.00793137,-0.100645,-0.178913,-0.171818,0.00345666,0.0651212,0.0358522,-0.149758,-0.0727656,-0.197639,-0.0488732,-0.0704536,-0.163034,-0.0379805,0.0144315,-0.0788381,-0.0552843,-0.133635,-0.147484,-0.110529,-0.150416,-0.1656,-0.0826474,-0.0962308,-0.105599,-0.123555,-0.11548,-0.088494,-0.00120717,0.00528175,0.0522583,0.0217148,-0.0176094,-0.123501,-0.107651,0.0323517,-0.125747,0.0315168,-0.144399,-0.106287,0.36664,0.238932,-0.252473,0.0521252,0.170972,0.183215,0.0708221,0.109388,0.0436334,-0.0527596,0.420063,-0.0088599,0.30929,0.206351,0.0277541,0.160769,0.00403016,-0.0119875,-0.00496592,-0.0166212,0.0585929,-0.0908964,-0.117672,0.00824679,0.0043533,-0.146663,-0.182487,-0.244483,-0.0553833,0.0863041,0.0247618,-0.0944322,-0.11875,-0.0839676,-0.0915344,-0.0868941,-0.0851821,-0.0610413,-0.0305334,0.00211193,-0.0711257,-0.0702525,-0.126162,-0.024369,-0.177309,-0.107664,-0.111756,-0.123827,-0.12246,-0.109094,-0.127726,-0.0820587,-0.00442119,-0.01943,0.0275912,0.349684,0.275433,-0.316728,0.28386,0.158838,0.0359131,0.206448,0.435069,-0.248868,-0.574897,0.137831,0.0596374,0.442448,0.39983,-0.424503,-0.309927,0.12542,-0.244217,0.129608,-0.106481,-0.227367,-0.146536,-0.169421,-0.155657,-0.181042,-0.0375482,-0.259621,-0.0789376,-0.0217466,0.0253843,-0.0360406,0.133683,0.212115,0.0437258,0.0538078,0.0612534,0.049423,0.157428,0.150219,-0.0442206,-0.00879525,0.157316,0.0920954,-0.0475504,-0.0863858,-0.0605339,0.0338693,0.111389,0.0508677,-0.0658971,-0.0365094,-0.115366,-0.00702171,-0.0653147,-0.0419462,-0.0795306,-0.113332,-0.0541736,-0.142258,-0.0898347,-0.100559,0.0761366,-0.0202395,0.0113027,0.0784236,0.0797677,-0.0954325,0.152839,0.0789727,0.018482,0.184111,0.217983,-0.0445951,-0.133754,0.0485412,0.128101,0.27396,0.282445,-0.113469,-0.275018,0.230029,-0.111675,-0.00793883,-0.117482,-0.133372,-0.162524,-0.0875977,-0.186157,-0.114132,0.0184253,-0.217108,-0.228541,0.00280886,-0.0344243,-0.0845822,0.129565,0.261413,-0.048958,0.00762638,-0.0679627,0.0972969,0.221765,0.163791,-0.0235846,0.0689839,-0.00490908,0.0862158,0.0308652,-0.105863,0.0394911,0.0485449,0.082218,0.035813,-0.00454488,0.0797232,0.00664079,0.0676108,-0.0543056,-0.0531602,-0.0649125,-0.0264118,0.00705067,-0.0414954,-0.0631427,0.0516187,0.0870742,0.0794649,-0.0237793},
        {0.14238,-0.0775026,0.0584884,0.0582233,-0.200671,-0.00889666,-0.252183,-0.0223345,0.0838059,-0.275108,-0.105827,-0.124927,0.239075,-0.129441,0.0122204,0.0781906,-0.0414363,0.21213,0.0474602,0.106016,-0.122983,-0.276091,0.0533826,0.0122558,-0.0390822,0.168853,-0.124957,-0.0669504,-0.0134964,-0.045354,0.0616839,-0.038686,0.0226581,0.119488,-0.0202377,-0.0788282,-0.10553,-0.0466595,-0.0243418,0.0631908,0.135262,0.0334009,-0.100706,-0.0381879,-0.103322,0.0519648,-0.0173499,0.128595,-0.0085958,-0.018467,0.0397419,0.0459901,-0.0244181,-0.0424262,-0.0108803,-0.0082725,-0.069344,0.0818174,0.0601542,0.018513,0.0169568,-0.00397119,0.013245,0.0318461,0.0535125,0.0350691,-0.0164468,0.00215139,0.0757029,0.0357818,0.0727211,0.107636,0.105208,0.0126517,-0.0347774,-0.0803828,0.189787,-0.0842728,-0.0465752,0.0222951,-0.0317516,0.20409,0.0276933,0.0873256,-0.113632,-0.0901921,0.0251837,0.0239163,-0.152234,0.149193,0.00436224,-0.0146371,-0.00803025,-0.104247,0.106883,0.0417448,0.0780087,0.243959,0.00640198,-0.00926696,-0.131161,0.00557883,-0.104596,0.110056,0.0329468,0.0677478,0.0337674,0.00905196,-0.0611785,-0.0388113,0.112024,-0.145646,0.0412928,0.0756715,-0.025275,0.0757075,0.0193851,0.027523,-0.0716495,0.155407,0.0353067,0.0846125,-0.0749536,-0.0313686,-0.0704115,-0.00892495,0.0335297,0.0189056,0.0501955,0.016281,-0.0347186,-0.0716655,0.00825822,-0.00730664,0.0140929,0.0353754,-0.104219,-0.147694,-0.0527903,0.0146381,0.139716,-0.0653534,0.146387,0.160603,-0.0168756,0.274476,0.183487,-0.209166,0.0560109,0.17643,0.143199,0.17698,0.0285869,0.039981,-0.0310214,0.158278,0.0889854,0.22268,0.175156,-0.0201535,-0.0273696,0.0887258,0.00267968,-0.0518178,0.0452906,0.017924,0.00402623,-0.0589272,-0.0617383,-0.0469607,-0.0138682,-0.196847,-0.173487,-0.0516671,0.138224,0.0757944,-0.103154,-0.0118806,-0.0775967,-0.0191587,0.0669489,-0.0382516,-0.0467412,-0.0509092,-0.0719279,0.00656285,-0.0555145,-0.0222116,0.0393262,-0.0523457,-0.0522866,0.0226209,-0.0781626,-0.0519205,0.0321139,-0.0393229,-0.0923734,0.029072,-0.00915435,-0.0876337,-0.0149265,-0.0672475,0.0516418,0.0477173,-0.0112352,-0.0892519,0.0324123,-0.0242875,0.0244432,0.0871084,0.123086,-0.116442,-0.00218942,0.035097,0.103564,0.0846201,0.0470721,0.00813065,-0.0546907,0.116305,0.00838738,0.141711,0.0568676,-0.0975958,0.105552,-0.0370718,0.0328176,0.0525503,-0.0294742,0.0985092,0.0325838,-0.0644051,0.0110868,0.0502388,-0.0818385,-0.091774,-0.0533907,-0.0579129,0.0900233,-0.0779217,-0.0770196,-0.132695,-0.114185,0.0273618,0.0890669,-0.0798765,-0.0274279,-0.0500406,-0.029771,-0.00677087,-0.0896154,-0.0373348,-0.0524479,0.0423484,-0.0152055,0.0413513,-0.0709068,-0.0338062,-0.0275384,-0.0190794,-0.0258128,-0.0430669,0.0640446,-0.0299989,0.139953,-0.359643,-0.205606,-0.00910356,0.120367,0.0636756,0.146595,0.230146,-0.0673375,-0.250938,0.118961,0.0231371,0.206244,0.211962,-0.191034,-0.109123,-0.00253565,-0.111009,0.0127237,0.0341264,0.0222344,0.0338089,-0.113042,-0.0127306,-0.0982524,0.01978,-0.07514,-0.0741026,0.15269,-0.0385351,-0.0476617,0.0784903,0.145723,0.0387353,-0.0321952,0.046325,0.0993416,-0.00084725,0.0792206,-0.0168114,-0.0227619,0.0853484,0.111817,-0.00498977,-0.0617526,0.0900188,0.00745629,0.0715947,-0.00939963,-0.0229027,-0.0421756,-0.0562456,0.0693468,0.0296721,-0.03352,-0.00113584,-0.00149447,-0.0700203,0.00683428,0.0982236,-0.0481187,0.0769128,0.0393201,-0.0682235,0.0138356,-0.0455052,0.0285055,-0.067703,0.020257,0.065827,-0.0200061,0.0520252,-0.0521159,-0.0353919,0.0931967,-0.0281752,0.0981045,0.118724,-0.102765,-0.0558565,0.0556115,-0.130362,0.141432,0.0374582,-0.035584,-0.0203273,-0.0596252,0.0022193,-0.0533339,-0.00424355,-0.043125,-0.0610941,-0.0194,-0.0168537,0.00785333,0.0353274,0.0414145,-0.0202359,0.0875805,-0.0163629,0.0261301,0.0639386,0.0696016,-0.0356711,0.106239,-0.00329013,0.0324356,0.070745,0.0155855,0.00950651,0.0453707,0.0651159,0.0299187,-0.036523,-0.019948,-0.00381369,0.0241477,-0.0252888,-0.0667808,-0.052663,-0.0103559,0.097954,0.0735924,-0.113439,0.00350253,0.0053749,0.0221829,0.00560738},
