#include <stdio.h>
#include <stdlib.h>
#include <math.h>
#include <iostream>
#include <vector>

using namespace std;

class Network {
  /* --- Members --- */
  private:
    int n_layers;
    vector<int> sizes;
    vector< vector<double> > biases;
    vector< vector< vector<double> > > weights;

  public:

  /* --- Methods --- */

  ~Network() {};

  Network() {
    n_layers = 3;
    int hard_sizes[] = {392, 45, 1393};
    sizes.assign(hard_sizes, hard_sizes+n_layers);

    // Initialize the biases and weights all to 0.0 to start
    int i_layer, j_node, k;
    for (i_layer = 0; i_layer < n_layers-1; i_layer++) {
      vector<double> node_biases;
      vector< vector<double> > node_weights;
      for (j_node = 0; j_node < sizes[i_layer+1]; j_node++) {
        node_biases.push_back(0.0);
        vector<double> k_weights;
        for (k = 0; k < sizes[i_layer]; k++) {
          k_weights.push_back(0.0);
        }
        node_weights.push_back(k_weights);
      }
      biases.push_back(node_biases);
      weights.push_back(node_weights);
    }
  }

  void set_layer_biases(int i_layer, double* b) {
    biases[i_layer].assign(b, b+sizes[i_layer]);
  }

  void set_layer_node_weights(int i_layer, int j_node, int size, double* w) {
    weights[i_layer][j_node].assign(w, w+size);
  }

  /*
   *  Feed forward computation for neural network
   */
  vector<double> feedforward(vector<double> input) {
    vector<double> a = input;
    for (int i_layer = 0; i_layer < sizes.size()-1; i_layer++) {
        vector<double> b;
        vector< vector<double> > layer_weights = weights[i_layer];
        vector<double> layer_biases = biases[i_layer];
        for (int j_node = 0; j_node < sizes[i_layer+1]; j_node++) {
            double node_bias = layer_biases[j_node];
            vector<double> node_weights = layer_weights[j_node];
            double dot = 0.0;
            for (int k = 0; k < node_weights.size(); k++) {
                dot += node_weights[k] * a[k];
            }
            double z = dot + node_bias;
            double sig = 1.0/(1.0 + exp(-z));
            b.push_back(sig);
        }
        a = b;
     }
     return a;
  }

  /*
   * Static functions to get networks
   */
  static Network getNetwork(int n) {
    switch (n) {
      case 0:
        return getNetwork0();
      default:
        return getNetwork0();
    }
  }

    static Network getNetwork0() {
      Network network;
      double layer0_biases[] = {3.74571,2.64942,-14.3348,3.05225,2.83729,4.318,-13.0707,4.04294,0.832238,-17.9809,3.9756,4.03355,-11.5366,3.57657,3.23699,3.46832,-6.83959,3.69026,3.54877,4.10821,3.25695,3.57559,2.96581,-6.93032,-8.27747,2.9214,3.23336,3.6445,-12.7265,-14.7571,3.34321,-10.2725,4.17176,2.8067,3.89246,1.46416,4.14222,3.51381,3.70138,3.37831,0.159574,4.01636,-21.1527,3.74301,-11.6126};
      double layer1_biases[] = {0.508374,0.78375,2.27589,0.821861,0.261919,-0.0100689,-0.195086,0.693871,-1.09882,-1.99811,1.1268,0.335724,-1.02842,-0.217485,0.8472,1.13643,-0.118204,-1.10663,-1.78177,-0.999113,0.958438,0.415966,-2.06016,-0.365448,-0.116784,-0.955846,-3.08856,0.400571,-1.75257,1.29487,-0.00879011,-0.147348,0.925667,-0.492446,-0.959093,-0.90417,-0.976126,0.289901,-1.56804,-0.689809,-2.98265,-1.18668,-2.02713,-1.30765,-0.341844,0.481175,-2.20701,-1.2578,-0.0456027,-1.27329,0.683375,0.191729,-1.20725,-0.741465,-0.537577,-1.20651,-0.394173,-0.571465,-0.0956533,-2.11875,-0.039332,1.23016,0.603152,-1.09796,-0.61115,-0.354749,-0.436742,-0.937504,0.658907,-1.43695,-2.05335,0.506364,0.299206,0.247499,-1.13192,-0.291929,0.575971,-0.271943,0.901672,1.33799,-0.855962,-0.629216,-0.0709889,0.619549,0.103941,0.933542,-0.0487713,-1.14985,-0.442097,-0.107712,0.613007,0.15673,-1.40773,0.0183652,-1.08292,-1.04767,-1.43132,-1.74618,-1.24054,-1.39007,0.675278,-0.48015,-0.692624,0.193211,1.21141,-0.993698,-1.76722,-0.456863,-0.872229,0.0870441,1.00501,-1.92196,-1.25187,-0.789212,0.224194,0.556826,0.284209,0.338042,-0.205838,-0.727187,-0.881405,0.195638,-0.521614,-0.810117,-1.39033,0.875891,-0.284636,-0.481476,0.484688,-0.590715,-0.155499,-0.76663,-0.0309415,-1.17995,-0.972394,-0.330935,-0.38251,-1.28586,-1.25514,-0.42319,1.09626,0.264676,-0.127388,-1.21765,-1.50666,0.0199485,-1.86632,-1.14548,-1.03747,-0.0898769,-0.885147,-0.169535,-0.487767,-0.386902,-1.36754,-2.28358,-1.5089,-2.18375,0.347435,-2.18713,-0.947423,-0.897368,-0.181606,1.37765,0.117585,1.08998,0.841879,-0.977198,-4.22184,-0.196326,0.847686,-1.20552,-3.1464,-0.550344,-1.73941,-1.49598,-0.136527,0.115846,-1.97709,0.0519493,-1.12264,-1.63516,0.135041,0.224337,1.85348,0.025102,1.18556,-1.05804,-0.122611,-1.2545,0.623501,0.781376,-0.344776,-2.28207,-0.765915,-0.326591,0.234709,-0.669866,-2.7092,0.431915,0.280688,-1.85748,0.781384,-0.443376,1.34778,0.542138,-0.170842,0.182073,-1.28081,-0.0608868,0.271853,-0.557704,-0.951333,1.41877,-0.327164,-1.50179,-0.337879,-0.344744,-0.498132,-2.09957,0.7355,0.734218,-1.52047,-1.72822,0.00207797,-0.0505953,-0.949748,-0.681536,-2.43647,0.126286,-0.352345,0.441869,1.21725,-1.72427,1.26549,0.189245,-0.575189,-1.73135,-1.82416,1.11243,-1.43399,0.468913,-0.608824,-0.764807,-0.4498,-0.414309,-1.02215,-0.213469,-2.61151,-1.68706,0.727895,-1.48729,-1.61839,-1.93437,0.955187,0.314335,-0.324801,-0.435692,1.34499,-1.14681,-1.45289,-1.01013,-1.21047,0.551861,0.495342,0.258527,-0.175322,-1.88604,0.66797,-0.454056,0.200388,-0.128349,-0.0363018,-0.696061,-1.0679,0.53122,-0.46837,0.525332,-1.28164,-1.07439,-0.240141,-0.982221,-0.546113,-0.0601773,-2.3381,-1.03968,-2.07947,-1.07918,0.0948702,-1.06344,-0.528083,-0.529188,-2.09939,-0.968325,0.411139,0.205622,0.359167,-0.671233,-1.2697,1.28059,-0.675533,-0.242009,-1.1827,-0.404462,0.318402,-1.27691,-0.748561,-0.300624,-1.92728,0.783206,-0.349335,-2.37636,-1.27978,-1.05682,-0.904176,-0.551079,-0.332114,-1.23576,-2.36999,0.262276,-1.82655,-1.31496,1.09673,-1.4914,-1.65936,0.633033,-0.974516,-1.00769,0.966985,-0.446494,-1.01472,0.270949,-0.666588,1.46009,0.0718401,-0.43458,-0.99962,0.220841,-0.187205,-0.132925,0.514484,0.214315,-0.749475,1.48176,-2.05574,-0.128818,-0.695814,0.282694,1.13782,1.81284,-0.588226,-2.06131,-1.70613,0.520134,-0.452878,-0.302329,-0.922171,-1.1924,0.117812,-2.72437,-0.720901,0.1952,-0.990565,-1.16117,-0.287766,-0.844322,-1.09985,-0.685536,-0.363524,-0.902587,-1.16347,1.37952,-0.204413,-0.429731,-0.378241,-0.138872,-0.0680042,0.187613,-1.67874,0.205937,0.507794,0.23865,-0.258531,0.729413,-0.930292,-0.0399855,0.173463,-0.723078,0.607835,-0.46809,0.774714,-0.199355,-1.15167,-0.498434,-1.33427,-0.241367,-0.853889,-1.87004,-0.358003,1.05018,-0.0869401,-0.311572,-1.16955,-0.0183993,-1.73165,0.567128,-2.10965,0.960657,0.58106,-1.04454,-2.28637,-0.647383,1.00372,-1.09903,0.769391,-0.632347,-0.548035,-1.42128,0.0741597,-1.15776,0.656408,-2.15795,-0.669339,-0.25811,-1.82995,-1.26679,-1.058,0.0204018,-0.20285,-1.43654,-2.68951,0.170309,-2.17359,-0.767218,-0.53217,-0.874826,0.193351,0.0642231,-0.249415,-0.675381,1.26465,1.17449,0.132045,-0.675457,0.934463,0.228514,-1.83959,-0.922217,-1.53311,-0.259171,-0.197918,-0.737181,-1.84509,0.14738,0.985771,-2.73367,-2.12402,-0.0171307,-0.0126008,-2.07601,-0.916727,-0.292327,3.04139,1.44771,-1.28445,-0.312174,0.351533,0.305209,-1.10482,-0.0127469,0.167727,0.183049,-0.359909,-1.36335,-0.086999,-0.404332,-0.943304,-1.748,-0.392833,-0.462153,1.46761,0.253705,-1.21603,-1.26011,-0.57101,-0.601222,-0.7706,-1.57713,0.427546,-0.540544,-2.11689,0.134673,1.04728,0.20212,-2.38137,0.289915,-0.562449,-1.42896,0.640083,-0.328264,0.53109,0.766685,0.237566,-0.668626,0.422184,-1.56958,-1.42924,0.497762,0.771527,0.51034,-0.124676,-0.32766,-1.61869,-1.2993,-0.754673,-0.927581,-0.539855,0.349615,-0.505902,-0.274016,-1.74349,-0.601076,-0.599522,-0.142355,-0.780559,0.175185,1.20969,-0.932206,0.87669,-0.150433,-1.01378,0.201907,-0.0223736,-1.5719,-0.899677,-0.950036,-1.57219,-0.22123,-0.787665,-2.22368,-1.19188,-1.13916,-1.95597,-0.0847562,0.0075015,-0.686514,-0.378661,-1.89687,0.813281,-0.890953,-0.11816,-0.0771651,0.163715,-0.75246,-1.53183,-0.863457,-1.31665,0.489571,-2.45751,-0.0516085,0.0420303,0.425265,1.23781,0.337263,-1.43358,-1.06716,0.086344,-0.901634,-1.21258,0.86653,-0.636071,-1.97549,-0.186782,-1.52083,-0.677288,-2.21474,-0.945841,-0.217409,-0.0763836,0.463958,-1.05034,0.21734,-0.271929,-0.0748914,-1.28009,0.837806,-0.913937,-0.996823,-0.604764,-1.51994,1.03087,-2.43732,0.688572,-1.30298,-1.21814,-0.383775,0.195117,-1.53341,-0.640336,0.203134,1.33019,-0.152376,-0.554655,-0.695479,0.739154,-1.15791,-1.72275,-1.2421,0.459971,-1.60559,0.217482,-0.0907543,-2.07548,-0.37775,-1.91105,1.07503,-0.220884,-0.297196,-1.46611,-0.831856,-1.18236,-1.27928,-0.422285,-1.01735,0.00231594,0.256124,0.0204854,0.647428,-2.51806,-0.0480269,-0.330602,-2.60621,-0.714174,0.382846,0.925983,0.667446,-0.375743,0.068052,0.0956433,0.785044,-0.601744,-0.980654,-0.624945,0.88427,-1.21546,-0.114848,-0.11756,-0.59556,0.31294,-0.90834,0.477683,1.50833,-1.26954,-0.673906,-0.443347,-2.54766,-0.763803,-0.0285677,-1.35014,-0.928561,-0.914779,-1.12882,-1.73074,-1.05816,0.612376,-0.494053,0.111757,-1.26103,0.25619,1.47073,-0.255861,-0.568078,-0.00568003,0.172822,-0.737169,-1.25254,-1.95318,-0.993177,-0.154532,-0.456679,-1.26682,0.753843,0.593674,-0.828358,0.870684,0.472193,-0.172903,-1.71228,-0.131952,-0.48601,0.957168,-0.722568,-0.98183,-0.76761,-2.39379,0.306838,0.600595,-1.64541,0.28493,-0.375789,-1.65987,-0.974466,0.262126,-1.71565,0.102481,-0.114497,0.0384291,-2.07486,-0.115556,0.306036,-0.480144,-0.1596,-0.526923,-1.27186,-1.46689,0.0731696,-0.285596,0.744023,0.932838,-0.845515,-0.114896,-2.17955,-0.109416,-2.14573,-0.477843,-0.495052,-0.200594,-0.507439,-0.565801,-0.0757413,-0.0829836,-0.722509,-0.406459,1.30931,-1.95618,-1.70894,0.210528,-0.406053,-1.21395,0.530774,-1.22732,-0.392838,0.0111347,-0.714146,-1.69829,-1.21016,1.26213,0.495225,-0.647345,0.87848,1.56969,-0.233878,-1.75917,-1.35517,0.917201,-0.300953,-0.901866,-0.556765,-0.803078,-1.28527,0.113448,-0.582696,-0.312219,-0.742676,0.396565,-1.31788,-2.14926,-1.29953,-1.7099,-1.34963,-0.8463,0.249828,-0.686565,-1.39714,1.21092,-0.680735,0.952162,-0.930365,0.712116,-0.754599,0.130706,-0.0795653,-0.513321,0.304192,-0.0866572,0.905799,-0.554955,-1.25045,-0.928798,-1.34244,0.345432,-0.361197,-0.584656,-1.01698,-1.95542,-0.385012,-1.78279,-0.920255,-2.63405,0.472708,-1.27727,-0.782096,1.17844,-0.348832,1.18017,-0.594191,-1.15807,-2.6647,0.0887231,-1.67799,0.0172416,-1.12619,0.23027,-1.17231,-0.859754,0.458258,-0.52757,0.720116,-0.467259,-1.71551,0.884458,0.27933,-1.06342,-0.657652,-0.413231,0.971416,-0.105068,-0.745568,-1.15431,-0.742331,0.023478,0.457427,0.216497,-1.19357,-0.789328,-0.744818,0.275194,-0.173129,-0.654692,-0.651928,1.07569,-1.20359,-1.09096,-0.965472,-0.79139,-0.0353715,-0.29783,-2.66671,-2.43187,0.644734,-2.57924,0.115334,0.783473,-0.827279,-0.14326,1.15023,0.701513,0.581847,-0.130625,-0.68875,-0.79141,0.232662,-1.24389,-1.38525,-0.882715,-1.5801,-1.49531,0.330712,-1.0102,-1.1387,0.948542,0.71663,0.209044,-0.173044,1.15444,-0.448991,-1.47752,0.3196,-0.0220547,-0.107602,0.269838,-0.378955,-0.742731,-1.72346,1.03542,-1.05381,0.0408208,-0.502527,0.569253,-1.87807,-2.17914,-1.364,-1.01379,-1.19838,-0.850566,-0.782093,0.326097,0.144297,0.867591,-0.619488,0.426245,-0.922813,-0.663821,1.25474,-0.613742,-0.664023,-0.262124,-0.348696,0.0774065,-1.60974,0.402713,0.107185,-1.32383,1.09099,0.300188,-0.571751,-2.06347,-1.35223,-1.6476,0.265503,-1.33139,-2.30223,-2.17488,-0.875725,-1.42215,-1.30298,0.662533,-1.77727,-1.74504,0.0807318,-1.68559,-0.838392,-1.09636,-0.480544,-1.21032,0.465813,-0.22398,-0.762521,-1.75857,-0.626574,0.535211,2.37518,0.302964,-0.466361,0.448954,-0.0154976,0.912356,0.181896,0.461508,-0.561083,0.375232,-1.06797,-0.996294,-0.373975,-0.0707003,0.416614,-0.892689,-1.7149,-1.05948,-0.214291,-1.02625,0.448774,-1.29894,-0.415814,-1.81322,0.0971105,0.11181,0.264955,-1.14386,-1.1955,-1.80531,-0.21046,-0.862162,-0.446748,-0.820736,-0.767772,0.801949,-0.447359,-1.67318,0.252989,-1.28296,-1.03173,0.509304,0.529459,-1.96428,-0.940188,0.305314,-1.07266,-0.530205,-0.284925,-1.17483,-1.28959,-1.39682,-1.53414,-1.79562,0.15114,0.328479,-1.46747,-0.951247,-0.687583,-0.722622,-1.1193,-1.90964,-1.53411,0.199575,-1.09272,-0.425447,-1.64141,-0.150299,-1.15381,-0.0768676,-1.83589,0.214387,0.455133,1.14462,-0.53983,-0.188626,-1.27984,-0.0943173,0.0349418,-0.429588,0.575024,-1.39812,-1.65771,-0.901551,-0.336629,-0.983921,0.527662,0.795266,-1.63425,-0.424766,-1.41163,0.440842,-0.237831,-1.16106,-0.565994,-2.35216,-0.106666,0.377475,0.230358,-0.270528,-1.05566,0.387146,-0.776226,0.258184,-0.161022,-0.227975,0.510457,0.629216,0.205069,-2.79264,-2.35429,-0.45819,-1.01851,0.449811,-1.06177,-0.508054,-1.6731,1.83769,-0.52056,0.61784,0.885226,1.87597,0.295704,1.6302,-0.708836,-0.114204,1.23152,1.09659,-0.512399,0.535364,-0.277766,-0.83745,-1.33149,-2.54546,-0.92174,-0.941837,-0.356399,0.0944966,-1.48694,-0.0731317,-0.331591,-1.91852,-2.4301,-1.32982,0.809983,-0.468665,0.361179,-0.538876,-0.539993,-0.907833,-1.15502,1.25315,-0.275235,-3.39593,-1.10627,-0.945323,-0.0361725,0.424473,-0.481856,-3.32531,-1.13859,-1.55302,-1.31544,-0.608719,0.727941,-0.426483,-0.781401,-1.00367,-0.485222,-0.536177,-0.00490038,-0.63088,-2.54729,-0.958062,-0.955676,0.216183,-1.15048,0.936981,0.75607,-0.888349,-1.51796,-1.04691,1.7336,-1.03339,-1.25426,-0.25372,-0.438733,1.61872,-0.311582,-1.21406,1.02011,-0.257502,-0.665778,-1.48151,0.119534,-1.52255,0.113465,0.715736,-1.3818,0.214874,-1.54561,0.109684,-0.647251,-0.679033,0.377854,-0.128902,0.00683491,2.55259,-0.86644,0.0950287,1.52758,-0.0498057,-0.506632,0.626632,-1.8145,-2.7238,0.579061,-2.27347,-1.81943,1.01541,-0.744054,0.352426,0.786605,-0.650357,0.256217,-0.521961,-0.622939,-0.0730791,0.10375,-0.0678581,-0.439097,-0.264643,0.909027,-0.30743,-2.50278,-0.068341,-1.09454,0.261763,0.537183,-0.810756,1.60238,-0.766143,-1.32317,-0.451271,0.980475,-0.147156,1.60979,0.133294,0.558976,-0.733649,-0.858086,-1.27766,-1.62001,0.258309,-0.40335,0.674926,-1.14186,-0.0709686,-0.36391,1.44155,-0.206821,-1.4118,-1.31472,-0.573379,-0.280331,-0.141278,-0.359609,0.000579517,0.548876,-1.31361,0.247775,0.485359,-1.17103,-1.77159,-0.528637,0.262336,-1.32056,-1.14898,-2.35622,-1.68718,0.167882,-0.542888,0.0395196,0.179782,0.753658,-0.144563,-0.987297,-0.429268,0.7083,-0.879506,-0.520669,-0.333755,0.670573,-1.5497,0.378346,-1.15438,0.623495,-1.7424,1.15744,-0.737289,-2.37196,0.542394,0.658147,0.965128,-1.43452,-1.76141,-1.56344,-0.1075,-2.1804,0.639654,-0.19423,-0.224299,0.377355,0.559401,-1.64296,-0.608251,0.38559,0.0528766,-2.17893,-0.691821,-1.04123,-0.369394,-0.786603,-1.05604,-1.17794,0.570306,-0.41847,-1.20199,0.0069558,-0.613784,-1.63625,-0.458848,-0.235208,-0.415258,-0.103868,-0.358249,-1.20941,-0.183734,-1.02304,0.544676,0.214644,-1.6897,-1.57159,-1.83867,0.417992,-1.38476,-1.44831,-0.534384,-0.792649,-1.12762,-1.57862,0.73103,-0.5984,0.0222228,0.0614603,-1.98673,0.53196,-0.737649,-0.84253,-0.408208,-0.289606,0.639456,0.0487407,-1.65355,-1.95469,0.872557,0.123839,-0.122181,-1.56496,0.311208,-0.235176,-1.65245,-0.393333,-1.03172,-0.439982,-0.0856163,-1.642,0.543191,-1.2054,0.232362,0.420023,-0.0762455,-1.43691,-0.607221,-0.410402,-1.01657,0.0463011,-1.12738,-0.911457,-1.36405,-0.0512063,0.912886,-0.115802,-0.269344,-0.0611292,-0.352791,-0.158844,-0.883722,-0.475336,0.42275,-0.815096,-2.92312,-1.13745,0.23859,-1.51979,-2.26562,0.599768,-0.863599,0.283882,-0.196347,-0.0441365,0.609521,-1.48562,-1.43606,-1.10259,-0.194456,-2.30454,-0.206073,2.42761,-0.460341,-1.65666,-1.13766,-0.464429,0.205421,-0.239515,-0.681394,-0.796806,0.0507626,-0.783488,-0.745105,0.688144,0.158185,-1.92138,-0.84692,0.147605,-1.52945,0.250692,-0.811072,0.223236,-0.534681,-0.320423,0.602821,-1.6847,-2.19196,-0.879648,0.0975397,-0.560727,0.419671,0.103248,-1.31543,0.113011,-1.84744};
      network.set_layer_biases(0, layer0_biases);
      network.set_layer_biases(1, layer1_biases);
      double layer0_weights[][392] = {
        {0.209088,0.0515443,0.759128,-0.00284786,0.640818,-0.103291,0.632266,-0.00414195,0.692808,0.580464,0.37369,0.304665,0.354548,0.230297,0.261357,0.255457,0.155725,0.153259,0.109084,0.127185,0.0965222,0.118246,0.175674,0.10466,0.0345166,0.146644,0.106174,0.160992,0.126408,0.00179972,0.127223,-0.0385809,0.0508305,0.0606713,0.0217434,0.0649117,0.0177836,0.111069,-0.0113347,0.050797,0.107413,0.0048662,0.0112374,0.102066,0.002118,-0.00948605,-0.0675574,0.0351559,0.0151281,0.0351984,-0.0212468,0.0571359,0.0229563,-0.0323238,-0.00524022,-0.0514168,-0.0832621,0.00213267,-0.037564,-0.0328571,0.0802663,0.00664864,0.0327766,0.0699373,0.078889,-0.0270101,0.00965106,-0.0654628,-0.0374799,-0.00167612,0.0764136,0.0014567,-0.0537395,0.0619311,-0.000617178,-0.0105605,0.0553197,0.132197,0.0890794,0.0543865,0.0896642,0.0818396,0.0428371,0.0872451,0.0093163,0.0762225,0.0505803,0.040418,0.0315215,-0.041015,0.0519892,0.0441403,0.0825851,0.0459531,0.065502,0.00593289,0.0472381,0.0285671,0.0661697,0.0348624,0.0941018,0.00087237,0.0660822,0.15346,-0.0113629,0.0551181,0.0308477,0.0914081,0.00333942,0.0324595,-0.016691,0.0778189,-0.0148358,-0.051306,-0.0153544,0.100958,-0.0693044,0.0254562,-0.0311124,0.0188667,0.0181103,0.0416581,0.0370673,-0.0294837,0.104861,0.0403616,-0.0582061,0.00412577,-0.0608382,0.0742467,0.079272,0.0177556,0.0620545,-0.0248603,0.0488268,0.0273495,0.527745,0.474133,0.336676,0.399109,0.206836,0.253729,0.15688,0.258232,0.324362,0.174226,0.126984,0.106027,0.217441,0.0894385,0.0761722,0.129406,0.172173,0.16773,0.0760881,0.146021,0.0389959,0.0448751,0.0783595,0.00596331,0.139088,0.109148,0.0932201,0.112497,-0.00660498,0.0287299,0.107066,0.0850112,-0.00920115,0.0829624,0.0825188,0.0533906,0.104725,0.00174617,0.149895,0.149997,0.00800043,0.0312761,0.0162905,-0.0435736,0.0140627,-0.0281432,0.053361,-0.0824312,0.0120438,0.0339102,0.091071,0.0876281,0.0534718,-0.0263808,0.00815952,0.0455338,-0.0271445,-0.0290087,-0.0845979,0.102322,0.0354725,0.107131,0.0142977,0.0147232,0.0625995,0.0507674,0.0404011,0.0951976,0.157834,0.0384369,-0.0153428,0.0810078,0.100034,0.0175822,0.0671108,0.0403307,0.091268,0.179103,0.0512327,0.0279063,0.142811,0.0910269,0.0826048,0.200493,0.00329837,0.179287,0.0644374,0.0562203,0.0709037,0.0221081,0.047398,0.0686636,0.080847,0.0843908,0.0849436,0.0161629,0.019134,0.00901661,0.0321358,-0.00738122,0.0870809,-0.00285711,0.0355006,0.0161555,-0.00127083,-0.0138965,0.00545264,0.0043248,0.0268068,0.0376868,0.0882169,0.027287,0.0147943,0.124844,0.10696,0.00866593,0.0504886,0.0177644,-0.0124805,0.05157,0.0641521,-0.00523945,-0.0230662,0.058004,-0.0388592,0.0127189,-0.00551602,-0.0832963,0.335697,0.393241,0.298405,0.293342,0.232675,0.168293,0.196395,0.171342,0.0804874,0.0633756,0.00333026,0.0258665,0.124283,0.0933413,0.0809264,0.0581544,0.110571,0.175925,0.0373981,-0.00933151,0.104451,-0.00920171,0.0906115,0.0139769,0.0278561,0.105671,0.00971742,0.0162634,0.0401922,-0.00727374,0.0172139,0.0852542,0.019596,0.0563984,0.0421785,0.123367,0.0027557,0.0503542,0.0785983,-0.0196711,-0.0120625,0.0659622,0.00222037,-0.0856897,0.0737082,0.0592611,0.00424654,-0.00342675,0.0505144,0.110462,0.11316,0.030586,0.157647,-0.119897,-0.0856999,-0.0149139,0.0557346,0.00537556,0.0202643,0.0485346,-0.0225207,0.0370086,-5.03885e-05,0.00384331,0.000348118,0.0609329,-0.0330328,0.007503,0.0558665,0.0640414,0.107661,0.00680489,0.0448283,0.00350723,0.0887308,0.0419677,0.0988128,-0.0437561,0.165363,0.0749437,0.055788,0.151987,0.120879,0.0216397,-0.0440976,0.023591,0.0141515,0.110394,0.0709478,0.104168,0.0979577,0.051995,-0.018699,0.0456585,0.0301767,0.0559112,-0.0909151,0.0406728,0.084025,0.0721031,0.0228691,0.0659043,0.0904931,-0.00314098,0.0732696,0.0701423,0.0512108,0.0396866,-0.015014,-0.000533032,0.0999071,0.00666738,0.0468717,-0.005969,-0.0209054,0.0150112,0.0202895,-0.0471627,0.0591267,-0.00232431,-0.0512894,-0.0426653,0.0382442,0.0717703,0.0618116,0.00960477,0.0229556,0.00764684},
        {0.29082,0.00281276,0.947478,0.0568406,0.730522,-0.0492023,0.710408,-0.0635007,0.46361,0.473243,0.348958,0.313969,0.207073,0.271376,0.251535,0.163478,0.0876637,0.153489,0.0511352,0.0503467,0.161514,0.138637,-0.0242721,0.0398968,0.111734,0.088015,0.0916545,0.00581382,0.123592,-0.0322892,-0.011441,0.069006,0.126456,0.0452755,0.08562,0.050443,0.0165183,0.00330677,-0.0212971,0.0508539,-0.0141692,-0.00748719,0.0232621,0.0614424,-0.00279418,0.0179282,0.00531302,0.0145179,0.0116289,-9.77927e-05,0.124428,-0.0560687,-0.0741996,0.0281755,-0.0159685,0.0301269,0.0615464,0.0781229,0.0398146,0.0771891,0.0923712,-0.0710365,0.00469066,0.00103528,-0.00464407,0.0820522,-0.0819901,-0.081686,-0.00255696,0.0937511,-0.0013314,0.0500441,-0.0284568,-0.0370544,0.0792884,0.0794109,0.122738,-0.00106819,0.00207451,-0.058036,-0.019027,0.1284,-0.00749753,0.156066,0.0595911,0.0331804,0.0972871,0.0493782,0.0523353,0.0730608,0.060459,0.00621434,0.0954716,0.000439165,-0.0190214,0.109583,0.0125274,0.119904,0.0227394,0.0386063,0.0647814,0.0212414,0.0393986,0.0128566,0.0411085,0.0660913,-0.0588992,0.0516982,0.033318,0.0149875,-0.0378018,0.0332189,-0.033817,0.100627,-0.0161064,-0.00990273,0.143748,-0.0259091,-0.00788901,0.0742941,0.0758215,-0.0209062,0.0182895,0.040017,-0.0473269,-0.0676738,0.0248769,-0.0177016,0.0466251,-0.0486729,0.0438987,-0.00379148,0.102565,-0.00773426,0.0626234,0.0183948,0.569284,0.424188,0.445822,0.407606,0.370472,0.234333,0.264947,0.261245,0.164057,0.168386,0.175762,0.229237,0.196287,0.121666,0.127735,0.13695,0.106483,0.0474306,0.0695406,0.0350923,0.134002,0.071813,0.065357,0.0842151,0.14715,0.0219037,0.103847,0.0546162,0.0817718,0.0177928,-0.0564451,0.0224719,0.107714,-0.0204863,0.107571,0.0485535,0.0214366,0.0137302,0.0989604,-0.0123231,-0.0806864,-0.00446139,0.121105,-0.0298864,0.0190408,0.0498714,0.145604,-0.0913416,0.0303716,-0.00490132,0.0251883,-0.0052348,-0.00339822,-0.0018889,0.0933837,-0.0193076,0.0324887,0.054482,0.099355,0.0842132,-0.0331266,0.0586456,0.0359698,0.0283046,0.00441117,0.080573,0.0664124,0.101777,0.0575096,0.124649,0.0411681,0.0746237,0.0637912,0.102337,0.112676,0.185972,0.257496,0.158806,0.0581428,0.0419321,0.0612111,0.0952954,0.189099,0.0908518,0.0625266,0.0453577,0.156116,0.0208353,0.0267296,0.0722989,0.0303955,-0.0106784,0.0680375,0.0437982,0.164998,0.0858112,0.111073,0.0531436,0.0875736,0.0267196,0.0279997,0.0324938,0.122569,-0.00204772,-0.00839925,-0.036844,0.00891452,-0.0139183,-0.0121454,0.0324446,0.039408,0.0763573,0.0364143,-0.0298077,-0.0192629,0.0122882,0.0406566,-0.0289081,0.00476254,0.0537946,-0.00454129,0.0529949,-0.0338458,-0.00680494,-0.0592574,0.00868121,0.042416,0.0168584,0.234156,0.272503,0.262155,0.241934,0.169831,0.235517,0.262684,0.152051,0.152697,0.201406,0.0768381,0.238856,0.0105385,0.0488844,0.0766961,0.0810551,0.187847,0.115384,0.0573719,0.123447,0.0902415,0.123385,0.129551,-0.0358567,0.010184,0.0761139,0.0186705,0.0785402,-0.00555015,-0.130766,0.0407791,0.0669897,-0.0220731,-0.0775272,-0.0699059,0.030148,0.0721645,0.0250596,-0.00304317,-0.0212875,-0.031753,0.0360498,-0.0317881,0.0247626,-0.0941143,0.0241812,0.0141052,-0.034604,0.040745,-0.00975824,-0.0465545,-0.00683894,-0.00993812,-0.00112874,0.0766197,-0.00991476,0.0975323,0.0199858,0.0416246,0.08039,0.0351181,-0.0509336,0.0180129,-0.0828742,-0.0505911,0.048089,0.0517718,0.0860637,-0.00769943,0.0737638,0.0865885,0.0111481,0.0085537,0.0740687,0.137531,0.0585612,0.0475161,0.161405,0.0342203,0.0476638,0.0033942,0.0252091,0.0490307,0.0579187,0.0904286,0.0893052,0.125578,0.1288,-0.01756,0.0488446,0.0190476,-0.025248,-0.0339418,0.0150247,0.0396473,-0.0782412,-0.0608083,0.0090193,0.0657033,-0.00471295,0.0377475,0.0364669,-0.034976,0.0736429,0.100645,0.00161697,-0.0373317,-0.0328609,0.0225569,0.0288452,-0.0762299,-0.0168492,-0.0465062,-0.0384164,-0.0135897,-0.0796854,0.0385735,0.00331336,0.0792049,-0.0430704,0.0609878,0.0375214,-0.017499,-0.0374746,0.0607004,0.0149926,-0.0810106,-0.047048},
        {-1.04847,-5.50292,-6.74579,-0.0748313,-6.62704,-0.0086716,-6.72439,-0.0358364,-2.66096,0.767672,-5.66071,-4.05637,2.18949,-0.279008,-1.66777,4.09123,2.20255,0.11775,6.52588,2.16593,-0.0305486,-1.13891,-2.51738,-2.0478,-4.31659,1.53395,1.33914,0.83424,0.326261,1.08847,1.3823,-1.26066,-0.245339,1.25708,0.61292,1.17074,1.10129,0.720585,-0.293844,0.287748,-0.704437,0.331405,0.841617,0.710817,0.371552,0.153626,-0.289051,0.0525914,0.257891,0.296926,0.135982,0.649616,0.244767,0.454483,1.17211,1.46491,0.273457,0.715124,0.200587,0.10979,0.2962,0.37689,0.0693491,0.32118,0.578989,0.389643,0.234071,0.293516,0.303588,0.433913,0.409889,0.406553,-0.302193,0.344869,-0.576613,-0.976006,0.695442,-0.0600588,-0.686315,1.50808,1.13304,0.193808,3.24931,1.15639,0.0752328,-0.723737,-1.68618,-1.42715,-3.01303,1.28682,1.12418,0.769332,0.23401,0.992369,1.29147,-1.23627,-0.162609,1.22819,0.569817,1.09212,1.02557,0.635701,-0.476641,0.108438,-0.622881,0.187845,0.988814,0.537131,0.275018,0.0286,-0.162589,-0.20441,0.129462,0.172415,-0.0226932,0.302456,0.102931,0.225619,0.752927,0.899116,0.045402,0.264934,0.0578661,-0.217952,-0.010871,-0.113049,-0.231718,-0.159036,-0.211186,-0.180184,-0.283151,-0.336415,-0.370312,-0.471359,-0.428113,-0.562992,-0.66403,2.0362,-4.32164,-0.972433,4.448,-3.39992,1.8678,2.91513,2.05221,-3.15371,1.93244,0.383335,-0.608907,-1.16089,0.444994,2.05783,1.56773,2.82173,1.50775,1.73962,2.37416,0.343683,0.042295,0.876124,1.86131,1.73708,-0.854387,-0.500979,0.0940718,-0.00102122,0.697109,0.540642,0.983999,0.244076,-0.618002,0.319363,0.512091,0.442291,0.114638,0.311208,0.20116,0.164007,0.47686,0.00442018,0.00275765,0.355887,0.841209,0.600238,0.691316,0.729476,0.845462,0.845118,0.936557,0.67636,0.80783,0.833229,0.68774,0.730383,0.902006,1.16128,1.59846,2.28032,2.76694,4.00079,-0.343746,-0.0983456,-0.491977,0.015245,0.958076,-0.888101,0.644015,1.19722,0.92702,-1.06882,0.965829,0.170768,-0.289727,-0.61803,0.212414,1.54159,1.23477,2.2763,1.33918,1.46859,2.15568,0.340662,0.0640987,0.76781,1.75682,1.76416,-0.7728,-0.498103,0.183365,0.155645,0.842995,0.789588,0.990655,0.438944,-0.581827,0.391269,0.633981,0.471729,0.182326,0.352292,0.130271,0.256372,0.482364,0.164378,0.0182332,0.293698,0.776285,0.529202,0.642986,0.437308,0.520631,0.485454,0.524808,0.220971,0.373836,0.263499,0.0694176,0.177217,0.0716172,0.143917,0.0269949,0.0538688,-0.0789009,-0.111734,-1.24859,1.36825,-3.20652,10.2488,2.61513,-0.927999,5.03393,-0.404082,0.16535,1.13382,-2.02946,-1.2233,4.04448,1.0342,1.15909,-1.46914,1.08897,2.08019,1.74992,1.36584,1.07401,1.97519,0.370852,-0.593115,0.0853067,-0.246992,-0.584246,-0.1765,0.957398,0.836718,-0.47864,-0.522699,-1.8828,0.101521,-0.204855,0.411627,0.547759,-0.69425,-0.422767,-0.491437,-0.122628,-0.34775,-0.449349,-0.501244,-0.105375,-0.423158,-0.67913,-1.01012,-0.982834,-0.599111,-0.408412,-0.78521,-0.673277,-0.505618,-0.513558,-0.395553,-0.382357,-0.527136,-0.435141,-0.568676,-0.189208,-0.293366,-0.403381,-1.07049,-0.541313,0.179305,-0.286242,1.72324,0.749975,-0.208853,1.63089,0.029298,0.13915,0.631044,-1.02659,-0.70638,2.51147,0.75925,0.94213,-1.01308,0.872614,1.684,1.47407,1.23498,1.0171,1.79136,0.486919,-0.363232,0.224845,0.00786797,-0.350314,0.136846,1.25244,1.01874,-0.27674,-0.232394,-1.63303,0.304741,-0.219003,0.526389,0.60155,-0.548402,-0.325434,-0.405458,-0.0258589,-0.135847,-0.268181,-0.210629,0.00338807,-0.130854,-0.367774,-0.659209,-0.65553,-0.32856,-0.325596,-0.49879,-0.382853,-0.225671,-0.18215,-0.163111,-0.26949,-0.113029,-0.0869137,-0.152881,-0.00610669,-0.210676,-0.183192,-0.266675},
        {0.199486,-0.0205166,0.926952,-0.0114645,0.89709,0.0263609,0.832956,0.0212577,0.894571,0.610553,0.515224,0.539668,0.432629,0.258513,0.224947,0.246559,0.25816,0.196667,0.222943,0.18234,0.188944,0.132619,0.190053,0.0790796,0.166837,0.0899989,0.078191,0.162583,0.113308,0.0299957,0.0478236,0.0938726,0.0711472,-0.00369862,0.0927345,0.103535,0.0751403,0.130551,0.0674561,0.0619848,0.0200367,0.0953661,0.0769875,0.0278541,0.0833831,0.0187086,0.0559012,0.102891,-0.00974187,0.107446,0.141883,0.146324,-0.0300832,-0.0217792,0.011567,-0.0271286,-0.00253168,0.0137545,0.0428872,-0.00740575,-0.0452887,0.0200401,-0.0392515,0.0914387,0.12454,-0.0216755,0.0141934,-0.00245668,0.0027098,0.0207222,-0.0348123,0.022863,-0.00993004,0.183884,0.0236584,0.154631,0.0684929,0.0865353,0.132799,0.142629,0.0417686,0.102487,0.141874,0.093959,0.076284,0.0830176,0.093526,0.0592385,0.0814332,0.103274,0.0638768,0.0813609,0.143583,0.0522411,0.0731511,0.0866879,0.0616129,0.188236,0.0474162,0.00304476,-0.00863729,0.00786133,-0.0727743,0.0724425,0.0503264,0.0249357,0.0715437,-0.00639031,0.0388545,-0.0364367,0.0412079,-0.00397514,-0.0473027,0.0157633,-0.0674426,0.0594809,0.0914013,0.0369494,-0.0789685,0.0855254,0.0227583,0.0817184,0.0932923,-0.0426293,0.0902079,0.0255173,0.12327,0.0402279,0.0236366,0.0185501,0.048493,0.0478739,0.0322857,0.0260479,0.0738667,0.037098,0.712934,0.467762,0.484439,0.464495,0.402041,0.391085,0.287652,0.273978,0.239729,0.263877,0.207655,0.253366,0.230262,0.167975,0.100546,0.0990757,0.175995,0.168288,0.183505,0.0746338,0.110277,0.135833,0.0177032,0.107914,0.095096,-0.0186978,0.123612,0.142503,0.0513786,-0.0309965,0.0811101,0.00793479,0.0829024,0.0198612,0.167157,0.0366373,0.0922426,0.0407195,0.0615009,0.0375627,-0.00131361,0.0804129,-0.00248513,0.00588838,-0.00680902,0.0970349,0.0284126,0.0379648,0.0146765,0.024022,0.077606,-0.0026397,0.0245658,0.0971956,-0.0110409,0.00651493,0.0232884,0.115581,0.0122846,0.00135457,0.0960428,0.0176076,0.114357,0.0615077,0.0376491,0.0103426,0.0324231,0.0675367,0.105695,0.161934,0.059298,0.0137761,0.0832718,-0.011672,0.123562,0.139077,0.0903841,0.0445323,0.131396,0.118935,0.208211,0.0629198,0.164601,0.188554,0.0315811,0.152728,0.0614954,0.142032,0.00360925,0.143288,0.0237167,0.124393,0.0668074,0.0185268,-0.052243,0.0847491,-0.0107984,0.0721181,0.0112999,-0.0128683,0.0566405,0.0627549,0.0400221,0.0674579,0.0293456,0.119966,-0.00533426,-0.0198017,0.0279683,0.00655766,0.0104875,-0.0488245,0.0951591,0.00355697,0.0673462,-0.00503631,0.0379051,0.0040408,0.0197089,0.0271378,0.0251294,-0.0183149,0.0210965,0.0140246,0.0325928,0.0109423,-0.0107764,-0.0906915,0.338818,0.305872,0.278202,0.349187,0.246534,0.285979,0.275471,0.209437,0.214067,0.150894,0.136978,0.066401,0.161745,0.205883,0.223665,0.0516739,0.0516363,0.0287417,0.0340899,0.0979076,0.147155,0.134497,0.0629163,0.000637533,0.111703,0.0688777,0.0630748,0.0645058,0.0737471,0.0619307,0.00466153,0.0600145,0.0350017,0.103622,-0.0423385,0.00162078,0.00903064,0.0977273,0.0814951,0.0442753,0.0948138,0.0900976,0.00872286,0.019856,0.0102397,0.146546,-0.116641,0.00807504,-0.037194,0.0169134,-0.0152571,-0.0277994,-0.0555043,-0.00832604,0.0125478,0.000314276,0.0446968,0.0236316,-0.0432732,0.0310837,-0.0400359,0.0529343,0.0400307,-0.0264637,0.0100087,0.019935,0.0439288,0.118978,0.0326176,0.0414049,-0.00449307,0.0893087,0.0737661,0.0113503,0.0157195,0.0448541,-0.0623198,0.041044,0.124358,0.0524189,-0.0405563,0.0734487,0.115853,0.0766395,0.101119,0.109608,0.0335354,0.052302,0.0793701,0.0995484,0.0197123,0.0779611,0.11308,-0.00984103,0.00418683,0.0568832,-0.00978773,0.00621668,0.0651976,0.0366274,0.0438271,0.104352,0.0236111,0.022449,0.0981163,0.0573001,0.00864757,0.0394532,-0.0133447,-0.109236,-0.0656055,0.0334218,0.0533614,0.0102382,-0.0468151,0.0154346,0.0289485,0.0579047,-0.0297862,-0.0863839,0.0833117,-0.0366185,-0.0112049,0.04175,-0.00263429,0.0422867,0.0461932,0.0576441},
        {0.283828,0.074811,0.702231,-0.0450936,0.722922,0.00081939,0.683579,0.0173348,0.619741,0.608206,0.405491,0.301938,0.268894,0.238947,0.279208,0.148119,0.155985,0.167148,0.108844,0.166746,0.124504,0.144899,0.12531,0.136124,0.0950934,0.0125804,0.177883,0.058412,0.0637357,0.0912337,0.056401,0.0432878,0.0469165,-0.00587457,0.0986457,0.125009,0.0395874,0.125425,0.023034,0.0241545,0.0548551,-0.0587011,0.0338448,-0.00949376,0.0332124,0.071143,0.0553884,-0.00305838,0.0132615,0.050997,0.00254111,0.123098,0.0464695,-0.0572281,-0.018035,0.0474773,-0.00499232,-0.0251726,0.0013744,0.0425199,-0.023003,0.0439217,-0.106839,0.0877538,-0.0122132,-0.0503686,-0.0394512,0.00377312,0.0796966,-0.0346898,0.115336,0.00139313,-0.0382561,0.0576989,0.0269197,0.107693,0.0524799,0.0956051,0.0818,0.0534054,0.00686994,-0.0198712,0.0291895,0.075935,0.0886033,0.0883397,0.0462134,0.0843138,0.135201,0.145103,0.0501097,0.101734,0.149793,0.127739,0.00248926,0.0213705,0.0648717,-0.0179253,0.101136,0.0162493,0.114825,0.0664587,0.111501,0.0378016,0.00335685,0.078963,0.0641371,-0.0173699,0.114627,0.00917946,0.00117748,-0.0272161,-0.00397316,0.0804473,-0.00656687,0.0886427,0.0490295,0.0307165,0.0838023,-0.0308477,-0.0106801,0.0757916,0.075837,-0.0107995,-0.0128648,0.0162159,0.0742673,0.0507093,-0.0133343,0.00495193,0.0141827,-0.0302144,-0.0339827,0.0633468,0.0206526,0.0558559,0.661871,0.541026,0.415503,0.295482,0.334285,0.22795,0.292438,0.254385,0.135696,0.229597,0.216914,0.222492,0.182724,0.0762517,0.240573,0.141688,0.0945442,0.085516,0.128075,0.119766,0.0916228,0.157731,0.115162,0.150119,0.115426,0.073295,0.0415411,-0.0823402,0.0874488,0.0706029,0.10746,-0.0175357,0.0872442,0.115606,0.0769647,0.0650772,0.0464614,-0.00837641,0.0371588,0.0686,0.0647076,0.0520616,0.0522006,-0.032902,0.037808,0.0687926,-0.00187707,0.0247027,0.0441215,-0.0175054,-0.0740738,-0.102226,0.0147352,-0.0572258,0.032066,-0.0180401,0.0566996,-0.000530525,0.0437204,0.0217228,-0.00309438,0.063354,-0.0333884,0.0762368,0.0875145,0.00710375,-0.0352847,0.0241059,0.0259866,0.152384,0.051613,0.099432,0.00210485,0.0033714,0.0506103,0.0779011,0.150412,0.0847364,0.15156,0.120494,0.0766312,0.0431771,0.0627065,0.0337965,0.078525,0.108727,0.058184,0.15593,0.123164,0.0895718,0.154793,0.00454967,0.0713361,0.0429114,0.0420309,-0.008865,0.0818043,0.00594958,-0.00139284,0.0883747,0.112513,-0.032196,0.0867292,-0.0207278,-0.0473992,0.0223885,0.0117877,0.0323791,0.133134,0.0587555,-0.0454035,0.0194962,-0.00201303,-0.00681109,0.00650646,-0.0781751,0.00185443,0.0122445,0.0215533,0.07046,-0.0691196,0.00924374,0.0335263,0.00171489,-0.0773839,-0.0231752,0.0128985,0.0135828,0.304163,0.408712,0.266127,0.247634,0.18286,0.172036,0.239241,0.248542,0.176891,0.202956,0.108503,0.193131,0.148363,0.145607,0.142752,0.0843905,0.159159,0.0892691,0.0635962,0.076191,0.0954019,0.0831402,0.105227,0.0208402,0.0314337,0.0352016,0.0791718,0.0377027,0.0361808,-0.029017,0.00308091,0.0346969,-0.0278122,0.024884,0.0380112,-0.00179828,0.0581753,0.112272,-0.00424506,0.0746329,0.0635658,-0.0315886,0.0175409,0.0348665,0.000930764,-0.00873891,-0.000328778,-0.0136192,-0.0202087,-0.0196438,0.0645884,0.00713273,0.00742975,-0.0351243,-0.0195847,-0.0704433,0.0778303,-0.00693994,0.0323969,0.0310574,-0.00371551,0.120258,-0.00675816,0.0330783,-0.0186942,0.0963229,0.0859231,0.00515641,0.0228091,-0.0256994,0.0260152,0.00896568,0.154469,0.187317,0.113268,0.0553527,0.0512905,0.0972183,0.0515136,0.147993,0.101032,0.0892973,0.150165,0.156214,0.0675431,0.0420754,0.0733753,0.0919134,0.0514081,0.00660722,0.0445525,0.083789,0.0300926,0.0904376,0.0280051,0.0594624,0.0494055,0.0699293,0.0243555,-0.00519584,0.0277917,0.0450373,0.0387349,0.0748645,0.023851,0.0337334,0.0201237,0.00915494,0.0218691,-0.0250704,-0.00507257,0.0254182,-0.0314968,-0.00539477,0.0322932,-0.0269752,-0.071249,0.0273066,0.00580049,0.0551351,-0.0116738,-0.0883701,-0.0176655,-0.0114451,0.0455882,0.00102583,-0.0121235,0.0480416},
        {0.182029,0.0969883,0.378806,0.0894303,0.403292,0.0919315,0.374734,-0.0711925,0.227707,0.266294,0.268634,0.102179,0.126228,0.226998,0.167966,0.109128,0.00709289,0.083195,0.0883259,0.145603,0.0985809,0.175868,0.121292,0.0743652,-0.000335586,0.070382,-0.00960965,0.043909,0.0617708,0.0216723,-0.0281538,-0.057034,0.0221976,0.0588329,-0.000913453,-0.0183195,0.00384739,-0.0281095,-0.00827143,0.0017512,0.0496514,0.0476064,-0.0398442,0.0606849,-0.0388141,-0.0135988,0.089495,-0.0139438,-0.015353,0.0126523,-0.0248033,0.05122,0.0272139,-0.0154472,-0.00682997,0.0345301,0.000786042,0.0335983,0.0409662,0.0510618,-0.00536732,-0.107747,0.0552616,0.019257,-0.0418019,-0.0271274,-0.0863864,-0.0277137,0.000695952,-0.0176866,0.00030648,-0.0301906,0.0852977,0.0259573,0.0242805,0.04509,0.00995378,0.0954021,0.138494,0.063277,-0.0355212,0.00893621,-0.00776699,0.0236784,0.0854092,-0.0327147,0.0807155,0.0909755,0.0874306,-0.0356101,0.0565189,0.144162,0.0291584,0.0142143,0.0913097,0.0417954,0.0792718,0.0479286,0.0254584,0.00512858,0.103821,-0.00727911,-0.00946405,-0.0427173,0.0411602,0.0030738,0.00762756,0.0444016,-0.0203331,0.0384244,0.00615682,-0.0554731,-0.0897526,0.0690692,0.00905323,0.0290717,0.014833,-0.0794143,-0.0165569,-0.0127682,-0.0555413,0.00295291,0.0730894,0.0473905,-0.0344758,-0.0328009,-0.0273897,-0.0240162,0.0691095,-0.0619524,-0.0407088,-0.0137099,-0.00493701,-0.0142164,-0.0032347,-0.000453121,0.335877,0.33869,0.25199,0.197304,0.16312,0.116721,0.136605,0.120668,-0.0196669,0.0713878,0.0895352,0.132526,0.0456616,0.0528864,0.0227382,0.016307,-0.0158969,0.0966137,0.0436344,0.101499,-0.0445768,0.148918,-0.0541812,0.0742925,0.111649,-0.0340898,-0.0187154,0.0914476,0.0162682,0.0589777,0.0848563,0.0715816,-0.0113282,0.0508498,0.0361878,0.0283136,0.0590593,0.0331229,-0.0452343,0.0888333,-7.87866e-05,-0.0609078,-0.0119166,0.0935741,-0.000911768,-0.0401384,0.00851672,-0.0892825,0.0581087,-0.0769293,0.0255917,0.0527212,-0.0788498,0.0889406,-0.0831746,0.0117768,0.0662624,-0.0368413,0.0924139,-0.0885483,0.0496894,-0.0668671,0.0408843,0.000377381,0.00608417,0.0264353,0.0818488,0.0394152,0.0640981,-0.0394023,0.041534,0.0777132,0.0363027,-0.0522778,0.0601679,0.100114,-0.0556897,0.0817155,0.0306838,0.121037,0.0384972,0.0763441,0.103854,0.0549901,0.0966483,0.00803906,0.066562,0.0844478,0.141416,0.112941,-0.024964,0.0708364,0.0557811,-0.00462301,-0.00438483,-0.0264024,0.0769846,0.00588831,-0.0538467,0.0901043,-0.0269446,0.00240773,0.0193977,0.0637238,0.0462327,0.010131,0.0144631,-0.00271527,-0.0887556,-0.0645631,-0.0573837,-0.0382805,-0.00819642,0.0311969,0.028229,0.025872,-0.0371661,-0.0128687,-0.0131256,-0.0267534,0.0035767,0.00897466,-0.110784,0.0515603,-0.0308257,0.0200714,0.0164866,0.0850758,0.087115,0.177246,0.0963551,0.151355,0.0807992,0.0308072,0.122914,0.0801797,0.124781,0.116924,0.0090067,0.123914,0.0351757,0.0860746,0.106629,-0.0117872,0.130474,0.0687802,0.0159761,0.0544448,0.0956837,-0.0466106,0.0204425,-0.0109809,0.0458202,-0.0414773,0.0245882,0.0338313,0.0255953,0.0364513,0.0636621,-0.00660351,0.0834145,0.076764,9.60333e-05,0.00894485,-0.0240266,0.0957341,0.0252323,0.0723242,0.0146132,-0.0197798,-0.0192358,0.105411,-0.0536334,-0.0549523,0.00463152,0.0684784,-0.0837944,-0.0339059,-0.132191,-0.0280244,-0.0221561,-0.048913,-0.00546251,-0.0260954,0.0183396,-0.0504999,0.0677309,0.0409343,0.0877323,0.0612517,0.0695314,-0.0485163,0.0495345,0.00238116,0.0168911,0.0227013,0.0732997,0.0573494,-0.000501692,0.0855656,0.0928446,0.104176,0.063694,0.138168,0.0832806,0.00494091,0.0330098,0.155404,0.120164,0.0834014,0.0325968,0.0620867,0.0562182,0.0279468,0.0233145,0.0301414,0.00224049,0.00167846,0.00799133,0.0119313,-0.0437171,0.118923,-0.0271264,0.00631153,-0.00203399,0.0755441,0.038408,0.0497895,-0.0089693,0.0750856,0.0184606,0.0375427,0.0281378,0.0162559,0.0415576,0.0355037,0.0258523,0.0817788,-0.0254321,0.045655,0.0104907,0.0618834,0.00554802,-0.0523489,-0.0321985,0.0687322,-0.014635,0.111585,-0.0900654,0.0276011,0.0349223,0.0549599,0.0041837,0.0344593,-0.0216508,-0.00474741},
        {1.40506,1.04884,-5.84733,0.0161158,-5.5509,-0.0549877,-5.87441,-0.051728,-7.66921,1.31994,0.294817,-1.30605,0.00422231,0.723089,-3.71561,1.02009,-0.12066,0.120746,-0.671174,-0.608719,1.86478,2.17618,1.44188,0.944209,0.668755,1.64563,0.861084,1.01827,1.0143,0.867693,0.536542,0.319412,0.390274,1.44523,0.479433,0.233104,0.466506,0.141517,0.356681,0.400201,0.595912,0.541867,0.555859,0.444743,0.638323,0.97277,0.740191,0.433779,0.559102,0.429823,0.100582,0.369002,0.199395,0.242795,0.226632,0.451586,0.315702,0.248336,0.453067,0.400462,0.33741,0.491417,0.333714,0.189624,0.298051,0.418566,0.304744,0.270536,0.295046,0.173411,0.146719,0.333012,-0.498651,0.170605,0.0328524,-0.248361,0.0477626,0.3341,-1.13818,0.273899,-0.0481672,0.0655578,-0.286199,-0.362446,0.990552,1.26784,0.851553,0.666604,0.553976,1.294,0.548911,0.699853,0.755778,0.669707,0.685241,0.269132,0.392152,1.37459,0.467427,0.33092,0.594495,0.150303,0.311433,0.43514,0.609748,0.492201,0.601678,0.45452,0.519358,0.950549,0.699248,0.436352,0.462358,0.454606,0.0877248,0.349421,0.289493,0.387791,0.263071,0.245672,0.155012,0.170682,0.273517,0.269384,0.235077,0.201271,0.131982,0.187602,0.107073,0.113606,0.0215853,0.0668581,0.0681763,-0.00707568,0.060941,-0.0282409,3.02059,4.31776,7.81613,0.0622209,4.55356,3.94442,2.47639,0.694698,1.04016,2.00352,2.309,0.638242,1.49451,0.879582,0.628275,0.210102,0.270684,0.540072,0.512292,0.911786,0.0631241,-0.315029,0.855038,-0.0023454,-0.0354661,1.20609,0.653209,0.206556,0.430973,0.167941,0.485347,0.327723,0.299404,0.310813,0.164127,0.22209,0.49917,0.409158,0.593635,0.369344,0.414572,0.323162,0.308185,0.399093,0.245625,0.14561,0.179176,0.364263,0.370097,0.140259,0.344733,0.280175,0.294019,0.177343,0.378363,0.313301,0.222254,0.133769,0.228586,0.156141,-0.0079458,-0.324664,-0.91393,-1.32781,-0.224764,0.346565,0.738234,0.0838527,0.944572,1.02368,0.69122,0.243304,0.420908,0.907809,1.06499,0.328662,0.81219,0.524118,0.396043,0.174653,0.123145,0.432088,0.42586,0.586693,0.0249295,-0.184513,0.798369,-0.0129748,-0.00981632,1.21633,0.807328,0.258223,0.53366,0.221309,0.575501,0.482448,0.330408,0.330021,0.108054,0.279932,0.549194,0.494744,0.691466,0.358445,0.393391,0.371944,0.271789,0.453971,0.266292,0.139967,0.109103,0.290447,0.364408,0.241149,0.254329,0.257754,0.210974,0.174918,0.202411,0.232683,0.0874945,0.120166,0.218782,0.115404,0.109627,0.00357368,0.00904075,0.0546149,-0.592414,5.1624,1.73205,2.81899,3.70222,3.78929,2.6881,2.85577,3.65369,2.9256,2.93102,3.00714,3.61226,4.6252,3.63361,3.21461,3.13781,2.633,2.53848,2.3431,2.36514,1.9955,1.9506,1.26806,1.71429,1.51341,1.54944,1.30878,1.40519,0.889159,0.999002,0.908961,1.02798,0.793688,0.811462,0.728019,0.804917,0.792103,0.783619,0.587225,0.631287,0.621631,0.514689,0.333045,0.503013,0.434316,0.438367,0.447634,0.312337,0.379643,0.497009,0.274581,0.269641,0.375087,0.36078,0.397013,0.324117,0.273291,0.376971,0.316392,0.350632,0.237484,0.19513,0.0857157,0.0207189,0.382061,0.217183,0.454946,0.796916,1.01349,0.92385,0.98146,1.45384,1.2133,1.40724,1.62268,2.01593,2.84824,2.34613,2.09613,2.28972,2.01344,2.03551,1.93392,2.07914,1.71924,1.75028,1.37157,1.67175,1.44245,1.43554,1.32338,1.40915,0.867619,1.10435,0.828343,1.07238,0.751584,0.758391,0.773597,0.743081,0.662204,0.658767,0.451989,0.567311,0.517683,0.529535,0.376795,0.408469,0.311774,0.298757,0.278113,0.273011,0.335412,0.231582,0.17513,0.210006,0.12074,0.176295,0.0189024,0.0597375,0.096823,0.122549,0.111729,0.0232212,-0.00902975,0.0667597,-0.0584177},
        {0.00704114,0.0260403,0.553707,-0.012503,0.482363,0.0442445,0.503766,-0.00740894,0.480315,0.334788,0.271845,0.275984,0.198797,0.119212,0.161968,0.185189,0.125791,0.210802,0.138778,0.0957096,-0.0308989,0.0617695,0.115753,-0.0572214,0.0278965,0.00242867,0.0885811,0.062864,0.0328877,0.0267899,0.0711696,-0.0525154,0.0644413,0.0371296,0.068028,0.0959733,0.0261259,0.132029,0.0294292,0.0622844,0.0458638,0.0272854,0.0823453,0.052477,-0.0384415,0.0565325,0.0193603,0.0757132,-0.0204694,0.0422977,0.0151732,-0.0375957,-0.0450632,-0.0370797,-0.0995019,0.0308838,0.0183227,0.0802891,-0.023272,0.0513821,0.0591361,0.040267,-0.00647163,0.0193147,-0.0115985,0.00327548,0.0995888,-0.113602,-0.000190717,-0.00572971,-0.0772503,-0.00856,0.0716733,-0.117056,-0.0291407,-0.00354854,0.0285888,0.0234837,0.0418181,0.0538188,0.0450642,0.0356797,0.0484126,0.0369472,0.123229,0.0172211,0.0654301,0.0390911,0.0767055,0.0783485,0.0325501,0.0312461,0.0147991,0.0467869,0.0382965,0.00715843,0.100254,0.0661196,0.0434311,0.0193248,0.0887559,0.029615,0.137534,0.0580998,-0.0280535,0.00987109,0.0705397,0.0252056,0.0202522,-0.055096,-0.0651877,0.102865,0.00322782,0.0198221,-0.00398974,0.0396805,-0.00305788,0.0675093,-0.00449333,-0.00863769,0.0964763,0.00752307,0.0288365,-0.00915389,-0.0448821,-0.0937905,0.0110619,0.0128495,0.0611927,-0.0202703,-0.0870961,0.031284,0.0208603,-0.0570069,-0.000886689,0.0137414,0.530163,0.336909,0.268587,0.229789,0.276663,0.24905,0.180813,0.206704,0.130976,0.101174,0.126034,0.149139,0.0194195,0.0942107,0.136642,0.0732004,0.0640692,0.0656626,0.0127132,0.0709651,0.0711334,0.0861524,0.102382,0.0268288,-0.0334563,0.0837999,0.0303397,-0.0475677,0.104285,-0.013872,-0.00359326,0.18447,0.0399246,-0.0250139,0.0866312,0.0717252,0.00759672,-0.0546279,0.0503289,0.00794802,0.0250203,0.0268643,0.0691278,0.0686143,0.0610844,0.0455169,0.0644163,0.0411526,-0.0388431,0.00502198,-0.0270427,-0.0365223,-0.0137812,-0.0381436,-0.015553,0.0545606,-0.0318897,-0.0675438,0.0275343,-0.0111411,-0.0519765,-0.0709556,0.00547793,-0.0061214,-0.0135002,-0.0130744,0.0230495,0.112515,0.0194218,-0.0177665,0.0320153,0.127939,0.0688645,0.138613,0.0358017,-0.024039,0.0853897,0.0533819,-0.00445382,0.120849,0.0729399,0.0410385,0.119942,0.0743789,0.108214,0.121306,0.091255,0.0495461,0.0482943,0.0174589,0.0635628,0.136337,0.0830168,0.0615682,0.00427252,0.0239962,0.0194879,-0.0025955,0.0129438,0.0503124,0.0522426,-0.0265795,-0.0306693,0.0063985,0.0198854,0.0484592,-0.0327104,0.0330124,-0.102986,0.0465606,0.00153219,0.0340846,-0.0117883,-0.0414689,-0.0764801,0.029765,0.00337691,0.0299802,-0.0355072,0.0136134,0.0718757,-0.0264686,-0.0382856,-0.0617134,-0.0236595,0.0489026,0.0386408,0.0589047,0.231097,0.207865,0.195641,0.118124,0.123113,0.0633818,0.197837,0.105792,0.0631805,0.113786,0.0384594,-0.0357523,0.125685,0.0287607,0.104848,-0.00672216,0.0738706,0.0849529,0.0269153,0.0996577,0.0369383,0.0208589,0.00232325,0.0396812,0.088948,0.0412231,-0.0722648,0.057619,0.120543,0.1088,0.00377143,0.01238,0.0502198,-0.00117635,0.0621206,0.0937639,0.078946,0.00589963,0.0811622,-0.0165827,-0.0220125,0.0679558,0.0341089,0.139639,-0.0132742,0.0287384,-0.0163733,0.0282881,0.00160885,0.0836371,0.0743469,0.076392,-0.0867992,-0.0543599,0.057712,-0.00454967,0.0358092,0.0569476,0.0537699,-0.0262172,0.0676306,-0.0476239,0.0127997,-0.065901,0.0519328,0.0427627,0.0371951,-0.00975658,-0.0184589,0.00541802,0.0607838,0.0321039,-0.0363698,0.0113232,0.0980802,0.0260727,0.166102,0.0476862,-0.00190437,0.0280907,0.0413082,-0.0142296,0.0533672,0.0748794,0.0661781,0.0411534,-0.0328104,0.0380963,-0.00525548,-0.00546842,0.0318558,0.023428,0.000116794,0.00210501,-0.0222074,-0.0147832,-0.0147314,0.0696913,0.0788271,-0.0480992,-0.0215175,0.0220345,-0.0761681,0.0445466,-0.0222853,0.167717,0.0306679,-0.0170105,0.00985329,-0.111406,-0.00206491,-0.0161486,-0.0227507,-0.0195055,-0.00791301,-0.0064384,0.0277304,-0.019126,-0.0347843,-0.030031,-0.0112772,-0.109404,-0.00121105,-0.00989234,0.0942188,-0.017157,-0.0214971,-0.0281919},
        {0.297464,-0.00949296,0.832175,0.0647445,0.955881,0.0634947,0.861179,-0.0143737,0.728758,0.623866,0.538215,0.42685,0.345133,0.362325,0.248427,0.237378,0.313286,0.138678,0.202254,0.151212,0.215506,0.0894506,0.177721,0.118881,0.0930108,0.120771,0.0529456,-0.0042586,0.0488601,0.0998689,0.10087,0.146491,0.0818567,0.0407897,0.0104459,0.0322248,0.0741467,0.02558,0.0505357,0.112902,0.0475908,-0.0123354,0.0818503,0.0455016,0.0610107,0.103421,0.0640005,0.0199032,-0.000162651,0.0577698,-0.00718566,-0.0212006,0.0220219,0.0280135,-0.0364296,0.0119535,0.000996473,0.0250881,-0.0225345,0.0469652,0.0513123,0.124691,-0.0090144,0.121871,0.102,0.0361265,-0.0896159,-0.0333363,-0.0393664,0.0308906,0.0279443,0.00333715,0.0671044,0.0383099,0.0278564,0.0218012,0.0538956,0.188409,0.085924,0.0658029,0.0729775,0.0620666,0.0812017,0.173758,0.164856,0.169196,0.145584,0.178881,0.0666328,0.144216,0.0582759,0.0962895,0.0982989,0.0203162,0.00875441,0.0212677,0.0254258,0.073878,0.035181,0.0894426,0.0452057,0.00553082,-0.00964198,0.0269856,0.0261326,0.0213395,0.0866153,0.0694124,0.0147998,0.0054184,0.0767945,0.00529927,0.06053,0.051015,0.0692678,0.0623917,-0.0163056,0.138583,0.0549628,-0.004386,0.0494118,0.00681861,-0.00522601,-0.0268741,-0.0777595,-0.0283715,0.0409974,-0.0411879,0.0874938,0.0555477,-0.0433213,-0.0717458,0.0275006,-0.02981,0.0179381,0.0843594,0.849295,0.562188,0.485928,0.357242,0.278023,0.299614,0.289458,0.357708,0.227028,0.201707,0.113483,0.2595,0.215812,0.0487312,0.296119,0.179752,0.170544,0.100192,0.0697078,0.173131,0.0439192,0.0853118,0.0669321,0.139169,0.0698641,0.151098,0.0222751,0.09007,0.0866843,0.119758,0.218089,0.0186261,0.0870317,0.0386419,0.0319865,0.0809569,0.00816609,0.05323,-0.039547,0.00668717,0.0846695,0.0654983,-0.0485227,-0.0508086,0.00794818,0.00720326,-0.0169602,0.073858,-0.0306884,0.0370082,0.00171316,0.0467705,0.074414,-0.00370384,-0.010816,0.120099,0.017865,0.0997151,0.0724439,-0.032189,-0.0126323,0.018586,0.0395322,0.0223421,0.000226152,0.0396778,0.0230467,0.013689,0.0894495,0.0447071,0.0627639,0.0616033,-0.0315308,0.0617628,0.159772,0.0783466,0.16431,0.0871742,0.095345,0.120778,0.0912759,0.0652789,0.0691572,0.0826254,0.16323,0.044857,0.126598,0.105104,0.193421,0.0914027,0.132863,0.0583398,0.0530614,-0.000437675,0.0750136,0.0967794,0.0845948,0.0813474,0.0562732,0.0782397,0.0789393,-0.0825745,0.0873449,0.00806576,0.0661482,-0.00943241,-0.0743474,0.0654815,0.0317664,0.026573,0.105361,0.0766215,0.0673659,0.0298784,-0.0139471,-0.024054,-0.00244339,0.0326903,0.0313973,0.0523524,-0.0253302,-0.00473201,-0.0141937,-0.0166004,-0.0126502,-0.0649526,0.0101083,-0.0271778,0.363839,0.332175,0.356737,0.287543,0.253482,0.310534,0.224485,0.241536,0.206631,0.239454,0.139332,0.108599,0.247912,0.212965,0.26405,0.0558993,0.123141,-0.0326234,0.141833,0.114266,0.0461427,0.00730306,0.0877309,0.0031523,0.0564202,0.0962849,-0.0187968,0.0257315,0.0073324,0.0877663,0.0605655,0.0284707,0.0818398,0.115578,0.0193231,0.0124324,0.0694732,-0.00853284,0.0475018,0.0937036,-0.0212654,0.0220441,0.0277164,-0.0484865,-0.068269,0.0030037,0.00372004,0.0287219,-0.0150721,-0.0188975,0.00224816,-0.0538222,-0.0257752,0.0805882,-0.0122729,-0.0222717,-0.0806551,-0.0913746,0.0113544,-0.00332985,-0.0748263,0.0299564,0.0793539,-0.0563594,0.0523539,0.0444681,0.0384308,0.0672861,0.0791193,0.0675695,0.0457938,0.0415766,0.0633265,0.0981803,0.0791122,0.0978232,0.0190366,0.0282845,-0.0240405,0.0289614,0.074645,0.144024,0.0460756,0.0791431,0.14942,-0.0285119,0.146859,0.00852226,0.134917,0.0171379,0.092436,0.0582743,0.0267487,0.0457196,0.0848761,-0.00731219,0.106029,0.148093,0.106769,0.0186828,0.0196706,0.0648383,-0.0104134,0.101698,0.0950939,0.0512304,0.017033,0.0118119,0.136352,0.0558936,0.103873,0.0075515,0.0542121,0.0340909,0.0476679,-0.0571104,0.00382491,-0.0124057,0.0409911,-0.0437972,-0.0861523,0.118087,-0.118539,0.0153999,0.00693601,-0.0697974,0.0505137,-0.0239883},
        {-3.79989,0.453949,-8.69388,0.074878,-8.47993,-0.0567241,-8.25776,-0.0104068,4.28692,2.10375,8.94213,-1.27806,3.97748,8.80798,8.48392,-3.06458,3.3661,-0.943672,-3.30636,-2.64808,1.42179,0.497022,-0.623391,-3.42146,-2.28909,-1.95291,1.88891,1.93185,0.129985,2.17462,-1.22178,0.208832,0.566889,4.28471,-0.456099,1.14417,2.12113,0.304426,1.77793,1.08719,1.99747,1.74822,1.42391,-0.0179245,0.47384,1.02899,1.21724,1.09726,0.581037,0.361731,0.292409,0.263158,0.0382574,0.369851,-0.280537,-1.43296,0.352503,-0.728103,0.731229,-0.261521,-0.638706,-0.595015,-0.823959,-0.964102,-0.922225,-1.06935,-1.03602,-0.86343,-1.34173,-2.07903,-1.82606,-2.36912,0.051676,-0.311232,1.29772,-0.0577245,0.954606,2.46957,2.59892,-1.27616,0.997512,-0.383373,-1.75126,-1.7449,0.762701,0.188488,-0.566576,-2.50032,-1.63633,-1.43591,1.37461,1.7306,0.42639,1.93903,-1.09224,0.338396,0.598764,4.23699,-0.410129,1.26133,2.28044,0.117508,1.94326,1.13041,2.03424,1.79765,1.16189,-0.0909293,0.566662,1.04576,1.19381,1.13422,0.562044,0.195085,0.519085,0.265187,0.0322692,0.321938,-0.289855,-0.834916,0.310836,-0.279178,0.415571,-0.0448814,-0.255497,-0.247942,-0.328671,-0.451462,-0.304262,-0.220082,-0.256601,-0.0929886,-0.172513,-0.0660456,0.0141844,0.0799627,-7.71481,-3.85389,-5.30074,2.92749,-6.54236,4.59762,7.37574,-2.89277,6.32937,-3.34929,3.52075,1.43263,4.87149,0.0356066,1.86771,2.60719,1.5648,4.02093,-2.25756,0.585206,-2.11188,-0.243597,0.032662,-0.292604,-2.08207,-0.301999,-0.42575,-2.69411,-1.41763,-1.42961,-0.930715,-2.70536,-0.6889,0.0918753,-1.04821,-1.97386,0.565081,-2.36388,0.587479,-0.398086,-0.0151659,-0.856216,-0.9022,-0.302966,0.110774,-1.50824,-0.446034,-1.48633,-0.228512,-0.883816,-0.604305,-1.2103,-0.977096,-0.54305,-1.7002,-1.76383,-1.44965,-1.90364,-1.3534,-1.40379,-1.66204,-2.3196,-2.16553,-2.60667,-0.0912835,-0.554943,-0.574744,0.522659,-1.43847,1.30182,2.57615,-1.07688,2.67936,-1.32364,1.52968,0.460318,2.6774,0.109231,1.15587,1.89632,1.07419,2.94101,-1.7245,0.540316,-1.82244,-0.0715662,0.0887128,-0.112259,-1.88086,-0.0818464,-0.344703,-2.5782,-1.3958,-1.53942,-1.00981,-2.54718,-0.657389,0.276171,-1.10912,-1.93395,0.563707,-2.3374,0.684361,-0.406588,0.0161059,-0.783018,-0.632066,-0.398605,0.184407,-1.08212,-0.490431,-1.0258,-0.159096,-0.612687,-0.385339,-0.678858,-0.512603,-0.36957,-0.777459,-0.770298,-0.584255,-0.658824,-0.320278,-0.387095,-0.357725,-0.343643,-0.176543,-0.192413,-1.53344,0.822119,6.49603,-7.75754,4.15296,-1.03137,-0.770951,-5.58775,-2.17401,-3.21187,-3.55683,0.891538,-1.54635,-1.774,-1.25349,-2.59389,2.27496,-0.879969,0.436553,-1.22448,0.532708,0.185163,1.48195,1.78135,0.645788,3.24676,1.3606,3.18327,2.55437,-1.97785,0.542502,0.454621,0.682639,1.61574,0.174278,-1.84397,1.41013,0.184288,2.62954,1.62656,0.975242,1.38053,1.07429,1.468,2.29472,0.688351,1.68017,0.873415,1.97843,0.281683,1.33985,1.38593,0.960633,0.76267,0.876967,0.301605,0.521119,0.453344,0.0857896,1.17598,0.726495,1.28236,0.623026,1.24058,-0.320647,-0.0547417,0.669722,-1.481,1.04721,-0.541513,-0.792568,-2.08101,-1.29455,-1.80551,-1.87782,0.21527,-0.877943,-1.0417,-0.555406,-1.84059,1.78623,-0.872468,0.467258,-0.943653,0.494078,0.632317,1.26328,1.79814,0.612577,3.11855,1.42376,3.11172,2.4312,-1.99031,0.769852,0.545381,0.621606,1.68472,0.0194152,-1.7357,1.26285,0.193247,2.42204,1.44337,0.782905,1.12958,1.00412,1.20439,1.92222,0.545363,1.17637,0.452472,1.36709,0.270466,0.883717,0.874171,0.564572,0.351201,0.368639,0.16912,0.208034,0.176795,0.0838118,0.210301,-0.0391891,0.121006,0.0938538,0.049129},
        {0.137506,0.0647794,0.403794,0.0510483,0.42853,-0.0765974,0.439297,0.0170155,0.292807,0.283581,0.232044,0.253797,0.298657,0.299888,0.197231,0.22803,0.215219,0.135715,0.131826,0.182948,0.18074,0.172531,0.253479,0.0898643,0.0758323,0.163801,0.106322,0.0897961,0.103414,0.0866607,0.156035,0.00835407,0.0371135,0.13393,0.181619,0.0615633,0.117283,0.0815279,0.0922875,0.0340162,-0.00303253,0.0336287,-0.00474513,0.0601639,0.0664002,0.0137516,0.0188717,0.00166745,-0.0173342,0.0187314,0.0875729,0.0091129,0.140659,-0.0224732,-0.0443303,0.00952327,0.0460435,-0.00291794,-0.0968942,0.0411234,0.00610054,0.0170964,0.111421,0.0413865,0.0610351,0.0330849,-0.0183709,-0.0259491,0.00645426,-0.0323343,0.0548883,0.000266682,-0.0365134,0.123886,0.0266614,-0.0496949,0.0843556,0.0124361,0.0136726,0.0666662,0.014375,0.148929,0.0741357,0.101752,0.123396,0.0632453,0.0731482,0.023782,0.0797567,0.0826171,0.145134,0.061277,0.0198144,0.0421067,0.0506846,0.100459,0.0858295,-0.000921283,0.0578401,0.0431534,0.042264,0.114781,-0.0172802,0.0298431,-0.0312551,0.0075687,0.013611,0.0725758,-0.0302691,0.0647031,0.0641619,0.0617446,-0.0470335,0.0246985,-0.0214294,0.0657608,0.0054921,-0.0783945,0.0038006,0.00110045,0.0310444,-0.0192578,-0.057327,-0.0246568,0.0607824,0.0112732,-0.0451756,0.0455425,-0.0918909,-0.0347908,0.00659142,-0.0281225,0.00376365,0.046782,-0.0312343,-0.0195454,0.346931,0.495153,0.254438,0.189022,0.148195,0.292918,0.223766,0.171704,0.164936,0.253481,0.189153,0.0796026,0.209419,0.157366,0.147424,0.150423,0.137826,0.168468,0.0947556,0.165264,0.119738,0.141111,0.160524,0.0719176,0.0541052,0.041706,0.0720702,0.0763898,0.0836517,-0.0412677,0.0149295,0.0120921,0.0362047,0.0715716,0.122888,0.0182938,-0.0614321,-0.0600064,0.0348571,-0.000654385,-0.0352559,0.104007,-0.00116373,0.0739529,0.0183182,0.1553,0.0153667,0.0075477,0.0395515,0.0983696,0.0782782,-0.0390368,0.0287388,0.0112835,0.0350171,0.0261868,0.0781684,0.0296592,0.0411759,0.0538044,0.000851467,-0.00576146,0.0224164,0.0403315,-0.0177467,-0.0483268,0.071504,0.00705099,0.0900952,0.0804528,0.10891,0.0465277,0.0306744,0.0569907,0.134317,0.157232,0.14931,0.0482436,0.0887789,0.0713631,0.09177,0.121203,0.195344,0.069164,0.125876,0.0619818,0.0339081,0.0961519,0.0709885,0.0899037,0.0339718,0.103658,0.0127276,0.0569692,-0.00320853,-0.0537192,0.0881109,0.10804,0.0780529,0.0405731,-0.0242682,0.10546,0.105768,-0.01146,0.0714415,-0.0956041,0.0474024,-0.0386797,0.0075606,0.0796806,0.00129383,-0.0125477,-0.0717982,0.00383308,-0.0170552,-0.0312602,0.0641966,0.0265621,-0.0879102,-0.0131388,0.039646,-0.00274105,0.0123821,0.104785,0.0520299,0.0108993,-0.0145007,0.0370972,0.27233,0.257465,0.259315,0.285712,0.268146,0.219021,0.219062,0.249598,0.129152,0.166465,0.134254,0.156246,0.171937,0.101577,0.150413,0.0984106,0.10335,0.0436316,0.0891256,0.139277,0.0519103,0.116602,0.00737522,0.0022729,0.0450258,0.100018,0.0266759,0.053512,0.0441197,0.0114901,0.0301192,0.0137614,0.0293019,-0.0510092,0.159249,0.0247693,-0.0342573,-0.0432411,0.0435211,0.0487831,-0.00143606,0.0492831,-0.0136089,-0.00579352,-0.0627078,0.151396,0.0130485,0.0246808,0.0257798,0.00479084,0.027658,-0.0484669,0.0683604,0.0812778,0.0955421,-0.00521925,-0.0472243,0.000712561,0.039067,-0.0170069,-0.00460161,0.059442,-0.0277802,0.0112437,-0.0233197,-0.0225735,0.117187,0.0335512,0.0438032,0.0952145,0.0161093,0.0178882,0.0566335,-0.0283162,0.132879,0.00273668,0.0896141,0.0523734,0.210655,0.0877211,0.0163271,0.0575216,0.0786229,0.0687816,0.117833,0.0615981,0.00959254,0.0576623,0.041273,0.0760291,0.0429247,0.0611196,-0.0285607,-0.00648889,0.00278251,0.0377043,0.0390094,0.0716345,0.0655328,0.0407922,0.0727243,0.0589874,0.081485,0.0506488,0.0268489,-0.007279,0.0595604,-0.0200645,0.0511434,-0.0155794,0.0397246,0.0385546,0.103479,-0.0545651,0.0759229,0.0192865,0.0440412,-0.00610256,0.00535478,-0.0711066,0.034929,-0.031777,-0.0597811,0.0268162,0.0174888,-0.00466775,0.0202539,0.0749888},
        {0.217415,1.10646e-05,0.546753,-0.00601142,0.50647,0.0251325,0.368544,-0.0156197,0.525532,0.391563,0.23723,0.0947972,0.241358,0.153285,0.135752,0.0905709,0.0496806,0.144723,0.0912497,0.100377,0.0440139,0.0406413,0.0162341,0.0782875,-0.00874567,0.0392564,-0.0025251,0.0644045,0.0735735,0.0557345,0.0138972,0.0482234,0.0803466,0.0436937,0.103971,-0.0948463,0.0348999,0.031809,0.0932911,-0.035754,0.00870658,0.0138481,-0.0590153,-0.0296349,0.0662405,-0.0101134,-0.0114451,-0.0185105,0.018844,0.0273013,0.00256487,0.0259692,0.00779493,-0.000207241,0.0180072,-0.0841968,0.00226513,0.0265716,0.0347878,0.0865965,-0.0342493,-0.0593244,0.0578733,0.00138699,0.111087,0.0903379,0.0639675,-0.0235121,0.0702581,-0.000211299,0.0955203,0.0294939,0.029604,-0.0939915,-0.0404579,0.0936143,-0.0137584,0.0570598,-0.00648183,0.00154921,0.0531257,0.0233396,0.101078,-0.00561984,0.0334143,0.0785018,0.0990025,-0.021799,0.0643329,-0.0334118,0.038563,0.0619674,1.55991e-05,0.0690399,0.0390838,-0.0145646,0.00414475,-0.0249139,-0.104607,0.0806562,0.0231756,0.0475369,-0.00176787,-0.0140945,-0.0165883,-0.0335104,-0.0222563,0.0597842,0.00477471,-0.0423876,-0.00436234,0.0205862,-0.0747744,-0.0229234,0.0223051,0.095189,-0.0452041,0.0265907,-0.0745307,0.027404,-0.00641087,0.109824,-0.0489372,-0.0869331,0.011721,0.00653614,-0.0636388,-0.0879366,-0.0914444,-0.0329852,0.0610364,-0.0677376,0.0300805,0.043318,0.0515954,0.0398196,0.478426,0.337639,0.306876,0.197146,0.106009,0.250092,0.150661,0.226653,0.165546,0.156193,0.12134,0.0883437,0.0561779,0.102299,0.113331,0.0446551,0.078728,-0.0103765,0.0694468,0.0518913,0.0280428,0.136516,0.0738328,0.111893,0.143688,0.106815,-0.0257524,0.128156,0.0841827,-0.0169947,-0.0177055,-0.00632634,0.038834,-0.0099279,-0.0139389,0.0996473,0.00573667,0.0160786,-0.0131875,-0.0121138,-0.0549504,0.0252115,-0.0559456,0.0155244,0.037649,0.0464024,-0.00954427,-0.0572413,0.0107391,-0.0633467,-0.0681733,-0.00394115,0.00394717,0.10485,0.0470166,0.00805348,0.0451065,-0.0548595,0.013533,-0.0080835,0.0603506,-0.0048237,0.0391413,0.0281153,-0.065349,0.0275935,0.0512841,0.151044,0.0547682,0.0431353,0.0381641,0.135798,0.101875,0.0168389,0.0338627,0.0239544,0.019131,0.0309268,0.117881,0.0465661,0.0181687,0.0246459,-0.0310125,0.0694107,0.0254079,0.0498038,0.0703888,0.0270165,0.0163503,0.050022,0.102392,0.0230203,0.0308257,-0.0340929,0.0384426,0.0647397,0.0671731,-0.0126786,0.0240216,0.0466927,-0.0369296,-0.0930201,0.00894526,0.0125018,0.0455216,-0.0412531,-0.0264522,-0.0994854,0.0125561,-0.0490796,-0.0254483,-0.0510558,-0.0611391,0.0104137,0.0507591,0.108519,-0.00771563,0.0375932,0.0329889,0.0151368,-0.0315075,-0.0531598,-0.000690136,-0.000822406,0.0613804,-0.0560141,0.0127462,0.149717,0.211887,0.319008,0.187663,0.171539,0.201591,0.233253,0.246749,0.0697167,0.138968,0.100115,0.0207817,0.102816,0.119407,0.124295,0.133494,0.0639241,0.00288559,0.0106154,0.042117,0.00066549,0.0672465,0.052359,0.082869,0.0176227,0.0326364,0.042002,0.00380061,0.056548,0.0334764,-0.0426825,0.0374761,-0.024309,0.0852747,-0.00645541,0.0962147,-0.0633473,0.0529333,0.0675537,-0.042503,0.100111,0.0378558,0.0498254,0.0286613,0.0785217,0.0146262,0.0938174,-0.0193721,0.0783112,0.0127855,-0.000977713,0.0648123,-0.00137967,0.0258892,0.0269136,0.000823318,-0.0460928,0.013617,0.0426526,0.0850971,0.0170797,0.00738975,-0.0181416,0.00692625,0.0578269,-0.049296,-0.0149571,0.00202442,0.069686,0.0400949,-0.125771,-0.0031087,-0.00957623,-0.0145983,0.0608518,0.0919823,0.0290682,0.0638013,0.129922,0.0472189,0.123927,0.129305,-0.0137696,0.0315214,0.0591117,0.117597,0.0156109,0.0530908,-0.0302843,0.0173659,0.0995284,0.064797,0.0430662,-0.000717437,0.0266628,0.0688559,0.126655,0.0845548,0.0151682,0.0349477,-0.0414137,0.0337129,-0.0133012,0.0676787,0.119715,0.0461958,-0.0458429,-0.0328891,-0.011618,-0.00731953,0.0555647,-0.0665707,0.0194365,-0.105406,0.0333202,0.0377825,-0.0526056,-0.0771682,-0.00249855,0.0475506,-0.0390879,0.00701476,-0.0340786,0.0193336,-0.0350385,-1.60159e-05,0.0742142,-0.0137122,-0.108487},
        {9.05454,-1.23005,-1.78047,-0.0453095,-5.78208,0.0706805,-5.34475,-0.0184055,-8.74727,-1.26686,9.58408,-3.67742,3.681,0.544195,1.45275,0.140233,2.84903,-0.677611,-4.23479,0.866294,0.450052,-0.163561,1.42797,0.234177,0.751821,-2.17036,0.0270574,-0.62408,-0.684575,0.51455,0.838553,-0.251426,1.00277,0.478105,-1.02594,0.0341976,-0.693438,-0.628956,-0.815667,-1.17023,-0.747586,-0.620691,-0.69595,-0.230336,-0.370634,0.502859,-0.0130915,0.720471,0.260629,0.330077,0.313479,0.638463,0.581329,0.552667,0.755962,0.430319,0.119922,0.355246,0.0970981,0.367858,-0.18904,-0.102264,0.169828,-0.0263155,0.147033,0.0507795,0.328374,0.19157,0.691988,0.498759,1.2449,1.14064,-0.0587243,-0.147718,1.01015,-0.672288,0.797993,-0.0392495,0.554775,0.0681354,1.1782,-0.225892,-1.95007,0.486835,0.386012,0.124361,1.01736,0.28951,0.662231,-1.5174,-0.0925059,-0.620029,-0.735063,0.190099,0.430706,-0.505356,0.668256,0.270899,-1.09329,-0.146858,-0.613371,-0.555635,-0.732638,-1.02139,-0.734515,-0.641241,-0.551071,-0.0738089,-0.365836,0.392305,-0.115625,0.422393,0.0633741,0.129647,0.0890446,0.376402,0.397859,0.445295,0.600672,0.355912,0.173726,0.372298,0.160225,0.367261,-0.0568608,0.0754352,0.0800561,0.124579,0.109674,0.0613587,0.0488987,-0.025321,0.0854812,0.00160948,0.023369,0.0083486,10.2179,17.8194,13.4825,3.60774,4.14818,0.0886271,-2.92189,1.43434,1.23995,1.17619,1.35328,-2.45211,0.628433,0.648014,1.92021,-1.82351,-1.08772,1.18346,0.323305,-1.07932,-2.64583,0.257498,0.00431776,-1.2886,0.0903962,-1.15933,2.91882,0.238833,0.336566,0.161949,-1.73655,-2.55636,-1.88198,-1.85205,-1.01517,-0.402293,-0.572036,0.545748,0.512851,-0.465446,0.19971,0.206144,0.115341,0.0650209,0.158559,1.06184,1.24066,0.59086,0.131292,0.40829,0.479029,0.493577,0.209347,0.171349,0.575007,0.245007,0.45298,0.0719464,-0.0492179,0.649548,1.43552,0.728484,1.80605,1.9574,-0.0291579,1.16325,1.49009,0.472893,0.771813,-0.024819,-0.911391,0.506863,0.580317,0.732812,0.876972,-1.34297,0.564729,0.491094,1.43868,-1.08092,-0.780416,0.8866,0.146464,-0.85748,-2.42813,0.0473418,-0.136674,-1.33649,-0.0590194,-1.22195,2.76629,0.234144,0.39915,0.203032,-1.43875,-2.43245,-1.77726,-1.7263,-0.807519,-0.472992,-0.556357,0.437097,0.548095,-0.503053,0.00735019,-0.0942256,0.101289,-0.0970936,0.0584973,0.834932,0.688714,0.487057,0.136187,0.333096,0.421153,0.333124,0.106128,0.0667848,0.251889,0.0346334,0.0199141,-0.0476754,-0.195556,-0.00487583,0.0893643,-0.00246745,-0.0950506,-0.0343237,-0.440251,1.23558,3.71488,0.210366,-3.58054,-3.53316,-3.22537,0.142265,-1.11399,0.991709,-0.101075,-1.69261,1.82374,1.2947,2.94306,-0.864934,0.659583,-1.36293,0.413843,-0.677542,0.514936,0.761397,1.34224,1.44042,1.68961,1.14899,3.60499,0.898733,-0.108705,-0.20044,-1.03657,-0.739406,-1.24417,-1.26309,0.15638,-0.162897,-0.972629,-0.0605275,0.144322,-0.905854,-1.47687,-0.639416,-1.28745,-0.807575,-1.01582,-0.85422,-0.0692618,-0.697688,-0.728608,-0.724904,-1.39317,-1.21422,-1.57407,-1.64644,-1.0999,-1.25161,-0.92954,-1.00423,-1.26993,-0.782674,-0.271699,-0.894357,-0.857529,-0.642078,-0.188396,-0.0710654,0.130704,-0.144346,-0.843574,-1.12244,-1.1154,0.108002,-0.40927,0.454793,0.0941664,-0.75342,1.31953,0.97826,2.1535,-0.386809,0.45893,-0.955413,0.2492,-0.639496,0.310675,0.497317,0.972306,1.15146,1.39439,0.974852,3.36922,0.81729,-0.17009,-0.149356,-0.964056,-0.508152,-1.13429,-1.11744,0.350024,-0.108319,-0.940928,0.0117897,-0.00974182,-0.91125,-1.44916,-0.729774,-1.40908,-0.963421,-1.02124,-0.763804,-0.149801,-0.434221,-0.430858,-0.410529,-0.757897,-0.564117,-0.64402,-0.730079,-0.512787,-0.436681,-0.381792,-0.399809,-0.376528,-0.283091,-0.0839294,-0.226179,-0.0616281,-0.135942},
        {0.236956,-0.0332657,0.696058,0.0579632,0.698559,-0.0515068,0.623202,0.135671,0.541194,0.549444,0.503059,0.386562,0.295191,0.276611,0.227773,0.201147,0.105845,0.133916,0.166847,0.0808711,0.203824,0.150109,0.0832333,0.139944,0.0940163,0.0671943,0.10075,0.112483,0.118794,0.118478,0.080503,0.049795,0.0703065,0.0670025,-0.00365311,0.00271085,0.0385578,0.0573211,0.0599239,0.0927166,0.032154,-0.0135838,0.0579678,-0.000884254,-0.0194576,-0.00583802,-0.0389776,0.0790935,0.0317311,0.0478706,0.0666811,0.0179249,-0.0418359,-0.0441928,0.00942213,0.0677987,0.0559046,0.0155985,0.0178188,-0.053462,0.0160015,0.00985988,-0.0466156,0.0507172,0.0294569,0.00573399,-0.0177171,-0.0235924,0.0702619,-0.027192,-0.11248,0.0482996,0.12487,0.0183814,0.0425915,0.0811388,0.0959968,-0.081704,0.00399746,0.0924527,0.00566863,0.126403,0.0162597,0.0066989,0.125975,0.0457975,0.0192745,0.104771,-0.0279977,0.107595,0.00620093,0.0907454,0.139965,0.114583,0.0748507,0.0055552,-0.0168692,-0.0209182,-0.0180688,0.0453348,0.0834794,0.0284444,0.054795,-0.0416802,-0.00721426,0.0971916,0.0813587,0.0052354,-0.000824346,0.0496983,0.0459289,-0.0210678,0.0220642,0.0141001,0.0260092,-0.018807,-0.0754546,0.0264614,0.0323065,0.0550726,-0.0117952,0.0684059,-0.0589961,-0.0367174,0.054221,0.0268767,-0.0952242,-0.0298501,0.00683939,-0.00168788,0.0501346,0.0394401,-0.0371774,0.0245956,-0.00837119,-0.00986182,0.536701,0.493197,0.438734,0.470714,0.381553,0.164177,0.239794,0.294435,0.18992,0.0722711,0.24329,0.19758,0.283606,0.215215,0.152144,0.198856,0.0540726,0.0522384,0.161377,0.109501,0.148808,0.0894226,-0.0922146,0.0933767,-0.012659,-0.0139893,0.0554866,0.060143,0.0903366,0.0733002,-0.0533223,8.33013e-05,0.0119236,-0.0791695,0.000783029,0.0970558,0.0211547,0.0378653,0.0286805,0.0634172,-0.0219445,0.0156057,-0.105614,0.0583921,0.00967755,-0.0429395,0.0325498,0.0350421,0.153614,0.061583,0.0501083,0.0326341,-0.043849,0.120612,-0.0631613,0.0467064,0.0366715,-0.0111583,0.0488376,0.0536619,-0.00861325,0.0231803,0.0733079,-0.00605247,0.0613811,0.0964584,-0.0530403,0.110508,0.0154714,0.0465771,0.0234783,0.0892798,0.0922438,0.0410979,-0.0181092,0.125355,0.129678,0.1058,0.147027,0.0889794,0.103331,0.0472441,0.0754895,0.133783,0.0586444,0.044497,0.109238,0.0979369,0.0537615,0.0441592,0.0121768,0.0158554,0.094047,0.100128,-0.0216544,0.0722037,0.0971334,0.123993,0.0441044,0.0814633,0.027693,0.0166127,0.0430659,0.0309903,0.0629584,0.0614503,0.0180785,0.090252,0.0264355,-0.0199832,-0.0682882,0.0207089,0.0453429,0.0223674,-0.0181343,0.087819,0.00989075,-0.0316766,0.0890198,-0.0415093,0.0722249,0.0144617,0.0188129,0.0143185,0.0799121,0.0996829,0.0133594,-0.0401559,0.216659,0.278224,0.318601,0.285071,0.240597,0.220772,0.192944,0.250088,0.21189,0.109414,0.1145,0.147757,0.160578,0.0882721,0.0869531,0.163774,-0.0261239,0.138708,0.0459486,0.0254738,-0.0697197,0.0449448,0.111405,0.059804,0.0858295,0.0390871,0.0890888,0.147655,0.0633702,0.0341323,0.023487,0.0205479,0.0657764,0.0118211,0.0461507,-0.0526182,0.00290176,-0.0530576,0.0242308,0.0225084,-0.015835,-0.0229174,0.0254087,0.0368479,0.00342413,0.0473151,-0.00433195,-0.0148513,-0.00925938,0.00868747,0.00103419,0.0440618,0.138615,0.0622209,-0.0451175,-0.0131146,0.0624686,0.100568,0.0480087,0.054098,-0.0381629,0.0117992,-0.0149921,-0.00206188,-0.055183,0.0462918,0.145994,0.0792802,0.0947344,0.0835605,0.0148081,0.0693325,0.178015,0.0150223,0.0450351,0.084114,0.106326,0.0647928,-0.0347745,0.0555671,0.0880588,0.0790006,0.0735394,0.0844311,0.134442,0.118973,-0.00344125,0.145085,0.0427131,-0.016257,-0.0796016,0.0333763,0.0489698,0.0546241,-0.039478,0.0159334,0.110891,0.0866544,0.034333,0.0175726,0.00895624,0.0678772,-0.0121786,0.0654016,0.0401842,0.038847,0.0500517,0.0721671,0.093325,0.0523565,0.0495205,-0.106409,-0.0365646,0.0854431,0.00594016,0.00228003,0.0331018,-0.0102496,0.0681597,-0.0857334,0.0722133,0.00128512,-0.0355622,0.0580129,0.026407,0.0306615,-0.0202552,-0.0713041},
        {0.135167,0.0235483,0.675137,-0.0975217,0.649761,0.00819813,0.704406,-0.0313329,0.764143,0.375693,0.336025,0.334578,0.401796,0.225468,0.180965,0.190513,0.115087,0.0723386,0.0672405,0.0349914,0.0562876,0.0860181,-0.0458588,0.0646937,0.056465,0.0166633,0.0304026,0.0627198,0.0510178,0.0952248,0.0833862,-0.0229316,0.141866,0.122622,0.050612,0.129274,0.0441783,0.10739,0.00380224,-0.0192173,0.0121039,0.0782246,0.05883,0.0261534,0.0369084,0.0379455,-0.0052982,0.0678387,0.0498094,-0.00699231,0.0438811,0.0602223,-0.0129972,-0.0545555,-0.0165711,0.0109689,0.079606,0.0442133,0.0186335,-0.0267761,-0.0289026,-0.00466226,-0.000559655,0.0226883,0.0363983,0.128301,-0.100956,0.0255669,-0.0752347,0.0729725,0.0949063,-0.0285268,-0.0216459,0.00465732,-0.00641102,0.119694,0.101902,0.125909,0.0399095,0.14753,0.14948,0.0906419,0.0102134,0.0442969,0.0575343,0.0624967,0.135756,0.00087006,0.0328287,0.0617636,-0.0518529,0.018008,0.117139,-0.0421948,0.0847029,0.0457559,-0.00594838,-0.0235073,-0.0360623,0.0303575,0.0261562,0.00683912,0.110716,0.0767581,0.00544164,-0.0188383,0.0105895,0.00560512,0.0180131,-0.0261143,0.0303938,0.0249784,0.0888,-0.0363838,0.0277704,-0.00449889,-0.0219689,0.0419137,0.0345841,0.0137839,0.0208907,-0.0390811,-0.0232326,0.00890994,7.49786e-05,0.0345534,-0.0802951,-0.0377083,0.0299136,-0.0986956,-0.0109137,0.0726571,-0.0171597,-0.0720393,0.0257956,-0.103675,0.521806,0.411532,0.346363,0.363375,0.339525,0.196425,0.297165,0.282179,0.206445,0.114456,0.117487,0.165585,0.160745,0.0426624,0.153112,0.140476,0.104382,0.0623518,0.0157297,0.105806,0.113218,0.0979671,0.0862404,0.0752591,0.0809663,0.0745777,0.107211,-0.0125885,0.00114592,0.0923658,0.0908691,-0.0157649,-0.00927126,0.128415,-0.00545508,0.00929485,0.0555301,0.00346219,0.0225752,0.00213639,-0.00884476,0.0314555,0.0773448,0.0112061,-0.0152581,0.0301296,0.0966581,-0.0386421,0.0649528,0.016682,0.00419326,-0.038197,0.0033323,0.0475873,0.107974,0.0294906,-0.00426829,-0.0189072,0.0360978,0.0438134,0.0425912,-0.00596378,-0.0062997,0.0580554,-0.04269,-0.0206841,0.0352128,0.0899107,0.059972,0.0805846,0.122559,0.0215442,0.0398925,0.042102,0.126634,0.0672295,0.0848848,0.147626,0.0395273,0.0395587,0.102588,0.105486,0.0508011,0.0495409,0.117525,0.0805396,-0.015725,0.0974348,0.0403301,0.043545,0.0786837,0.0825806,0.0627617,0.054833,-0.0681805,0.0119327,0.0514945,0.0160901,0.0806778,0.10956,-0.0318335,-0.0143076,0.093044,0.0443313,-0.034365,0.0444315,-0.0630273,-0.0751224,0.00501652,0.042897,0.0416131,-0.0373559,0.00480702,-0.0557149,0.0243082,-0.0100278,0.0428271,-0.0348468,0.0351249,-0.0979578,0.100673,0.052493,-0.0365588,-0.0480294,-0.0397288,0.0548164,0.0799858,-0.0118562,0.252957,0.176206,0.240791,0.293429,0.242683,0.170054,0.145495,0.115737,0.0513279,0.132019,0.126634,0.0492507,0.055797,0.0017438,0.0461161,0.151186,0.0297861,0.0826617,-0.0134638,0.00294331,0.0556466,0.0418111,0.0539011,-0.0145138,0.0172159,0.101573,-0.021454,-0.0480886,0.074941,0.0419826,0.0406001,0.0651786,0.0419777,0.0443894,0.0647116,-0.0840269,-0.0156135,0.033526,0.00875762,0.0626644,0.0330673,0.0150476,0.0387377,-0.000890582,-0.0178223,0.0347521,0.0647465,-0.0947963,-0.0421552,-0.00995948,-0.0483654,0.0716652,-0.0287597,0.0656238,-0.00429133,0.0178968,0.0211771,0.027685,0.0152239,0.0317159,0.021493,0.00900558,0.0242959,0.00104346,-0.0273761,-0.00906993,-0.0580648,0.106191,0.129331,0.0363995,0.106614,-0.050394,0.038206,0.000572487,-0.0171486,0.036397,0.0766008,0.0929373,-0.00878773,0.062538,-0.00715562,0.0604791,0.0141771,0.0118723,0.0187262,0.0869825,-0.0537213,-0.0166839,0.0134414,0.0430749,0.0059646,0.0138591,0.0772167,0.0212853,0.0437517,0.134816,-0.0264947,0.0239056,-0.0320914,-0.0103603,-0.0217914,-0.0868901,-0.0144216,-0.00956234,-0.0165194,0.0106316,-0.0606953,0.0230625,-0.0243846,0.0429248,0.0522279,-0.00774267,0.0226286,-0.0947055,0.0984303,0.074764,0.0272107,0.0134434,0.0699346,-0.0196296,0.0188568,-0.0533512,0.0564622,-0.00372617,0.0769214,-0.0132859,-0.0500684,-0.0808508},
        {0.233008,-0.068931,0.772438,0.0363523,0.609754,-0.029662,0.712032,-0.00418827,0.668595,0.618454,0.425911,0.429556,0.359825,0.316436,0.297756,0.176214,0.15782,0.22582,0.0709421,0.153155,0.0885118,0.118257,0.204943,0.124651,0.098078,0.193876,0.138033,0.111859,0.0670769,0.107304,0.0453306,0.0269228,0.011787,0.113099,0.0893148,0.0242438,0.0513429,0.0445631,0.0944402,0.0179742,0.130544,0.124431,0.097391,0.0891197,0.029756,0.0229793,-0.0293961,-0.130669,0.0668382,0.0341325,-0.0391632,-0.00851209,0.12091,0.00879922,-0.0761572,0.0545105,0.0207398,-0.0109764,-0.0924628,0.0244133,0.0239908,0.0420047,0.00141228,0.061986,0.108063,-0.00515878,0.00300718,0.00399788,0.0334501,0.0640259,-0.0288412,0.0221599,-0.0101192,0.0945091,0.0868315,0.0183551,0.11357,-0.00823268,0.090761,0.0563569,0.0814235,0.0987206,0.0327112,0.0776875,0.0302708,-0.0551655,0.123535,0.0576298,0.0921482,0.0134459,0.0922559,0.08101,0.0524622,0.0678653,0.0387533,-0.00292174,0.10051,0.014666,0.0971263,0.00759209,0.0422027,0.079096,-0.0114497,0.00646256,0.105159,-0.0201825,0.030238,-0.0781809,0.0285062,0.0139361,0.027137,0.00498463,0.06616,0.0865557,0.0300467,0.0139129,0.0156272,0.0130051,0.0954448,-0.0422636,-0.0204625,-0.0368763,-0.0459925,0.0453639,0.0154137,0.0597756,-0.0535152,-0.0426044,0.075103,0.0102964,0.0830005,0.045154,-0.0638426,-0.0362997,-0.0147957,0.0334834,0.528238,0.528933,0.252676,0.317794,0.422537,0.311582,0.283784,0.219947,0.199715,0.217962,0.216148,0.221081,0.116072,0.212213,0.123368,0.138524,0.118224,0.00331236,0.176165,0.0736555,0.086202,0.0745367,0.0449266,0.0672064,-0.00379031,0.0664797,0.0245191,0.185226,0.0501416,0.0483163,0.0438589,0.0314165,0.0816972,-0.0242709,0.0425713,0.0980223,0.0186214,0.129736,0.0499275,0.0749999,-0.0517399,0.00278456,0.0595948,0.00255351,0.0139776,0.0392007,0.0180281,0.0548028,0.0633629,-0.0499288,-0.0186374,0.0218398,-0.0309222,0.0592624,-0.0454053,-0.0458739,0.00265608,0.0171848,-0.0558225,0.0376356,-0.0109991,0.0273584,-0.0291571,0.0431619,0.0570884,-0.048187,0.0391272,0.0327663,0.124699,0.198838,0.106465,0.0717853,0.00696142,0.0922766,0.0663494,0.1999,0.067023,0.0764107,0.134437,0.103403,0.151001,0.0491156,0.0357687,0.0392214,0.0928052,0.0312511,0.0373443,0.10668,0.0112854,0.0266784,0.0709028,0.0956289,0.0208996,0.0656879,-0.0241395,-0.00422316,0.0378733,0.0600097,0.0639666,-0.047752,0.0203423,0.00599629,0.0609602,0.0653063,-0.0019518,-0.0154977,0.0478288,0.0428614,0.00164577,-0.0572998,0.0122616,-0.0530442,-0.0592043,-0.0100124,0.082226,0.0867617,-0.030941,-0.0450888,-0.0308636,0.0292985,-0.015033,0.0606925,-0.000428048,0.044621,0.115874,0.0534918,-0.024231,-0.0760962,0.286478,0.333051,0.215735,0.241865,0.220951,0.188754,0.218579,0.191122,0.152558,0.172061,0.128575,0.0707005,0.0594027,0.0998264,0.184589,0.0864248,0.109337,0.0990642,0.0414966,0.0727351,0.104953,0.0687054,0.157007,0.0186397,0.0383365,0.174962,0.0135175,-0.0047142,0.141593,0.0459838,0.0159764,0.11358,0.0293765,0.0307778,0.0256991,0.0321339,0.112264,-0.0166148,0.0403381,0.011101,0.0608596,-0.0504902,0.0325745,0.109765,-0.0531735,-0.0402261,0.0949962,-0.0307267,0.0550446,0.00191334,0.0596822,-0.046161,-0.027361,-0.0451446,0.0242545,-0.0500178,0.0193341,-0.086181,-0.072874,-0.0635345,0.0447993,0.0130795,-0.0106648,-0.0115612,-0.00770942,0.0820138,0.0320288,-0.0345226,0.00759191,0.0941149,0.137746,-0.0217169,0.0187386,0.0665617,0.0927457,0.10194,0.0732291,0.0585906,0.0852045,0.117097,0.0691798,0.0147273,0.0376121,0.0922541,0.150618,-0.0479858,0.0576125,0.0397844,-0.00512966,0.00440093,-0.0277707,-0.00753482,0.0998439,0.0840438,0.101031,0.0441151,0.057924,0.053074,-0.00686715,0.0155137,0.00914843,0.0551875,-0.0681268,-0.0228841,0.0164317,0.0142581,-0.0451427,-0.0107952,0.0119023,-0.0355458,0.0156624,-0.0704162,-0.0262621,0.00964954,0.0760773,-0.0446692,0.0176034,0.0330486,0.115383,-0.00402926,0.00754494,-0.0310305,0.0721864,0.0176091,-0.031285,0.131042,-0.132673,-0.109018},
        {0.447971,0.185316,1.01868,-0.0431776,0.324809,0.0798504,0.38641,0.0925102,3.16225,1.23598,1.74638,1.68366,1.28638,0.897028,1.03498,1.2025,0.84191,0.624377,0.718581,0.885566,0.483796,0.55244,-1.80268,0.32991,0.503462,0.410506,0.386892,0.395105,0.404296,0.223683,0.3105,0.231112,0.292488,0.275437,0.224533,0.154531,0.162776,-0.0334823,0.0909547,0.116422,0.0514576,0.0755879,0.134201,0.0749076,0.183331,-0.0178732,0.0971147,0.172632,0.00159067,0.0428225,-0.0158114,0.113739,-0.00518475,-0.00909078,0.106962,0.0219229,0.00686099,0.210442,0.0269707,0.0299699,0.09627,0.0358329,0.0888384,0.0807123,0.0242729,0.0223641,0.0467657,0.0151651,0.07202,0.00430821,0.0349274,0.0904387,0.0837329,0.069114,0.229135,0.132891,0.221062,0.186742,0.248668,0.361279,0.2691,0.311077,0.374289,0.415483,0.305864,0.406561,-1.15044,0.206979,0.278924,0.289005,0.373278,0.245053,0.307197,0.332272,0.221544,0.312265,0.321117,0.154743,0.204485,0.0983881,0.285572,-0.0634763,0.0837316,0.0905452,0.0840386,0.155478,0.018337,0.0871907,0.194874,0.0544938,0.0481715,0.0976132,0.0174528,0.110765,-0.0458096,0.0521917,0.0368525,-0.0245485,0.043343,-0.0377845,0.0103061,0.00840226,-0.0214866,0.03914,-0.0578977,0.0497615,0.0601524,0.105525,-0.0232251,0.0230364,0.0619375,-0.0383981,0.0271357,0.0617728,0.12963,0.0855496,1.57298,0.410271,0.756442,2.02193,1.7863,0.978275,1.35318,1.15317,1.08152,1.09813,1.14819,1.45563,1.14042,1.4193,1.04881,1.05645,0.991781,0.771107,0.666498,0.844137,0.809581,0.686034,0.56415,0.424905,0.447619,0.379995,0.45413,0.446001,0.323116,-0.513883,0.208099,0.168434,0.0620719,0.170007,0.202318,0.0577048,0.0908659,0.0119367,0.160736,0.125018,0.0306006,-0.0903535,-0.0279325,-0.0516133,-0.0292458,0.0167711,0.0552621,0.0104638,0.0728913,-0.0162423,-0.0803916,-0.154553,0.0169323,-0.0707972,0.0221524,-0.0594764,-0.00342685,0.0288622,-0.0563445,-0.159134,-0.00330104,-0.142723,-0.303967,-0.201423,0.0484974,0.104062,0.0353895,0.404229,0.417879,0.245073,0.463024,0.433346,0.508225,0.513548,0.595671,0.892847,0.71729,0.916235,0.675355,0.845023,0.697122,0.645725,0.540766,0.731434,0.658861,0.608029,0.465158,0.390433,0.453766,0.340903,0.427102,0.42852,0.332485,-0.525504,0.287328,0.0915087,0.115052,0.0851476,0.0509258,0.139344,0.00314608,0.0788633,0.0141539,0.0807695,0.0229949,0.0179965,0.0117418,0.0844373,-0.0518455,-0.0166599,0.0817946,-0.0181937,-0.0294995,0.033267,-0.0556797,-0.111515,0.0501636,-0.0766383,-0.105863,0.0128443,-0.0314366,-0.0194131,-0.0481504,-0.0655282,0.0417902,0.0461424,-0.0512988,0.00715352,-0.58031,-0.0908921,0.311607,0.537769,0.78654,0.686731,0.361702,0.262538,0.413318,0.217914,0.161503,0.103004,-0.0137128,0.122636,-1.84146,-0.0873324,0.0883816,0.150435,0.0717067,0.129473,0.0641359,0.106875,0.0454754,-0.000616868,0.0299638,-0.00625708,0.0972689,0.195759,0.114488,-0.0320431,0.102782,-0.0703007,0.102618,-0.0102424,0.0766751,0.0748831,0.0636072,0.0216312,0.0310943,0.013769,5.66608e-05,0.0502896,0.0277837,-0.0528732,-0.128645,0.0212573,0.0666712,-0.00821737,0.00881104,0.0364716,-0.11514,-0.0336085,0.111153,0.0448296,-0.0165813,0.031334,0.0809757,0.0422483,-0.0175035,0.114449,-0.0368777,-0.0600368,-0.0448198,-0.105601,0.000448847,0.0460482,0.0798464,0.154783,0.196035,0.185292,0.135284,0.0885611,0.0835612,0.109425,0.0333882,0.143129,-0.0730193,0.0127962,-1.23254,-0.0951111,0.081892,0.0543766,0.0277557,0.121216,0.0537081,0.107719,0.0152203,-0.0177928,0.130554,0.0477681,0.12215,0.176887,0.0681485,-0.0720053,0.124625,0.089231,0.0937785,-0.0185063,0.0729373,0.0572058,0.0120035,-0.0394574,-0.0257597,-0.0446919,-0.0421092,0.0786158,0.103865,-0.0298789,-0.0160069,-0.00764798,0.053541,0.0826745,-0.0193241,0.0561293,-0.0409673,-0.0778195,0.0829102,0.0315576,-0.000345225,-0.0364732,0.00985928,-0.0618295,0.025963,-0.0234536,0.133953,0.0297623,-0.0207268,0.0273586},
        {0.176414,0.012011,0.549472,-0.106189,0.443023,-0.0133128,0.455874,-0.0346441,0.384496,0.320893,0.258659,0.196481,0.185813,0.206181,0.129784,0.22986,0.131399,0.0995195,0.0771883,0.105827,0.120659,0.141947,0.133052,0.0844141,0.112873,0.086841,0.0622476,0.153007,0.070628,0.129175,0.109333,0.0369939,0.0447701,0.0623551,0.0704301,-0.0923188,0.0287803,-0.0200373,0.11767,0.0544893,0.103612,0.0775622,0.00902385,-0.048053,0.0612631,0.0299328,0.0116928,-0.0285972,0.0235305,0.103674,-0.0681431,-0.0352307,0.0356361,0.133752,0.0422062,0.0530917,-0.0240572,-0.0353785,-0.0877349,0.0747852,0.063416,-0.00407981,0.00370799,0.0294512,-0.043302,-0.0364015,0.0618099,0.00140178,0.0427386,0.0166427,0.0100299,0.0120437,-0.06731,-0.0704939,-0.0429225,0.0677454,0.031968,0.0215128,0.0431396,0.0788093,0.0956022,0.134808,0.0819277,0.082314,0.041381,-0.016587,-0.0282267,0.0261806,0.135582,0.132076,0.120939,0.105066,0.0682929,0.0772425,0.0849155,0.0229137,0.149471,0.103115,0.00300485,0.130027,0.0493508,-0.00828584,0.0229771,0.0360837,0.0600536,0.0214446,0.0195374,-0.0198261,0.151678,-0.0389439,0.0199692,-0.0318418,-0.0876233,0.0137816,0.0301689,0.011541,0.0519049,-0.0649614,-0.0884559,-0.0466158,-0.0121699,-0.0810869,-0.0119034,0.0108048,-0.0346812,-0.00775061,0.0241548,0.0874143,0.0443192,0.049437,0.0111432,-0.105454,0.0920102,-0.0424912,0.0444961,-0.0142163,1.18227,0.57438,0.420827,0.387253,0.234919,0.364646,0.197509,0.244713,0.25381,0.228751,0.19976,0.222352,0.202692,0.264633,0.140568,0.180075,0.283679,0.226416,0.111838,0.13164,0.102836,0.167353,0.150616,0.118868,0.138627,0.0199836,0.0104733,0.114185,0.0426651,0.150396,0.120724,0.058177,0.0509171,0.0539115,0.0271152,0.0615416,0.123261,0.07453,0.0139737,0.0579159,0.0232264,0.00679056,0.0751826,-0.0117175,0.0465895,-0.0667433,0.0181592,-0.113244,0.0962788,0.00308763,-0.0316159,0.0916856,0.103662,0.0152861,-0.0109939,0.00433719,0.0604466,0.00223226,0.0226396,0.117704,-0.0179224,0.0102586,-0.000149775,-0.0196671,0.0552047,0.0343404,0.0915667,0.13079,0.0779511,0.0594641,0.0818047,0.116581,0.142183,0.127607,0.153629,0.0799563,0.166567,0.161014,0.104126,0.152967,0.0265594,0.0678581,0.177568,0.0862013,0.103234,0.123831,0.0618769,0.0246289,0.101074,0.116215,0.124657,0.0751663,0.0339173,0.0381996,0.0682859,0.0669568,0.00458364,-0.030388,0.0675021,0.0388281,0.0350441,-0.0130443,0.0830867,0.0439192,0.0706106,0.0427315,0.074095,0.0670725,0.0162695,-0.0988866,0.0403268,-0.0501096,0.0126248,0.0382804,0.110818,-0.0711715,0.134849,-0.0303376,0.0864689,-0.0457219,0.02058,-0.00478595,0.0210221,-0.027428,-0.0509126,0.0836738,-0.036416,-0.00593865,0.228096,0.333511,0.111647,0.204438,0.230531,0.144365,0.225601,0.279151,0.178731,0.175546,0.106659,0.0862894,0.0914549,0.0319959,0.11351,0.0941074,0.0976255,0.0499171,0.161549,0.0406078,0.0591809,0.0176534,0.0485193,0.0452007,-0.0297439,0.0743426,0.0744059,0.108,0.0111422,0.0221874,0.0495491,0.010586,0.104204,-0.018885,0.0763384,0.0221558,0.0505912,0.0353291,0.0420378,0.0231491,-0.0581595,-0.0510319,-0.0304986,0.0130022,-0.0262036,0.0190838,0.00814998,-0.0438199,0.0360065,0.0457895,-0.0933799,-0.0369704,0.0661944,-0.0599194,-0.0997582,0.0105928,-0.0321389,-0.00222435,-0.0424837,-0.0147662,0.0810975,0.00682807,0.0102982,-0.0986147,-0.0407747,0.0339694,0.12392,0.0647035,0.0430682,0.0445185,0.0882803,0.0864624,0.0846141,0.172369,0.119775,0.0658083,0.115109,0.016503,0.0882815,0.0773531,0.097543,0.128879,-0.0030484,0.0611633,-0.0508715,-0.0155816,0.0520831,0.115057,0.0145832,0.00209838,0.0750358,0.0566131,-0.0263287,0.0170895,0.0283797,0.0299507,-0.0270321,0.0182436,0.104075,-0.00860166,-0.0230556,0.0225043,0.0127295,0.0335027,0.0704335,0.0140282,-0.0354035,0.0264163,0.0508976,0.0674743,-0.0319794,0.0122928,0.0434847,0.0156944,-0.0335641,0.0432035,-0.0652962,0.0318356,0.0375495,0.016228,-0.0443674,-0.0887554,0.0440788,0.0426178,-0.00459682,0.0166581,-0.0129348,0.0194668},
        {0.0860916,0.0889421,0.797066,-0.00932064,0.634982,-0.0259882,0.633783,-0.0310895,0.749983,0.568191,0.455236,0.459168,0.300599,0.218042,0.200017,0.285201,0.250073,0.172511,0.156627,0.166829,0.11,0.187079,0.0741136,0.261099,0.0905298,0.124384,0.0876743,0.112461,0.10713,0.0677296,-0.0474108,0.141809,0.0990836,0.203452,-0.00653363,0.158143,0.0958603,0.0712061,0.0515824,0.130801,-0.00695153,-0.0223938,0.0591699,0.0354955,0.00127891,-0.0161961,0.0258733,-0.0638711,0.0332466,-0.00570516,0.00785003,0.0881546,0.029551,-0.0131256,0.0359519,-0.0186042,0.0324492,0.110612,-0.00205434,-0.0393029,0.0392434,0.153719,0.0629049,-0.0535755,0.0386788,0.0189916,-0.0618015,0.0222763,-0.00357092,0.0201793,0.0835424,0.0848798,0.0334593,0.0399201,0.0137846,0.175122,0.117796,-0.0197233,0.0490049,0.0585793,0.0947031,0.15753,0.122477,0.0754148,0.188727,0.124323,0.0655178,0.0541866,0.104945,0.0661297,0.100882,0.139417,0.0417855,0.161141,0.019079,0.0856502,0.128787,0.131032,0.0371209,0.0326936,0.122043,-0.00991142,-0.00751959,0.0569968,-0.0108816,0.033563,-0.0400088,0.00502589,-0.0470922,0.0960457,-0.061245,0.0335983,0.00749863,-0.0578441,0.0296722,0.0112751,0.00345794,0.0912053,0.0794764,-0.0237612,0.0249394,-0.0657545,-0.0296941,0.0638041,-0.0762864,-0.0240702,0.0771881,-0.0473448,-0.00248324,0.0624829,0.0258496,0.0294895,0.0261324,0.109962,0.0551105,-0.072195,0.533464,0.437919,0.473252,0.32169,0.266904,0.162995,0.236372,0.221313,0.196661,0.142097,0.187556,0.200654,0.092794,0.184697,0.249886,0.101291,0.120843,0.154966,0.0538997,0.0956848,0.0985108,0.0820113,0.0759733,0.021639,0.110024,0.0575031,0.0716261,0.114558,0.117115,0.13602,-0.00137453,0.0041171,-0.0237132,-0.119023,-0.00792325,0.0328501,0.0577316,0.0298184,0.0398323,0.0471277,0.110494,-0.0949418,0.066742,0.0246273,-0.0668844,0.0288204,0.0207924,0.0530706,-0.026549,0.0181723,-0.0394848,0.0788423,-0.03458,0.0075668,-0.0370156,-0.0288957,0.0408787,0.0271587,0.0399685,0.0458233,0.0934486,0.016165,-0.0351419,-0.0490123,0.0318564,-0.0125155,0.116344,0.151925,0.00266227,0.0586595,0.0530932,0.0853846,0.102502,0.0797505,0.0817586,0.0791907,0.153428,0.0816114,0.0998439,0.0173536,0.163756,0.125945,0.131859,0.0837036,0.0401771,0.0796971,0.101615,0.128585,0.0279766,0.0359123,0.129348,0.0340145,0.0460951,0.0715884,0.0763662,0.177778,0.0690821,-0.00222019,0.0469875,0.0870319,0.00993096,0.0183856,0.00130915,0.021222,0.036392,-0.00819799,0.0403277,0.0543384,0.00837367,-0.0244843,0.0544554,0.0270559,0.00128932,0.0875566,0.00592212,0.0147149,-0.00715215,0.0364362,-0.00512133,-0.0114566,0.106501,0.0520525,0.0369572,-0.0203596,-0.0970923,0.0177147,0.00511754,-0.0148214,0.296938,0.330249,0.258324,0.317337,0.298758,0.203817,0.145869,0.250576,0.184606,0.103892,0.107122,0.0911819,0.0758067,0.145354,0.11841,0.140555,0.0521921,0.0397252,0.0922129,0.063172,0.103688,0.0181906,0.0514678,0.0746546,-0.00874577,0.0859289,0.0633178,0.17433,0.0440857,0.0844464,0.110023,0.0157446,0.0910124,-0.0302294,0.0315315,0.0629999,0.0685503,0.0810332,-0.0769746,-0.0711139,0.0137091,0.0502032,-0.0126294,0.0483457,0.0538333,0.0364636,-0.0163427,0.0133428,0.0281994,-0.0108349,0.0965049,0.024387,0.0697027,0.0333958,-0.0259425,-9.07408e-05,-0.0119269,-0.0174218,0.0403678,-0.00770695,0.014628,-0.000969875,0.00859944,-0.0730111,-0.0148139,0.0727033,-0.040498,-0.0441153,0.00520133,0.0518651,0.131529,0.0377007,0.0777079,0.050246,0.019698,0.0201012,0.0784485,0.0163011,0.0463265,0.0788321,0.0282128,0.056439,0.0779253,0.0234008,0.07995,0.0314284,0.0464605,0.0730389,0.0417741,0.053854,0.0171734,0.0960247,0.00828275,0.0597276,0.0958641,0.0553609,0.0374924,0.00394922,0.0686317,0.0795386,0.0919034,0.050917,0.059599,-0.00957702,-0.0425698,0.0345688,0.0474639,0.00414411,0.0118599,0.00266754,-0.0183895,0.0166611,-0.0270063,-0.0103754,-0.0549703,-0.0898746,-0.0267494,-0.105299,0.0470023,-0.0149122,-0.042741,-0.0155447,0.030378,-0.03541,0.0321015,-0.0321771,-0.0096771,-0.0147934},
        {0.0318525,0.0069454,0.479811,-0.0400785,0.294068,-0.0298688,0.373249,-0.0409127,0.487545,0.419451,0.334157,0.0934152,0.119523,0.255648,0.246597,0.160286,0.15321,0.249251,0.153661,-0.0055298,0.126185,0.160392,0.108499,0.141282,0.0437477,0.0551161,0.0207282,0.08848,0.0904484,0.0537645,0.12662,-0.0387013,0.0728444,-0.0282118,0.0736595,0.0718689,0.0206341,0.0575689,-0.0283253,0.0113994,0.00455877,-0.0481615,0.0299921,0.046977,-0.00524877,0.0921521,0.03698,-0.0117473,0.0556187,0.025664,0.00789657,-0.0384687,0.116935,-0.000509322,-0.00151918,-0.0923017,0.011891,-0.0409512,0.146547,-0.000531359,-0.0606633,-0.00308253,-0.0304625,-0.00421233,0.00267495,-0.0750934,-0.0914618,-0.00743452,0.0433245,0.0565586,-0.00733017,-0.0442187,-0.00995702,-0.0722637,-0.0224315,-0.00454514,0.123602,-0.0240961,0.0373727,0.118777,0.0270271,0.16096,0.0907552,0.0323299,0.056245,0.0676648,-0.0278208,0.033358,0.0365454,0.0121066,0.0955604,0.0871675,-0.00484466,0.0672789,0.0823502,0.126671,0.0280919,0.0277878,0.0493476,0.0450908,0.0289291,0.0644974,-0.0513706,0.0189708,-0.0181646,0.014196,0.0480558,-0.0238273,-0.0189808,-0.040934,-0.0480357,0.0417986,-0.0154387,-0.0479567,-0.057351,0.0408932,-0.0803929,-0.0507028,0.0194136,0.0384091,-0.0641348,-0.0597946,-0.0444021,-0.0110535,-0.095443,0.0885253,0.0145339,-0.0447101,0.00111647,-0.0603571,-0.0301874,-0.00445399,0.0106606,0.0511526,-0.0499818,-0.0201482,0.450855,0.353337,0.327796,0.224008,0.254504,0.259365,0.138963,0.153011,0.245887,0.191246,0.178238,0.126145,0.0220275,0.0902977,0.123432,0.0831306,0.0416229,0.0555393,0.0998723,0.0624042,0.116076,0.0640996,0.110593,0.0113944,-0.031088,-0.0242025,0.0799264,0.0787585,0.0646214,0.0290535,0.0505838,0.0928306,0.0286663,-0.0288579,0.023816,0.0225275,0.00492942,-0.0214064,-0.0380714,-0.0635819,0.0803707,0.0894273,0.107221,0.00434047,0.0254564,-0.0192791,0.0315328,0.0379872,-0.00176274,0.0374307,-0.0369614,-0.0555301,-0.0312266,-0.0129357,-0.0669863,-0.0479728,0.00366168,-0.00500947,-0.00923774,-0.0418251,-0.016207,-0.0385732,-0.0236427,-0.0506926,0.115558,0.0530733,0.0812584,0.0617715,-0.0746952,0.0257116,0.0204104,0.0610207,0.0687834,0.164856,0.110942,0.125431,0.0240042,0.0986811,0.0549952,0.141657,0.0646029,0.041528,-0.0105299,0.086592,0.0774707,0.0496008,-0.0558453,0.0937048,0.0753566,0.0618843,0.027498,0.0321313,0.00362424,0.046244,-0.0082609,0.0305446,0.0190485,0.0370167,0.0603825,0.0138479,-0.00406433,-0.0179986,0.00518114,-0.0452597,0.00150219,-0.0029726,-0.0205645,0.117975,-0.00714982,0.0633644,0.0385481,0.093721,0.0481194,-0.0622269,-0.0194274,-0.0622406,0.0828356,0.00304509,0.0520763,-0.12721,-0.0204787,-0.0221522,0.0304564,-0.0026308,-0.0181905,0.00450377,-0.00564212,-0.00872415,0.223304,0.273416,0.123942,0.274934,0.212441,0.133912,0.105795,0.143592,0.113999,0.120224,0.214792,0.0826114,0.133222,0.0389562,0.0522971,0.0667346,0.11261,0.0992369,0.0586981,0.074677,0.0376316,0.0624662,-0.0401289,-0.0132027,-0.0147064,0.0138549,0.0216649,0.0506299,0.0498537,0.0880938,0.0502804,0.0319682,-0.0622949,-0.0249142,-0.0606315,0.0350097,0.0100467,-0.00845277,0.0053633,-0.0215161,-0.025804,0.00367232,-0.0127412,-0.0331362,0.0749038,0.0334038,0.00687228,-0.00535321,-0.00829602,0.0755154,-0.0450855,0.000630592,0.064648,-0.0117566,0.0229151,-0.00049718,0.0381681,0.00171647,0.00919485,0.0108573,-0.0237244,0.0445328,-0.00129833,0.0255426,0.00638964,-0.0521421,0.0912342,-0.0232007,0.0980656,0.116857,0.0175776,0.0984157,0.140557,0.110562,0.0521142,0.122984,0.0505236,0.0133529,0.0771323,0.111344,0.0464992,0.0435098,0.1126,0.00522969,0.131143,0.0234371,0.125666,0.0325199,0.0472664,0.0717748,0.0758512,0.016693,-0.080689,0.017672,0.02486,0.0373403,0.00533517,0.00349047,-0.0182436,-0.0215866,0.0713571,-0.0705221,0.0620361,0.0136702,-0.0104619,-0.0160145,0.0126732,0.015482,-0.0649848,0.0740396,-0.00624477,-0.0234308,-0.00109851,0.0614697,0.0476196,0.0723242,0.0497714,0.0436919,-0.0525531,0.0322297,0.0337004,-0.0397229,0.00765972,0.0657875,-0.0595136,0.0137436,0.0114341,0.0555889},
        {0.232453,0.027541,0.560093,-0.0366808,0.48682,-0.000407455,0.388535,0.0193804,0.420888,0.328961,0.247019,0.212299,0.108256,0.175149,0.0844353,0.0611115,0.00232481,-0.0133363,0.027603,0.0554308,0.0274576,-0.000503206,0.0496137,0.120287,-0.0362742,-0.0351397,0.0122527,0.105137,-0.00632722,0.00523591,0.0430824,-0.0150368,0.00864574,0.0259114,0.0396464,-0.0246252,-0.0018904,0.0254339,0.052543,-0.0492113,-0.0399818,-0.0118974,-0.0692376,-0.0405143,0.00441096,0.00385492,-0.0162798,-0.0609656,0.028554,0.0120819,0.0233273,0.0650821,-0.015177,0.0622733,0.0664324,-0.0166424,-0.0453503,0.0516776,-0.0254254,0.0521868,-0.0780779,-0.0407378,-0.0203803,-0.0161049,0.0647162,0.0394732,0.0955766,0.00421863,0.0102379,0.122105,-0.0444769,0.0437379,0.0410928,-0.00322735,0.0714861,0.0604325,0.131671,0.0496751,0.0720322,-0.0588379,-0.00166272,-0.00688405,0.00507882,0.0726942,0.113991,0.0148462,0.136591,0.00775922,0.0256921,0.0902325,0.0369169,0.0326263,-0.160064,0.0280851,0.0479397,0.0728234,0.0270752,0.0566364,0.0214017,-0.10408,-0.00174179,-0.0223827,0.0159604,0.0475296,0.0305461,-0.0183646,0.0245453,0.0269348,0.0410012,-0.101727,0.0355813,0.0234239,0.03655,0.120801,0.0599333,-0.00369222,-0.0412603,-0.0354832,0.0188446,0.0375723,-0.0445477,-0.0698752,-0.0697754,0.0637192,0.0490555,-0.0294971,-0.0427575,0.0485674,0.0955619,0.0224498,0.0202045,0.0964788,0.0231706,-0.0204209,-0.00458269,0.0408038,0.519977,0.446805,0.348517,0.280744,0.170147,0.188107,0.224132,0.16997,0.100072,0.142264,0.0758922,0.0472747,0.0254452,0.126662,0.082633,-0.0318602,0.0223629,-0.0235784,0.0549647,0.0901797,-0.0251882,0.202857,0.091233,0.0256461,0.0694012,0.0379301,-0.0539904,0.114153,0.043371,0.0497128,0.00286449,0.0251674,-0.0581392,0.0126569,-0.0383516,0.0773785,0.00979524,0.11723,-0.00141181,0.0381937,-0.00873093,0.00454389,-0.0366645,-0.0387968,0.0143273,-0.0316042,-0.016617,0.0609929,0.0274199,0.0451173,-0.0398841,-0.0629204,-0.0353998,-0.0207184,0.0214832,-0.00918023,0.0170552,0.039643,0.042553,-0.0229325,0.0983987,-0.0127667,-0.0037635,0.081165,-0.00375962,0.058848,0.0370788,-0.0059068,0.0448183,0.0359937,-0.0659372,0.105902,-0.0336135,0.103311,0.0365327,0.0648703,0.0369807,-0.0550241,0.0961559,0.137839,0.105552,-0.0707416,0.0880084,0.129357,0.0814472,0.0290688,0.0838073,0.0142777,0.115692,0.000514652,0.0422588,-0.0545641,0.0675049,0.0348299,0.0257931,-0.0426837,0.0879974,0.021715,-0.010738,0.0636334,0.037916,-0.0152972,-0.079532,-0.078268,0.0188422,-0.0333307,0.0222815,0.0606075,-0.0436447,-0.0362956,-0.00967617,0.00571911,-0.0486813,0.012127,0.000196,0.0415255,0.00465802,-0.0471143,0.00425205,0.0520177,0.00906293,0.0077658,0.0404901,-0.0250962,0.0632502,-0.0214649,-0.0360468,-0.0780466,0.210243,0.223754,0.168692,0.111844,0.185813,0.15104,0.0554106,0.134807,0.09802,0.06922,0.0649571,0.00936055,0.0705587,-0.0430281,0.0919458,0.0205605,0.0855599,0.0644015,0.0740573,0.108103,0.0670246,-0.00981569,-0.00187689,0.00753519,0.0803305,0.0286369,0.00530397,-0.0337176,-0.0913372,-0.034064,0.0259626,0.00764462,0.0735968,0.0905567,0.11495,-0.0293881,-0.0128203,-0.0325444,0.0327318,0.0252693,0.0300376,-0.00164977,-0.016758,-0.0614716,-0.0599951,0.0513928,0.078999,0.0232466,0.0879584,0.0428559,-0.00723105,0.0256186,0.0384935,0.104373,-0.0353533,0.00110573,0.0825175,-0.0126607,0.070931,-0.00524564,0.0275509,-0.031721,-0.0214723,-0.000911689,-0.0249787,0.0778157,0.000283312,0.109445,0.0454644,0.00844281,0.0373272,0.0756285,-0.00164039,0.0798795,0.0274764,0.0398029,0.0798167,0.143304,0.119887,0.0932535,-0.0710027,0.0311494,-0.0327819,0.0141555,0.103786,-0.0573484,0.0399973,-0.0399876,0.0898603,0.0267212,0.0550687,-0.034404,0.00301937,0.0524619,-0.0283282,0.049595,-0.00623744,0.0836865,-0.0174183,0.0261274,0.0514317,-0.00126618,0.0720286,0.029569,-0.0293246,0.00271539,0.0248056,0.111871,0.0297086,0.0425703,-0.00537814,0.0721627,-0.0598978,0.0529095,0.00582338,-0.0581086,0.00289919,0.0141238,-0.00825338,-0.00250476,0.0349096,0.0268607,0.0155702,0.0394659,0.032112,0.0261388,-0.0798715,-0.0401703},
